{"conv1d": {"bias:0": [0.004481770098209381, 0.013820397667586803, -0.005485426634550095, 0.0006153634167276323], "kernel:0": [[[-0.12381144613027573, 0.9750201106071472, 6.829499244689941, -2.164576292037964]], [[-0.34136077761650085, -2.2315616607666016, -7.596929550170898, 2.1492059230804443]], [[0.6626667380332947, -0.08233894407749176, 0.36296552419662476, -0.8420173525810242]], [[-0.5610197186470032, -0.374247282743454, 0.42948880791664124, -0.9048791527748108]], [[-0.20216141641139984, -1.464670181274414, -1.2643249034881592, -1.3830689191818237]], [[0.48537760972976685, -1.150510311126709, 0.5562009811401367, -2.4620320796966553]], [[0.5347466468811035, 3.044107675552368, 0.7905411720275879, 2.1691181659698486]], [[-0.28553226590156555, 3.770312786102295, 0.21160410344600677, 4.1584014892578125]], [[0.8377478122711182, 0.11060356348752975, 0.7540131211280823, -0.5024105906486511]], [[0.9086756110191345, -0.3046606481075287, 0.18347837030887604, -0.1338270753622055]], [[-8.723097801208496, -1.375681757926941, -0.2950001657009125, 1.025328516960144]], [[6.742433547973633, 1.8044019937515259, -0.8648492097854614, -2.4342355728149414]]]}, "conv1d_1": {"bias:0": [-0.03125077113509178, 0.12938560545444489, 0.02800711989402771, -0.05495551973581314], "kernel:0": [[[-0.02792888879776001, 0.20307326316833496, 0.018983840942382812, -0.07401227951049805], [0.09632003307342529, 0.20094990730285645, 0.16620802879333496, 0.1265568733215332], [0.22633898258209229, 0.20551776885986328, 0.06756860017776489, 0.20715749263763428], [0.1449224352836609, 0.13391482830047607, 0.11226069927215576, -0.12950944900512695]], [[-0.7341493368148804, 0.05704841762781143, 0.25921791791915894, -0.17198587954044342], [0.8660534024238586, 0.04507434368133545, 2.523954391479492, -0.777225136756897], [2.485109329223633, -0.4854404926300049, 4.052885055541992, -1.4957011938095093], [-1.310414433479309, 0.23269836604595184, -3.875112771987915, 1.333426833152771]], [[-0.596583366394043, -1.3841055631637573, -0.6747877597808838, 0.9862684011459351], [-0.29449865221977234, 0.4679669737815857, 0.26694974303245544, -0.4659806489944458], [-0.5090901255607605, 0.1016106829047203, -1.6546021699905396, 0.7630849480628967], [-0.8977331519126892, -0.3876659572124481, 0.7444220185279846, -0.14812524616718292]], [[1.4677821397781372, -0.8568815588951111, -0.4564743638038635, -0.6360952258110046], [0.5573340058326721, 0.400927871465683, 2.318788766860962, 4.8598222732543945], [-1.0538785457611084, -0.7181186676025391, 0.5322803258895874, -0.780370831489563], [0.020726392045617104, -0.6858054995536804, -0.3084132671356201, 1.9790054559707642]], [[-0.891230046749115, 0.4521923363208771, 0.06298048794269562, -0.06843481957912445], [-0.049987535923719406, 0.4844491481781006, 1.142220377922058, -0.39184069633483887], [-0.2638610899448395, 0.6067028641700745, -1.5573320388793945, 1.1317857503890991], [0.644754946231842, -0.186868354678154, -0.6553225517272949, 0.08617357164621353]], [[-0.13786271214485168, -1.0607651472091675, 0.38309726119041443, -0.19569234549999237], [-0.7264339923858643, 0.7302860021591187, 0.8800301551818848, -0.3776390254497528], [-0.8111233711242676, 0.1399087905883789, -0.6105836629867554, 0.21704919636249542], [0.25452616810798645, -0.7673044800758362, -0.7842978835105896, 0.33030083775520325]], [[-0.6291823983192444, 0.03293687477707863, -0.12091493606567383, 0.030118444934487343], [-0.09645627439022064, 1.048045039176941, 0.5527481436729431, -0.019808245822787285], [1.422357201576233, 0.0009286249987781048, -0.5020370483398438, 0.5238047242164612], [0.7152179479598999, -1.0820749998092651, -0.17747539281845093, -0.2579248547554016]], [[-1.4025377035140991, -1.113095998764038, 0.917721152305603, -0.5267886519432068], [0.4698471426963806, 1.2550597190856934, 0.5958414077758789, -0.14134518802165985], [-0.857939600944519, 0.41722285747528076, -0.5523958802223206, 0.1556197702884674], [0.5850973725318909, -0.2386334240436554, -0.6718509793281555, 0.33951032161712646]], [[-0.6909143328666687, -0.39376014471054077, -0.12525804340839386, -0.17616704106330872], [0.1003929078578949, 0.6812703013420105, 0.2170286774635315, -0.022761192172765732], [0.0025312937796115875, -1.029691457748413, 0.6265228986740112, -0.5320923328399658], [1.9360533952713013, 0.3901046812534332, -0.6178252100944519, 0.33807286620140076]], [[0.050636108964681625, -0.31483638286590576, 0.4628326892852783, -0.3886672854423523], [-0.09898053109645844, 0.7000991702079773, 0.14932017028331757, 0.09918683022260666], [0.07301482558250427, 0.022132940590381622, -0.36524322628974915, 0.09591410309076309], [-0.5484733581542969, -1.0698156356811523, -0.04665197432041168, -0.14062254130840302]], [[3.6649606227874756, 4.812047481536865, -0.9990665912628174, 1.3629826307296753], [0.7744266986846924, 1.2519100904464722, -0.18180914223194122, 0.26875734329223633], [-0.8131928443908691, 0.8432272672653198, 0.23735515773296356, -0.1666361391544342], [-2.5165367126464844, -1.7298420667648315, 0.4200851619243622, -0.4109068214893341]], [[0.19064730405807495, -0.0854954719543457, -0.12040477991104126, -0.12927323579788208], [0.09878122806549072, 0.14721167087554932, 0.18332183361053467, 0.1995806097984314], [-0.05812430381774902, -0.014731824398040771, 0.058125972747802734, 0.02802497148513794], [-0.05231297016143799, 0.16853266954421997, -0.04061615467071533, 0.08538424968719482]]]}, "dense": {"bias:0": [-0.046215470880270004], "kernel:0": [[0.15540485084056854], [-1.0375761985778809], [2.0276122093200684], [-3.1753110885620117], [1.0017954111099243], [1.1184412240982056], [-0.3580135703086853], [-0.0906277447938919], [0.6038195490837097], [0.25203192234039307], [-0.15318050980567932], [0.5683375597000122], [-2.5853488445281982], [-0.28007209300994873], [-1.3079075813293457], [0.8846433162689209], [-3.1692559719085693], [-2.7454357147216797], [2.0970299243927], [-0.6086709499359131], [-1.093605399131775], [-0.039775263518095016], [0.4879383146762848], [-0.6113668084144592]]}, "lstm": {"lstm_cell": {}, "kernel:0": [[-2.912870407104492, -0.0200513806194067, -10.263840675354004, 10.247207641601562, -0.055157389491796494, -0.09638503938913345, -0.5973536968231201, -2.5866658687591553, 0.078811414539814, -2.0548460483551025, 0.2067231684923172, -0.42600834369659424, -0.05959993973374367, 1.40809166431427, -4.041121006011963, -0.6036691665649414, -5.235588073730469, 2.6572372913360596, 0.866443395614624, 0.1265900880098343, 8.485044479370117, 0.6279109716415405, 1.7868837118148804, -2.3821358680725098, -0.04341800510883331, -0.1050710529088974, 0.2159987837076187, 0.11947537958621979, -0.13563968241214752, -0.2315773218870163, 0.1045457273721695, 0.16128690540790558, -0.06967954337596893, -0.17781543731689453, 0.019653305411338806, -0.0831468403339386, 0.11513783037662506, 0.11033724248409271, 0.09327574074268341, 0.2331511527299881, -0.07592575252056122, -0.08407540619373322, 0.04677163064479828, 0.04136861860752106, 0.1349964588880539, -0.178342804312706, -0.23663468658924103, 0.020696327090263367, 6.824456691741943, 0.665069043636322, 1.3058998584747314, -12.630096435546875, 0.10479950159788132, -0.5067129135131836, 5.388967514038086, -3.276303768157959, -1.219580054283142, -5.43117094039917, 0.4233487546443939, 1.1337203979492188, 1.336267352104187, 5.925183296203613, -1.2393300533294678, -1.5828161239624023, 1.8970057964324951, -1.9767972230911255, 2.75614070892334, -0.004338824190199375, 22.308029174804688, 3.1228935718536377, -0.33291974663734436, 9.8114013671875, 0.22504626214504242, 0.3832249045372009, 0.5740687847137451, -6.289074897766113, 0.01541883684694767, 0.4189348816871643, 10.663130760192871, 2.4945383071899414, -0.3278566896915436, 0.035868532955646515, 4.252253532409668, -6.341831684112549, -2.5269148349761963, -2.760000228881836, -0.018214751034975052, 0.20278316736221313, 0.8552245497703552, -6.1855854988098145, -0.3095528483390808, 0.006111621856689453, -15.262385368347168, -21.31806755065918, 0.4716663062572479, 7.772165298461914], [4.747035980224609, -0.0952671617269516, 6.860739231109619, -2.4442007541656494, 0.04449374973773956, -0.3961116075515747, -0.92823326587677, -3.546581983566284, 1.189773440361023, 2.0183823108673096, -0.6409144997596741, -0.19106335937976837, 0.3637198209762573, 0.1264902502298355, 5.169614791870117, 12.892192840576172, -5.31166934967041, 2.0240116119384766, -4.023680686950684, -0.006710887886583805, -1.8961735963821411, -5.41671895980835, -4.085367679595947, 1.3461376428604126, -0.1283542960882187, -0.10075147449970245, -0.03565068542957306, 0.07416240870952606, -0.07034875452518463, -0.12104834616184235, -0.007438108325004578, 0.22746704518795013, 0.1269068866968155, -0.1545163244009018, 0.032471075654029846, 0.2334938496351242, -0.07717815041542053, 0.20800749957561493, 0.13392312824726105, 0.19743354618549347, 0.15439413487911224, -0.19511032104492188, -0.13468506932258606, 0.05999453365802765, -0.10941657423973083, -0.10738463699817657, 0.06288169324398041, -0.13368093967437744, -4.94001579284668, -0.4171883463859558, 5.150929927825928, 3.314453125, -0.10146835446357727, 1.1774463653564453, -12.014238357543945, 2.135044574737549, -16.553524017333984, -3.711895227432251, 5.762353420257568, -0.3195587694644928, 4.857559680938721, -1.9188731908798218, -2.093698024749756, 0.45173129439353943, -3.329103469848633, 1.563790202140808, -0.7638331651687622, -0.21740928292274475, -5.001404285430908, 3.66371750831604, 0.8860754370689392, -5.142131805419922, -2.7449309825897217, 3.9190988540649414, -0.6707233786582947, 1.0348544120788574, -0.1154232770204544, 6.512890338897705, 13.316534996032715, -0.40779736638069153, -2.015681028366089, -0.11255090683698654, -1.9990090131759644, 8.377650260925293, -1.7894715070724487, -5.095569610595703, 0.1360243558883667, 0.19302916526794434, 0.5157754421234131, -7.028726100921631, 0.19691015779972076, -0.0382164791226387, 4.211832523345947, -4.543518543243408, -0.5841688513755798, -7.933596611022949], [-7.461626052856445, -0.21673448383808136, -1.9198142290115356, 1.7350854873657227, -0.1608019471168518, 0.12179367244243622, 1.3580944538116455, -8.715058326721191, -6.725533485412598, 2.0233066082000732, -1.45244562625885, -0.6888724565505981, 0.3121209144592285, 0.9891480207443237, 3.38840389251709, 13.2852201461792, 0.7372097969055176, -0.866499662399292, -1.468294620513916, 1.094573736190796, 0.5662978291511536, -2.8247737884521484, 5.069263935089111, -0.6803321838378906, -0.04613232612609863, -0.0633825808763504, 0.017939135432243347, 0.05015699565410614, -0.11782762408256531, -0.03791533410549164, -0.053220152854919434, -0.09563203155994415, 0.05608294904232025, -0.08592431247234344, 0.0601644366979599, -0.08309720456600189, -0.08474655449390411, -0.12679681181907654, 0.0704682320356369, 0.20223264396190643, -0.20696231722831726, 0.2340182214975357, -0.13139712810516357, 0.060096219182014465, -0.11786429584026337, 0.20075173676013947, 0.2066240757703781, 0.1501428335905075, 4.18518590927124, 1.3351951837539673, 1.8948403596878052, -0.613681435585022, 0.7032529711723328, 1.5886064767837524, 6.96692419052124, -2.18339467048645, 29.58542823791504, 2.363987445831299, 0.4865158498287201, 0.24884334206581116, 2.694309949874878, 5.651883125305176, -0.4127335250377655, 0.7797451615333557, -2.841526746749878, 1.93893563747406, 4.381696701049805, -1.2276431322097778, 5.753918170928955, -2.645066738128662, 1.5254606008529663, -0.574095606803894, 1.351792573928833, -4.6644086837768555, -0.6132402420043945, -1.7097984552383423, -0.629436194896698, 0.6681596636772156, -1.9628187417984009, 2.870095729827881, 3.7686381340026855, 0.2992061674594879, -4.006125450134277, -0.4063163697719574, -0.357968807220459, -2.2044434547424316, 0.13871879875659943, -0.2088351845741272, -0.6475469470024109, 0.9965022206306458, -0.10583579540252686, 0.3047896921634674, -1.624861478805542, 3.377145767211914, -0.15989938378334045, 0.4134080410003662], [1.7489367723464966, 0.06436076760292053, -18.896583557128906, 12.756893157958984, -0.2712731659412384, 0.07120635360479355, -0.24004757404327393, 1.611148715019226, 7.195693016052246, -0.6000005602836609, -0.018750477582216263, 0.6119388937950134, 0.02060970664024353, -0.6362980008125305, -1.0653709173202515, -3.034454107284546, -1.2851253747940063, 0.7191156148910522, -0.44348078966140747, 1.8064666986465454, 9.949100494384766, 0.34823858737945557, 9.023451805114746, -1.592515230178833, 0.21991629898548126, -0.010330334305763245, 0.00681169331073761, -0.21880176663398743, -0.12536868453025818, -0.015577197074890137, 0.17229007184505463, -0.056197986006736755, 0.2097022980451584, 0.07393120229244232, -0.0015696883201599121, 0.06417916715145111, -0.022454604506492615, -0.24124906957149506, -0.11074844002723694, -0.20357730984687805, 0.11680422723293304, -0.15183347463607788, 0.04367281496524811, 0.07906822860240936, -0.18215395510196686, -0.06216949224472046, -0.03789174556732178, 0.1756618767976761, -10.002686500549316, 0.5023882985115051, 0.9125176072120667, 2.1436479091644287, 1.3313974142074585, 1.0876904726028442, 2.2342286109924316, 1.7114523649215698, 43.75721740722656, 0.9563218951225281, 1.0836132764816284, -0.40214675664901733, -0.09424952417612076, -4.411465644836426, 0.07827524840831757, 0.7173069715499878, 1.734863519668579, -3.030545711517334, 2.508047103881836, -1.6235109567642212, -2.6940290927886963, 1.2981066703796387, 6.886843681335449, -4.163547992706299, -0.31445494294166565, 1.609502911567688, 1.0384447574615479, -8.3548002243042, -1.0689680576324463, -0.747836172580719, -1.215544581413269, -0.3910292387008667, -4.504439353942871, 0.5731578469276428, 6.058210372924805, -11.851426124572754, -0.40846502780914307, 2.6571576595306396, 0.12744520604610443, 0.1547626107931137, 0.38443902134895325, -1.5590118169784546, 0.05788160115480423, 0.5901331901550293, -18.799165725708008, 7.616211414337158, 0.6787702441215515, 7.116174221038818]], "bias:0": [5.614165782928467, -3.7409327030181885, 0.1304398775100708, -1.371506929397583, -2.0535011291503906, -4.15078067779541, -8.610824584960938, -6.030221939086914, 4.000190734863281, -0.738281786441803, -5.148168563842773, -4.6559882164001465, -3.9682812690734863, -2.7711598873138428, -3.2360808849334717, -8.364431381225586, -2.3878676891326904, -3.7028446197509766, -2.438282012939453, -0.8750976324081421, -6.242432594299316, -2.3924691677093506, 2.4196925163269043, -5.445540428161621, 1.0, 1.0, 1.0, 1.0, 1.0, 1.0, 1.0, 1.0, 1.0, 1.0, 1.0, 1.0, 1.0, 1.0, 1.0, 1.0, 1.0, 1.0, 1.0, 1.0, 1.0, 1.0, 1.0, 1.0, 1.1897631883621216, -0.24383576214313507, -2.811476469039917, -0.502893328666687, 0.6458428502082825, -3.076301336288452, 4.896589279174805, -0.5734152793884277, -2.743657350540161, 2.023456573486328, 4.238206386566162, 4.671844005584717, -4.532535076141357, -0.9235020279884338, 1.099795937538147, -0.1934783011674881, -0.30861032009124756, 2.695777416229248, 2.2088851928710938, -0.8963898420333862, 0.20451579988002777, 0.09706739336252213, 3.404123544692993, 1.118227243423462, -5.613951683044434, -7.600325107574463, -5.687944412231445, -5.055176734924316, -1.385072946548462, -3.6161515712738037, 3.0400197505950928, 0.731291651725769, -7.6246867179870605, -4.2213521003723145, -10.375045776367188, -0.7797626256942749, -5.917770862579346, -3.4963226318359375, -4.617687225341797, -4.982732772827148, -4.464792251586914, -3.152329921722412, -4.222741603851318, -1.370361328125, 0.9017542004585266, 1.1412700414657593, -4.807335376739502, 3.4179506301879883]}, "input_size": 120, "conv1d_stride": 12, "conv1d_1_stride": 12}