{"conv1d": {"bias:0": [0.02202059142291546, 0.011422177776694298, -0.0056608677841722965, 0.0021778689697384834], "kernel:0": [[[2.245464324951172, 4.733090400695801, -2.5951902866363525, -6.537875175476074]], [[-2.1716256141662598, -8.163087844848633, 4.964837074279785, 4.772737503051758]], [[0.34260520339012146, 3.0473902225494385, -2.8003175258636475, -0.5572460293769836]], [[0.7396314144134521, -0.9047555327415466, 0.25175416469573975, -1.3125338554382324]], [[0.14910605549812317, -0.1284957230091095, 0.4947851598262787, 0.5961518287658691]], [[-0.13019587099552155, 1.3044853210449219, -1.0384833812713623, 2.6773874759674072]], [[0.20533953607082367, 0.8855047225952148, -0.4522607922554016, 3.186143636703491]], [[-0.11524506658315659, -0.5130792856216431, 0.2679164707660675, 1.0100733041763306]], [[0.7847480177879333, -0.20675988495349884, -0.6266859769821167, -0.49618348479270935]], [[0.46576371788978577, 0.3362204432487488, 0.6394234895706177, -1.2136352062225342]], [[-0.4001607596874237, 0.9571146965026855, 4.766009330749512, -2.216844081878662]], [[1.3786845207214355, -1.3590396642684937, -3.9671366214752197, 0.15999722480773926]]]}, "conv1d_1": {"bias:0": [0.0471847839653492, 0.031878598034381866, -0.023373546078801155, -0.03745109587907791], "kernel:0": [[[0.033503592014312744, 0.24835044145584106, -0.0798216462135315, 0.01781362295150757], [-0.22584152221679688, -0.2289692759513855, -0.24858403205871582, -0.04862147569656372], [-0.16323578357696533, -0.12905514240264893, -0.1184116005897522, 0.09883373975753784], [-0.004943728446960449, 0.15076756477355957, 0.04020875692367554, 0.07803434133529663]], [[-3.2470154762268066, 1.4831463098526, 1.322619080543518, -2.9551403522491455], [-5.390933036804199, -3.7982614040374756, 2.7681591510772705, -5.4407477378845215], [3.0864641666412354, 2.5490245819091797, -1.2030363082885742, 1.9015527963638306], [1.5475682020187378, 1.967740774154663, -0.6707515120506287, 1.8832969665527344]], [[0.5019771456718445, -1.6318119764328003, 4.656825542449951, 4.459807395935059], [0.8684477806091309, 1.368613839149475, -0.8492087125778198, 3.341442108154297], [-1.6350951194763184, -3.3530845642089844, 1.976089596748352, -0.3846428096294403], [-0.9593177437782288, 0.043358948081731796, 1.1766562461853027, -0.10249541699886322]], [[-1.460746169090271, -2.130638360977173, -6.5271382331848145, -0.8968967795372009], [1.9324873685836792, 2.697094678878784, -2.114051342010498, 0.5855907797813416], [0.19675400853157043, 0.6584547162055969, -1.7352591753005981, 0.2712286710739136], [-0.8786070942878723, -0.9751272797584534, -3.627044200897217, -0.8900429606437683]], [[-0.7369846701622009, 2.1759443283081055, -0.48959848284721375, 1.5998399257659912], [-0.13894958794116974, -2.0417587757110596, 0.2991625964641571, -0.5008233785629272], [-1.024332880973816, -0.8920616507530212, 0.2796074151992798, -0.4914855659008026], [-0.10174274444580078, 0.31048259139060974, -0.04688404127955437, 0.23815688490867615]], [[-1.3523728847503662, -0.02339983358979225, -0.07100343704223633, 0.47729408740997314], [1.3499013185501099, 2.221358060836792, -0.3645181357860565, 1.2399078607559204], [-0.1425609588623047, 1.9495819807052612, -0.13917958736419678, 1.1759450435638428], [-0.2733767628669739, 0.5346162915229797, -0.06348669528961182, 0.4457894563674927]], [[-0.9693097472190857, -0.21957744657993317, -0.30941593647003174, 0.20215700566768646], [-0.7716041207313538, -0.05443219467997551, 0.2971261441707611, -0.12673792243003845], [-0.7366914749145508, -1.187292218208313, 0.40949544310569763, -0.7471286058425903], [-0.12340176105499268, -0.8325433731079102, 0.13780847191810608, -0.36617231369018555]], [[-0.6108072400093079, -1.9518488645553589, 0.18649490177631378, -0.5631205439567566], [0.594636857509613, 0.6398857235908508, -0.06173652783036232, 0.4072684049606323], [0.159196674823761, 1.4332903623580933, -0.1782773733139038, 0.25933486223220825], [-0.21313373744487762, 0.5577074885368347, -0.0873313620686531, 0.19876116514205933]], [[-0.8454727530479431, 3.228071689605713, -0.6940484642982483, 2.2703769207000732], [0.4351290464401245, -0.48892804980278015, -0.05938297137618065, 0.46769341826438904], [0.48409387469291687, -0.3221946358680725, 0.12305807322263718, -0.05852910876274109], [-0.055228762328624725, -0.005619351752102375, 0.043724291026592255, -0.1312074214220047]], [[0.01625859923660755, -3.1859312057495117, 0.4654889404773712, -1.6053292751312256], [0.42723527550697327, 0.12615346908569336, 0.010853617452085018, -0.11450338363647461], [-0.8144646883010864, 1.3592802286148071, -0.34363457560539246, 0.16177108883857727], [-0.21322503685951233, 0.5767348408699036, -0.1250709891319275, 0.3422797918319702]], [[-0.7697909474372864, 0.7293404936790466, -0.27569979429244995, 0.7997496724128723], [0.5350477695465088, -0.4957255721092224, 0.07272128760814667, 0.020008509978652], [0.46718114614486694, -2.2173306941986084, 0.8234539031982422, -2.193300485610962], [-0.009922536090016365, -0.556221067905426, 0.06317677348852158, -0.36596763134002686]], [[-0.07159918546676636, 0.16832232475280762, 0.1050490140914917, 0.0024172067642211914], [-0.12323248386383057, 0.09733027219772339, -0.2089020013809204, -0.018012285232543945], [0.005443572998046875, -0.17172002792358398, -0.17965811491012573, -0.09877598285675049], [0.021655917167663574, 0.1471073031425476, 0.03398442268371582, 0.03679096698760986]]]}, "dense": {"bias:0": [0.03866153582930565], "kernel:0": [[-2.8007657527923584], [1.9981964826583862], [0.43542855978012085], [0.3154516816139221], [1.1922199726104736], [-1.9646512269973755], [-1.7217823266983032], [-0.2622167766094208], [-0.42253684997558594], [1.8824111223220825], [0.488254576921463], [0.04830917343497276], [-1.8617600202560425], [-2.416506767272949], [0.3609841763973236], [-1.7006431818008423], [-2.278353452682495], [-0.04381931573152542], [-0.1834433227777481], [-1.7151830196380615], [-1.5204435586929321], [0.2845577001571655], [0.05819309875369072], [-0.050028108060359955]]}, "lstm": {"lstm_cell": {}, "kernel:0": [[-0.43450993299484253, 1.4136568307876587, -0.3609723746776581, -0.15964677929878235, -15.978982925415039, -2.855083465576172, -1.5330253839492798, -0.3583824634552002, -0.18648095428943634, 0.313229501247406, 0.311690092086792, 5.756627082824707, -0.24977163970470428, -0.040317658334970474, -0.55931556224823, -0.06976450234651566, 2.418555974960327, -7.012885570526123, 0.6245177388191223, -0.00809515081346035, 0.8563516736030579, 6.480108737945557, 6.365576267242432, 7.031696796417236, -0.06385369598865509, -0.03683352470397949, -0.031910210847854614, -0.17408546805381775, 0.024281874299049377, 0.074201300740242, 0.21271838247776031, 0.21036310493946075, 0.0657954066991806, -0.0973777323961258, -0.132590189576149, 0.0010459572076797485, 0.028521522879600525, -0.05398210883140564, 0.19618411362171173, 0.09142686426639557, 0.19448502361774445, -0.21982493996620178, -0.1578930914402008, 0.02486671507358551, -0.13107231259346008, -0.08874072134494781, -0.01179097592830658, 0.22491435706615448, 0.7833536863327026, -5.88197135925293, -5.085005283355713, -2.9043960571289062, -2.816030502319336, -13.021025657653809, -1.5482622385025024, 5.9438629150390625, -0.39941170811653137, 0.812319278717041, 0.7415542006492615, 2.151998281478882, -3.7128214836120605, -5.1199774742126465, -0.6349000930786133, 0.12968839704990387, -4.416145324707031, 0.5560013055801392, 0.44281846284866333, -5.619394302368164, 6.5734758377075195, -2.1714284420013428, -1.3371022939682007, 4.0386810302734375, 4.834914207458496, -0.6048284769058228, 2.512467861175537, -2.554769515991211, 0.6043949723243713, 3.015437126159668, 1.2134654521942139, 12.694330215454102, -0.20512239634990692, 0.6154263615608215, 0.062034036964178085, 5.05765438079834, -0.36767086386680603, -0.595592200756073, -0.4336196482181549, -2.4067139625549316, -0.7779914736747742, 4.417357444763184, 0.5982889533042908, 2.274157762527466, -1.6373578310012817, 0.6198974251747131, -2.2101640701293945, -2.714033842086792], [0.9839674830436707, 3.029907464981079, 0.11944922059774399, -0.021688472479581833, -1.406145691871643, 6.64415979385376, 5.259589672088623, 0.012844415381550789, 0.12952157855033875, -19.441194534301758, -0.5771782994270325, 0.8167011737823486, 10.544073104858398, -4.128334045410156, -0.26162949204444885, 0.21020172536373138, -18.197986602783203, -8.700448036193848, -0.6152621507644653, 0.44887775182724, 0.6458459496498108, 0.8453137278556824, 0.1503133475780487, -9.684515953063965, 0.030851587653160095, 0.025191470980644226, -0.13128657639026642, 0.01110832393169403, -0.08962807059288025, -0.08266597986221313, -0.062033236026763916, -0.24266189336776733, 0.028153613209724426, 0.11426450312137604, 0.07887391746044159, -0.18695230782032013, -0.15916019678115845, 0.12066243588924408, 0.2242567092180252, -0.05538061261177063, 0.17448364198207855, 0.14291320741176605, -0.14635410904884338, -0.062104374170303345, 0.07224704325199127, 0.0798354297876358, -0.20540834963321686, 0.16584376990795135, -9.15870475769043, -1.0320185422897339, -0.1070752888917923, -0.37280288338661194, 0.3527278006076813, -0.05360686406493187, 2.837657928466797, 1.5067294836044312, 0.16123855113983154, -5.403666019439697, -0.8841291666030884, -10.540886878967285, 0.5760982632637024, -0.5715035200119019, 0.447715699672699, 0.2674162685871124, -5.175840377807617, -0.9210725426673889, -0.767456591129303, -2.401599407196045, 2.5122928619384766, -1.5133614540100098, -0.17716974020004272, -7.0792622566223145, -3.4343414306640625, -1.6778122186660767, 4.130366802215576, -0.09544464200735092, -0.08349013328552246, -6.67614221572876, -2.991344928741455, 2.2496025562286377, 0.6905507445335388, 10.383038520812988, -0.04995131120085716, -6.15268611907959, 0.1478409618139267, 2.7625763416290283, 0.8567677736282349, -1.4186785221099854, 9.779229164123535, -1.4832855463027954, 0.949036180973053, -10.515286445617676, -3.933116912841797, -0.23746857047080994, -1.9000259637832642, 1.4797011613845825], [-0.4914815127849579, -0.030185183510184288, -0.08633312582969666, 0.16976968944072723, -0.735000491142273, -2.5966382026672363, -0.19071954488754272, 0.16676224768161774, 1.1750774383544922, -3.2965104579925537, -1.9226323366165161, 0.2511427402496338, -2.2052245140075684, 0.08572618663311005, -0.6837920546531677, 0.002527594566345215, -3.0569872856140137, -7.330470561981201, -0.09365588426589966, -0.1036204844713211, -0.09765718877315521, -6.030529022216797, 0.7607996463775635, 2.0524179935455322, -0.2298114150762558, 0.00581340491771698, 0.15421228110790253, -0.000909760594367981, 0.12299500405788422, -0.12304989993572235, 0.2174178510904312, -0.07699103653430939, 0.22927512228488922, -0.009845256805419922, -0.07942014932632446, -0.22181056439876556, -0.13616277277469635, 0.23990876972675323, 0.10534687340259552, 0.1112244576215744, 0.19963856041431427, -0.0809139609336853, -0.007879436016082764, -0.24329285323619843, 0.18938244879245758, 0.17469744384288788, -0.17767931520938873, 0.14154262840747833, 0.41023701429367065, 0.5914463996887207, -0.6932591795921326, 0.12173082679510117, -0.07290082424879074, 1.4424227476119995, -0.9074904322624207, 1.7169876098632812, 2.8959619998931885, -0.27230536937713623, -2.6647050380706787, -2.4293391704559326, -0.43073076009750366, 0.29879385232925415, -0.4528122842311859, 0.6339413523674011, -0.40761592984199524, -0.02783394418656826, 0.3716336786746979, -0.9413203597068787, 1.3416602611541748, -1.9252430200576782, -0.2133939117193222, 8.690387725830078, 2.1751012802124023, 0.0010425398359075189, 5.503241062164307, 3.3323471546173096, 0.003469776827841997, 2.609074115753174, 0.2546079456806183, -1.002986192703247, 1.706328272819519, 1.7120211124420166, -0.2919043302536011, 2.390580177307129, 0.030411183834075928, -0.10894482582807541, 0.10302658379077911, 0.8289650678634644, 1.5862624645233154, 1.8977413177490234, 0.8781999945640564, 3.233103036880493, 1.1832590103149414, -0.23315803706645966, 1.341671347618103, 0.048701196908950806], [0.3514908254146576, -5.230639934539795, -0.039535779505968094, 0.05300494655966759, 9.24866008758545, 0.7925159335136414, 3.980699062347412, 0.2117197960615158, -0.21963556110858917, 1.9817309379577637, 0.6430861353874207, -3.798104763031006, 3.314342498779297, -2.9876468181610107, 0.0579354390501976, 0.18438328802585602, 1.7772260904312134, -4.12612771987915, 1.0625730752944946, -0.11314328014850616, 0.8118377923965454, 8.17561149597168, -2.7183475494384766, -9.818889617919922, -0.2397075891494751, 0.0971958190202713, -0.09813588857650757, -0.07723012566566467, 0.13499359786510468, 0.07366098463535309, 0.23928658664226532, -0.060716137290000916, 0.2299053817987442, -0.14544352889060974, -0.03222095966339111, -0.2436230480670929, 0.1916511505842209, 0.13364876806735992, 0.1252216249704361, -0.2078336477279663, 0.026916727423667908, -0.10003168880939484, -0.12215795367956161, -0.12549740076065063, -0.11393699049949646, 0.07955072820186615, 0.18594099581241608, -0.008338004350662231, -4.528496265411377, -2.073607921600342, 5.0350542068481445, -1.6515196561813354, 0.22157226502895355, 0.13920629024505615, -0.9853767156600952, -5.268152713775635, -0.2694600820541382, -13.873902320861816, 0.8970670700073242, -11.35905933380127, 2.4956116676330566, 3.3383538722991943, -0.8397344350814819, -0.44414663314819336, -12.20334529876709, 1.3553115129470825, 1.0245647430419922, 6.384403228759766, -2.7593584060668945, -1.8054955005645752, -0.3612908720970154, 5.864328861236572, -3.436661720275879, 2.628049612045288, -3.1545417308807373, 1.8572572469711304, -0.1298704296350479, -0.847628653049469, -2.760085344314575, -1.1743361949920654, -0.722978413105011, -1.0474756956100464, 0.12297262996435165, 5.608588218688965, -0.16955527663230896, 2.0346429347991943, -1.118862509727478, -0.48835647106170654, -0.9339973330497742, -5.208953380584717, -0.5664819478988647, -2.9630377292633057, -6.345557689666748, -0.039397381246089935, -0.038678232580423355, 0.7824097871780396]], "bias:0": [-3.823963165283203, -4.595414161682129, -3.7662200927734375, -3.4240012168884277, -2.057359457015991, -0.1428595632314682, 0.017137819901108742, -2.885101795196533, -0.5002415180206299, -0.9241331815719604, -2.370626449584961, -3.3706531524658203, 0.036902498453855515, -0.9115018248558044, -0.7773181200027466, -3.8786842823028564, -0.5661933422088623, 3.9334754943847656, -0.8311405777931213, -4.990102767944336, -3.8184621334075928, -0.9943019151687622, 4.612233638763428, -1.7990299463272095, 1.0, 1.0, 1.0, 1.0, 1.0, 1.0, 1.0, 1.0, 1.0, 1.0, 1.0, 1.0, 1.0, 1.0, 1.0, 1.0, 1.0, 1.0, 1.0, 1.0, 1.0, 1.0, 1.0, 1.0, -0.3681977093219757, 5.281046390533447, 5.553823471069336, -7.161264419555664, -0.5809087157249451, 2.1788415908813477, -0.14375069737434387, -11.40624713897705, 4.042087078094482, 0.7475298047065735, 0.28884008526802063, -0.05426380783319473, -5.814290523529053, -1.6780827045440674, -0.37199053168296814, 2.479050397872925, -0.20350393652915955, -0.8453025221824646, -0.0748307853937149, -2.907630681991577, -5.499173164367676, 4.960747241973877, -0.19155120849609375, -2.304945707321167, -4.378269195556641, -1.9627618789672852, 1.824316382408142, 0.5193394422531128, -3.9571399688720703, -5.84824275970459, -4.0765533447265625, -4.805920124053955, -0.4581266939640045, -3.7212467193603516, -0.1593935489654541, -0.2603646218776703, -4.889051914215088, -4.488717555999756, -0.6813697218894958, -3.2270309925079346, -4.0952229499816895, -5.3930277824401855, 0.729854166507721, -6.252530097961426, -4.780559539794922, -3.453578472137451, 1.5091629028320312, -2.9108567237854004]}, "input_size": 120, "conv1d_stride": 12, "conv1d_1_stride": 12}