{"conv1d": {"bias:0": [0.0016280870186164975, -0.011703627184033394, -0.008794681169092655, -0.008035212755203247], "kernel:0": [[[4.719947814941406, 4.869202136993408, -6.357635021209717, 4.207365989685059]], [[-4.078283786773682, -10.640684127807617, 5.3678669929504395, -2.7394280433654785]], [[2.241781234741211, 4.510193824768066, 0.5562077164649963, -3.4871268272399902]], [[-2.1327924728393555, 1.3611451387405396, 1.478559970855713, -1.3307301998138428]], [[-0.9309406876564026, 1.0141470432281494, 0.5074037313461304, -1.7871999740600586]], [[-0.3180943429470062, 0.5938076972961426, -0.07259369641542435, -0.6714279055595398]], [[-0.37117934226989746, -0.6578525304794312, -0.8444247245788574, 0.49966901540756226]], [[-0.24506635963916779, -1.3147099018096924, -1.1606706380844116, 1.580261468887329]], [[0.9108831286430359, -1.2863112688064575, -1.8432655334472656, 1.4089319705963135]], [[1.3649739027023315, -0.10142652690410614, -1.5638744831085205, 1.1858552694320679]], [[-4.166090488433838, 1.2216116189956665, 0.4421454668045044, 0.06017419323325157]], [[3.4402947425842285, 0.5925066471099854, 0.9367378354072571, -1.4184777736663818]]]}, "conv1d_1": {"bias:0": [0.04294611141085625, -0.1452752947807312, -0.09465392678976059, 0.17117521166801453], "kernel:0": [[[0.2084330916404724, 0.095447838306427, -0.2052474021911621, 0.2356870174407959], [0.24588316679000854, -0.050223469734191895, -0.20018911361694336, 0.16062825918197632], [-0.0634344220161438, 0.03305751085281372, -0.13364273309707642, -0.07266557216644287], [-0.2019677758216858, 0.00874239206314087, 0.07602447271347046, 0.14239990711212158]], [[-2.301103353500366, -1.3784875869750977, 0.06745082139968872, -0.8626800179481506], [-7.667118072509766, -4.429811000823975, 4.857920169830322, -4.005279541015625], [6.2266845703125, 4.951557159423828, -5.054826259613037, 4.082335472106934], [1.549462080001831, 1.8602826595306396, -1.8341736793518066, 1.460069179534912]], [[2.722034454345703, 0.9243529438972473, 2.2543606758117676, 2.1453700065612793], [2.610323905944824, 2.643186569213867, -1.4841269254684448, 2.565910816192627], [-6.9677252769470215, -0.8385021090507507, 4.447482109069824, 4.052087783813477], [-5.496482849121094, 0.4282301664352417, 0.45935747027397156, 3.5709683895111084]], [[-2.261981725692749, 1.5822868347167969, -4.58478307723999, -1.9303888082504272], [2.252575635910034, 0.6034122109413147, 0.6084883213043213, -0.4334924519062042], [1.9773647785186768, 0.7333269119262695, 3.0580685138702393, -7.6123366355896], [3.498307228088379, 0.41458064317703247, 4.077991008758545, -8.39607048034668]], [[0.9009254574775696, -0.8153045177459717, 2.0761783123016357, 0.2911180853843689], [-0.18808701634407043, -0.32321834564208984, -1.4106812477111816, 0.14961865544319153], [-1.2208218574523926, 1.4487295150756836, -1.2558410167694092, -0.405001163482666], [-0.8423370718955994, 1.1007081270217896, -1.6085995435714722, -0.19215388596057892]], [[-1.0751073360443115, 0.472699373960495, -0.8278301358222961, -0.44711586833000183], [0.4120813012123108, 0.4722805917263031, -0.1610749512910843, 0.3362952172756195], [-1.0564701557159424, 0.2604251503944397, -0.4577443599700928, -0.44670572876930237], [-0.4534405767917633, -0.12225271761417389, -0.12222679704427719, -0.09859426319599152]], [[0.8031268119812012, 0.15037837624549866, 0.1664927899837494, 0.41811850666999817], [1.1304324865341187, 0.3916648030281067, 0.2504485845565796, 0.6981897950172424], [0.04639589414000511, 0.5311588644981384, 0.40351980924606323, -0.03950396925210953], [0.1157110407948494, 0.18333834409713745, 0.029048701748251915, 0.016342684626579285]], [[0.9623661637306213, -0.6435892581939697, 0.8683439493179321, 0.4523507356643677], [-0.6357606053352356, -0.20818115770816803, -1.7126637697219849, -0.19713175296783447], [1.4058191776275635, 0.3500208258628845, 0.8884189128875732, 0.47031137347221375], [0.8100007772445679, 0.6226191520690918, 0.4557049572467804, 0.31316056847572327]], [[0.5780075192451477, -0.4778608977794647, 0.26587042212486267, 0.11271405220031738], [2.175640344619751, 0.21006818115711212, 0.32624462246894836, 0.7924996018409729], [-0.0675545409321785, 0.27548786997795105, -0.18581074476242065, -0.037429582327604294], [0.16811765730381012, 0.07825703173875809, 0.12670327723026276, -0.019193299114704132]], [[-0.12567558884620667, 0.2829187512397766, -0.5803202390670776, 0.068160779774189], [1.1596707105636597, 0.3887026309967041, -0.3341401219367981, 0.6303304433822632], [-0.625216543674469, -0.4236891567707062, -0.041895490139722824, -0.20408999919891357], [-0.013536541722714901, -0.18418101966381073, 0.01872098259627819, 0.01686355471611023]], [[-0.22658251225948334, -0.10444168001413345, 0.3767043650150299, -0.21055154502391815], [-1.087468147277832, 0.15909183025360107, -1.0195963382720947, -0.43002018332481384], [0.4463635981082916, 0.7504182457923889, 0.18145886063575745, 0.16418378055095673], [0.02381998859345913, 0.2941005229949951, -0.30463165044784546, 0.03865514323115349]], [[-0.11955142021179199, 0.09178638458251953, 0.0758199691772461, -0.19294977188110352], [-0.11155015230178833, 0.026772618293762207, -0.0930941104888916, -0.040012240409851074], [0.01115882396697998, -0.06559175252914429, 0.1292058229446411, -0.11729145050048828], [0.18375056982040405, -0.1310170292854309, -0.2076093554496765, -0.022434711456298828]]]}, "dense": {"bias:0": [0.16617467999458313], "kernel:0": [[-0.047261957079172134], [0.08492999523878098], [-0.15350668132305145], [-0.02790849469602108], [0.05115053802728653], [0.1401686668395996], [0.7919881343841553], [0.25645989179611206], [1.0477545261383057], [-2.0149683952331543], [-0.13471382856369019], [-0.3518749177455902], [-1.0395004749298096], [-0.1195908710360527], [0.11742881685495377], [0.4942008852958679], [-0.5084868669509888], [-0.18788667023181915], [1.8146729469299316], [-0.05088232830166817], [0.023040756583213806], [-0.3290283977985382], [0.02907177060842514], [-0.6393334865570068]]}, "lstm": {"lstm_cell": {}, "kernel:0": [[-4.387094497680664, -1.4843438863754272, -0.9785817861557007, -10.01521110534668, 1.1544148921966553, -3.2540550231933594, -0.4768778383731842, 0.4013074040412903, 0.06804164499044418, 0.48950260877609253, 0.6007455587387085, -0.7872508764266968, -1.3758149147033691, -1.9658288955688477, -2.9362287521362305, 0.39571502804756165, 0.1646314561367035, 0.37577497959136963, 3.3048057556152344, 4.00262975692749, 16.402774810791016, 0.4381827414035797, 2.0778605937957764, -34.51799392700195, 0.18095965683460236, 0.021858438849449158, -0.05782163143157959, -0.1904531717300415, 0.17407618463039398, -0.15402716398239136, 0.16474677622318268, -0.0999189168214798, 0.04623977839946747, 0.2238035947084427, -0.1927924007177353, 0.19077806174755096, 0.15536867082118988, -0.22399607300758362, 0.12439806759357452, -0.21490319073200226, 0.17611126601696014, -0.183569997549057, -0.01672358810901642, 0.23853503167629242, 0.21909092366695404, 0.08283399045467377, -0.20183926820755005, -0.020413681864738464, 0.17391978204250336, -0.7718568444252014, -16.396995544433594, 1.962973952293396, 0.24875067174434662, 21.636756896972656, -4.917844772338867, -12.296799659729004, 0.26216357946395874, -9.186930656433105, -0.6889217495918274, 2.562563896179199, 1.1757242679595947, -0.2871442437171936, -0.16942903399467468, -0.20073279738426208, 0.8423646688461304, 0.19440847635269165, -0.13790251314640045, 1.132150411605835, 0.06686556339263916, 2.0228006839752197, 9.418789863586426, -5.951319694519043, -3.164374828338623, -4.316251277923584, -5.304197311401367, 12.458971977233887, 8.09094524383545, 3.4316153526306152, -0.22538651525974274, 0.27714547514915466, 0.26931849122047424, 0.03788921609520912, 1.7529445886611938, -1.1334353685379028, 2.7258551120758057, -2.2822728157043457, -0.09206666797399521, -0.3373062312602997, 0.06272721290588379, -0.5253173112869263, -0.09832528233528137, -0.23877660930156708, -7.28211784362793, 0.3776317238807678, -2.178736686706543, 0.010632163845002651], [3.100099802017212, -1.5344725847244263, 2.9810264110565186, 4.7788615226745605, -1.900314211845398, -0.7691764235496521, -0.8327355980873108, -0.5406792163848877, -1.4825128316879272, -0.08684414625167847, -1.238855004310608, 0.8056662082672119, 1.6785115003585815, 2.653447151184082, -0.35944095253944397, 0.0520142987370491, 0.11104564368724823, 2.7192320823669434, -9.023003578186035, -18.705730438232422, -19.004871368408203, 0.9664011597633362, -9.070548057556152, -3.2536046504974365, 0.13460616767406464, -0.05148133635520935, 0.1651155799627304, 0.05032734572887421, 0.1561480313539505, 0.05065087974071503, -0.1640929877758026, -0.048667147755622864, -0.017931893467903137, 0.22945891320705414, 0.026672914624214172, -0.15612706542015076, -0.21813559532165527, 0.21754054725170135, 0.24166785180568695, 0.18708814680576324, 0.023807957768440247, 0.03520853817462921, -0.027196243405342102, 0.014728531241416931, -0.20877057313919067, -0.03881476819515228, 0.22124408185482025, -0.20981290936470032, 0.8790724277496338, -1.2449482679367065, 1.4153335094451904, 2.4108288288116455, -0.7386805415153503, -5.2487640380859375, 1.2347315549850464, -0.5925193428993225, 2.627136468887329, 1.9198044538497925, 0.061899349093437195, 1.6522655487060547, 0.012799158692359924, 5.197342872619629, -3.460388422012329, 0.0700395479798317, -0.1495800018310547, -0.6926660537719727, -0.9892435073852539, 1.8508539199829102, -0.6827894449234009, 0.052790891379117966, 2.7969396114349365, 0.4899362623691559, -2.3657655715942383, -2.3324313163757324, -3.5250933170318604, -4.514620304107666, 0.0554855652153492, 2.0491604804992676, 2.3245832920074463, -1.506091833114624, 0.7242421507835388, -0.3145848512649536, 0.16735732555389404, -1.3128135204315186, -2.8909542560577393, 1.7298516035079956, 0.6854576468467712, -0.1524656116962433, -0.22889558970928192, 0.08615004271268845, 0.2752985954284668, 2.4697835445404053, -2.71172833442688, 0.1439540684223175, 10.474915504455566, 0.24254019558429718], [-2.064943790435791, -1.4011844396591187, -0.11792522668838501, 0.34347543120384216, 0.5140741467475891, 3.9424030780792236, 0.212694451212883, 2.59025502204895, -1.8697161674499512, -0.3515615165233612, 0.10788724571466446, -0.24877680838108063, 0.4630929231643677, 0.665023148059845, -1.3107008934020996, -0.46923792362213135, -1.3307429552078247, -1.1469368934631348, -0.6293842792510986, 45.46933364868164, 70.09932708740234, 0.4136538803577423, -0.896737813949585, 29.70186996459961, -0.10430833697319031, -0.21379224956035614, -0.14950242638587952, -0.010520890355110168, 0.04217623174190521, -0.057614728808403015, 0.10281001031398773, 0.08679629862308502, -0.17825141549110413, -0.1665121614933014, 0.15032018721103668, 0.21795852482318878, 0.1452493518590927, 0.14127083122730255, -0.10019735991954803, 0.13944430649280548, -0.19952134788036346, -0.155213862657547, 0.24068136513233185, 0.20194034278392792, -0.05050569772720337, 0.14327840507030487, -0.0006187558174133301, 0.24073509871959686, 1.2131593227386475, 1.3125139474868774, -4.205361843109131, 1.8669167757034302, 0.06504112482070923, 25.4943790435791, -0.9515230059623718, 9.35710334777832, 0.5534163117408752, -6.0924458503723145, -0.30510443449020386, -2.805546760559082, -1.2997738122940063, 1.8187662363052368, -0.058674026280641556, -0.19963443279266357, -2.0803074836730957, -0.18073685467243195, -0.4418412148952484, 0.38429489731788635, 0.7580478191375732, -3.726736068725586, -1.6498315334320068, -4.395430564880371, 6.055824279785156, -12.037227630615234, -0.802870512008667, 0.9106687903404236, 1.1476523876190186, 0.6299810409545898, -0.4830949604511261, 0.44436413049697876, 1.1719268560409546, 0.7405785918235779, -2.907104730606079, 2.8920748233795166, -0.8499343991279602, -0.6563959121704102, -2.9056174755096436, 1.3349738121032715, -0.2151058167219162, 3.2692666053771973, -0.010886072181165218, 2.3875651359558105, 3.421058177947998, -2.479707956314087, 1.0208619832992554, -0.04729720577597618], [2.135960578918457, 0.523287832736969, 0.11058506369590759, 1.5792081356048584, 0.965000569820404, -0.3140701949596405, -1.00350821018219, -1.7095155715942383, 1.558006763458252, -1.514722228050232, -0.49147772789001465, 1.7585116624832153, -0.4208545386791229, 0.9082227945327759, -0.1502116173505783, -1.0880751609802246, 0.9030725955963135, 0.7711201906204224, -0.8978171944618225, -0.16731001436710358, -1.799767017364502, -1.3238134384155273, 2.6798837184906006, 17.736209869384766, -0.12089738249778748, 0.12003059685230255, -0.20077042281627655, 0.05801282823085785, -0.0176469087600708, 0.13614316284656525, 0.20145083963871002, 0.038272276520729065, 0.12192471325397491, -0.17195743322372437, -0.12433167546987534, 0.10648025572299957, -0.22383740544319153, -0.09103317558765411, -0.145000621676445, 0.220784530043602, -0.19699478149414062, 0.23921672999858856, -0.060669004917144775, 0.19273512065410614, 0.09108339250087738, 0.06615571677684784, -0.2184809148311615, -0.11213627457618713, -0.43959686160087585, -0.07519488036632538, 1.8929920196533203, -0.05290273204445839, 0.7583834528923035, 21.328594207763672, -0.17951162159442902, 10.483050346374512, 0.5443541407585144, -3.466442108154297, -0.667605459690094, 0.298332542181015, -0.2558881640434265, -0.6438241600990295, 1.0086573362350464, 0.6007229089736938, -0.2041676640510559, -0.6639283299446106, -0.024432573467493057, 0.7250850796699524, 0.05299714580178261, -1.744425654411316, -3.6474103927612305, -0.6912875771522522, 0.18778060376644135, 0.28432515263557434, -2.7262439727783203, 8.114553451538086, 5.81851053237915, 2.0177648067474365, 1.1211988925933838, 1.5513911247253418, -0.7927854657173157, 2.341773748397827, -0.18029555678367615, -1.6142414808273315, 0.7177579402923584, -0.8569269180297852, 3.8066012859344482, -0.7771557569503784, -0.8788872957229614, -2.6870551109313965, -0.013813188299536705, -0.5698117613792419, 8.275589942932129, 1.8080432415008545, -0.014335017651319504, -0.2044677883386612]], "bias:0": [0.9261367917060852, -4.287539482116699, -3.601539373397827, -5.295644760131836, -0.32342442870140076, -1.2122942209243774, -3.6580545902252197, 2.102468490600586, -0.0409407913684845, -5.3058061599731445, -0.20771288871765137, -3.921818971633911, -1.3406312465667725, -1.7081595659255981, 1.2143058776855469, 2.150513172149658, 1.786642074584961, 0.5842782258987427, 5.866276264190674, -7.231169700622559, -0.13516177237033844, -1.9472662210464478, 6.3419623374938965, 1.64867103099823, 1.0, 1.0, 1.0, 1.0, 1.0, 1.0, 1.0, 1.0, 1.0, 1.0, 1.0, 1.0, 1.0, 1.0, 1.0, 1.0, 1.0, 1.0, 1.0, 1.0, 1.0, 1.0, 1.0, 1.0, -0.27373966574668884, -4.758426189422607, -0.6457269787788391, 0.836233377456665, -0.5869188904762268, -1.5072389841079712, -2.548794746398926, -0.7902198433876038, -1.01023530960083, -1.1697019338607788, 0.3933126926422119, -3.4947509765625, -0.00285414420068264, -5.802048683166504, 10.328608512878418, -0.5331122279167175, -0.002854687161743641, 0.4263976812362671, -0.7091675996780396, -1.7874506711959839, -0.1664220094680786, -1.4901076555252075, -0.27654343843460083, 1.5052759647369385, 2.3750667572021484, 7.648533821105957, 2.81705904006958, 8.28018569946289, 4.606772422790527, -2.420522928237915, -0.3173254132270813, -5.439403057098389, -2.278449058532715, 0.4881172776222229, -1.6036794185638428, 4.13212776184082, -1.8932838439941406, -3.137261390686035, -6.467783451080322, 0.9804978370666504, -2.370260000228882, -1.5333044528961182, -3.3598947525024414, -5.95965051651001, 2.630500078201294, -0.9750437140464783, -3.905568838119507, -4.267751216888428]}, "input_size": 120, "conv1d_stride": 12, "conv1d_1_stride": 12}