{"conv1d": {"bias:0": [-0.004612084943801165, -0.0012201078934594989, -0.0007941380608826876, 0.01683143526315689], "kernel:0": [[[4.132325649261475, 1.0650242567062378, -8.638249397277832, 1.7897316217422485]], [[-5.894221305847168, -1.0959482192993164, 12.360654830932617, -0.9383581876754761]], [[2.7570927143096924, 1.0198506116867065, -2.5888259410858154, 1.3488044738769531]], [[0.41514524817466736, 1.2513445615768433, -0.5491475462913513, 0.5325620770454407]], [[0.002526052761822939, 0.7613145709037781, 0.9810085892677307, 0.15357376635074615]], [[0.7925729155540466, -0.1273815631866455, -0.8590008020401001, 0.7316330671310425]], [[-0.16919700801372528, -0.632564902305603, -0.3672678470611572, 0.6568210124969482]], [[-0.486423134803772, -0.6234420537948608, 0.7776535749435425, 0.2150336652994156]], [[0.1559574455022812, -2.3884241580963135, -0.35408148169517517, 0.6432202458381653]], [[-0.8469765186309814, -3.3780179023742676, -1.258605718612671, 1.7542414665222168]], [[-0.053397972136735916, -2.7869484424591064, 0.13073252141475677, 0.11783283948898315]], [[-1.0482091903686523, 7.605747699737549, -0.0009768602903932333, -1.5498127937316895]]]}, "conv1d_1": {"bias:0": [-0.14584948122501373, -0.014937808737158775, -0.1436929553747177, 0.027553904801607132], "kernel:0": [[[-0.21321487426757812, -0.10579663515090942, 0.1676701307296753, 0.22332888841629028], [-0.15674251317977905, 0.11447721719741821, 0.09155726432800293, -0.024613797664642334], [-0.05587327480316162, -0.17072254419326782, 0.2064475417137146, -0.1501924991607666], [-0.19908934831619263, -0.2095661759376526, 0.06064474582672119, 0.059842050075531006]], [[-9.47029972076416, 7.600604057312012, -1.3416675329208374, -2.7657291889190674], [0.9437441825866699, 0.18560966849327087, 1.1100542545318604, -2.6589319705963135], [2.66646146774292, -5.245465278625488, -6.880868434906006, 15.03240966796875], [4.758261203765869, -3.2846531867980957, 6.4273762702941895, -7.264367580413818]], [[9.6786527633667, -6.86807107925415, 3.5100011825561523, -0.003372044302523136], [0.38210922479629517, -0.045500852167606354, -0.5232346653938293, 0.8885611891746521], [3.7397756576538086, -2.2673659324645996, 3.384208917617798, -5.114589691162109], [4.188560485839844, 3.800271987915039, 2.98134446144104, 6.174022197723389]], [[-1.0254720449447632, 0.059355974197387695, -1.9356231689453125, 0.8036680221557617], [-2.669738292694092, -0.5172156095504761, -1.7362247705459595, 0.4546884298324585], [-3.666543483734131, 1.0578007698059082, -0.27547362446784973, -2.1257805824279785], [-7.471395969390869, -3.258975028991699, -3.3991498947143555, 1.0095646381378174]], [[0.017536979168653488, 0.11031629890203476, -0.4223290979862213, 0.7945536375045776], [0.21945565938949585, -0.822375476360321, 0.13240483403205872, 0.19080664217472076], [0.15814600884914398, 2.004274606704712, -0.049741022288799286, -0.7075570821762085], [0.22632412612438202, -0.5459299683570862, 1.3995239734649658, -0.2784104347229004]], [[0.17126689851284027, -2.333789587020874, -0.6984612941741943, 0.6094838380813599], [-0.08891917020082474, 0.12239446491003036, 0.2578375041484833, 0.9506765007972717], [-1.066734790802002, -0.6038737297058105, 0.8684777021408081, -0.5176372528076172], [-0.20184196531772614, -0.21977367997169495, 1.078500747680664, 0.5888263583183289]], [[-0.0031254685018211603, 0.2751803696155548, -0.02244001254439354, -0.00048273676657117903], [0.15155765414237976, 0.316597044467926, 0.1630879044532776, -0.1668456345796585], [-0.6229255795478821, -0.3324917256832123, 0.0011515896767377853, 0.2523656487464905], [-0.2039918154478073, -1.172784447669983, 1.0609548091888428, -0.012867333367466927]], [[0.004857955500483513, -0.25814732909202576, 0.04783005267381668, 0.7174884080886841], [0.10144534707069397, -0.0797717496752739, -0.022411484271287918, 0.2580642104148865], [-0.5602186322212219, 0.701860785484314, 1.3756150007247925, -1.034907579421997], [-0.2967069447040558, -0.04071826487779617, 0.9081683158874512, 0.33347287774086]], [[0.13761821389198303, 0.9375439286231995, -0.6190210580825806, -0.4035671353340149], [-0.011509871110320091, 0.09754630923271179, 0.29272517561912537, 0.8079214096069336], [-0.6167468428611755, 0.19331836700439453, -0.290585994720459, -0.501429557800293], [-0.3189418315887451, -0.12518298625946045, 1.5292840003967285, 0.2823390066623688]], [[0.03228071331977844, 0.16020512580871582, 1.803794264793396, 0.03213273733854294], [0.28587836027145386, -0.8645500540733337, -1.4259696006774902, 0.842726469039917], [0.09774793684482574, 2.2865278720855713, 1.5132670402526855, -1.1562262773513794], [-0.28126275539398193, 0.5602055788040161, -0.31970497965812683, 0.17414268851280212]], [[0.4206964373588562, 0.30347940325737, -0.31983351707458496, 0.26514101028442383], [-0.2140384167432785, -0.06588181108236313, 2.386540651321411, -0.0938754454255104], [-0.7205111980438232, 1.3107950687408447, 0.216257706284523, -0.97369784116745], [-0.12441664934158325, -0.34232097864151, 1.5287412405014038, 0.07325691729784012]], [[0.1629955768585205, 0.1591792106628418, -0.22283923625946045, 0.12871456146240234], [0.004698336124420166, 0.12183469533920288, 0.13383811712265015, -0.21596527099609375], [0.14106029272079468, 0.052520811557769775, -0.01434856653213501, -0.09559309482574463], [-0.23800528049468994, -0.10113173723220825, 0.04101008176803589, 0.1452862024307251]]]}, "dense": {"bias:0": [0.22024007141590118], "kernel:0": [[0.04155755415558815], [-0.7779063582420349], [0.13929574191570282], [0.06786314398050308], [0.10543406009674072], [-0.11306026577949524], [0.2649761736392975], [-0.049496427178382874], [0.04152919724583626], [0.0933552086353302], [0.10349154472351074], [-0.33336544036865234], [-0.20042121410369873], [0.17501918971538544], [-0.19708551466464996], [-0.03381791338324547], [-0.3113040030002594], [-0.05993861332535744], [-0.5689639449119568], [0.14075955748558044], [0.8469197750091553], [0.1772317737340927], [0.036871541291475296], [-0.20832224190235138]]}, "lstm": {"lstm_cell": {}, "kernel:0": [[-1.7085812091827393, 0.8822862505912781, 3.1181373596191406, 2.6599905490875244, 1.8700847625732422, 2.8512349128723145, 1.8729993104934692, 3.206684112548828, 1.4423398971557617, -1.072871446609497, -1.2036248445510864, -1.7214163541793823, 0.24730868637561798, -3.238891124725342, -0.6353800296783447, 1.428214430809021, 1.5534801483154297, 2.986746072769165, 0.4212310016155243, 2.5132124423980713, 0.1424199342727661, -1.7128413915634155, 4.108778953552246, -1.0436769723892212, -0.13447768986225128, 0.1097729355096817, -0.12272753566503525, -0.23570658266544342, 0.002386823296546936, 0.2288074642419815, 0.24256642162799835, 0.11083512008190155, 0.2134130448102951, -0.14406171441078186, -0.038489118218421936, 0.060765936970710754, 0.008994951844215393, -0.14727023243904114, -0.07722632586956024, 0.12218095362186432, -0.012073338031768799, -0.040809839963912964, -0.08666232228279114, -0.19781897962093353, 0.07615385949611664, 0.0794319361448288, -0.10624086856842041, -0.07178142666816711, -0.599413275718689, 1.0900813341140747, -4.515161991119385, 8.397027015686035, 6.24826192855835, -0.04988108202815056, -0.34217163920402527, -1.748439073562622, 0.5005884766578674, -0.4373016655445099, -2.2396514415740967, -0.02297208644449711, 1.4704527854919434, -0.3145754039287567, 0.7653124332427979, 0.6796106100082397, -1.785162329673767, 6.343752861022949, 0.33366191387176514, -1.3377376794815063, -0.0842229500412941, -1.1201210021972656, 4.77009391784668, 0.09806373715400696, -2.289888858795166, 0.7738612294197083, -1.0731290578842163, 1.4265716075897217, 1.8313907384872437, 1.3348536491394043, -0.492011159658432, -4.170063495635986, -4.526028633117676, -2.243028402328491, 1.4416615962982178, 1.1887593269348145, 0.2887842059135437, 2.0815982818603516, -0.2350328415632248, -0.9077447056770325, -1.4874567985534668, 3.832808256149292, -1.1345402002334595, 0.45687657594680786, -3.0733726024627686, 0.4874889552593231, 4.14935302734375, 0.9933928847312927], [2.872694730758667, -0.07432842254638672, -0.7305217981338501, -7.193274021148682, 0.816175103187561, -1.4951833486557007, -1.9785126447677612, -0.5264450907707214, -5.74161958694458, -0.37686678767204285, 1.8247543573379517, -0.07914648205041885, 0.599791944026947, -0.4591023027896881, 0.669560432434082, 5.232212543487549, 0.5406486988067627, -7.715292453765869, 0.6614485383033752, -12.302416801452637, -0.037114467471838, -0.42925623059272766, -12.074646949768066, -0.7659469842910767, 0.10735677182674408, -0.03346581757068634, 0.08743961155414581, -0.0028835833072662354, -0.11624835431575775, -0.20796926319599152, -0.22366121411323547, 0.1096174567937851, 0.23081333935260773, -0.15054678916931152, -0.16355909407138824, 0.12497939169406891, 0.005568251013755798, 0.18875308334827423, -0.1287672519683838, -0.157096266746521, -0.020968720316886902, 0.07050608098506927, 0.1349426656961441, 0.22858120501041412, -0.20119190216064453, -0.004554241895675659, -0.14446210861206055, -0.19135043025016785, -1.041803240776062, -0.06056719273328781, 6.284041404724121, 4.389679431915283, 8.727249145507812, -0.4333990216255188, -0.355754554271698, 0.13713742792606354, 0.5513439178466797, -2.246569871902466, -0.8088582754135132, -0.4771397113800049, 3.721794843673706, 0.03300490975379944, 0.4692211449146271, -2.267730236053467, -0.18542444705963135, 2.046008825302124, -0.9842122197151184, -4.213551998138428, -2.5612430572509766, 0.5909939408302307, -4.213835716247559, 4.177518844604492, 3.1032981872558594, 1.2703019380569458, 3.863703489303589, 0.7808139324188232, 4.054111480712891, -1.749829888343811, 0.43013331294059753, 0.5197983980178833, 5.369924545288086, 0.04504327103495598, -3.519638776779175, -1.9909602403640747, 1.70375657081604, -3.9897868633270264, -0.934747576713562, 7.491408824920654, -0.15805944800376892, 1.4574967622756958, 0.08268626034259796, 0.4940439462661743, 0.4585810899734497, -0.08981886506080627, 5.243941307067871, -0.5499597787857056], [0.4098520278930664, 1.0580860376358032, -2.845235824584961, -2.4482028484344482, -2.969360589981079, 2.866525173187256, -2.3054933547973633, -4.673137187957764, -2.6868436336517334, -1.9638930559158325, -1.7923355102539062, -0.24816957116127014, -0.5775795578956604, 1.8114395141601562, 0.9752058386802673, -4.6064629554748535, -0.8842200040817261, -5.013737201690674, -0.05619608610868454, -2.6472561359405518, 0.30193161964416504, -0.9151294827461243, -8.453085899353027, -1.8294622898101807, 0.06367792189121246, -0.2424827218055725, 0.015289440751075745, -0.17627963423728943, -0.10758723318576813, -0.03228127956390381, -0.217413067817688, 0.11832870543003082, -0.14186644554138184, 0.20294348895549774, -0.0874888002872467, -0.20785987377166748, 0.11041690409183502, -0.13778617978096008, -0.12002026289701462, -0.06136356294155121, 0.09479187428951263, -0.008000090718269348, 0.04834093153476715, -0.06842680275440216, -0.014790475368499756, 0.08364622294902802, -0.034716516733169556, 0.1139737218618393, 3.6435577869415283, 0.15003396570682526, 1.1498782634735107, 5.1657891273498535, 3.326561450958252, -1.741501808166504, -0.16591712832450867, 0.9214826822280884, 1.5871495008468628, -0.48659688234329224, -0.36401015520095825, 1.83734130859375, 0.47407373785972595, -0.4481915533542633, -1.3361256122589111, -1.459779143333435, 5.034324645996094, -5.744223117828369, 3.0554280281066895, -0.41731107234954834, 0.043212149292230606, 2.690652370452881, -2.9255244731903076, -0.6977517604827881, 3.8874340057373047, 0.39243507385253906, -1.4748200178146362, -1.638770580291748, 0.9248872399330139, -3.3193116188049316, 0.9232836365699768, 9.117353439331055, 3.2302844524383545, 2.2808737754821777, -1.5536291599273682, 0.6101122498512268, 2.022718906402588, 0.2488720715045929, 0.859971821308136, -7.204314708709717, 0.6040645837783813, 3.0096452236175537, -0.795617401599884, -0.8933296799659729, -2.452537775039673, -0.41898244619369507, -1.930657148361206, 0.40965551137924194], [17.41875648498535, -0.17508676648139954, -1.0538477897644043, -2.461225986480713, 1.4774614572525024, 1.2983602285385132, 3.033027172088623, -1.673412799835205, 4.491983413696289, -0.06137263774871826, 6.831894397735596, 1.2597103118896484, 1.816192388534546, 0.6592852473258972, -5.231720447540283, -7.232274055480957, -1.2704625129699707, 0.34132909774780273, -1.0669951438903809, 1.6099942922592163, -0.2986733317375183, 0.7948873043060303, 0.7219141721725464, -0.7740907073020935, -0.0856996476650238, 0.12080065906047821, -0.22568051517009735, -0.1529790461063385, -0.21050962805747986, 0.06335009634494781, -0.08855916559696198, 0.1647775024175644, -0.06899082660675049, -0.0630602091550827, -0.1357579529285431, 0.11744911968708038, -0.20683634281158447, -0.1353660225868225, 0.15024761855602264, -0.20329098403453827, 0.09962166845798492, -0.16747379302978516, 0.12681369483470917, -0.22646577656269073, 0.061237409710884094, 0.18508587777614594, -0.036575108766555786, -0.15415692329406738, -2.6054797172546387, -0.18729464709758759, -3.3545100688934326, 7.591348648071289, 4.073074817657471, 1.3642839193344116, 0.7987192273139954, 2.5902488231658936, 0.8327459692955017, 1.022796392440796, -1.7085747718811035, 0.4292947053909302, 7.245015621185303, -2.3229565620422363, 1.2152296304702759, -0.1577569544315338, -0.1369825005531311, -4.235543727874756, -0.04352569580078125, 2.2792394161224365, 1.8352965116500854, 0.9078494310379028, -0.8406086564064026, -0.7759028077125549, 0.4392293393611908, -0.9896705150604248, 3.608293056488037, 8.851971626281738, -4.440677165985107, -0.41035136580467224, -0.005426640622317791, 2.077460289001465, -6.157625675201416, -5.522047996520996, -2.716505289077759, -2.797053098678589, -0.20174969732761383, -6.05039119720459, 0.005271915812045336, 3.666578769683838, 1.1404517889022827, -3.754671096801758, 2.5878100395202637, -0.4884544909000397, 3.7763571739196777, -0.4742025136947632, -12.13886833190918, 0.42936471104621887]], "bias:0": [1.289729118347168, -0.6711650490760803, -2.6926934719085693, -0.3845303952693939, -1.7316895723342896, 8.070940971374512, -1.1623344421386719, 30.971580505371094, 4.702558994293213, 0.3264404833316803, 2.0690248012542725, 0.623887300491333, -1.4874367713928223, -4.194782733917236, 2.354896068572998, 1.5079748630523682, -0.23190106451511383, -5.761664390563965, -3.626311779022217, 2.5879125595092773, -2.110708713531494, 2.4049479961395264, -2.114929676055908, -1.0805433988571167, 1.0, 1.0, 1.0, 1.0, 1.0, 1.0, 1.0, 1.0, 1.0, 1.0, 1.0, 1.0, 1.0, 1.0, 1.0, 1.0, 1.0, 1.0, 1.0, 1.0, 1.0, 1.0, 1.0, 1.0, -2.535127878189087, 2.1258976459503174, -3.0756659507751465, 0.7846695780754089, -2.524138927459717, -1.4219428300857544, -1.908384084701538, 0.3588796854019165, -0.23687145113945007, 4.816878318786621, -0.12461528182029724, 0.6467495560646057, -1.3658201694488525, 5.704239845275879, -0.06681517511606216, -1.7021757364273071, -0.5239461660385132, 7.037631511688232, -1.1412245035171509, -0.5466563701629639, 2.0717387199401855, -0.24880072474479675, -1.5945179462432861, -0.02683183364570141, -3.1762399673461914, 2.8948867321014404, 3.003051996231079, -2.22524356842041, -1.2603977918624878, -1.5127431154251099, -1.4397729635238647, -3.982228994369507, 4.231820583343506, -0.5707860589027405, 1.5903286933898926, 0.38129302859306335, -0.9629189968109131, 2.5903007984161377, 0.9526544809341431, -2.7553465366363525, 0.08952568471431732, 6.732235431671143, 4.03454065322876, -1.5760942697525024, -4.380188941955566, 0.22926655411720276, 11.13348388671875, 0.3682713508605957]}, "input_size": 120, "conv1d_stride": 12, "conv1d_1_stride": 12}