{"conv1d": {"bias:0": [-0.00254500238224864, 0.00036826333962380886, 0.011583453044295311, 2.8410067898221314e-05], "kernel:0": [[[-2.5808703899383545, -14.613326072692871, 1.6658183336257935, 4.704745769500732]], [[7.825641632080078, 16.350173950195312, 0.48879387974739075, 1.2108783721923828]], [[-8.547698020935059, 2.51676607131958, 4.309020519256592, -5.265171051025391]], [[0.297686368227005, -0.6207314133644104, 1.4383577108383179, -1.0561829805374146]], [[0.21460309624671936, -0.14191167056560516, 1.0347071886062622, -0.05436016991734505]], [[-0.7262640595436096, -0.9836694002151489, 0.43840205669403076, -0.49723848700523376]], [[2.258378028869629, -1.1741005182266235, 0.2865596115589142, 0.4103683531284332]], [[3.0954670906066895, -0.5677797794342041, -0.8974218368530273, 1.0966731309890747]], [[0.8095527291297913, -0.955334484577179, -1.2215991020202637, -0.6739254593849182]], [[0.8220539689064026, -1.3033463954925537, -0.9284000396728516, -1.2364336252212524]], [[1.978278636932373, -0.4249671399593353, 2.153022527694702, 1.8466922044754028]], [[-6.102241516113281, 1.3306758403778076, -1.0059477090835571, -0.25366470217704773]]]}, "conv1d_1": {"bias:0": [-0.17377963662147522, 0.15379932522773743, 0.033602502197027206, 0.2665415406227112], "kernel:0": [[[-0.232774555683136, 0.23008644580841064, 0.10093969106674194, 0.16646051406860352], [0.08413910865783691, 0.16888803243637085, 0.0021025538444519043, 0.1680963635444641], [-0.1231386661529541, -0.07565885782241821, -0.19850480556488037, 0.00900256633758545], [0.21293485164642334, -0.0032371878623962402, -0.10183900594711304, 0.2267758846282959]], [[-2.319387435913086, -5.335719585418701, 1.99371337890625, -1.0597586631774902], [-9.741379737854004, -21.23779296875, 5.854297637939453, -1.0553653240203857], [4.666805267333984, 8.14881706237793, -1.6596693992614746, 0.9686692953109741], [-6.641199111938477, 0.40839651226997375, -0.5260124206542969, -5.3464202880859375]], [[3.2894647121429443, 1.1497461795806885, 0.5573804378509521, -2.045802116394043], [1.5471997261047363, 4.866057872772217, -4.059471607208252, 4.485893726348877], [4.449576377868652, -3.2453277111053467, 3.7197091579437256, -2.076949119567871], [2.277081251144409, 0.03795842081308365, -0.6490768194198608, 8.246593475341797]], [[-2.3366153240203857, 0.8483328819274902, -0.2895682156085968, 3.2511606216430664], [2.8918063640594482, 2.209188461303711, -2.275390386581421, 2.615046739578247], [-11.678146362304688, -3.3026063442230225, 3.5831706523895264, -2.466027021408081], [3.4778122901916504, -2.361764669418335, -0.5439044833183289, -8.178293228149414]], [[0.6112790107727051, 0.8660873174667358, -1.0556049346923828, -0.5413252115249634], [0.9705405831336975, 0.45101094245910645, -1.413182020187378, -0.2718636393547058], [-1.7671808004379272, 0.6070190072059631, 1.0460703372955322, 1.4439060688018799], [-1.85347580909729, 2.5967559814453125, 0.14613766968250275, 0.9999306797981262]], [[0.1998319774866104, 0.37059149146080017, 0.48549073934555054, 0.8267067670822144], [-0.04475349187850952, 0.4448760151863098, -0.7304921746253967, -0.2040325105190277], [0.6719960570335388, -0.490601122379303, 0.3778855502605438, 0.7128549218177795], [1.396186351776123, -0.10833842307329178, 0.17866866290569305, 1.7652117013931274]], [[-0.3389643430709839, 0.764651894569397, -0.18104982376098633, -0.8589853644371033], [-0.04174007475376129, 0.5896592736244202, -0.6442233920097351, -0.9764447212219238], [-0.09931471198797226, 0.3026107847690582, 0.6008387207984924, -0.19366760551929474], [0.0020506156142801046, -0.4396653473377228, 0.5959510207176208, 0.25848889350891113]], [[-0.3089097738265991, 1.7915291786193848, -1.141788125038147, -1.339135766029358], [0.39325258135795593, 0.7520090341567993, -0.33455055952072144, 0.2928199768066406], [-0.6544333696365356, 1.1733887195587158, -0.3129909932613373, -1.5649441480636597], [0.15790791809558868, 0.2277020812034607, -0.18740816414356232, 0.26578742265701294]], [[-0.014659687876701355, 0.2509385049343109, -0.17203280329704285, -0.4473583400249481], [-0.09546806663274765, 0.7871142625808716, -0.8808470368385315, 0.23558109998703003], [-0.4824259877204895, 1.2110472917556763, -0.16474398970603943, -1.2502695322036743], [0.22799500823020935, 0.8203366994857788, 0.8949248790740967, -0.16975536942481995]], [[0.2659045159816742, 0.9667586088180542, -0.4860988259315491, -0.24379533529281616], [0.21905957162380219, 0.41580453515052795, -0.3787086009979248, 0.14624735713005066], [-0.12699566781520844, -0.051701344549655914, 0.09472400695085526, -0.06202436983585358], [0.20777170360088348, 0.24578329920768738, 0.053063105791807175, -0.03723097965121269]], [[0.9767745137214661, -1.6718134880065918, 0.2258860021829605, 2.381805658340454], [0.6111559271812439, -0.8878906965255737, 0.368045449256897, 2.1672661304473877], [0.002360099693760276, 0.42917338013648987, 0.07128406316041946, -0.15466523170471191], [0.7699381113052368, -1.4282667636871338, 0.13735881447792053, 2.1625804901123047]], [[-0.24074125289916992, 0.2229788899421692, 0.16094940900802612, 0.2071535587310791], [0.13415789604187012, 0.19871824979782104, -0.19930660724639893, 0.12014496326446533], [0.22750318050384521, 0.22429734468460083, -0.08507227897644043, 0.1730968952178955], [0.1341298222541809, 0.08204245567321777, -0.002568840980529785, -0.2395588755607605]]]}, "dense": {"bias:0": [-0.038650032132864], "kernel:0": [[0.6860971450805664], [-0.0874071717262268], [0.07650421559810638], [0.03410535305738449], [0.4524567723274231], [0.1920117437839508], [-0.036162808537483215], [0.03643782436847687], [0.25431692600250244], [-0.21481822431087494], [0.08777559548616409], [0.05320721119642258], [-0.34926551580429077], [0.13569942116737366], [-0.04030635207891464], [0.1847618818283081], [0.11460185796022415], [0.07966859638690948], [0.19755369424819946], [0.17991577088832855], [0.41310790181159973], [0.04085265472531319], [-0.09864155948162079], [-0.029174799099564552]]}, "lstm": {"lstm_cell": {}, "kernel:0": [[1.0950839519500732, 0.6066557168960571, 1.932312250137329, 1.3544811010360718, 1.686763882637024, 2.5091633796691895, -2.44770884513855, 6.237582206726074, -0.5544102787971497, -1.9886404275894165, 1.9765819311141968, -0.5186002254486084, 3.6007838249206543, -0.17631317675113678, 0.23021820187568665, -2.4486258029937744, 3.7707414627075195, -2.993093729019165, -2.3790218830108643, -1.660386562347412, -1.0382100343704224, -3.073868751525879, 1.0652623176574707, 1.4343510866165161, -0.22087989747524261, -0.1025518923997879, 0.0011415481567382812, -0.1517237424850464, -0.14768604934215546, -0.21560055017471313, -0.1582850217819214, 0.07792152464389801, 0.13868503272533417, -0.04661588370800018, -0.12141738086938858, -0.00902828574180603, -0.03000985085964203, -0.21781550347805023, -0.028053849935531616, 0.20911623537540436, -0.19927817583084106, -0.18748736381530762, -0.22390486299991608, -0.11715123057365417, 0.2252359837293625, -0.15234646201133728, -0.18024373054504395, -0.1810688078403473, -2.637967348098755, 2.0401554107666016, 3.824756383895874, 7.0993452072143555, 17.458675384521484, -1.1045070886611938, 11.949519157409668, 2.4908266067504883, -0.8272383213043213, 5.250835418701172, 0.6671202182769775, -0.9521439075469971, 1.8306106328964233, -0.9248399138450623, 19.9195556640625, 17.490367889404297, -2.0522115230560303, -0.2733009457588196, -2.1596872806549072, -16.129352569580078, -2.088690996170044, 12.958866119384766, 42.89400863647461, -16.32487678527832, -0.611592173576355, 2.2475173473358154, -0.4019756019115448, -1.2157167196273804, -3.635545492172241, -0.970370888710022, 0.4085868000984192, -1.084633469581604, -1.551802396774292, 2.523845911026001, -0.19508813321590424, 2.4241764545440674, -0.6115791201591492, -8.5991792678833, -1.3879308700561523, -0.1480509489774704, 0.1754385232925415, 0.8512513637542725, 0.42652758955955505, 0.811204195022583, 1.1185884475708008, -0.4805946350097656, -1.0496937036514282, 0.8541015982627869], [0.4369305968284607, -5.082035541534424, -12.759857177734375, -0.31852731108665466, 2.6655099391937256, 0.5028046369552612, 1.1889740228652954, 0.1604425460100174, -1.6610636711120605, 0.10747484117746353, -17.048404693603516, -1.5417653322219849, 4.890356063842773, 0.8406620621681213, -1.2143096923828125, 9.089159965515137, 3.980358600616455, -0.8949292898178101, -1.9346904754638672, -0.9536353945732117, -0.31564921140670776, 3.88952898979187, 4.057629585266113, -10.137459754943848, -0.118705615401268, -0.16841748356819153, 0.06700555980205536, -0.00015482306480407715, -0.2155783623456955, 0.12002138793468475, 0.21921811997890472, -0.22318927943706512, 0.04190625250339508, 0.10478423535823822, 0.08045528829097748, -0.01826705038547516, -0.08622793853282928, -0.15829984843730927, -0.03908650577068329, 0.08306629955768585, 0.025257989764213562, 0.048581644892692566, 0.12292324006557465, 0.09716276824474335, -0.0700356662273407, -0.23675428330898285, 0.2234531193971634, -0.0912080854177475, 4.743535041809082, 2.060849189758301, 8.367460250854492, -8.325018882751465, -19.962984085083008, -0.6180223822593689, -3.6544597148895264, -4.715189456939697, 0.07170571386814117, -8.489629745483398, 3.5009655952453613, -2.744590997695923, 0.2577817440032959, -0.4821087121963501, -12.409223556518555, -13.874837875366211, 0.7659325003623962, 0.5300686955451965, 1.6432733535766602, 10.841078758239746, 0.025712808594107628, -20.346302032470703, -20.47353744506836, 13.900921821594238, 0.04232313483953476, 7.331988334655762, -1.8560963869094849, 1.5014232397079468, -5.122994422912598, -2.1377882957458496, 0.6769590973854065, -10.6010103225708, -0.34644123911857605, 2.732914686203003, 1.0524656772613525, -3.268503427505493, -0.8979658484458923, -1.0297876596450806, 4.046411037445068, -0.7411882281303406, -0.9012108445167542, 4.8013458251953125, 1.0622740983963013, 3.2552285194396973, -0.1827642321586609, 1.203141689300537, -0.7297234535217285, -4.7452850341796875], [0.2805383503437042, 4.232019901275635, 8.315398216247559, 6.052398681640625, 0.672447144985199, -2.097909450531006, -5.305883407592773, -11.29342269897461, 2.1926915645599365, -0.09077616780996323, 8.824278831481934, -1.8563872575759888, -1.6644490957260132, 1.7743444442749023, 0.35204824805259705, -7.795504570007324, -0.17099052667617798, -2.3024790287017822, -0.8913995027542114, 0.4575154781341553, 0.14497210085391998, -2.0547187328338623, -5.9200286865234375, -0.2606304883956909, -0.1008087545633316, 0.21905027329921722, 0.10446082055568695, 0.1335010677576065, 0.20584233105182648, 0.04531519114971161, 0.1678740233182907, -0.06902411580085754, 0.2226835936307907, 0.19432325661182404, -0.028413832187652588, -0.2360590249300003, 0.11831392347812653, 0.23541288077831268, 0.04488246142864227, -0.1827130764722824, 0.17573733627796173, -0.004964202642440796, -0.010596111416816711, -0.11762404441833496, 0.17867662012577057, -0.03812675178050995, 0.010331735014915466, 0.20199911296367645, -0.0028227451257407665, 0.7707749009132385, 8.820746421813965, 17.365571975708008, -7.859009265899658, -0.67501300573349, -11.352190971374512, 2.7843823432922363, 0.25168073177337646, -0.8875666856765747, -1.1463359594345093, 1.3680365085601807, 0.458676278591156, 0.28564420342445374, -1.5650125741958618, 17.901674270629883, 3.893749237060547, 1.154607892036438, -13.485295295715332, -9.960031509399414, 0.6429252624511719, 2.5517685413360596, 33.240577697753906, -4.07166051864624, -0.43346163630485535, -3.558685064315796, -1.3136311769485474, -2.7050607204437256, -1.3510504961013794, 0.5938733816146851, 0.18966011703014374, -4.989866733551025, -0.2826995253562927, -0.6461173295974731, 1.7397428750991821, -5.124011039733887, 0.15082977712154388, 7.088510990142822, -1.0642023086547852, -2.0968210697174072, -1.7065917253494263, -5.797787666320801, -1.8301385641098022, -2.0995967388153076, 0.021384064108133316, -0.11733291298151016, 3.843977689743042, -1.9012837409973145], [0.019901184365153313, -5.3032331466674805, -7.316522598266602, 0.8489455580711365, 3.8573474884033203, 0.008734284900128841, -5.112753868103027, -1.5367149114608765, -1.4128704071044922, 0.3825182318687439, -47.52086639404297, 0.12074030935764313, 0.9503426551818848, 0.17129404842853546, -4.962947845458984, 14.769891738891602, -1.9838985204696655, 1.28085458278656, -0.3794570565223694, 0.13415120542049408, 0.07119233906269073, -3.7132344245910645, 0.9965512752532959, -10.680118560791016, -0.04372011125087738, -0.09747759997844696, 0.1151910275220871, 0.03241916000843048, 0.23315255343914032, 0.16805551946163177, 0.10635678470134735, 0.06585250794887543, 0.12974749505519867, -0.005459040403366089, -0.1280757188796997, 0.024946704506874084, -0.20483852922916412, 0.19469524919986725, 0.1515401154756546, 0.050939664244651794, -0.025024980306625366, 0.1939121037721634, -0.1482340693473816, -0.1382129192352295, 0.009317025542259216, -0.19530963897705078, -0.18370197713375092, -0.17038118839263916, 5.295958995819092, -0.020089726895093918, 0.13959971070289612, 18.593338012695312, -20.81576156616211, 0.13485081493854523, 5.249473571777344, 3.367276191711426, 0.17468631267547607, -7.322793006896973, 1.1912100315093994, 0.6276444792747498, -0.09728887677192688, 1.461911916732788, 18.814767837524414, -1.9121912717819214, -0.16162262856960297, 0.015625527128577232, 5.635861396789551, 11.801859855651855, 3.0612735748291016, 11.41988754272461, 7.093510627746582, -12.199591636657715, 0.3630724549293518, 4.852505207061768, 1.144141435623169, -2.7840187549591064, -7.867333889007568, -2.613914966583252, 15.272159576416016, 7.94294548034668, 1.0459365844726562, 1.7229596376419067, 1.738851547241211, 5.56107759475708, -0.02601982094347477, -2.389378309249878, 7.445756912231445, -0.8983408212661743, 0.5080962777137756, 4.247199058532715, 1.0796900987625122, 2.2993321418762207, -1.040187954902649, 0.2746638059616089, -2.4460034370422363, 8.689470291137695]], "bias:0": [3.1088993549346924, 2.578277826309204, 2.9259448051452637, 1.7401752471923828, -4.388940811157227, 1.3214104175567627, -0.22442688047885895, 6.173250198364258, -0.2182992398738861, -4.139529705047607, -8.803655624389648, 1.747523307800293, -1.4275527000427246, -1.9064128398895264, -1.0325968265533447, -9.96059799194336, 4.49514102935791, -3.6863961219787598, -1.3275610208511353, -1.1138229370117188, 2.35604190826416, 0.7701190114021301, -0.22534455358982086, 7.349034309387207, 1.0, 1.0, 1.0, 1.0, 1.0, 1.0, 1.0, 1.0, 1.0, 1.0, 1.0, 1.0, 1.0, 1.0, 1.0, 1.0, 1.0, 1.0, 1.0, 1.0, 1.0, 1.0, 1.0, 1.0, -5.536377429962158, 0.032651275396347046, -10.657175064086914, -1.391636848449707, -10.197898864746094, 0.5776485204696655, 2.7217655181884766, -1.1383687257766724, 0.30152344703674316, 3.3761403560638428, -6.780214786529541, -0.25245293974876404, 7.42487096786499, 1.3585960865020752, 0.7940903306007385, -2.901874542236328, -1.6667656898498535, 3.281120538711548, 0.28046631813049316, 5.6384053230285645, 1.1359434127807617, -2.5098977088928223, -1.2518359422683716, 8.259527206420898, -4.364247798919678, 1.4356176853179932, -0.957984209060669, -1.7031621932983398, 3.381945848464966, 0.636926531791687, -4.246436595916748, 1.350287675857544, 5.155611038208008, 3.7559165954589844, -6.543001651763916, -1.5326218605041504, -0.9290707111358643, -5.796320915222168, -0.40094998478889465, -10.339187622070312, 0.45165354013442993, 1.0136916637420654, -0.6657465696334839, -0.11740940809249878, -4.759452819824219, -5.833873748779297, -4.364301681518555, -1.3681608438491821]}, "input_size": 120, "conv1d_stride": 12, "conv1d_1_stride": 12}