{"conv1d": {"bias:0": [0.0024387750308960676, -0.0018271333537995815, -0.00802290253341198, -0.003457947401329875], "kernel:0": [[[10.625595092773438, -1.001023530960083, 8.461309432983398, 9.111669540405273]], [[-12.258498191833496, -5.764716625213623, -8.914721488952637, -8.823819160461426]], [[-2.50701642036438, 2.0916996002197266, 2.7672975063323975, -3.4989676475524902]], [[1.3482822179794312, 0.17411182820796967, 2.4411842823028564, 0.3258998394012451]], [[0.9075467586517334, -0.72560715675354, 0.35123297572135925, -0.3852127492427826]], [[1.1864100694656372, 1.1031572818756104, 0.38512253761291504, -1.789047360420227]], [[1.0964006185531616, 1.5563784837722778, -0.3155452013015747, -1.7259985208511353]], [[-0.16036032140254974, 1.0805655717849731, -1.7853645086288452, -1.7847435474395752]], [[0.06818254292011261, 2.5574209690093994, -1.4822824001312256, -1.9869444370269775]], [[0.8668981790542603, 2.4976601600646973, -1.1652168035507202, -2.465702772140503]], [[0.5002226233482361, -0.23729190230369568, -0.5080893039703369, -0.6963274478912354]], [[-1.1081455945968628, -8.927898406982422, 0.3230038285255432, 6.5189642906188965]]]}, "conv1d_1": {"bias:0": [-0.15090440213680267, -0.01357413548976183, -0.04655517637729645, -0.00631391117349267], "kernel:0": [[[-0.12471812963485718, 0.1407768726348877, 0.028605401515960693, 0.21207267045974731], [-0.08116501569747925, -0.045337557792663574, -0.23991990089416504, -0.16453784704208374], [0.047367095947265625, 0.0766984224319458, -0.1297857165336609, 0.21996229887008667], [0.18262982368469238, 0.19291287660598755, -0.2439289689064026, 0.03204065561294556]], [[-11.723413467407227, -1.5048643350601196, 12.908430099487305, 26.921171188354492], [-0.15502040088176727, 9.692853927612305, -4.83437442779541, 2.2679662704467773], [-8.6333589553833, 7.452786445617676, -1.210727572441101, 12.615318298339844], [-1.0444238185882568, 8.401381492614746, -2.1288397312164307, 3.483816623687744]], [[5.194185256958008, 8.226423263549805, 2.808651924133301, -5.061774253845215], [-3.085641384124756, -5.8115129470825195, -3.114320993423462, 0.2943663001060486], [8.696386337280273, -10.061068534851074, -2.0587847232818604, -10.357555389404297], [-7.329934120178223, -4.439699649810791, -8.462728500366211, 5.265514850616455]], [[-1.599898099899292, 0.2221086323261261, -3.1680140495300293, -4.168474197387695], [6.590065002441406, -0.8556934595108032, 5.588487148284912, -1.9180099964141846], [-4.115102767944336, 2.4254610538482666, -2.6669998168945312, 2.8656563758850098], [8.078877449035645, 0.15211333334445953, 7.33442497253418, -2.3152143955230713]], [[0.5166548490524292, -1.1295851469039917, -0.83951336145401, -3.024850368499756], [-0.1902284473180771, 0.7161012291908264, -1.0264586210250854, 1.0638823509216309], [1.6481881141662598, -0.18750202655792236, 1.2385252714157104, -0.11641906946897507], [0.18756696581840515, 0.8292095065116882, -1.3515275716781616, 0.3897764980792999]], [[1.1975148916244507, -0.19581979513168335, -2.016418933868408, -3.7943992614746094], [0.4408392310142517, 0.028724271804094315, -0.38392549753189087, 0.40156978368759155], [1.0012460947036743, 0.6672912240028381, 1.0618305206298828, -0.27957814931869507], [0.7577108144760132, 0.37089836597442627, -0.9982022047042847, 0.5978044867515564]], [[0.81154465675354, -1.2913477420806885, -1.2637939453125, -1.441951870918274], [0.6714458465576172, 0.4539656937122345, -0.6298804879188538, 0.48267143964767456], [0.21523912250995636, -0.3130667507648468, 0.18414711952209473, -1.224831223487854], [0.8093482851982117, 0.6066312789916992, -1.0514042377471924, 0.7518143653869629]], [[1.7296228408813477, -0.6484687924385071, 0.01143782027065754, -1.3463455438613892], [-0.31384652853012085, 0.07973784953355789, -0.1817578226327896, 0.4772147536277771], [0.37748005986213684, 0.4607608914375305, 0.5730303525924683, -0.9958727359771729], [0.7550199031829834, 0.48194053769111633, -1.2510740756988525, 0.5680890083312988]], [[0.3247069716453552, -1.5109671354293823, -0.6477051973342896, -2.5360829830169678], [0.5049084424972534, 0.5159741044044495, -0.8942573666572571, 0.690659761428833], [0.5005210638046265, 0.6958038210868835, 0.965653657913208, 0.5740755200386047], [0.7068625092506409, 0.06187879294157028, -0.8129702210426331, 0.5066081881523132]], [[0.4315873682498932, -0.26662003993988037, -1.1838772296905518, -0.7141903042793274], [-0.2929215133190155, 0.06329386681318283, 1.4840136766433716, -0.09549974650144577], [-0.12654410302639008, -0.5778660178184509, 0.9220065474510193, -1.9362143278121948], [0.3998320698738098, -0.27997514605522156, -0.5354704856872559, -0.35464558005332947]], [[1.9451608657836914, -1.1732805967330933, -3.188756227493286, -4.561151027679443], [0.5896291732788086, 0.6785603165626526, -1.254423975944519, 1.471335768699646], [0.5906602740287781, -0.6797093749046326, 0.6746106147766113, -1.0868749618530273], [0.3706769645214081, 0.10095930844545364, -1.1717230081558228, -0.06348171085119247]], [[-0.21634632349014282, -0.016432344913482666, 0.039286136627197266, 0.2358173131942749], [0.1936766505241394, -0.11260819435119629, -0.020771801471710205, 0.16840267181396484], [-0.2096930742263794, -0.1711464524269104, -0.19261842966079712, 0.03551262617111206], [-0.029309749603271484, 0.21321386098861694, 0.09350919723510742, 0.17811310291290283]]]}, "dense": {"bias:0": [0.007317015435546637], "kernel:0": [[-0.23796813189983368], [0.08803746104240417], [-0.12003850191831589], [-0.4158620238304138], [0.6365505456924438], [0.07504943013191223], [0.19900928437709808], [-0.09434222429990768], [-0.05011288449168205], [0.15568135678768158], [-0.06453362852334976], [-0.19079382717609406], [0.28541094064712524], [0.26617178320884705], [0.08858447521924973], [0.07553119212388992], [-0.11503908038139343], [-0.07261358201503754], [-0.05767875537276268], [-0.2125309258699417], [-0.09880870580673218], [0.062409307807683945], [0.19123032689094543], [0.061128661036491394]]}, "lstm": {"lstm_cell": {}, "kernel:0": [[-1.3992531299591064, 2.197504997253418, -0.5293548107147217, -0.1491822451353073, 0.5367620587348938, 0.5319902896881104, -1.1562825441360474, -6.480224132537842, 0.2631453573703766, -2.1335792541503906, 8.024924278259277, -1.5526148080825806, 0.5569968223571777, 0.4432567059993744, -5.239466667175293, -4.743700981140137, 0.03308404982089996, 3.563416004180908, -0.2973305881023407, 1.1880367994308472, 0.29939526319503784, -0.5460960268974304, -1.4869282245635986, 1.697921633720398, 0.0956323891878128, -0.08625702559947968, 0.08302544057369232, 0.18553678691387177, 0.07190178334712982, -0.060776516795158386, -0.13597455620765686, -0.19263209402561188, -0.1996692717075348, 0.11742852628231049, 0.2088797241449356, -0.11753614246845245, 0.1396436244249344, -0.18967756628990173, -0.03108915686607361, 0.136593297123909, -0.014734059572219849, 0.08752365410327911, 0.002527102828025818, -0.1114560216665268, 0.03683026134967804, -0.02437707781791687, 0.012273773550987244, -0.0884423553943634, 0.17376436293125153, -1.0593088865280151, 2.1169536113739014, 3.301032066345215, -0.31125131249427795, 21.454967498779297, -10.96700668334961, -2.244814395904541, -5.2032928466796875, 0.17124852538108826, 1.4623545408248901, 4.08315372467041, -0.28234952688217163, -7.6221818923950195, -1.6338169574737549, -5.765119552612305, -1.3253629207611084, -5.068325042724609, -0.6359854340553284, -11.310139656066895, -1.9491121768951416, 7.181418418884277, -5.74354887008667, -3.920313596725464, 0.36718326807022095, -2.3209564685821533, 0.9724809527397156, -3.3293776512145996, -0.35582688450813293, -5.579768180847168, 1.4693713188171387, -4.8903045654296875, -3.888045310974121, -0.8606723546981812, 3.974989652633667, -0.08588211238384247, 3.0964272022247314, -0.48559442162513733, 7.429419040679932, -2.1988983154296875, -2.230441093444824, -9.584362030029297, 1.5311671495437622, -1.1175413131713867, -0.2841373383998871, 0.05345730856060982, 1.7251514196395874, -3.591822862625122], [0.10197562724351883, 1.456842064857483, 0.06942063570022583, -0.05429951474070549, -0.5803285837173462, 2.8564069271087646, 1.1868613958358765, 2.2292680740356445, 15.5336275100708, -5.800417423248291, 2.0950448513031006, 0.9268491864204407, 0.425931453704834, 0.30056941509246826, 4.6585845947265625, -14.568684577941895, -1.8303898572921753, 1.8168377876281738, -1.155680775642395, -0.11313419044017792, 0.5624053478240967, -2.1883010864257812, 0.9172364473342896, -4.357705116271973, -0.20568428933620453, -0.09743578732013702, 0.04911951720714569, -0.23456847667694092, -0.2232646644115448, -0.04520609974861145, -0.002248823642730713, 0.11258257925510406, -0.23361222445964813, 0.2331373244524002, -0.2426198422908783, 0.12483210861682892, 0.12016119062900543, 0.05341245234012604, 0.0794868916273117, -0.07513296604156494, -0.12160712480545044, 0.1988537758588791, 0.011965826153755188, -0.1286759078502655, 0.11684124171733856, 0.09035338461399078, 0.0969557911157608, -0.1850273162126541, 0.4497023820877075, -4.788467884063721, -2.8026113510131836, -1.0934300422668457, -1.070655345916748, 16.497684478759766, -16.542705535888672, -2.248007297515869, -0.25633636116981506, -0.461929053068161, -0.8799775242805481, -2.0965261459350586, -0.7301051020622253, -2.99234938621521, -3.3855557441711426, 7.081031799316406, -1.9076560735702515, -0.030851520597934723, -9.984101295471191, -18.762542724609375, -26.153488159179688, 14.326338768005371, -14.569679260253906, 4.704868793487549, -0.3048805296421051, -0.6228774189949036, 0.4363500773906708, 0.38871845602989197, -0.11679685860872269, -15.168910026550293, 0.7778072357177734, -12.61483383178711, -2.5084292888641357, 0.2504059076309204, 0.03577562794089317, -0.32482340931892395, 4.482678413391113, 0.8963423371315002, -2.274900197982788, 11.811280250549316, -0.8035295009613037, 5.870431900024414, 0.26557067036628723, -0.33616918325424194, 1.3429723978042603, 0.0849682167172432, -3.798692464828491, 3.95579195022583], [0.7169956564903259, 5.363442897796631, -2.2333545684814453, 0.16725540161132812, 0.10685127228498459, 0.7030898332595825, -0.5402259826660156, -1.5590003728866577, -8.45502758026123, 6.003085613250732, -5.046306133270264, 0.26097598671913147, 2.73406720161438, 1.641522765159607, -0.5705689787864685, 4.657855987548828, 0.08058296889066696, 3.2345235347747803, 0.6070244312286377, 0.12701855599880219, -0.6015862226486206, 2.096970558166504, -0.25333791971206665, -1.798928141593933, 0.21409107744693756, -0.17548690736293793, 0.16423852741718292, -0.1015503853559494, 0.1895095556974411, -0.16001582145690918, 0.004244416952133179, 0.030917510390281677, 0.16511832177639008, 0.1903345137834549, -0.10664196312427521, 0.015037819743156433, -0.05026240646839142, -0.2102297693490982, 0.18990127742290497, 0.10384814441204071, -0.07866193354129791, -0.07201685011386871, -0.19727270305156708, 0.16479988396167755, 0.0952853113412857, 0.18762530386447906, 0.10575784742832184, -0.1005634218454361, 1.040848731994629, -5.248575210571289, -2.905825614929199, 1.531673789024353, -0.18065689504146576, 6.327823162078857, -9.3461332321167, 3.400351047515869, 7.020139217376709, -0.959966242313385, 0.8949649333953857, -2.556164503097534, -0.6831793189048767, -3.2056384086608887, -2.1370322704315186, -1.0117477178573608, 0.8180126547813416, 4.26465368270874, 3.841721296310425, 3.842998504638672, -4.179609298706055, 9.838383674621582, 5.419910907745361, -5.227887153625488, -0.929576575756073, -3.7566256523132324, 1.5026663541793823, -1.084773302078247, -0.335781455039978, 8.967829704284668, 0.7667492032051086, 6.188742160797119, 6.189230918884277, 0.7529508471488953, -2.546881914138794, 0.9816322326660156, -1.7677394151687622, -0.5939062237739563, -3.251011848449707, -6.25838565826416, 3.810248613357544, 2.8451671600341797, -1.8830680847167969, -0.15636739134788513, -5.0414204597473145, 0.4346506893634796, 1.5460965633392334, 0.35592377185821533], [1.7402788400650024, -1.3160197734832764, 1.273072600364685, -0.20528361201286316, -0.5487833619117737, 2.5742363929748535, 0.5502604246139526, 0.4879266023635864, -1.091118574142456, -3.695333242416382, -11.533960342407227, 1.4235185384750366, -1.2805980443954468, -1.0355709791183472, -1.3528505563735962, 3.259819269180298, -0.6346547603607178, -1.096799612045288, 1.4659276008605957, -0.13329437375068665, -4.9647979736328125, -4.920135974884033, -0.26305440068244934, -3.521639585494995, -0.04305492341518402, 0.22253377735614777, 0.06641893088817596, 0.18245552480220795, 0.19749818742275238, 0.06589309871196747, 0.1420622020959854, -0.07410331070423126, -0.21734316647052765, -0.07539279758930206, -0.1578027456998825, -0.10973566770553589, -0.07528188824653625, -0.129067063331604, 0.14162133634090424, 0.11171998083591461, -0.10249045491218567, -0.17705833911895752, -0.018925994634628296, 0.10520602762699127, 0.1928384155035019, -0.17154189944267273, -0.08956277370452881, -0.1829511821269989, -0.606182336807251, -14.643997192382812, -2.9137380123138428, 3.0256309509277344, 0.028080662712454796, -13.69145679473877, -0.5602403879165649, -1.9843382835388184, 13.994523048400879, 1.319385290145874, 1.4407756328582764, -4.169235706329346, 0.5557655096054077, 1.0121890306472778, 1.988484263420105, -2.8090200424194336, -0.07458563894033432, -3.9976513385772705, -13.3551607131958, 30.64817237854004, -2.984992265701294, -2.3797271251678467, 6.809370517730713, -4.4262871742248535, 0.46059611439704895, 2.22087025642395, -1.1884994506835938, 2.628796339035034, 0.1308848112821579, 2.82592511177063, -0.48836925625801086, 1.005508542060852, 7.001970291137695, 0.922541081905365, 1.274394154548645, -0.3647897243499756, 0.250644713640213, 2.1528918743133545, 0.8093551993370056, 0.36811330914497375, -3.827742576599121, 0.32598164677619934, -1.5888993740081787, 0.10419829189777374, 3.9475669860839844, 4.736154556274414, 0.5803606510162354, 0.4507993757724762]], "bias:0": [-0.8590244054794312, 0.5824453234672546, 1.185274362564087, -2.4533331394195557, 1.802318811416626, -5.17749547958374, 0.35074079036712646, 0.8787792325019836, -6.173068046569824, -0.7512361407279968, -1.4918261766433716, -1.058703899383545, -2.0177786350250244, -4.08063268661499, 1.7205455303192139, 1.474523901939392, -1.7851872444152832, 0.028896676376461983, -2.409160614013672, 0.4093077778816223, -3.9487147331237793, 2.633355140686035, -1.6818156242370605, 2.012565851211548, 1.0, 1.0, 1.0, 1.0, 1.0, 1.0, 1.0, 1.0, 1.0, 1.0, 1.0, 1.0, 1.0, 1.0, 1.0, 1.0, 1.0, 1.0, 1.0, 1.0, 1.0, 1.0, 1.0, 1.0, -5.067813396453857, -1.0720767974853516, 0.11325984448194504, 0.22975264489650726, -0.2201899290084839, -2.2994914054870605, 1.9420218467712402, 0.23657900094985962, -1.700713038444519, -5.145450115203857, 2.0891027450561523, -0.003881791140884161, -6.487890720367432, -0.8754130005836487, 0.4132157862186432, -1.4069232940673828, -0.15883679687976837, -2.3757429122924805, 6.841724395751953, -1.2226577997207642, 3.742511510848999, -2.567326545715332, -0.9914763569831848, -0.5191840529441833, 2.7901179790496826, 0.4211956262588501, 0.9561916589736938, 2.400062084197998, -2.0112173557281494, 0.590244710445404, -2.1733875274658203, -0.7134042978286743, 1.436679482460022, 1.4543098211288452, 0.13710294663906097, 0.2814319431781769, 0.3830406069755554, 2.524318218231201, -0.14223738014698029, 4.119050979614258, 3.6999435424804688, 0.12107720971107483, 9.618428230285645, -2.8631668090820312, 4.180996894836426, -0.7959587574005127, 2.8153440952301025, 1.8494606018066406]}, "input_size": 120, "conv1d_stride": 12, "conv1d_1_stride": 12}