{"conv1d": {"bias:0": [0.0005430768942460418, 0.001958664273843169, 0.002767302328720689, 0.00014384626410901546], "kernel:0": [[[-6.178550720214844, 6.430156230926514, -6.251009941101074, 11.729182243347168]], [[7.442288875579834, -7.643235683441162, 1.4014195203781128, -14.674473762512207]], [[2.623173236846924, 5.375256538391113, 5.868258953094482, -0.3716510832309723]], [[-0.40325161814689636, 0.8174649477005005, 0.6620098948478699, 0.7946423292160034]], [[-0.3386620581150055, 0.5596926808357239, -0.2200157642364502, -0.40051981806755066]], [[-0.8502420783042908, 0.800907552242279, 0.27069324254989624, 0.8286558985710144]], [[-1.78267502784729, -0.09743993729352951, -1.422390341758728, 0.6271719336509705]], [[-1.6096621751785278, -1.186710000038147, -2.000311851501465, -0.5231869220733643]], [[-0.3596896529197693, -0.18915018439292908, 0.12857156991958618, 0.6112356781959534]], [[-1.667752742767334, -0.13255836069583893, 1.100541591644287, 0.9177858233451843]], [[-2.5371668338775635, -0.4380628764629364, -1.5426628589630127, 0.4461033344268799]], [[5.80101203918457, 1.8827600479125977, 1.6409993171691895, -0.16026903688907623]]]}, "conv1d_1": {"bias:0": [-0.07711756229400635, 0.1315854787826538, -0.11826200783252716, -0.027765577659010887], "kernel:0": [[[0.008112907409667969, 0.17175179719924927, 0.008988618850708008, -0.2321070432662964], [-0.12050497531890869, -0.05789518356323242, -0.18189895153045654, -0.07953417301177979], [-0.19626301527023315, 0.017694830894470215, 0.23103851079940796, 0.18747025728225708], [-0.05700570344924927, 0.05513101816177368, -0.13016259670257568, 0.05015730857849121]], [[-0.4300107955932617, 3.488496780395508, 0.012598786503076553, 2.8946285247802734], [-6.324275970458984, -7.9051923751831055, -2.159088134765625, -7.575156211853027], [2.1505634784698486, -1.0748984813690186, -2.730832099914551, -1.6620410680770874], [-8.843501091003418, -6.769742965698242, -6.575920581817627, -8.454328536987305]], [[-0.07292729616165161, 1.8308855295181274, 1.0884144306182861, -5.201298236846924], [2.004096508026123, -3.4381041526794434, 4.136122226715088, 6.270576000213623], [-1.8685404062271118, 2.7701945304870605, -1.9585801362991333, 3.5467350482940674], [0.021937141194939613, 5.945219039916992, 0.7652257084846497, 3.081023931503296]], [[1.4824788570404053, -4.897076606750488, -1.9457764625549316, 2.2184314727783203], [-0.4578721225261688, 11.876778602600098, 1.4641674757003784, 4.308615207672119], [-0.8072802424430847, -1.1335886716842651, 5.679922103881836, -4.616128444671631], [0.9335859417915344, -6.351902961730957, 0.19381724298000336, 1.9955623149871826]], [[-0.6410077214241028, 0.6062440872192383, 0.4780164062976837, 0.2623230218887329], [0.16356606781482697, 0.8763364553451538, 2.5230259895324707, -1.8104147911071777], [1.506477952003479, -0.6007481217384338, -0.48815611004829407, 1.6981927156448364], [0.7927636504173279, 0.6702042818069458, 1.3983181715011597, 0.4058254063129425]], [[-0.5494313836097717, -0.28151175379753113, -0.7113369107246399, 0.3460305333137512], [0.39422231912612915, -0.5403921604156494, 0.28845521807670593, -0.07726315408945084], [-0.8844134211540222, 0.7477930188179016, -1.1864911317825317, 0.018058056011795998], [-0.5470519661903381, 0.3089253902435303, -0.8552801609039307, 0.2769918739795685]], [[0.1273575723171234, 0.00026310374960303307, 0.25133684277534485, -0.4221479892730713], [-0.37840983271598816, 0.03411000221967697, 0.44301068782806396, 0.06816480308771133], [-0.0006234827451407909, -0.20817770063877106, 0.2968732416629791, -0.07656450569629669], [-0.006571740843355656, 0.011751323938369751, 0.028161494061350822, -0.4972594082355499]], [[-0.2408287227153778, 0.06384992599487305, -0.17299270629882812, 0.4364941418170929], [-0.24024558067321777, 0.07055320590734482, -0.37616708874702454, 0.4334855079650879], [0.1394769847393036, -0.30952268838882446, -0.45679783821105957, 0.61585932970047], [-0.051281508058309555, 0.0529915913939476, 0.09550075978040695, 0.9272611737251282]], [[-0.22991757094860077, -0.16024062037467957, 0.2923719882965088, -0.10017705708742142], [-0.7154678106307983, 0.02605288475751877, -1.0335885286331177, 0.27730756998062134], [0.3607102930545807, 0.23809637129306793, -0.06253267824649811, -0.02916102670133114], [-0.5553751587867737, 0.35641539096832275, -1.208086371421814, 0.9775912165641785]], [[0.04583599790930748, 0.09417352080345154, 0.7710874080657959, -0.06993131339550018], [-0.2321217656135559, 0.19575706124305725, -0.2077665477991104, 0.29558396339416504], [-0.3438520133495331, 0.32784441113471985, 0.39937567710876465, 0.32965970039367676], [0.24772796034812927, 0.44299861788749695, 0.3376031816005707, 0.0934603363275528]], [[0.7557772397994995, -0.3355116546154022, 0.2870657742023468, -0.6295235753059387], [0.06077703833580017, -0.21398460865020752, -0.2540505528450012, -0.1094774603843689], [-0.26087045669555664, -0.6291909217834473, 0.6678435206413269, 0.06141115725040436], [0.6076985597610474, -0.5347598791122437, 0.005631791427731514, -0.3154152035713196]], [[0.028083622455596924, 0.11886274814605713, -0.09693652391433716, -0.05216866731643677], [0.12142413854598999, -0.09973293542861938, -0.11455154418945312, -0.007945895195007324], [-0.24250072240829468, -0.03945261240005493, 0.18430370092391968, -0.0058400630950927734], [0.21117210388183594, -0.18291038274765015, 0.1943337321281433, 0.24272745847702026]]]}, "dense": {"bias:0": [0.08143652230501175], "kernel:0": [[0.3373204469680786], [-0.05497635155916214], [0.10380096733570099], [0.1618712693452835], [-0.6025510430335999], [-0.5537352561950684], [-0.2529018223285675], [-0.2512781322002411], [-0.1544351428747177], [-0.5028072595596313], [0.029331207275390625], [-0.053312934935092926], [0.18245060741901398], [-0.044061727821826935], [0.052918385714292526], [-0.1194964051246643], [0.052173588424921036], [-0.13131864368915558], [0.12010177224874496], [-0.4290613532066345], [-1.0572742223739624], [1.4124077558517456], [0.048272646963596344], [0.7531490325927734]]}, "lstm": {"lstm_cell": {}, "kernel:0": [[0.4738827049732208, 13.624517440795898, 5.5113396644592285, 0.7587001919746399, -0.4787933826446533, 0.13693839311599731, -0.23585611581802368, -1.570089340209961, 0.0034370776265859604, 0.11656493693590164, 1.3631041049957275, 5.380188465118408, 4.343988418579102, 3.727491617202759, -8.819416999816895, 0.8512080311775208, -1.8491896390914917, -1.6925901174545288, 4.6351094245910645, -0.6778193712234497, -5.671842098236084, 3.913506507873535, -3.0143728256225586, -0.18753980100154877, 0.22828306257724762, -0.12388450652360916, -0.2299928069114685, -0.001975506544113159, 0.22378496825695038, 0.11698479950428009, 0.05440498888492584, 0.06402929127216339, 0.017922326922416687, 0.15920622646808624, 0.027715429663658142, 0.22765375673770905, -0.05875587463378906, -0.11245250701904297, 0.09844399988651276, 0.03630624711513519, -0.12674537301063538, 0.1661555916070938, 0.1830885261297226, 0.15599425137043, 0.13179145753383636, 0.1762680858373642, 0.11831332743167877, -0.04572230577468872, -1.2776294946670532, -7.218997478485107, -3.3242697715759277, 4.743239402770996, 1.1240136623382568, -6.076220512390137, 0.022298751398921013, -0.032099898904561996, -0.20511195063591003, -7.411694526672363, -4.060806751251221, -0.6568706035614014, -0.1043834462761879, 5.611902236938477, 1.151437759399414, 0.897996187210083, -5.375418186187744, 6.464953899383545, 2.8428385257720947, -0.3141569495201111, -0.4185180068016052, 7.936463356018066, 1.0724163055419922, -3.288208246231079, 3.3610897064208984, 2.639000177383423, -1.585698127746582, 0.3350188732147217, -0.25584349036216736, -0.3785727620124817, -0.3711782991886139, 1.3523609638214111, 0.7494687438011169, 16.17898941040039, 27.84389877319336, -4.378840446472168, -2.181334972381592, -2.791616201400757, -7.638932228088379, -3.7350354194641113, -5.3401875495910645, 4.609740257263184, -3.780226230621338, 1.2187323570251465, 2.3195621967315674, -0.7273096442222595, 1.5969252586364746, 0.07033409178256989], [0.22349800169467926, 4.749655246734619, 3.856433153152466, -0.07089733332395554, 1.6092078685760498, -1.8043392896652222, 1.5120822191238403, -3.0009255409240723, -1.7240805625915527, -0.10639021545648575, 2.983766555786133, 17.491567611694336, 4.802280426025391, 8.31081771850586, 10.526107788085938, 1.7354872226715088, 0.6592376232147217, -0.9660329222679138, 1.5333881378173828, 1.571006178855896, -1.2533856630325317, 7.286078453063965, -2.0346791744232178, 0.8989357948303223, -0.08631810545921326, -0.2052028924226761, -0.14117532968521118, -0.053437694907188416, 0.12715323269367218, -0.21021954715251923, -0.1735960841178894, 0.23918159306049347, 0.11279578506946564, -0.18456308543682098, -0.11379402875900269, -0.1257638931274414, -0.014725133776664734, -0.01791110634803772, -0.20209500193595886, -0.010134398937225342, -0.17949813604354858, -0.16080902516841888, 0.13613812625408173, 0.2100704461336136, 0.18007321655750275, -0.13909663259983063, -0.2137213498353958, 0.010335519909858704, -0.31114277243614197, 1.755524754524231, -0.17047135531902313, 9.19210147857666, -0.397429883480072, -0.165563702583313, -11.747891426086426, -0.3720071017742157, -1.3908915519714355, 5.055015563964844, 1.5736113786697388, 0.30060693621635437, -0.4130392372608185, -1.2553186416625977, 3.515721559524536, -1.7105129957199097, 2.245967149734497, -12.334930419921875, 1.4736056327819824, -0.4214846193790436, -3.611497402191162, -11.020162582397461, 1.4982322454452515, 3.5351157188415527, -2.897087335586548, -7.006259918212891, 0.11079837381839752, 2.301955461502075, -1.0155518054962158, 1.0496327877044678, -2.2681968212127686, -1.9540929794311523, 0.09009337425231934, 15.090404510498047, -4.841954708099365, 1.1343541145324707, -4.21232795715332, 0.05183980241417885, 3.3494584560394287, -3.1623406410217285, 0.942720890045166, 1.546521544456482, -2.8466339111328125, -1.8930870294570923, 0.49263834953308105, -1.692164421081543, -0.49786847829818726, -1.0211880207061768], [-0.7054163813591003, 2.1372342109680176, -2.314387798309326, -0.33586639165878296, -0.08407571911811829, -0.22314533591270447, 0.41069209575653076, -0.4707992970943451, -2.180288553237915, -0.0960356593132019, 2.463404893875122, 35.83897399902344, -0.17302173376083374, 15.665106773376465, -3.614677667617798, 1.046498417854309, -2.2568740844726562, -0.801383376121521, -0.29875704646110535, 1.1625744104385376, 12.925871849060059, 2.8354690074920654, -1.045795202255249, 0.08632565289735794, -0.05072645843029022, 0.23368482291698456, -0.11777202785015106, -0.2185124009847641, 0.2210780531167984, 0.1401403695344925, -0.050994157791137695, -0.11689099669456482, -0.04960441589355469, -0.23065203428268433, 0.16417552530765533, 0.12125824391841888, -0.1564345359802246, 0.11581362783908844, -0.12117472290992737, 0.2001548856496811, -0.23547957837581635, -0.13428017497062683, 0.08356727659702301, -0.08469434082508087, 0.16818611323833466, -0.2291920781135559, 0.014901801943778992, -0.11218346655368805, 2.830552339553833, -3.4659273624420166, 2.4000062942504883, -2.940753221511841, 0.7549834251403809, -4.079408168792725, -2.780499219894409, -0.05625995621085167, 0.9322742819786072, -5.954322338104248, 6.011609077453613, -1.675245761871338, 0.18471568822860718, 0.37498608231544495, -0.8200063109397888, -1.148823618888855, -8.333459854125977, 12.223649978637695, 1.1419310569763184, 1.574303150177002, 6.163777828216553, 14.534465789794922, -1.366202712059021, 0.538989782333374, 0.6725989580154419, -14.399454116821289, -0.1545339971780777, -0.1661817580461502, -0.22748792171478271, 0.8540037870407104, -0.04579991474747658, -0.9917888641357422, 0.7810607552528381, 0.4385966360569, -33.2275505065918, -0.1466004103422165, -1.0008755922317505, -1.3005273342132568, -3.584745407104492, 1.6686649322509766, -0.4257340133190155, 3.0629992485046387, -5.113102436065674, -0.28507229685783386, -5.443636894226074, -0.8241778612136841, -12.483985900878906, -0.3717522919178009], [0.23099221289157867, -1.9909580945968628, 0.17937667667865753, -2.7664682865142822, -0.5168054103851318, 0.7116404175758362, 2.6937639713287354, -0.7343092560768127, -4.099093914031982, 0.02010919526219368, -8.556588172912598, -17.653173446655273, 3.364419937133789, -8.054451942443848, 16.86189079284668, -0.6402400732040405, 7.48382568359375, -6.443352699279785, 6.432688236236572, 0.8799132704734802, 2.5804173946380615, -1.9458914995193481, -1.3916875123977661, -0.04968676716089249, -0.05110640823841095, -0.22240899503231049, 0.13171763718128204, 0.19629071652889252, -0.007958516478538513, 0.029665693640708923, -0.17584210634231567, 0.197034552693367, 0.16532443463802338, -0.10102373361587524, -0.01986260712146759, 0.08447416126728058, -0.15608075261116028, 0.20929349958896637, 0.020838662981987, 0.1283312290906906, -0.18224570155143738, 0.07121355831623077, 0.03464807569980621, -0.010278120636940002, 0.14321215450763702, 0.041684165596961975, -0.20330411195755005, 0.1853921264410019, -0.7315173149108887, 1.0370851755142212, 2.362990140914917, -3.30709171295166, 3.152519464492798, 1.0521214008331299, 19.548675537109375, 0.40703874826431274, -1.6745314598083496, -4.554515838623047, 4.287782669067383, 0.1531631350517273, -0.0012116101570427418, -1.3875141143798828, 0.6366933584213257, -1.2816061973571777, -2.1942808628082275, 17.258852005004883, 0.18511179089546204, 3.5274901390075684, 12.257709503173828, 15.819121360778809, 0.39831849932670593, -4.334340572357178, -2.068026065826416, -9.294734954833984, 0.6047937273979187, 5.30630350112915, -2.364875078201294, -0.33323732018470764, 1.0293763875961304, -1.5785056352615356, 2.631516933441162, 4.78116512298584, -1.6124744415283203, 5.089822292327881, -9.086228370666504, 1.1281768083572388, -2.903630018234253, -0.4820987284183502, -18.99464988708496, 1.477154016494751, -9.401521682739258, -0.08422844111919403, -1.0086266994476318, 0.3227805197238922, -1.120882272720337, 0.8174652457237244]], "bias:0": [-2.710569143295288, -0.0019929329864680767, -1.080984354019165, -1.005205512046814, -2.3329665660858154, -2.4126532077789307, 2.130070447921753, 2.8051412105560303, 1.6688867807388306, -3.0707781314849854, -0.041313860565423965, -4.888749122619629, -0.7097822427749634, -3.3190956115722656, -2.8158464431762695, 2.3278279304504395, 0.6341071128845215, -2.290382146835327, 1.9910372495651245, 1.8370068073272705, 1.4310660362243652, 1.118971824645996, 1.9548959732055664, 2.2269465923309326, 1.0, 1.0, 1.0, 1.0, 1.0, 1.0, 1.0, 1.0, 1.0, 1.0, 1.0, 1.0, 1.0, 1.0, 1.0, 1.0, 1.0, 1.0, 1.0, 1.0, 1.0, 1.0, 1.0, 1.0, 1.4106478691101074, 0.5979924201965332, 10.127153396606445, -1.1107635498046875, -0.04530581831932068, -0.78255295753479, -8.462137222290039, 1.8793518543243408, 0.9812135100364685, -3.068619966506958, 0.3992898166179657, 0.627766489982605, 1.223285436630249, 0.8142807483673096, 1.6328575611114502, 0.6528323888778687, -1.4100615978240967, -1.0449950695037842, -1.7404574155807495, -0.03361960127949715, 1.080391764640808, -4.4652557373046875, -2.252281665802002, -0.7834564447402954, -0.5476908087730408, 2.5146548748016357, 1.5984760522842407, -2.030395269393921, 0.518294632434845, -1.3023722171783447, -4.49018669128418, -0.44402751326560974, 2.4948813915252686, 1.5507044792175293, 8.065320014953613, -0.25279995799064636, 3.770824670791626, 1.1136980056762695, -0.43541646003723145, 1.7606029510498047, 1.4073607921600342, -0.36128169298171997, -0.8916225433349609, -2.3521487712860107, -3.2731423377990723, -3.9089388847351074, -0.8525066375732422, -5.183658599853516]}, "input_size": 120, "conv1d_stride": 12, "conv1d_1_stride": 12}