{"conv1d": {"bias:0": [-0.0017037211218848825, -0.012046847492456436, -0.010931245051324368, 0.007172549143433571], "kernel:0": [[[-9.079573631286621, -0.9886499047279358, 11.839862823486328, 4.400637626647949]], [[3.923353433609009, -2.830350875854492, -13.232606887817383, -2.043344497680664]], [[2.146749496459961, -1.274253487586975, -3.606901168823242, -0.6732776165008545]], [[-1.2166248559951782, -1.1148611307144165, 0.8285657167434692, 1.2118710279464722]], [[-1.3887048959732056, -0.9282181262969971, 0.800035834312439, 1.5931004285812378]], [[-0.24405929446220398, -1.6742939949035645, 1.3800580501556396, 1.0542008876800537]], [[0.8350516557693481, -2.2761647701263428, 1.3999898433685303, -0.0377376563847065]], [[3.6565186977386475, -1.7702889442443848, 0.6203848719596863, -1.3816335201263428]], [[4.851800441741943, -1.7706010341644287, 1.0729405879974365, -2.1854798793792725]], [[3.3171777725219727, -3.3941280841827393, 1.3147679567337036, -2.106987476348877]], [[-0.8885639905929565, -1.8475662469863892, 0.5323918461799622, -0.5406017899513245]], [[-9.144620895385742, 4.503323078155518, -2.606281042098999, 0.07369482517242432]]]}, "conv1d_1": {"bias:0": [0.17004862427711487, -0.09165646880865097, 0.09167123585939407, -0.09207603335380554], "kernel:0": [[[-0.20619070529937744, -0.1343519687652588, -0.046999454498291016, -0.09826475381851196], [0.22387689352035522, 0.09401094913482666, 0.00135117769241333, -0.0006124377250671387], [0.0474814772605896, 0.010611653327941895, -0.04713219404220581, 0.133320152759552], [0.2214232087135315, 0.048726677894592285, 0.09064847230911255, -0.16804957389831543]], [[7.425604820251465, -11.932003021240234, -0.6817075610160828, -0.45782554149627686], [6.537776947021484, -10.724431991577148, 4.252458095550537, 6.601916313171387], [-16.0230770111084, 21.338991165161133, 10.882586479187012, 15.019344329833984], [0.9062639474868774, 0.9438657760620117, 9.976946830749512, 11.099106788635254]], [[-2.4962196350097656, 3.6762964725494385, 0.3371742069721222, 0.2326035350561142], [6.884991645812988, 6.356265068054199, 3.4558510780334473, 0.422674298286438], [5.476534843444824, -5.9626665115356445, -0.04028664901852608, -1.5757334232330322], [-3.306248426437378, 5.115142345428467, -13.806177139282227, -13.878861427307129]], [[-6.097040176391602, 3.078427314758301, -5.099643230438232, -0.6912851333618164], [-8.414813041687012, 1.7855292558670044, -9.381701469421387, -1.6152278184890747], [-4.384937286376953, -3.8292627334594727, -4.603071212768555, -3.0241637229919434], [3.461395502090454, -3.252337694168091, 4.669064044952393, 4.452284336090088]], [[-0.7129960060119629, 0.5622405409812927, 1.5659412145614624, 1.593387246131897], [1.6935967206954956, -0.7871275544166565, 0.3150477111339569, 1.0232192277908325], [4.426136493682861, -1.787870168685913, -0.5373890399932861, -1.8597911596298218], [0.8683168292045593, -0.1655479520559311, -1.23970627784729, -0.9285395741462708]], [[1.0998526811599731, 0.8770211935043335, -0.35719504952430725, -0.36286425590515137], [0.8780646324157715, -0.5297236442565918, -1.2550088167190552, 0.6871381402015686], [2.1465649604797363, -2.5561747550964355, -0.4866681396961212, -2.908156394958496], [-0.86832594871521, -0.6484910845756531, -0.08735384047031403, 0.8541762828826904]], [[-0.23044353723526, 0.9428542852401733, -0.1528031975030899, 0.45522841811180115], [1.2625054121017456, -0.508282482624054, -0.7862059473991394, 0.3746546804904938], [2.20609974861145, -1.5815943479537964, 0.20370177924633026, -2.631805181503296], [-0.3871358633041382, -0.36395472288131714, 0.018854159861803055, -0.1670185625553131]], [[-0.2764570116996765, 0.7674835324287415, 1.0205481052398682, 0.2020324021577835], [0.6967360973358154, -0.24306680262088776, -1.1207352876663208, 0.8731731176376343], [2.3736867904663086, -1.0672881603240967, -2.309735059738159, -0.5730857253074646], [0.5208951234817505, -0.4240977168083191, 0.5062160491943359, -1.1727889776229858]], [[0.8963811993598938, 0.6556832194328308, 0.6665796637535095, -0.4514527916908264], [1.208903193473816, -0.28668496012687683, -1.3065755367279053, 0.4976816475391388], [-0.061008747667074203, -0.9759857058525085, -1.9462223052978516, 0.6094086766242981], [-0.4223893880844116, -0.5039994716644287, -0.09093047678470612, 1.777090072631836]], [[-2.3355493545532227, 1.0011913776397705, 1.0910720825195312, 0.07683131843805313], [0.11694247275590897, 0.002877885475754738, -0.31663304567337036, -0.47426947951316833], [2.235792398452759, -1.597369909286499, 0.4283040165901184, -2.571481227874756], [-1.2509104013442993, 0.09374531358480453, 0.7024714946746826, -1.4679844379425049]], [[1.40926194190979, -0.33336788415908813, -0.8688400983810425, 1.869645118713379], [0.6791831254959106, -0.2291349619626999, -0.6703448295593262, 0.7440090179443359], [1.2435756921768188, -1.7327910661697388, -1.6965022087097168, -0.2940477430820465], [0.58955979347229, -0.8959716558456421, -0.6172395348548889, -0.6545178294181824]], [[-0.04980653524398804, -0.15072143077850342, -0.09813451766967773, -0.2335982322692871], [0.23593050241470337, 0.21824795007705688, -0.19553667306900024, 0.0004483461380004883], [-0.09956967830657959, -0.15471631288528442, -0.12431734800338745, 0.19846957921981812], [0.07630610466003418, -0.14188361167907715, 0.08479130268096924, 0.0239870548248291]]]}, "dense": {"bias:0": [-0.18524180352687836], "kernel:0": [[-0.2193874716758728], [-0.5302090048789978], [-0.10990191996097565], [-0.2645469009876251], [0.03750286623835564], [-0.11992841213941574], [-0.16544899344444275], [0.05654095485806465], [-0.10582669079303741], [0.041072070598602295], [-0.4388890266418457], [-0.14437128603458405], [0.1633242815732956], [-0.22483769059181213], [0.05498647317290306], [-0.13734841346740723], [0.0657721757888794], [-0.30890944600105286], [0.19798314571380615], [-0.03139578923583031], [0.0964609682559967], [-0.3871573209762573], [0.10676246881484985], [-0.1372021734714508]]}, "lstm": {"lstm_cell": {}, "kernel:0": [[-1.6510165929794312, 1.0235463380813599, 0.34043100476264954, 1.9217438697814941, -0.5809348225593567, 3.428622245788574, -1.9392558336257935, 1.910270094871521, 5.957864284515381, -0.3299292325973511, -0.5574530959129333, 1.4429563283920288, -8.934504508972168, 1.2570631504058838, 1.5017975568771362, 1.4654022455215454, -0.5245634913444519, -1.713368535041809, -1.3458150625228882, 0.38015103340148926, -4.274701118469238, 1.0579487085342407, -0.8574547171592712, -6.337721347808838, -0.1877765655517578, -0.05463607609272003, 0.19731469452381134, -0.016653046011924744, 0.08998747169971466, 0.20270733535289764, 0.128305122256279, -0.1043856143951416, -0.20884525775909424, -0.17509981989860535, 0.06930263340473175, 0.03827957808971405, -0.16427157819271088, 0.006979301571846008, 0.18946726620197296, -0.16967764496803284, 0.03885681927204132, 0.22152380645275116, -0.0644267201423645, 0.11770550906658173, -0.15635353326797485, 0.1466541737318039, 0.23904870450496674, -0.03845664858818054, -0.942371129989624, -1.0075782537460327, 0.9031554460525513, -0.6426572799682617, -6.12114143371582, 1.1240276098251343, -0.6834487915039062, -2.411017656326294, -19.864721298217773, -5.359829425811768, -3.046332597732544, -0.9890663623809814, 0.579170286655426, 1.3915455341339111, -4.592754364013672, -1.1142445802688599, -0.3985840976238251, 0.2932005226612091, 12.716557502746582, 4.747674942016602, -0.19246001541614532, 0.6779448986053467, -6.160675525665283, -0.4113366901874542, 0.20438960194587708, 0.5526703000068665, -7.308598041534424, 0.2655481994152069, 9.067984580993652, -2.8537168502807617, -1.6818574666976929, 6.957245349884033, 1.2301700115203857, 35.300209045410156, 11.637340545654297, -4.419319152832031, -0.2770121395587921, -1.0606309175491333, -2.1925745010375977, -1.5368317365646362, -10.217927932739258, 0.08993712812662125, 1.7963732481002808, -4.033446788787842, 1.8321348428726196, -0.44352516531944275, 9.899452209472656, -0.605987548828125], [0.7600775957107544, -0.436420738697052, -1.9045168161392212, 0.29167842864990234, -1.1496596336364746, -22.059120178222656, -5.46113920211792, 0.10739172995090485, -2.421586275100708, -4.147856712341309, -0.16553935408592224, -0.34417203068733215, 0.6031776070594788, 0.14887544512748718, 0.5406620502471924, -2.123538017272949, -0.46891191601753235, 4.55161190032959, -0.20265519618988037, 0.29240673780441284, 5.922068119049072, -0.6349960565567017, 1.0904252529144287, 0.2766052484512329, 0.052265480160713196, 0.03148369491100311, 0.07581432163715363, 0.11937446892261505, 0.08229275047779083, 0.029840096831321716, -0.04521071910858154, 0.07801024615764618, 0.23270176351070404, -0.039157167077064514, 0.14058484137058258, 0.13351140916347504, 0.11706088483333588, -0.039456531405448914, 0.21999092400074005, 0.08173419535160065, -0.002901330590248108, 0.20357732474803925, -0.12568077445030212, -0.04172275960445404, 0.0619061142206192, -0.13504761457443237, 0.1579200178384781, -0.11997967958450317, 0.798895537853241, 0.5734013319015503, -0.5942369699478149, -0.5658102631568909, -4.339486598968506, 0.5337417721748352, -0.3282521665096283, 1.7193015813827515, 5.117048740386963, -2.5654258728027344, 14.711649894714355, -0.27241671085357666, -0.07601812481880188, 0.2742002010345459, 10.283504486083984, 0.019846901297569275, 0.028059421107172966, -1.845744252204895, 31.377546310424805, 18.93700408935547, 1.122668743133545, 6.064083099365234, -7.019541263580322, -0.31804734468460083, -0.28532111644744873, -0.0564047172665596, 6.77689266204834, 0.9146199822425842, -17.81380271911621, 15.5010986328125, 0.6168356537818909, 0.07219666242599487, 6.16117525100708, -23.501750946044922, 3.2719221115112305, 14.715991973876953, -3.9937283992767334, 1.6302449703216553, -4.551599502563477, 1.2114527225494385, 4.858051776885986, -0.38940778374671936, -1.2765434980392456, -54.789024353027344, -7.556156158447266, -0.04800448566675186, -7.868075847625732, -2.9612276554107666], [-1.329206109046936, 1.019819974899292, 3.015488862991333, 0.2722172439098358, -31.20635414123535, 5.682484149932861, 1.5449671745300293, -2.8874130249023438, 0.06257854402065277, -2.185624837875366, 0.05297300964593887, -0.1002732440829277, 5.7884745597839355, 0.4387948513031006, -0.6263527870178223, -1.0033965110778809, 1.0522119998931885, -1.1520133018493652, 0.2069287896156311, -0.9584876894950867, -8.512654304504395, 1.4253145456314087, 1.1342436075210571, 3.8295085430145264, -0.019234344363212585, -0.07055455446243286, -0.04129362106323242, -0.13601303100585938, -0.1542986035346985, -0.1952349990606308, 0.024222835898399353, 0.24398677051067352, -0.1453382968902588, 0.17959906160831451, 0.11864487826824188, 0.1584831029176712, -0.04122541844844818, 0.1825125366449356, 0.07096971571445465, -0.185524582862854, 0.18574900925159454, -0.15475541353225708, 0.09471999108791351, -0.20080913603305817, -0.09312905371189117, 0.17689885199069977, -0.02278830111026764, 0.16979019343852997, -0.37000972032546997, -1.423409342765808, -1.6354769468307495, -1.0580849647521973, 5.548567295074463, -8.059608459472656, -0.19699451327323914, 1.5395640134811401, 0.017572980374097824, 3.148347854614258, -10.179443359375, 0.4523829221725464, 0.38814881443977356, -2.823665142059326, 6.801524639129639, -0.5002104640007019, 0.25585728883743286, -0.36981070041656494, 3.542250394821167, 10.093546867370605, 0.6014639139175415, 4.9799981117248535, -2.233546733856201, 0.2322445958852768, 1.0209722518920898, 0.5182332396507263, 3.2232601642608643, -0.1470455527305603, -3.0499989986419678, 2.818652629852295, -0.44193536043167114, 1.6917415857315063, 0.04542459174990654, 45.93599319458008, -1.8483699560165405, 1.604310393333435, -1.266103982925415, -0.8148114681243896, 1.3885877132415771, -1.0274832248687744, 7.687504291534424, 0.3666236698627472, 0.22001895308494568, -13.527678489685059, -3.620626926422119, -0.5496845245361328, -15.634987831115723, 9.26356029510498], [-2.3333914279937744, -0.9284154176712036, -1.5759053230285645, 1.1696364879608154, -9.108160972595215, -1.1632802486419678, 6.842636585235596, 2.2514731884002686, -1.3764088153839111, -12.77682876586914, 0.8961877226829529, 0.34395766258239746, -5.661065578460693, 0.7617504000663757, -2.3896071910858154, 3.0803864002227783, -1.0104143619537354, -1.5144543647766113, -0.177984818816185, -4.35124397277832, -1.1367220878601074, -1.4390684366226196, 3.6155059337615967, -2.6969363689422607, 0.16598324477672577, -0.20497320592403412, -0.1079537570476532, -0.12858998775482178, 0.20310251414775848, 0.027007266879081726, -0.20136721432209015, -0.0801653265953064, -0.1942606419324875, 0.04593260586261749, 0.10150401294231415, 0.23118062317371368, -0.06458662450313568, -0.19410069286823273, -0.008729517459869385, 0.09483136236667633, -0.1771344393491745, -0.13600024580955505, -0.022347554564476013, -0.058985501527786255, 0.12870047986507416, 0.19272096455097198, -0.156601220369339, -0.016691118478775024, 0.9894614219665527, 1.2180982828140259, -1.2302837371826172, 1.3335593938827515, -1.0400766134262085, 3.502520799636841, -0.5902830362319946, -1.6242284774780273, 5.773438930511475, -1.8389304876327515, 1.986171007156372, -1.3512858152389526, -0.4833848476409912, 1.5130597352981567, 5.175025939941406, -0.7498941421508789, -0.4231531023979187, -1.2995537519454956, -1.0382959842681885, 7.013408184051514, 1.331061840057373, 4.873356342315674, 13.745126724243164, -0.3939075171947479, -0.34492436051368713, -0.10345014184713364, -5.643312931060791, -0.9503490328788757, 5.462934494018555, -0.859607458114624, 0.10525141656398773, -4.5167036056518555, 1.056372046470642, 45.687068939208984, -17.835052490234375, -3.891895294189453, 0.6505042314529419, 0.36025798320770264, 4.973845958709717, 1.4755401611328125, -5.8910112380981445, -0.4017616808414459, -0.13389098644256592, 4.145437240600586, 5.938112258911133, -0.2082076370716095, -16.45424461364746, 0.8965663313865662]], "bias:0": [-3.015578031539917, 9.139002799987793, 2.3845958709716797, -4.373943328857422, 4.6003851890563965, -1.597141146659851, 0.7649564146995544, -1.3043793439865112, -2.591384172439575, 0.31052905321121216, -2.601203203201294, 1.3868268728256226, -5.696656703948975, -1.6983035802841187, 1.6067017316818237, 1.0107711553573608, 2.6315813064575195, 4.662761211395264, -2.4134838581085205, 7.4961395263671875, -0.01563326269388199, -6.754070281982422, -4.932302951812744, -3.2120361328125, 1.0, 1.0, 1.0, 1.0, 1.0, 1.0, 1.0, 1.0, 1.0, 1.0, 1.0, 1.0, 1.0, 1.0, 1.0, 1.0, 1.0, 1.0, 1.0, 1.0, 1.0, 1.0, 1.0, 1.0, 7.321529388427734, -18.771337509155273, 3.333758592605591, -4.313447952270508, -1.227347493171692, -2.6862478256225586, -1.7635177373886108, 3.764108657836914, 3.3769001960754395, -1.8424662351608276, 4.173377990722656, 1.5306439399719238, -0.9704245924949646, 3.297743320465088, 0.42279303073883057, -3.1168320178985596, -1.4867829084396362, -1.078899621963501, 0.10024173557758331, 0.0616021528840065, -1.1169153451919556, 2.15248441696167, -5.371370792388916, -0.3827679753303528, -1.1051173210144043, 0.10688380897045135, -0.8261191248893738, 0.7074506282806396, 0.8851132988929749, 3.914041757583618, 3.0032267570495605, 0.8495349287986755, 0.24836403131484985, -0.3700706660747528, 1.81308913230896, -0.030451251193881035, -0.01630479469895363, -10.74112319946289, 5.386847972869873, -3.5271894931793213, -1.7629454135894775, -2.0256528854370117, 2.2925937175750732, -5.877547264099121, 5.175948143005371, -3.541097640991211, 0.9008315205574036, -1.7020988464355469]}, "input_size": 120, "conv1d_stride": 12, "conv1d_1_stride": 12}