{"model_data": {"model": "SimpleRNN", "input_size": 1, "skip": 1, "output_size": 1, "unit_type": "LSTM", "num_layers": 1, "hidden_size": 32, "bias_fl": true}, "state_dict": {"rec.weight_ih_l0": [[0.09093841165304184], [0.04215648025274277], [0.06883245706558228], [-0.0009322929545305669], [-0.0004730143991764635], [-0.14741982519626617], [-0.07616513967514038], [-0.03386402130126953], [0.08575956523418427], [0.14792436361312866], [0.06788980215787888], [0.00035384067450650036], [-0.00947914831340313], [0.0737006738781929], [0.0061479732394218445], [-0.00010417132580187172], [0.03976829722523689], [0.0013408772647380829], [-0.0001730206422507763], [0.008031416684389114], [0.06007238104939461], [-0.019089214503765106], [-0.049403708428144455], [-0.0005599076976068318], [-0.1018146276473999], [-0.045236725360155106], [0.009336326271295547], [0.007158015388995409], [0.012306658551096916], [0.024504786357283592], [-0.00017056497745215893], [0.04377610981464386], [0.14407379925251007], [0.0634542852640152], [0.09615936875343323], [-0.0007130472222343087], [0.018593790009617805], [-0.24170434474945068], [-0.03433172404766083], [-0.04967968165874481], [0.1479276865720749], [0.21893887221813202], [0.0957140251994133], [0.00038283132016658783], [-0.006014541257172823], [0.11725053936243057], [0.005268074572086334], [-9.857648547040299e-05], [0.02432803250849247], [0.003392776008695364], [-0.00037974194856360555], [0.018115559592843056], [0.08561519533395767], [-0.01570836268365383], [-0.06588483601808548], [-0.0004965908010490239], [-0.18191462755203247], [-0.044150665402412415], [0.024818645790219307], [0.008316525258123875], [0.016212627291679382], [0.0797395408153534], [-0.00020654061518143862], [0.04948010295629501], [-0.44861242175102234], [-0.1009182333946228], [-0.1872643679380417], [-0.055018723011016846], [-1.8066680431365967], [-0.05868789181113243], [0.09652011841535568], [-0.08614269644021988], [-0.004408206790685654], [-0.2804858088493347], [-0.5390148162841797], [-0.018770871683955193], [0.45925644040107727], [0.6934149861335754], [-0.721062421798706], [-0.04392552375793457], [0.516941487789154], [0.062021590769290924], [0.08478554338216782], [0.037610482424497604], [-0.3840247094631195], [-0.11524447053670883], [0.19581705331802368], [-0.03964487463235855], [0.18373610079288483], [0.6648270487785339], [0.2563360333442688], [0.13823173940181732], [0.15874379873275757], [0.07941748946905136], [0.020160475745797157], [0.6211727857589722], [0.12031164765357971], [0.045395627617836], [0.1085001528263092], [-0.0010492478031665087], [0.046409931033849716], [-0.20006954669952393], [0.006072184536606073], [-0.07891733944416046], [0.10841596871614456], [0.19722844660282135], [0.025084413588047028], [0.0002960283891297877], [0.0170851219445467], [0.18758676946163177], [0.011888161301612854], [-9.38969969865866e-05], [0.03310827910900116], [0.0015167018864303827], [-7.048124825814739e-05], [0.007406000047922134], [0.10052478313446045], [-0.020371099933981895], [-0.04223642870783806], [-0.0005755362217314541], [-0.12315317988395691], [-0.055828291922807693], [0.009879644960165024], [0.00717000151053071], [0.011257005855441093], [0.08392353355884552], [-0.00018245933461003006], [-0.12710198760032654]], "rec.weight_hh_l0": [[-0.017361290752887726, -0.010314435698091984, -0.06543230265378952, 0.0009139490430243313, -0.06407897174358368, 0.014925387687981129, -0.011929739266633987, -0.10253128409385681, 0.07151681929826736, 0.09892246127128601, 0.02150857262313366, 0.00016440100444015115, -0.021183446049690247, 0.10513905435800552, 0.006838710978627205, 0.002284267684444785, 0.035301368683576584, 0.005445473361760378, 0.0018734915647655725, 0.0020062136463820934, -0.03949828818440437, -0.02294752560555935, -0.005768217146396637, 0.0003520108584780246, 0.0024969514925032854, -0.047533970326185226, -0.014911327511072159, 0.014164267107844353, 0.014244587160646915, -0.019780876114964485, -0.0002917753008659929, 0.12012270838022232], [-0.019324850291013718, -0.02042742259800434, -0.02189761772751808, 0.0021448873449116945, -0.02280213125050068, -0.02113163284957409, 0.025173520669341087, -0.0339953638613224, 0.00931599736213684, 0.020766932517290115, -0.0462954118847847, -0.0025319994892925024, 0.03235519677400589, 0.0319269523024559, -0.0007345062331296504, 0.001068541081622243, 0.037927523255348206, 0.002348252572119236, 0.0017766272649168968, -0.008664474822580814, -0.015611455775797367, -0.005749477073550224, 0.008073721081018448, 0.0001428426621714607, -0.02328343875706196, -0.004788023419678211, -0.020883100107312202, 0.009721329435706139, 0.011328984051942825, -0.036101579666137695, -0.0011545774759724736, 0.01487247459590435], [-0.0640944242477417, -0.030044950544834137, -0.05919520556926727, 0.0007312620291486382, 0.004922305699437857, -0.0017417126800864935, -0.025541484355926514, -0.09180710464715958, 0.05329986661672592, 0.07064809650182724, -0.0035953745245933533, 0.002065111417323351, 0.004924854729324579, 0.16138704121112823, 0.0223043505102396, 0.0030976904090493917, 0.04738380014896393, 0.0031728961039334536, -0.00048655158025212586, -0.009679417125880718, -0.049606818705797195, -0.019014911726117134, 0.02159011736512184, -0.0015861433930695057, 0.006371608469635248, -0.03855561465024948, -0.024633347988128662, 0.013773138634860516, 0.00619346322491765, -0.09240425378084183, -0.001423847978003323, 0.12084955722093582], [0.0007416935404762626, -4.484417149797082e-05, 0.000276291451882571, -8.552833605790511e-05, 0.0012147114612162113, 0.0003045063931494951, 0.00013049972767475992, 0.0008534438675269485, -0.0005650083185173571, -0.0006923949113115668, 0.0006795718218199909, 4.108369830646552e-05, -0.00025118456687778234, -0.0009422756265848875, 8.340821659658104e-05, -1.0862185263249557e-05, 0.00015918142162263393, -0.0001788441586541012, 2.2984202587394975e-05, 0.00010848543024621904, 0.0003939352463930845, 0.00011860561789944768, -3.832309084828012e-05, 3.1481495170737617e-06, 0.0006464463076554239, -0.0008536059176549315, 0.0005032076733186841, -0.00016862571646925062, -0.0001081819791579619, -0.00047251570504158735, 2.7403884814702906e-05, 0.0006147779640741646], [0.03201548010110855, 0.008042925037443638, 0.020977886393666267, -0.00035869781277142465, -0.018864084035158157, 0.0004203618736937642, -0.058306168764829636, 0.0439678356051445, -0.030508045107126236, -0.04428371042013168, 0.009689637459814548, 0.0007442013593390584, 0.007185233291238546, -0.01864076778292656, 5.3538915381068364e-05, 0.0013268631882965565, -0.019528474658727646, -0.001102968817576766, 0.002497858600690961, 0.0003694990591611713, -0.0406147837638855, 0.014714176766574383, 0.0055051082745194435, -0.0003453693352639675, -0.005560599733144045, 0.007608918007463217, 0.010912078432738781, -0.009765692986547947, -0.006750244181603193, 0.050216615200042725, -0.0007662223652005196, -0.05703069269657135], [0.008903167210519314, -0.005547518841922283, 0.00033313201856799424, 0.004516695160418749, 0.1180882379412651, -0.19599542021751404, 0.08132217824459076, 0.03975863382220268, 0.002660538535565138, 0.0026871473528444767, -0.0645383968949318, 0.0006162879872135818, 0.04698536545038223, 0.009070979431271553, 0.006328562740236521, 0.0017798414919525385, -0.10224506258964539, -0.024214662611484528, -0.000758768932428211, 0.01125328429043293, 0.0484284944832325, 0.029291493818163872, 0.05665106698870659, 0.0007451242418028414, -0.12948393821716309, -0.03729087486863136, -0.00034144683741033077, -0.014348762109875679, -0.0044664437882602215, -0.03605011850595474, 0.0019456817535683513, -0.09489616006612778], [0.08810431510210037, 0.03196690231561661, 0.05582442879676819, -0.0006248714053072035, -0.0020412004087120295, -0.06410682201385498, -0.002598024206236005, 0.0444687157869339, -0.050245121121406555, -0.0457620844244957, -0.07652319967746735, -0.007887381128966808, 0.1394798755645752, -0.08976414054632187, 0.010353528894484043, -0.0008125314489006996, 0.03144931420683861, -0.01484124455600977, 0.0031621409580111504, -0.001022533979266882, 0.06447450816631317, 0.006673382595181465, 0.03498775139451027, -0.0049705831333994865, -0.0677136704325676, -0.08720792084932327, -0.050292834639549255, -0.01800018548965454, -0.011371775530278683, 0.12436435371637344, -0.005310915410518646, -0.12547793984413147], [-0.1557086855173111, 0.03066254034638405, 0.018739188089966774, 0.0030920233111828566, 0.04836886376142502, -0.10611799359321594, 0.0321446917951107, -0.02561398781836033, 0.10472363978624344, 0.1251574605703354, -0.13267484307289124, -0.003146608592942357, 0.04128097742795944, 0.05054415389895439, -0.0005418881773948669, 0.002713944995775819, -0.0005204498302191496, 0.061929184943437576, -0.016126049682497978, -0.03417806699872017, 0.16123510897159576, -0.10805138200521469, 0.08666715770959854, -0.00429545808583498, 0.058772336691617966, -0.006823754869401455, -0.06504875421524048, 0.03327890858054161, 0.020023005083203316, -0.19834932684898376, 0.0014334730803966522, 0.07233819365501404], [-0.13962829113006592, -0.012257760390639305, -0.07572535425424576, 0.001078069326467812, -0.048177026212215424, -0.015049890615046024, 0.019731562584638596, -0.10082658380270004, 0.10176944732666016, 0.15916629135608673, -0.0030125260818749666, 0.0016849505482241511, -0.015044924803078175, 0.10889286547899246, 0.001040079747326672, 0.0016542923403903842, 0.01667543686926365, 0.0025816643610596657, 0.0017127221217378974, 0.007930270396173, -0.02160784602165222, -0.023904038593173027, 0.0035433562006801367, 0.00012384229921735823, -0.001482337829656899, -0.02517307735979557, -0.011157053522765636, 0.015578750520944595, 0.025490913540124893, -0.00884893536567688, 0.0005561031866818666, 0.07612399011850357], [-0.11688181757926941, -0.024701321497559547, -0.06412190198898315, 0.000994639820419252, -0.08044372498989105, -0.0029616733081638813, 0.006998846307396889, -0.08635841310024261, 0.10679329186677933, 0.13504762947559357, 0.009426470845937729, 0.0025908539537340403, 0.045000724494457245, 0.10175124555826187, 0.0005791594157926738, 0.0026022186502814293, 0.05520458519458771, 0.0018973801052197814, 0.0009667269187048078, -0.004025905858725309, 0.00609638262540102, -0.02615504153072834, 0.009933472611010075, -0.0011894158087670803, 0.00780121237039566, -0.035361725836992264, -0.03826404735445976, 0.021530944854021072, 0.030748136341571808, -0.008610614575445652, -0.00088278524344787, 0.14209268987178802], [0.017343008890748024, -0.06309700012207031, -0.034309666603803635, 0.0033508415799587965, -0.04594716429710388, -0.05784587934613228, 0.10099072754383087, 0.047399163246154785, -0.04332749545574188, -0.026596028357744217, -0.33265629410743713, 0.0024149019736796618, 0.10024760663509369, 0.008495597168803215, 0.02018747664988041, 0.0035260822623968124, -0.025454076007008553, 0.0030196295119822025, -0.004579582717269659, -0.034076888114213943, -0.08936372399330139, 0.01324357371777296, 0.03250661864876747, -0.0022550611756742, -0.05143454670906067, -0.012806709855794907, -0.01926838979125023, 0.0006043399916961789, 0.0022323390003293753, -0.1696537435054779, 0.0008322556386701763, -0.06889211386442184], [0.0002672316040843725, -0.00039897282840684056, -1.2315076673985459e-05, 3.281513272668235e-05, 0.0003121331101283431, -0.0003810590133070946, 0.0017883648397400975, 0.0007210004259832203, -0.00033851509215310216, -0.0003294071357231587, -0.0009237900958396494, -2.2566977349924855e-05, 0.0009637792245484889, -0.0005495956283994019, 1.3260875675769057e-05, 9.504362424195278e-06, 0.0005047707818448544, -7.6249784797255415e-06, 4.5186385250417516e-05, -0.00022575327602680773, 8.830138540361077e-05, 7.678865949856117e-05, 0.00025359875871799886, 3.1413805118063465e-05, 8.79293293110095e-05, -3.044506775040645e-05, -0.00035600364208221436, 8.250740938819945e-05, 0.00012204438098706305, -0.0009389710612595081, -8.220388735935558e-06, -6.324405694613233e-05], [-0.03347449377179146, -0.006773647852241993, -0.0005036684451624751, 0.0026145498268306255, -0.022417264059185982, -0.14412586390972137, 0.05693574994802475, 0.08417312800884247, -0.004926159046590328, -0.002072620205581188, -0.07968621701002121, -0.0040730927139520645, 0.1111193299293518, 0.02628542110323906, -0.00038766348734498024, 0.001765777007676661, -0.05274815484881401, -0.00686192000284791, 0.0020121457055211067, -0.0011438993969932199, -0.002078704535961151, 0.025390667840838432, 0.03558202087879181, -9.798426617635414e-05, -0.07444210350513458, 0.0008378856000490487, -0.03743414208292961, -0.002872530370950699, 0.004031696356832981, -0.002078351564705372, -0.0020799937192350626, -0.15368235111236572], [-0.054738275706768036, -0.015328890644013882, -0.05221034586429596, -0.0014643525937572122, -0.026479685679078102, 0.04625328257679939, -0.03153723478317261, -0.08867897093296051, 0.04784103110432625, 0.04258376732468605, -0.015871068462729454, 0.0031450476963073015, -0.03123364970088005, 0.0943039283156395, 0.01911739632487297, 0.002789831720292568, 0.043474309146404266, 0.010578824207186699, -0.0016071702120825648, -0.009906606748700142, -0.05078364536166191, -0.0318148247897625, -0.01702197454869747, -0.003082690993323922, 0.014829220250248909, -0.06454284489154816, -0.016618432477116585, 0.009426506236195564, 0.002141590230166912, -0.07919091731309891, -0.001168680377304554, 0.16038885712623596], [-0.004797866567969322, 0.005814753007143736, 9.989562386181206e-05, 0.00020233723626006395, -0.009652980603277683, 0.0026650286745280027, -0.0315825454890728, -0.0048131574876606464, 0.0013849795795977116, -0.006045727990567684, -0.010929744690656662, 0.0007008709944784641, -0.005419066641479731, 0.013042287901043892, -0.0003103208728134632, 0.00012408530164975673, -0.016185035929083824, 0.0017854593461379409, 0.0001760567247401923, 0.00045519525883719325, -0.016645129770040512, -0.0011266566580161452, 0.0027737354394048452, -0.0009285261039622128, -0.007343181408941746, 0.020498836413025856, 0.0054107182659208775, -0.0031647332943975925, -0.0036558976862579584, 0.00840692687779665, 0.00034007345675490797, 0.002336987992748618], [7.841789192752913e-05, 8.784343663137406e-05, 7.542193634435534e-05, -6.128650056780316e-06, 2.9613460355903953e-05, -3.9991923586057965e-06, -0.00011959004768868908, -2.9850996270397445e-06, -2.2833111870568246e-05, -7.079991337377578e-05, 0.00040155238821171224, 5.6570734159322456e-06, -0.00014717664453200996, -0.0001582291879458353, -6.813085292378673e-06, -1.1842053027066868e-05, -0.0001052022198564373, -6.7751138885796536e-06, 1.1877436918439344e-06, 4.936709956382401e-06, 6.865169416414574e-05, 2.505633165128529e-05, -2.370423862885218e-05, -2.9427087611111347e-06, 9.385961675434373e-06, -0.0003983600763604045, 5.470192263601348e-05, -2.4596345610916615e-05, -4.056273974128999e-05, 3.653415842563845e-05, 1.7151711517726653e-07, 0.0001215447555296123], [-0.01193840429186821, -0.007670429069548845, 0.01063910499215126, 0.009902425110340118, -0.09152137488126755, -0.10983936488628387, 0.02946208417415619, 0.0472237728536129, 0.0023893495090305805, 0.0009130536927841604, -0.20143693685531616, -0.010305196978151798, 0.17369316518306732, -0.01201825961470604, -0.010615156032145023, 0.0016515629831701517, 0.018183359876275063, 0.0191411841660738, 0.00013974304602015764, -0.03169628977775574, 0.0103059783577919, 0.006638758350163698, 0.01590723730623722, -0.0020977763924747705, -0.10418526828289032, 0.059038255363702774, -0.06626948714256287, 0.008364079520106316, 0.017262345179915428, 0.029142245650291443, -0.0012853987282142043, -0.16144084930419922], [0.003131730016320944, -0.0007692481158301234, 0.0019330125069245696, 0.0006964592612348497, -0.0030184683855623007, -0.006208533421158791, 0.018277613446116447, 0.005207896698266268, -0.0027648252435028553, -0.0013648009626194835, -0.009081787429749966, -0.00045974532258696854, 0.010914077050983906, -0.006246283650398254, -0.0016879113391041756, 0.00026583997532725334, -0.001423906534910202, 0.00018647128308657557, 0.00025673190248198807, -0.001474649296142161, 0.0029226145707070827, 0.001966494834050536, -0.0016312621301040053, 0.0002923201536759734, -0.010622775182127953, -0.0010239897528663278, -0.0006114783463999629, 0.0006615938036702573, 0.0017288611270487309, 0.001959309447556734, 0.0002640187740325928, -0.01709899865090847], [0.0001908336707856506, 0.00024374222266487777, 0.0004047190013807267, 5.467367827804992e-06, -0.0001804100174922496, 0.0001015713278320618, 0.00012553656415548176, 0.00015468102355953306, -0.00010784708138089627, -0.0003819743578787893, 0.00043795607052743435, -2.2108588382252492e-05, -0.00026224227622151375, -0.00036511188955046237, -3.6611960240406916e-05, -1.9263275135017466e-06, -0.00035538527299650013, 3.8793517887825146e-05, -8.75905516295461e-06, 3.6848407034995034e-05, 0.0005203393520787358, -4.8080059059429914e-05, -2.6942663680529222e-05, 6.1005184761597775e-06, -5.796522964374162e-05, 2.1816293156007305e-05, 5.922433774685487e-05, -8.280800102511421e-05, -8.296376472571865e-05, 0.0002888051385525614, -1.822581680244184e-06, 0.00016034685540944338], [-0.007179689593613148, -0.0017259024316444993, -0.004076412878930569, 0.0005894978530704975, -0.006837689317762852, 0.003026409074664116, 0.005123854149132967, -0.020615916699171066, 0.00574969407171011, 0.0077442266047000885, -0.013172795064747334, -0.0004274754610378295, 0.0015554773854091763, 0.01580454409122467, -0.0013025426305830479, 0.0005658410955220461, 0.007556628435850143, 0.0022229256574064493, 0.0007304161554202437, -0.0024357205256819725, -0.00845416635274887, -0.005914418958127499, -0.002583209192380309, -6.107841909397393e-05, -0.006238915491849184, -0.0018182399217039347, 0.00035452822339721024, 0.001968180760741234, 0.0025084803346544504, 0.0007289540371857584, 0.00029770235414616764, 0.015564190223813057], [-0.026409799233078957, -0.02434183470904827, -0.04729641228914261, -0.002438262337818742, -0.017734434455633163, -0.0008871079771779478, -0.015413190238177776, -0.03407958894968033, 0.0067676762118935585, 0.01834884285926819, -0.03033558651804924, 0.0011977730318903923, -0.009172739461064339, 0.06854376941919327, 0.009848632849752903, 0.0001425049122190103, 0.02712293341755867, 0.0018070322694256902, 0.0006107641966082156, -0.006091408897191286, -0.0038397922180593014, -0.0107326814904809, 0.00884755328297615, -0.004184275399893522, -0.004032302647829056, -0.024490756914019585, -0.013007231056690216, 0.004792643245309591, -0.002112586982548237, -0.11158042401075363, -0.000986684113740921, 0.11821897327899933], [0.018491355702280998, -0.0036580634769052267, 0.00039849994936957955, 0.0022843063343316317, 0.003713801270350814, -0.038941532373428345, 0.08961430937051773, 0.022147001698613167, -0.013073506765067577, -0.0012814197689294815, 0.012074748985469341, -0.0018981823232024908, 0.03650503605604172, -0.026641661301255226, -0.010862871073186398, 7.22915938240476e-05, -0.029760612174868584, -0.008400323800742626, 0.000935813644900918, 0.0038746604695916176, 0.018275033682584763, 0.024686943739652634, -0.006485105026513338, 0.001242506317794323, -0.04715678095817566, -0.023637335747480392, 0.0009786065202206373, -0.0023585876915603876, 0.007463169749826193, 0.009315164759755135, 0.0005018907831981778, -0.10834094882011414], [0.010687432251870632, 0.008770070038735867, 3.06634719891008e-05, 5.8456818806007504e-05, 0.017689820379018784, -0.07893849164247513, -0.04171162098646164, 0.09595382213592529, -0.009326952509582043, -0.0027787694707512856, 0.011668025515973568, 0.0025237035006284714, 0.036313045769929886, -0.028351128101348877, 0.004885344300419092, 0.0009168584365397692, -0.05302056297659874, -0.010052777826786041, -0.0018921548034995794, 0.0067374734207987785, 0.02162768691778183, 0.03118828684091568, 0.030322369188070297, -0.0025184687692672014, -0.030010273680090904, -0.042024336755275726, -0.002145414939150214, -0.011417089961469173, -0.012390160001814365, -0.016059985384345055, 0.000485477561596781, -0.09604829549789429], [0.00022616985370405018, 0.0001596752117620781, 0.00019290816271677613, -1.4463114894169848e-05, 0.00019244750728830695, -3.794351141550578e-05, -0.0004536467604339123, -9.674836474005133e-05, 1.593444358150009e-05, -0.00012548435188364238, 0.0005075540975667536, 2.2697970052831806e-05, -0.0001597734517417848, -0.0002878140367101878, 2.440040589135606e-05, -2.2951397227188863e-07, -0.0001385498617310077, -9.812199277803302e-05, -8.48405124997953e-06, 0.0001443380897399038, 0.0003850755747407675, 5.7605153415352106e-05, -1.7394342648913153e-05, -6.626711638091365e-06, -0.00012597885506693274, -0.00038907016278244555, 0.00015419039118569344, -7.435141742462292e-05, -9.115057036979124e-05, 0.0001927095727296546, 1.3949923413747456e-05, 0.0008471976616419852], [0.00028706807643175125, 0.03479240462183952, 0.008629955351352692, 0.005230630282312632, -0.003958743531256914, -0.07159411907196045, -0.007248618174344301, -0.007676347158849239, 0.014702989719808102, 0.013685940764844418, 0.059309203177690506, -0.0002159348368877545, 0.039157502353191376, -0.0313950777053833, -0.029493866488337517, 0.002215189626440406, -0.0856795608997345, -0.023029593750834465, -0.0008816508343443274, 0.030196668580174446, 0.0503714345395565, 0.057331979274749756, -0.027225175872445107, 0.0002614359837025404, -0.12654244899749756, -0.1072157546877861, 0.038596007972955704, -0.022029902786016464, 0.0007134168408811092, 0.12692002952098846, 0.004459859803318977, -0.1804800033569336], [-0.015173761174082756, 0.014623841270804405, -0.022715751081705093, -0.004190489184111357, -0.053236450999975204, 0.04563929885625839, -0.053592976182699203, -0.1467190980911255, 0.019470596686005592, 0.03060808964073658, 0.07677749544382095, 0.005773666314780712, -0.08805402368307114, 0.08276601135730743, -0.015062881633639336, 0.00046092068077996373, -0.03166762366890907, -0.013510946184396744, -0.0030618072487413883, 0.03385740891098976, -0.03857824578881264, 0.00814464408904314, -0.04135303944349289, 0.0029286418575793505, -0.021903155371546745, -0.19381240010261536, 0.08221640437841415, -0.00954783707857132, 0.0004507483390625566, 0.0753336250782013, 0.005217204801738262, 0.031413834542036057], [-0.007602381054311991, -0.01096623856574297, -0.011404040269553661, 0.0025227516889572144, -0.05835811793804169, -0.0240229032933712, 0.002690242137759924, -0.03958544135093689, 0.008778686635196209, 0.019243858754634857, -0.022090807557106018, -0.003819673554971814, 0.04914956912398338, 0.020407071337103844, -0.008737875148653984, 0.00048669971874915063, 0.025661641731858253, 0.0004638903774321079, 0.0029914069455116987, -0.004617010708898306, -0.017630698159337044, 0.00225837086327374, 0.0025686323642730713, 8.081854321062565e-05, -0.026441270485520363, -0.055082060396671295, -0.006076530087739229, 0.004511056933552027, 0.012727473862469196, 0.025528056547045708, 0.0009568220702931285, -0.07266874611377716], [-0.0028213681653141975, -0.0019871103577315807, -0.0009836078388616443, 0.0009739880333654583, -0.0038730097003281116, -0.002471629297360778, 0.0005422985414043069, -0.0037057676818221807, 0.001601114054210484, 0.0018300209194421768, -0.019044416025280952, -0.0011723508359864354, 0.011008264496922493, -0.0009858203120529652, 2.7340760425431654e-05, 0.00027779294759966433, 0.008306478150188923, 0.002701723715290427, 7.628767343703657e-05, -0.003600755939260125, 0.0017747669480741024, -0.004756065085530281, 0.0010362289613112807, -0.00017161862342618406, -0.007537491153925657, 0.004803391173481941, -0.004970897454768419, 0.001841762918047607, 0.0012314190389588475, -0.0009657292976044118, -0.0001562736288178712, -0.01372847892343998], [-0.008751011453568935, -0.003942312207072973, -0.00729066738858819, 0.00038373249117285013, -0.0016402284381911159, -0.008613505400717258, 0.0012421816354617476, -0.000763302727136761, 0.009971062652766705, 0.013886339031159878, -0.009628159925341606, -0.0008031484321691096, 0.013576773926615715, 0.006026682909578085, 0.0012351301265880466, 0.00011645943595794961, 0.009573928080499172, 0.0007036513416096568, -0.0001660582929616794, -0.0017600614810362458, -0.0019120399374514818, -0.0014816162874922156, 0.006018340587615967, -0.0003946701472159475, 0.003131401725113392, -0.002751179039478302, -0.008950181305408478, 0.0014416364720091224, 0.0016118251951411366, -0.007905089296400547, -0.00037015427369624376, -0.004876300692558289], [-0.04029586911201477, -0.013928741216659546, -0.033263809978961945, -0.0010686544701457024, -0.03921894729137421, -0.0628141239285469, -0.05842668563127518, 0.013262402266263962, 0.008025775663554668, 0.019677821546792984, -0.06590662151575089, 0.009549797512590885, -0.00823880173265934, 0.052105918526649475, 0.01382929366081953, 0.0036398109514266253, -0.0460987351834774, -0.009494752623140812, -0.0026761095505207777, 0.0007831634720787406, -0.01467556320130825, 0.017897944897413254, 0.02536660060286522, -0.0023884063120931387, -0.05639714002609253, -0.013310103677213192, -0.001488128793425858, -0.004042692016810179, -0.008633902296423912, -0.08363460004329681, 0.002040158025920391, 0.030547307804226875], [0.00016476016025990248, 1.1188825737917796e-05, 7.820098107913509e-05, 9.16377246085176e-07, 3.573351204977371e-05, -0.00019905227236449718, 0.00012218579649925232, -0.0005583064630627632, -3.5091514291707426e-05, -6.41845545032993e-05, -0.00011032148177037016, 6.172554549266351e-06, 0.00015002871805336326, 3.0894007068127394e-06, -3.2208539778366685e-05, 1.2260637049621437e-05, -1.2151393093517981e-05, -8.559635489291395e-07, 1.3080449207336642e-05, -2.3537237211712636e-05, 0.00026154430815950036, -2.0668549041147344e-05, 4.0794711821945384e-05, -7.461874702130444e-06, -0.0003324314020574093, -0.00016225218132603914, -1.1687134104931829e-07, -7.679162990825716e-06, -4.596126382239163e-05, 3.974743594881147e-05, 7.843713319743983e-06, 8.232095751736779e-06], [-0.09976472705602646, -0.06589458137750626, -0.12145458161830902, 0.003394387662410736, -0.06412936002016068, -0.009383181110024452, 0.052907370030879974, 0.055251963436603546, 0.02482944168150425, 0.026016660034656525, 0.04653337597846985, -0.004084353800863028, 0.09409676492214203, 0.0981084406375885, 0.022692089900374413, -0.0029412233270704746, 0.05501553788781166, 0.02048485167324543, -0.017241012305021286, -0.05593330040574074, 0.00019868594245053828, -0.06816083937883377, -0.047318123281002045, 0.013265922665596008, -0.012116072699427605, -0.07637743651866913, -0.009444157592952251, 0.03898026421666145, 0.002352960640564561, -0.2302483171224594, -0.007464531809091568, -0.06399509310722351], [-0.2356535792350769, -0.03481293097138405, -0.14921250939369202, 0.002707923064008355, -0.07859846204519272, 0.02356129139661789, -0.01050257496535778, -0.21237553656101227, 0.17415304481983185, 0.19383026659488678, 0.004142493940889835, 0.0007569434237666428, -0.0592959001660347, 0.27028998732566833, 0.00595476571470499, 0.004053830169141293, 0.05874050036072731, 0.007910137064754963, 0.0017951572081074119, 0.004229583311825991, -0.16154985129833221, -0.03519724681973457, -0.002027891343459487, 0.00044631792115978897, 0.007130883168429136, -0.07568617165088654, -0.021044783294200897, 0.02472059056162834, 0.028014473617076874, -0.03557348623871803, -0.0003711031167767942, 0.16248241066932678], [-0.03480304032564163, -0.02976248413324356, -0.03656839206814766, 0.0026917022187262774, -0.028899231925606728, -0.019788600504398346, 0.03418910875916481, -0.04881953448057175, 0.01659398153424263, 0.03157608211040497, -0.05962289124727249, -0.0023490965832024813, 0.035375528037548065, 0.06852051615715027, 0.001100661582313478, 0.0013199347304180264, 0.04445914551615715, 0.002210336271673441, 0.0017043642001226544, -0.009696398861706257, -0.05716748908162117, -0.005101725924760103, 0.01001444086432457, 0.00018747641297522932, -0.02326153591275215, 0.0025549510028213263, -0.02514667995274067, 0.011979402974247932, 0.01464612502604723, -0.05091332644224167, -0.0012827481841668487, 0.03489795699715614], [-0.11130937188863754, -0.03373953327536583, -0.10052116960287094, 0.0012208899715915322, -0.00790718849748373, 0.010302716866135597, -0.04990704357624054, -0.1672450602054596, 0.08639445155858994, 0.11490275710821152, -0.0011507137678563595, 0.0025495951995253563, -0.01784294657409191, 0.26381775736808777, 0.029281605035066605, 0.003409313503652811, 0.05538218840956688, 0.007084772922098637, -0.000594592303968966, -0.009786304086446762, -0.13884314894676208, -0.029738804325461388, 0.024246331304311752, -0.0024725478142499924, 0.016888530924916267, -0.036656174808740616, -0.02666817419230938, 0.01850784383714199, 0.0087160998955369, -0.10059528052806854, -0.00174760224763304, 0.1851915866136551], [0.0006189139094203711, -2.5937057216651738e-05, 0.0003312756307423115, -7.314994581975043e-05, 0.0012095661368221045, 0.00041616489761509, 0.00016642373520880938, 0.0005319290794432163, -0.00045830156886950135, -0.0006247722776606679, 0.0006942273466847837, 1.961262933036778e-05, -0.0003465384361334145, -0.0009714215993881226, 9.446004696656018e-05, -7.644402103323955e-06, 0.00017262622714042664, -3.4888118534581736e-05, 3.830534842563793e-05, -7.225693116197363e-05, 0.0007555944030173123, -0.0001602571428520605, 3.47820641763974e-05, 1.1052718946302775e-05, 0.000817260006442666, -0.0005507415626198053, 0.0002959389239549637, -4.7396904847119004e-05, -4.902674481854774e-05, -0.0006020456203259528, 6.826192475273274e-06, 0.000875817728228867], [0.03578287735581398, 0.019802922382950783, 0.032531701028347015, -0.0013983328826725483, -0.01488933153450489, 0.010767503641545773, -0.0834418460726738, 0.004324648529291153, -0.034235257655382156, -0.059919316321611404, 0.014809714630246162, 0.003789460053667426, -0.022731540724635124, -0.024246925488114357, 0.0018864193698391318, 0.0018069201614707708, -0.044078052043914795, 0.005938676185905933, 0.0021315242629498243, -0.0015496195992454886, 0.0026814660523086786, -0.0058499472215771675, 0.002662752754986286, -0.0029926318675279617, -0.0337333045899868, -0.04971139878034592, 0.02096509374678135, -0.0119562903419137, -0.01517004705965519, 0.033914025872945786, 0.0009752929909154773, 0.009983684867620468], [0.045658472925424576, 0.008855880238115788, 0.01309360284358263, 0.004800146911293268, 0.16526009142398834, -0.4157131314277649, 0.049584392458200455, 0.30058228969573975, -0.035456713289022446, -0.01982145383954048, -0.0585935153067112, 0.004030980169773102, 0.1972055286169052, -0.08195998519659042, 0.00607003690674901, 0.003781088162213564, -0.28179189562797546, -0.07854340225458145, -0.00020709326781798154, 0.026716576889157295, 0.06149765104055405, 0.2039201259613037, 0.0866740271449089, -0.0005368143902160227, -0.2340632528066635, -0.025551363825798035, -0.006379198748618364, -0.0632183849811554, -0.019296223297715187, 0.05400404706597328, 0.0038225629832595587, -0.46734297275543213], [0.046666041016578674, -0.03649234399199486, -0.04981985315680504, 0.007411102764308453, 0.10289739817380905, -0.025457575917243958, 0.22160103917121887, -0.1311122626066208, -0.015233166515827179, 0.015828248113393784, -0.009501871652901173, -0.009076805785298347, 0.0816560685634613, 0.15485665202140808, 0.004178657196462154, 0.005394459702074528, 0.1401447355747223, -0.038185883313417435, 0.0048041255213320255, 0.024030612781643867, -0.22061312198638916, 0.048076946288347244, 0.022229904308915138, 0.0045341746881604195, -0.09505705535411835, -0.19126611948013306, 0.01370932161808014, -0.014735653065145016, 0.02261190116405487, 0.06087983399629593, -0.007607199251651764, 0.02569780871272087], [-0.21041551232337952, 0.08427008986473083, -0.06549496948719025, -0.00025534318410791457, -0.05750013142824173, -0.3244306147098541, -0.14247696101665497, 0.08265819400548935, 0.15795518457889557, 0.13803382217884064, -0.10889346897602081, 0.01030647661536932, 0.09933173656463623, 0.05252104252576828, -0.025131018832325935, 0.0007496691541746259, -0.24042680859565735, -0.06673802435398102, 0.035273753106594086, 0.14113673567771912, -0.27185022830963135, 0.21160341799259186, 0.08814055472612381, -0.005519943777471781, -0.013960545882582664, 0.14660245180130005, -0.00498165562748909, -0.11043567955493927, 0.03410232812166214, 0.31143316626548767, -0.016525333747267723, -0.2635185420513153], [-0.258908748626709, -0.03251080587506294, -0.17021766304969788, 0.002823247341439128, -0.06617223471403122, 0.0011553874937817454, 0.029164940118789673, -0.19962972402572632, 0.18031257390975952, 0.2623812258243561, -0.014799622818827629, 0.0032583398278802633, -0.052444737404584885, 0.25045859813690186, 0.011190115474164486, 0.002151597524061799, 0.04561562091112137, 0.0008069502073340118, 0.001845354214310646, 0.01926816999912262, -0.1523866504430771, -0.033407967537641525, 0.0014341744827106595, 0.00037505317595787346, -0.00042900125845335424, -0.039685893803834915, -0.006843269802629948, 0.026853736490011215, 0.04451069235801697, -0.004151910077780485, 0.0014110513729974627, 0.14389367401599884], [-0.25622034072875977, -0.042134299874305725, -0.17235636711120605, 0.0023405158426612616, -0.11095456033945084, 0.014568975195288658, -0.001294839195907116, -0.2529643177986145, 0.2214006930589676, 0.2883020341396332, 0.01453725341707468, 0.004812013357877731, -0.009362918324768543, 0.3037160336971283, 0.011991780251264572, 0.0028380106668919325, 0.07749064266681671, 0.0023256991989910603, 0.0006174489972181618, 0.014050892554223537, -0.12503905594348907, -0.04501606151461601, 0.011416219174861908, -0.002393570262938738, 0.013482730835676193, -0.06333685666322708, -0.03498872369527817, 0.03552781045436859, 0.05150197818875313, -0.008377688005566597, -0.00020263470651116222, 0.258262574672699], [0.013532831333577633, -0.014063248410820961, -0.045374397188425064, 0.0006026318878866732, -0.08302498608827591, -0.03676154091954231, -0.1066432073712349, 0.15822263062000275, -0.0793793648481369, -0.07683449983596802, -0.25342947244644165, 0.008211653679609299, -0.004866243340075016, 0.01072780229151249, -0.011248026043176651, 0.0007375683635473251, -0.18524569272994995, 0.009481353685259819, -0.002813807688653469, -0.007681216113269329, -0.12072743475437164, -0.008877094835042953, 0.05249593406915665, -0.002865435788407922, -0.02789013832807541, 0.1598758101463318, -0.030949000269174576, -0.020817534998059273, -0.030538765713572502, -0.2496325969696045, 0.003466260153800249, -0.041958749294281006], [0.00015462723968084902, -0.0003180367057211697, -5.0974591431440786e-05, 2.0865785700152628e-05, 6.3276820583269e-06, -0.0002617677382659167, 0.0015748791629448533, 0.0003140225016977638, -0.00024112568644341081, -0.0002872154873330146, -0.0006415140233002603, -1.9848032025038265e-05, 0.0007493247394450009, -0.00030825415160506964, -1.1762178473873064e-05, 6.199944891704945e-06, 0.00043737367377616465, 5.8979068853659555e-05, 5.038033123128116e-05, -0.0002195376728195697, 1.090060413844185e-05, -1.0017452041211072e-06, 0.00015441450523212552, 3.699759690789506e-05, 6.2487715695169754e-06, -0.00011842070671264082, -0.00031148307607509196, 0.00012801768025383353, 0.00011841450032079592, -0.0006723435944877565, -2.2015852664480917e-05, 0.0002752032596617937], [-0.06616748124361038, -0.005030075088143349, 0.0036389329470694065, 0.005783614236861467, -0.047915827482938766, -0.22776754200458527, 0.07171725481748581, 0.16107013821601868, -0.024451004341244698, -0.014676912687718868, -0.1547178328037262, -0.0055913920514285564, 0.21495826542377472, 0.008788236416876316, -0.010906672105193138, 0.00383801874704659, -0.09518085420131683, -0.01144494954496622, 0.0009863795712590218, 0.0028056325390934944, -0.010350969620049, 0.06024407222867012, 0.050242386758327484, -0.00040487985825166106, -0.1082407534122467, 0.07239681482315063, -0.05823134258389473, -0.009808428585529327, 0.003996833693236113, 0.01537355501204729, -0.0018939507426694036, -0.20618322491645813], [-0.11518587917089462, -0.027200739830732346, -0.11047548055648804, -0.0007166145369410515, -0.03648725152015686, 0.057540830224752426, -0.07321148365736008, -0.19202560186386108, 0.11773557215929031, 0.12433432042598724, -0.014646814204752445, 0.0061676884070038795, -0.07169972360134125, 0.12909357249736786, 0.07453370839357376, 0.004641854669898748, 0.05349549651145935, 0.015660028904676437, -0.001810864545404911, 0.0038064143154770136, -0.16456052660942078, -0.05108169466257095, -0.010919788852334023, -0.0047905477695167065, 0.02940809726715088, -0.06818801164627075, -0.012703297659754753, 0.02153596840798855, 0.007276718970388174, -0.08053221553564072, -0.0005737728206440806, 0.18264822661876678], [-0.00969015620648861, 0.005312027409672737, -0.0028866382781416178, 0.00023985744337551296, -0.0025173244066536427, 0.0003992367710452527, -0.02467332035303116, -0.013257780112326145, 0.006407508626580238, 6.891487282700837e-05, -0.012047749012708664, 0.0010180022800341249, -0.01058482937514782, 0.013126865960657597, 0.0019330540671944618, 5.0387345254421234e-05, -0.018162863329052925, 0.0019246508600190282, -0.00014170563372317702, 0.0005071831401437521, -0.004090543370693922, -0.004108349326997995, 0.0029106384608894587, -0.0011091980850324035, -0.01050431840121746, 0.010754536837339401, 0.005716558080166578, -0.0020857397466897964, -0.003821374848484993, -0.006340111140161753, 0.00037971677375026047, 0.015475597232580185], [6.47758279228583e-05, 0.00011010089656338096, 6.129669054644182e-05, -7.114238997019129e-06, 8.096582314465195e-05, 2.547189978940878e-05, -7.412179547827691e-05, -4.400390025693923e-05, -3.115657818852924e-05, -3.386560274520889e-05, 0.0004953367169946432, 5.677884473698214e-06, -0.0001901489304145798, -0.00016345817130059004, 5.151116056367755e-06, -1.8719007130130194e-05, -0.00011081339471274987, 2.546002860981389e-06, -1.9009540608294628e-07, -1.8963070260724635e-06, 0.00016024622891563922, -2.499416768841911e-05, -4.530473597696982e-05, -3.3457936297054403e-06, 4.252275175531395e-05, -0.0005127836484462023, 6.834122177679092e-05, -1.4537624338117894e-05, -5.2977633458795026e-05, -3.627257683547214e-05, -1.2708848373677029e-07, 0.00018236952018924057], [-0.013151919469237328, -0.02646666206419468, -0.010338177904486656, 0.009845931082963943, -0.04728437960147858, -0.13099050521850586, 0.07589616626501083, 0.07617523521184921, 0.0016274108784273267, 0.012430430389940739, -0.1922590434551239, -0.00963359884917736, 0.18486925959587097, 0.007653830107301474, -0.006212311331182718, 0.0020292815752327442, 0.013878053054213524, 0.009925355203449726, 0.00010669306357158348, -0.03087688609957695, -0.03408578783273697, 0.04266930744051933, 0.01014418713748455, -0.0009763330454006791, -0.10342799127101898, 0.0635962188243866, -0.05880853533744812, 0.010693502612411976, 0.0243755504488945, 0.012518191710114479, -0.001924642943777144, -0.23191960155963898], [0.0016119970241561532, -0.0005220859893597662, 0.0017494149506092072, 0.000700242118909955, -0.004691320471465588, -0.004487413447350264, 0.01853179931640625, 0.003303189529106021, -0.0017259180312976241, -0.0005651296814903617, -0.00886320136487484, -0.0005621215677820146, 0.010319394990801811, -0.005381534807384014, -0.0018155761063098907, 0.0001849829568527639, -0.001511557144112885, 0.0005456352373585105, 0.00038158049574121833, -0.0016124709509313107, 0.003248457331210375, 0.0009046756895259023, -0.0016178403748199344, 0.0002898171078413725, -0.008775100111961365, 0.004805540665984154, -0.0019250210607424378, 0.0009987783851101995, 0.0018939962610602379, 0.003109839279204607, 0.0001795477292034775, -0.01715540699660778], [0.0002525743911974132, 0.0002524392039049417, 0.0004553763137664646, -3.829898105323082e-06, -1.543829966976773e-05, 0.00013664780999533832, 0.000176425208337605, 5.565334140555933e-05, -0.00011661049938993528, -0.00034890996175818145, 0.0007206393638625741, -2.0150373529759236e-05, -0.0004675831296481192, -0.0005279253819026053, -1.680203240539413e-05, -2.335878434678307e-06, -0.00037289451574906707, 1.0543385542405304e-05, -1.731610973365605e-05, 7.157228537835181e-05, 0.0009061863529495895, -5.875100032426417e-05, -0.0001097161730285734, 6.021622994012432e-06, -0.00010817529982887208, -0.000429607491241768, 0.00016346575284842402, -8.62990491441451e-05, -0.00010908355034189299, 7.083688251441345e-05, 2.1443236164486734e-06, 0.0005396045162342489], [-0.01064098346978426, -0.002790647093206644, -0.007227045018225908, 0.0009729802841320634, -0.018178047612309456, 0.001706962357275188, 0.01132455188781023, -0.022230999544262886, 0.007292808499187231, 0.010348168201744556, -0.021020445972681046, -0.0007880498887971044, 0.0061630383133888245, 0.020982053130865097, -0.0029191740322858095, 0.0005230472306720912, 0.007780924439430237, 0.0024605768267065287, 0.0008704063948243856, -0.002941513666883111, -0.012002442963421345, -0.005244490224868059, -0.0031980248168110847, 0.0001014975641737692, -0.0085023557767272, 0.009089753963053226, -0.0037197479978203773, 0.0027648545801639557, 0.004049694165587425, 0.0015238769119605422, 0.00015437696129083633, 0.011210748925805092], [-0.04930949956178665, -0.03790444880723953, -0.08141879737377167, -0.002728949533775449, -0.009587389416992664, 0.0062153828330338, -0.017813466489315033, -0.0847199410200119, 0.020733868703246117, 0.03536456450819969, -0.04542391002178192, 0.002279031090438366, -0.028073186054825783, 0.16953527927398682, 0.02359672077000141, 0.0005226577632129192, 0.03770208731293678, 0.0025550511199980974, 0.00012168903049314395, -0.007776787970215082, -0.0685621052980423, -0.016094190999865532, 0.015903964638710022, -0.005534498952329159, 0.006541528273373842, -0.02445853501558304, -0.018357479944825172, 0.009288410656154156, -0.0038825219962745905, -0.16045664250850677, -0.0015640741912648082, 0.2010338306427002], [0.017517663538455963, -0.003570107277482748, 0.001326967030763626, 0.002526915166527033, -0.001331038773059845, -0.04195655137300491, 0.09585721045732498, 0.02945798635482788, -0.012589791789650917, -0.0018170346738770604, 0.0011159699643030763, -0.002314361510798335, 0.04393233731389046, -0.02879444882273674, -0.012582536786794662, -4.621083280653693e-05, -0.033334165811538696, -0.007951885461807251, 0.0012644353555515409, 0.0034180099610239267, 0.01729762740433216, 0.027361787855625153, -0.006402523256838322, 0.001458961283788085, -0.04598584026098251, -0.003239355981349945, -0.003548871958628297, -0.002588273026049137, 0.008770601823925972, 0.028746137395501137, 0.00030563882319256663, -0.1519138216972351], [0.017351167276501656, 0.013959945179522038, 0.004994661081582308, -7.333393295994028e-05, 0.019690973684191704, -0.10492245107889175, -0.05941549688577652, 0.13625270128250122, -0.01451650820672512, -0.008122949860990047, 0.018128490075469017, 0.0029305003117769957, 0.05633189529180527, -0.043347761034965515, 0.004493602551519871, 0.001324255601502955, -0.07151973247528076, -0.013123247772455215, -0.002369154477491975, 0.008695821277797222, 0.025957142934203148, 0.043692685663700104, 0.040095314383506775, -0.0033407455775886774, -0.03986654058098793, -0.046096350997686386, -0.005228253081440926, -0.016304409131407738, -0.01633348874747753, -0.00827016867697239, 0.0006527696968987584, -0.1512741595506668], [0.00021760664822068065, 0.0001589385065017268, 0.00020201067673042417, -1.4394490790436976e-05, 0.0001716016122372821, -4.466727114049718e-05, -0.0004177277151029557, -3.817099059233442e-05, 1.4485081010207068e-05, -0.00013246650632936507, 0.0004862160130869597, 2.1207390091149136e-05, -0.00013157575449440628, -0.0003189115959685296, 2.002553446800448e-05, -6.455556444961985e-07, -0.0001245549792656675, -9.362067066831514e-05, -6.929228675289778e-06, 0.00012152364070061594, 0.0004276949039194733, 4.3868574721273035e-05, -5.895798949495656e-06, -8.034745405893773e-06, -9.710413723951206e-05, -0.000375350471585989, 0.00013675769150722772, -6.303687405306846e-05, -9.023471648106351e-05, 0.00015932248788885772, 1.3022862731304485e-05, 0.000741365016438067], [0.02647070586681366, 0.05044713243842125, 0.009345305152237415, 0.0026765509974211454, 0.04505753517150879, -0.1359107792377472, -0.034129366278648376, 0.08248033374547958, 0.003358955727890134, 0.006748468615114689, 0.13504649698734283, 0.005249175243079662, 0.07511401176452637, -0.07694175839424133, -0.03677168861031532, 0.0026638514827936888, -0.147729754447937, -0.049126870930194855, -0.003235866315662861, 0.055531810969114304, 0.06352037936449051, 0.12444101274013519, -0.025591565296053886, -0.0009124159114435315, -0.16844624280929565, -0.1908436268568039, 0.06590896099805832, -0.04377119615674019, -0.008761054836213589, 0.16387829184532166, 0.006807187106460333, -0.38340604305267334], [-0.06974396854639053, 0.0526011660695076, -0.031382255256175995, -8.108986367005855e-05, -0.06884905695915222, 0.04475286230444908, -0.0711136907339096, -0.13589482009410858, 0.05132603272795677, 0.07171641290187836, 0.1300303190946579, 0.0005101918941363692, -0.08210961520671844, 0.09922195971012115, -0.039187900722026825, -0.0013804896734654903, -0.0722319558262825, -5.836542186443694e-05, -0.0009640928474254906, 0.05230256915092468, -0.05535755679011345, -0.009221008978784084, -0.05790431797504425, 0.004404963459819555, -0.007363032083958387, -0.08455034345388412, 0.0438920222222805, -0.009305601939558983, 0.008659157902002335, 0.18740548193454742, 0.006383334286510944, -0.01869315654039383], [-0.01212222408503294, -0.014195485971868038, -0.012505528517067432, 0.004057688172906637, -0.062139492481946945, -0.017408126965165138, 0.035591334104537964, -0.06354544311761856, 0.012374461628496647, 0.027078254148364067, -0.02613801695406437, -0.006343952380120754, 0.04968590289354324, 0.020434197038412094, -0.01822577230632305, 0.00035060025402344763, 0.041871458292007446, 0.003263508202508092, 0.004302592016756535, -0.007929472252726555, -0.003998903091996908, -0.005754866637289524, -0.005144605878740549, 0.0009554860880598426, -0.03462865576148033, -0.035345207899808884, -0.013926975429058075, 0.009986478835344315, 0.021238023415207863, 0.0276416577398777, 0.0007559051155112684, -0.0452667661011219], [-0.0031026494689285755, -0.002743010874837637, -0.0023687698412686586, 0.0009121471084654331, -0.0040880488231778145, -0.0011441911337897182, 0.002447327598929405, -0.004704321268945932, 0.0015631583519279957, 0.0023668070789426565, -0.017807185649871826, -0.0009643794619478285, 0.009291588328778744, 0.002055918565019965, 6.287321593845263e-05, 0.0002633171679917723, 0.00841538980603218, 0.0022047627717256546, 4.717039337265305e-05, -0.0031353228259831667, -0.0016432007541880012, -0.003858380252495408, 0.0007026164676062763, -8.894169150153175e-05, -0.006400779355317354, 0.006346213165670633, -0.0045890347100794315, 0.0018832458881661296, 0.0015119615709409118, -0.0023006671108305454, -0.0001765330962371081, -0.013051947578787804], [-0.013145821169018745, -0.006295673083513975, -0.011473828926682472, 0.0003979234315920621, -0.0008031183388084173, -0.00704803504049778, 0.0023671078961342573, -0.01231312844902277, 0.013783572241663933, 0.01837826333940029, -0.01472111139446497, -0.0007008213433437049, 0.011510745622217655, 0.021305201575160027, 0.0015585540095344186, 0.0001637110544834286, 0.013291087001562119, 0.0006837278488092124, -0.00018631439888849854, -0.001820666715502739, -0.0135673051699996, -0.0017630731454119086, 0.0055915885604918, -0.00040346774039790034, 0.0027797373477369547, -0.0003970980760641396, -0.00821909960359335, 0.002064280677586794, 0.0031234417110681534, -0.008688672445714474, -0.0003431043878663331, 0.004284878261387348], [-0.09348411858081818, -0.04667205736041069, -0.07768679410219193, 0.0052304742857813835, -0.060572195798158646, -0.11410462111234665, -0.022705519571900368, -0.03047487698495388, 0.027310360223054886, 0.046905502676963806, -0.24863533675670624, 0.00755707873031497, 0.07883130759000778, 0.20314808189868927, 0.03086550161242485, 0.005740193650126457, 0.0005178528372198343, -0.00400508614256978, -0.00495882797986269, -0.02075454220175743, -0.1642385572195053, 0.025823058560490608, 0.056716188788414, -0.004565597977489233, -0.079807348549366, -0.0014819925418123603, -0.05444939434528351, 0.006762116681784391, 0.00010052532161353156, -0.09598878771066666, 0.00134614622220397, -0.026160690933465958], [0.0001854865113273263, -1.936348553499556e-06, 7.356979767791927e-05, -3.038716158698662e-07, 6.448038766393438e-05, -0.00023296370636671782, 0.0001180185136036016, -0.0003628084377851337, -7.605802966281772e-05, -8.09466146165505e-05, -0.0001496261393185705, 1.2332484402577393e-05, 0.00021747589926235378, -5.340847201296128e-05, -1.5729268852737732e-05, 1.3900388694310095e-05, -6.496095738839358e-05, -6.226318873814307e-06, 1.1577680197660811e-05, -3.104407005594112e-05, 0.0002877018414437771, 5.1632696340675466e-06, 7.969921716721728e-05, -9.945873898686841e-06, -0.00033112408709712327, -0.00010522088996367529, -2.2825179257779382e-05, -1.5807609088369645e-05, -6.581867637578398e-05, 9.869130735751241e-06, 7.905936399765778e-06, -0.00015523120237048715], [-0.15369416773319244, -0.03128833696246147, -0.2536420524120331, 0.010771905072033405, -0.11678227037191391, -0.21531997621059418, -0.08274982124567032, 0.2270631641149521, 0.06752044707536697, -0.03257472813129425, -0.026222212240099907, 0.010244232602417469, 0.11992841958999634, 0.2630281448364258, 0.06045892462134361, 0.0032032711897045374, -0.19270052015781403, -0.1053244099020958, 0.038004834204912186, 0.060980141162872314, -0.5218286514282227, 0.28261855244636536, -0.06358124315738678, 0.017429277300834656, -0.10970660299062729, 0.0881352648139, 0.020327938720583916, -0.12932640314102173, -0.019666606560349464, 0.15451237559318542, -0.029867274686694145, -0.47747233510017395], [-0.10594289004802704, -0.09749718755483627, -0.028068700805306435, -0.03345165774226189, 0.02300007827579975, 0.06241098791360855, 0.1203443631529808, 0.10651112347841263, -0.06235175579786301, -0.14518414437770844, 0.19842860102653503, -0.009844820015132427, 0.3059670627117157, -0.3335455358028412, 0.053646720945835114, 0.04701274633407593, 0.06615348905324936, -0.0030250255949795246, 0.016290072351694107, -0.020052367821335793, 0.1252250224351883, -0.0007969792932271957, 0.05906154215335846, 0.002451433800160885, 0.0787179172039032, 0.042614083737134933, 0.04189446568489075, 0.026910189539194107, 0.03833046928048134, -0.13923999667167664, 0.003948344849050045, -0.14993055164813995], [0.033218976110219955, 0.07984424382448196, 0.1324031502008438, 0.003647819859907031, -0.01735793985426426, -0.015946650877594948, -0.27727004885673523, -0.10909084230661392, -0.0034841392189264297, -0.017181290313601494, 0.10290486365556717, 0.0004915821482427418, -0.03511251509189606, -0.02246471866965294, -0.004862489178776741, -0.0010225800797343254, -0.11923163384199142, -0.0003380893322173506, 0.006335240323096514, 0.056586939841508865, 0.11052738130092621, -0.036402300000190735, -0.018195636570453644, 0.0187141802161932, -0.04129791632294655, -0.02672271803021431, -0.005134100094437599, -0.049754798412323, -0.04430088773369789, 0.1741349697113037, -0.008555320091545582, -0.05204180255532265], [0.06447329372167587, 0.09732389450073242, 0.12811695039272308, 0.008390515111386776, -0.19595491886138916, 0.032006002962589264, -0.18123726546764374, 0.04755266755819321, -0.034097012132406235, -0.23891392350196838, -0.07498877495527267, -0.005420914385467768, -0.09119699895381927, -0.3165633976459503, 0.047101739794015884, -0.0049027325585484505, -0.13032114505767822, 0.014655277132987976, -0.008730902336537838, -0.009864534251391888, 0.12546807527542114, -0.00963896606117487, -0.02823764830827713, 0.009346622973680496, -0.0653647780418396, 0.11586225777864456, -0.03198679909110069, -0.033534396439790726, -0.0331619530916214, 0.24901555478572845, 0.0007708792691119015, -0.003888640785589814], [-0.02086610347032547, 0.006261500995606184, 0.015112325549125671, -0.014759844169020653, -0.09272163361310959, -0.013029338791966438, 0.011262902989983559, 0.01182692963629961, -0.007519670762121677, -0.012556491419672966, -0.0417683869600296, -0.001449341420084238, 0.014322390779852867, 0.06456547230482101, -0.04143165051937103, -0.0025774003006517887, 0.003369610756635666, 0.011708065867424011, 0.00703849783167243, -0.001752342446707189, -0.004540190566331148, -0.007880762219429016, 0.006174825597554445, -0.016522787511348724, 0.005800576880574226, -0.0006073566619306803, -0.016696332022547722, -0.0004129543376620859, -0.009380078874528408, 0.00929203350096941, -0.003580602817237377, -0.003773173550143838], [-0.005139027256518602, -0.20703822374343872, -0.29182806611061096, 0.0470346137881279, -0.07185287028551102, 0.26613476872444153, 0.28643879294395447, -0.18159152567386627, 0.18544968962669373, 0.5273483395576477, -0.1952306032180786, -0.006398462690412998, -0.08655109256505966, -0.24660244584083557, 0.22779414057731628, 0.003925937693566084, 0.1909596025943756, 0.10297682136297226, -0.015254591591656208, -0.07099136710166931, -0.279843807220459, -0.0488421730697155, -0.19964927434921265, 0.0057233963161706924, 0.21971572935581207, 0.2446770817041397, -0.5033168196678162, 0.08312319219112396, 0.08020874857902527, -0.21560238301753998, -0.027075020596385002, -0.028413960710167885], [0.042620837688446045, -0.10601890832185745, 0.04476051405072212, -0.025280192494392395, -0.19689488410949707, 0.11716520041227341, -0.03536898270249367, -0.3286559283733368, -0.02297053299844265, -0.05615705996751785, 0.13121432065963745, -0.017862534150481224, -0.23553726077079773, -0.16639812290668488, 0.007893129251897335, -0.010300259105861187, 0.046039775013923645, 0.11130306869745255, -0.08372417092323303, -0.04699437692761421, 0.05318590998649597, -0.10587506741285324, -0.021359452977776527, -0.0006876540719531476, 0.08350633084774017, 0.16397197544574738, -0.19141380488872528, 0.008298197761178017, 0.05920247733592987, -0.08568033576011658, -0.06724698096513748, 0.26924240589141846], [0.23378980159759521, -0.113922119140625, -0.08079221099615097, 0.007212539669126272, -0.2557898163795471, -0.05698300153017044, 0.6438411474227905, 0.009848330169916153, -0.16105912625789642, 0.04707546532154083, 0.12793679535388947, 0.01879855990409851, 0.2863256335258484, 0.057769276201725006, -0.09270473569631577, -0.012494072318077087, 0.3143501579761505, -0.02892238460481167, 0.007715668063610792, -0.0012525649508461356, -0.08164575695991516, 0.059631314128637314, -0.06937876343727112, 0.021566443145275116, 0.053876858204603195, -0.04381489008665085, -0.08152734488248825, 0.09468040615320206, 0.1457822024822235, 0.08198897540569305, 0.006883488968014717, -0.07768533378839493], [0.17868192493915558, -0.05423206835985184, -0.14916448295116425, -0.08090432733297348, 0.2375849038362503, -0.1594667285680771, -0.14296799898147583, 0.3290131986141205, -0.21089719235897064, -0.12038423866033554, -0.09260647743940353, 0.08798731118440628, -0.12799406051635742, -0.2299152910709381, -0.014124694280326366, -0.024169865995645523, -0.015262401662766933, -0.07270028442144394, -0.07574719935655594, 0.08090712875127792, 0.09212522208690643, 0.08231668919324875, -0.17495465278625488, -0.028570670634508133, -0.025608256459236145, 0.18162751197814941, 0.2704029381275177, -0.08590076118707657, -0.03127824142575264, -0.10365629941225052, 0.025935888290405273, -0.19009335339069366], [-0.07213953882455826, -0.024754762649536133, -0.021089790388941765, 0.02961590513586998, 0.026447080075740814, 0.007623234298080206, -0.05263282358646393, -0.28937917947769165, 0.12884370982646942, 0.228434756398201, 0.04097514599561691, 0.0028254862409085035, -0.006207899656146765, 0.15758880972862244, 0.0656469315290451, -0.034290362149477005, 0.10494673252105713, 0.012582204304635525, -0.10673205554485321, -0.06641151010990143, 0.05239040032029152, -0.060050833970308304, -0.06837254762649536, -0.0014418507926166058, -0.10119426995515823, -0.0049528880044817924, -0.03654448688030243, 0.007435773964971304, 0.03827115148305893, 0.10798737406730652, 0.01541275717318058, 0.13259607553482056], [-0.0879896953701973, -0.24059411883354187, -0.1828405261039734, -0.01698753423988819, -0.1995919942855835, 0.028300411999225616, 0.15853466093540192, -0.35499444603919983, 0.11321725696325302, 0.035261865705251694, 0.11294594407081604, -0.026377050206065178, 0.1956685334444046, 0.12248048931360245, -0.09828365594148636, 0.02083856426179409, 0.17339381575584412, 0.017195910215377808, 0.01008523628115654, -0.04452924430370331, 0.1741994470357895, 0.056310005486011505, 0.09257245063781738, -0.01766238547861576, 0.06854279339313507, -0.18172575533390045, -0.2568443715572357, 0.05841173976659775, 0.13188445568084717, -0.11614514887332916, -0.008956949226558208, 0.22855180501937866], [-0.049946874380111694, -0.056926481425762177, -0.07833439856767654, -0.042939234524965286, 1.2410674095153809, 0.2971958518028259, -0.06452453881502151, -0.43866950273513794, 0.19875992834568024, 0.2608549892902374, 0.4052862226963043, 0.03139223903417587, -0.5941920280456543, -0.27868518233299255, 0.3271961212158203, -0.00016753085947129875, -0.09371624141931534, -0.13648229837417603, -0.07313261926174164, -0.06286501884460449, 0.2789318859577179, 0.05580143257975578, -0.32279419898986816, 0.012384261935949326, 0.026738127693533897, -0.18722400069236755, 0.16168437898159027, -0.07220187783241272, -0.007015373092144728, -0.14478394389152527, 0.012212080880999565, -0.08077090978622437], [-0.028110075742006302, 0.0016558307688683271, -0.0016335531836375594, -0.0009392804931849241, 0.06535889953374863, -0.017156286165118217, 0.021659189835190773, -0.0016735515091568232, 0.021078696474432945, 0.0069221872836351395, 0.0072653875686228275, -0.0037313515786081553, -0.032397642731666565, -0.0333409458398819, -0.003444045316427946, 0.004217290319502354, -0.048610489815473557, -0.017500409856438637, 0.0018129637464880943, 0.015854736790060997, 0.00817648135125637, 0.024944882839918137, 0.0015044801402837038, 0.002409492153674364, -0.00919322669506073, -0.007448264397680759, 0.022531332448124886, -0.007321051321923733, -0.0008074204670265317, -0.04698314517736435, -0.0031647547148168087, 0.03138105571269989], [-0.17159439623355865, -0.0011261235922574997, -0.04479839652776718, 0.008600619621574879, -0.2589189112186432, -0.2742646336555481, 0.16066239774227142, 0.26965293288230896, -0.16736185550689697, -0.1530430018901825, -0.052785638719797134, -0.0681113451719284, 0.14166171848773956, -0.052652087062597275, -0.30824562907218933, 0.03340989723801613, -0.09563522785902023, 0.033681485801935196, -0.041539520025253296, -0.10484687983989716, -0.0335177406668663, 0.11034948378801346, 0.1318126916885376, -0.014317406341433525, -0.11316865682601929, -0.17090705037117004, 0.012094825506210327, 0.0014774476876482368, 0.029944324865937233, 0.016435494646430016, 0.02184344083070755, -0.2892601788043976], [-0.07006652653217316, -0.10343315452337265, 0.05536610633134842, -0.05510750412940979, -0.016302376985549927, 0.0977315604686737, -0.15222220122814178, -0.45506444573402405, 0.12917053699493408, 0.1235552728176117, -0.041569292545318604, -0.01797381043434143, -0.0157620869576931, 0.01572142355144024, -0.04827003926038742, -0.012377921491861343, 0.16293850541114807, 0.05860651284456253, 0.010881858877837658, -0.014826733618974686, -0.019555745646357536, -0.13454636931419373, 0.08711755275726318, 0.013145353645086288, 0.005717054009437561, -0.1799716055393219, 0.12380590289831161, 0.04574010521173477, 0.038275592029094696, -0.019281964749097824, -0.008731119334697723, 0.4107494652271271], [-0.13553546369075775, -0.13029323518276215, -0.14177972078323364, -0.02108086459338665, -0.1897219717502594, 0.06318223476409912, -0.012723378837108612, 0.10645151138305664, -0.012151433154940605, 0.0709340050816536, -0.07840857654809952, -0.0003551215340849012, 0.007189922500401735, 0.11080709844827652, -0.06978748738765717, -0.01837536320090294, 0.10429192334413528, -2.4629202016512863e-05, 0.020529089495539665, -0.04621100798249245, -0.06698523461818695, 0.024167656898498535, 0.012288063764572144, -0.0016950068529695272, 0.0967051312327385, 0.16256779432296753, -0.06271418929100037, 0.03465980663895607, 0.01690489798784256, -0.21646925806999207, 0.013185441493988037, 0.1150013655424118], [-0.0030099020805209875, -0.00027397938538342714, 0.0009487960487604141, -2.3513664928032085e-05, -0.025478530675172806, -0.00780204962939024, 0.001739448169246316, 0.002248755656182766, -0.005369457881897688, -0.004786151461303234, -0.014484151266515255, 0.003101227805018425, 0.018806396052241325, 0.01423380896449089, -0.0033309124410152435, -0.011815404519438744, 0.0005209703231230378, 9.376883099321276e-05, -0.005301593337208033, 0.0012123702326789498, 0.004783165641129017, -0.0014266164507716894, -0.0023568016476929188, 0.004090632777661085, -0.006746417377144098, 0.0004663056170102209, -0.004182229284197092, -0.000890469818841666, -0.0011436681961640716, -0.019147997722029686, 0.002925056964159012, 0.017016306519508362], [0.09001234918832779, -0.09977734833955765, -0.04914582893252373, 0.012896230444312096, -0.12525871396064758, 0.02978380210697651, 0.14419838786125183, 0.06552356481552124, -0.03290511295199394, -0.07701065391302109, -0.042032644152641296, -0.01959487609565258, 0.18064996600151062, -0.033605895936489105, -0.01873113214969635, -0.005872881971299648, 0.1724560558795929, 0.0074133179150521755, 0.0030361157841980457, -0.01204600092023611, -0.28232771158218384, 0.08681032806634903, 0.0968889519572258, -0.01560596376657486, 0.07735088467597961, 0.05402735248208046, -0.09406909346580505, 0.06691571325063705, 0.05230391398072243, 0.09772074967622757, -0.03028509020805359, 0.33148443698883057], [0.025464214384555817, 0.031200548633933067, 0.04645334929227829, -0.006904887966811657, -0.18987837433815002, 0.009949696250259876, -0.13114802539348602, 0.025092020630836487, -0.05253865569829941, -0.06407681107521057, -0.12041929364204407, 0.0001547105930512771, -0.024128364399075508, 0.00894901528954506, -0.05878084525465965, -0.006912062410265207, 0.01993534341454506, -0.05502123385667801, 0.03277568519115448, 0.01926637627184391, -0.04443368315696716, -0.011097697541117668, 0.009095758199691772, 0.0004967742133885622, 0.027295701205730438, 0.1315486878156662, 0.008917421102523804, -0.03226253762841225, -0.005540851969271898, 0.07725532352924347, 0.004710099659860134, 0.1279679834842682], [0.008360819891095161, 0.013384448364377022, 0.02296529710292816, 0.004474530462175608, 0.029567446559667587, 0.009120188653469086, -0.004717894829809666, -0.026120180264115334, -0.006440368946641684, -0.020057333633303642, 0.011540690436959267, -0.00314734922721982, -0.012293333187699318, -0.0003448165371082723, 0.0001418441825080663, 0.0008959085680544376, 0.000707395258359611, 0.012293350882828236, -0.006932239048182964, -0.009223450906574726, -0.0011145856697112322, -0.014698042534291744, -0.0035661368165165186, 0.00017476403445471078, -0.004019000101834536, 0.006492724176496267, 0.0071503580547869205, 0.002551306737586856, 0.0002993755042552948, 0.021346282213926315, 0.0005173683166503906, -0.04193313047289848], [-0.05137086287140846, 0.0197785422205925, 0.04800444096326828, 0.010470550507307053, 0.17235755920410156, -0.024322889745235443, 0.04597506299614906, -0.14902567863464355, 0.11273036897182465, 0.1142093613743782, 0.18125852942466736, -0.0007997496868483722, -0.012222275137901306, -0.10285698622465134, 0.03139471262693405, 0.010063323192298412, -0.08714334666728973, -0.0062957690097391605, -0.02300857938826084, 0.015268834307789803, 0.17194946110248566, 0.029913797974586487, -0.009448542259633541, 0.011454026214778423, -0.021992042660713196, -0.1831895112991333, -0.0068517946638166904, -0.0035805688239634037, 0.0020879232324659824, -0.05406217649579048, -0.0062431348487734795, -0.05436960980296135], [0.11110594868659973, 0.05173715576529503, 0.2392435222864151, 0.03133038803935051, -0.02450796402990818, 0.06372712552547455, 0.029499778524041176, -0.046314600855112076, 0.06576120108366013, -0.06025688722729683, 0.030438710004091263, 0.004756424110382795, -0.006032331380993128, -0.4408353269100189, 0.04627649486064911, 0.012746956199407578, -0.005728297401219606, 0.07564607262611389, -0.05032693222165108, -0.08547323942184448, 0.24794676899909973, 0.018728051334619522, -0.052376192063093185, -0.003633769229054451, -0.06886386126279831, -0.2088560312986374, -0.04381520301103592, 0.008572661317884922, 0.019903037697076797, 0.04841369390487671, -0.008120446465909481, -0.08159087598323822], [0.009016282856464386, -0.07246962934732437, -0.05601637437939644, 0.011351942084729671, 0.18281088769435883, -0.08652016520500183, 0.2000759243965149, 0.059859294444322586, 0.003055565757676959, 0.08411511778831482, 0.1951831579208374, 0.0029075408820062876, 0.06150108948349953, -0.1082909107208252, 0.02010636404156685, 0.007181718945503235, -0.10137849301099777, 0.013098088093101978, -0.03196346014738083, -0.057830050587654114, 0.12694460153579712, -0.05221482738852501, 0.009948517195880413, 0.000682754151057452, -0.025793354958295822, -0.2416893094778061, 0.005595626309514046, 0.05526264011859894, 0.016195986419916153, -0.022973187267780304, 0.009762153960764408, -0.23940078914165497], [-0.09589575976133347, 0.017565645277500153, 0.007632455322891474, -0.01862272620201111, 0.1453457474708557, -0.2732982635498047, -0.18438538908958435, 0.2678954303264618, -0.06199951469898224, 0.007445279974490404, -0.14112801849842072, 0.014087413437664509, -0.06999075412750244, 0.20010165870189667, 0.048142850399017334, -0.05303438752889633, -0.08655935525894165, -0.03751997649669647, -0.030981160700321198, 0.012885267846286297, -0.01885594055056572, 0.02976260706782341, 0.134739488363266, -0.009040893986821175, -0.03673769533634186, 0.0556316077709198, 0.027307119220495224, -0.025557097047567368, -0.04595722630620003, -0.1979583352804184, 0.001245097373612225, -0.02616993710398674], [0.004758850671350956, 0.015589234419167042, 0.013507974334061146, -0.011999502778053284, -0.047838471829891205, 0.014508313499391079, 0.0683632418513298, -0.006135986186563969, -0.022648999467492104, -0.00154825858771801, 0.01722857542335987, -0.0041836705058813095, 0.0030810090247541666, 0.018152981996536255, 0.010569022968411446, -0.000405614438932389, 0.011851952411234379, 0.014523111283779144, 0.0022316514514386654, -0.0007006403175182641, 0.01227684784680605, -0.012318117544054985, -0.0023846777621656656, -0.023120036348700523, 0.014060528948903084, 0.0038395635783672333, -0.01859099045395851, -0.0019092621514573693, -0.00946120172739029, 0.00854793656617403, -0.006149367429316044, 0.010073898360133171], [0.07340843230485916, -0.07438432425260544, -0.089069664478302, -0.04090080410242081, 0.20321981608867645, 0.1039971113204956, -0.027047323063015938, 0.147378072142601, -0.11434786766767502, -0.039333004504442215, 0.012318269349634647, 0.013740958645939827, -0.09880394488573074, -0.011238702572882175, -0.030309228226542473, -0.015772666782140732, 0.16462522745132446, -0.055026985704898834, 0.054214958101511, 0.06607948988676071, -0.10268177837133408, 0.034624602645635605, 0.18793906271457672, -0.007742701098322868, 0.31538480520248413, 0.24496571719646454, 0.054109860211610794, 0.017179401591420174, -0.028556937351822853, -0.18252959847450256, -0.002881592372432351, 0.18831351399421692], [-0.06824742257595062, 0.0920681431889534, 0.12763197720050812, 0.053584758192300797, -0.8536506295204163, -0.05576203763484955, 0.039731528609991074, 0.26867055892944336, -0.18791981041431427, -0.27027904987335205, -0.3830370306968689, -0.09262999147176743, 0.314159095287323, -0.07950463145971298, -0.2566845118999481, -0.01763025112450123, 0.06924718618392944, 0.2319944202899933, 0.08091180771589279, -0.19584903120994568, -0.2959689497947693, -0.20563450455665588, 0.08484042435884476, 0.005753551609814167, 0.2722148299217224, 0.5071247220039368, -0.1702096164226532, 0.024733807891607285, 0.059418465942144394, 0.14131960272789001, 0.006088847294449806, -0.10460490733385086], [-0.0003542524063959718, 0.06196000799536705, 0.22939454019069672, 0.051379527896642685, 0.6477439403533936, 0.12473766505718231, 0.04687656834721565, -0.30631333589553833, 0.051999952644109726, 0.06742008030414581, -0.04869624227285385, -0.051484622061252594, -0.33531713485717773, -0.3081192672252655, 0.10656237602233887, 0.03773275017738342, -0.12088643014431, -0.03479835391044617, -0.0638430044054985, 0.031724944710731506, 0.3087475895881653, 0.037520356476306915, -0.1379382163286209, 0.06369629502296448, -0.23076388239860535, -0.22659951448440552, -0.10117119550704956, -0.05807552486658096, 0.037995610386133194, 0.08999883383512497, -0.026273909956216812, 0.023180576041340828], [0.032594673335552216, -0.0537288561463356, 0.004151433240622282, -0.0069229197688400745, -0.060168348252773285, -0.04458301141858101, 0.06516959518194199, -0.03731193765997887, -0.005101189948618412, -0.03684449940919876, -0.005137910135090351, -0.0006857604021206498, 0.06824662536382675, 0.030095558613538742, -0.006332076620310545, -0.005256347823888063, 0.11196915060281754, -0.004931781440973282, 0.004953770432621241, -0.03751685470342636, -0.15647512674331665, 0.09564127773046494, 0.035357553511857986, -0.012420853599905968, 0.03979619964957237, 0.06264929473400116, -0.05077410116791725, -0.034101907163858414, 0.0051109930500388145, 0.05671150982379913, -0.004371187184005976, 0.10256539285182953], [-0.038608618080616, -0.01412460207939148, 0.012287984602153301, 0.0002152662636945024, -0.08419046550989151, 0.013459413312375546, 0.15174658596515656, -0.15994621813297272, 0.03249756619334221, 0.10417145490646362, 0.02880864031612873, -0.0014274315908551216, 0.1299232393503189, -0.1564437299966812, -0.02653554081916809, -0.013615243136882782, 0.08209294825792313, -0.013464812189340591, -0.0128955552354455, 0.03350752219557762, 0.030133210122585297, -0.0137940039858222, 0.006412770599126816, -0.01563756726682186, -0.027572456747293472, -0.021399205550551414, -0.07947707176208496, 0.03818994760513306, 0.005839762277901173, 0.044318847358226776, -0.0013486146926879883, 0.018496375530958176], [0.009587042033672333, 0.15861105918884277, 0.20577086508274078, 0.018016716465353966, -0.38633084297180176, 0.11314763873815536, -0.07878370583057404, -0.34306222200393677, 0.15496519207954407, 0.01663180999457836, 0.21052896976470947, 0.03498177230358124, 0.049092572182416916, -0.16978225111961365, -0.05648332089185715, 0.012467711232602596, -0.10748773068189621, 0.07926636189222336, -0.06756951659917831, 0.061518892645835876, 0.25204166769981384, -0.05027797818183899, -0.14386583864688873, -0.002658529905602336, -0.13917012512683868, -0.276127427816391, 0.019413748756051064, -0.029415179044008255, 0.008176412433385849, 0.3555555045604706, 0.007552964612841606, -0.08046925067901611], [-0.00022667968005407602, 0.00029860707581974566, 0.014355222694575787, -0.00023297224834095687, 0.04512414336204529, -0.03031277097761631, 0.009470591321587563, -0.04494103789329529, 0.008662807755172253, -0.002472497057169676, -0.010249720886349678, -0.002104467246681452, -0.01257349830120802, -0.04099605605006218, 0.015237388201057911, 0.004874719772487879, -0.027307135984301567, -0.002605878747999668, -0.004096907563507557, -2.639269587234594e-05, 0.002469810424372554, 0.009493115358054638, 0.0076735373586416245, -0.0012121698819100857, -0.025631459429860115, -0.018436023965477943, -0.010042908601462841, -0.0034097356256097555, -0.00257117860019207, 0.017845550552010536, -0.006246577017009258, 0.008061079308390617], [-0.09262645989656448, 0.036880526691675186, -0.06943438947200775, -0.004047826863825321, 0.015884261578321457, 0.1101560965180397, -0.13292792439460754, -0.09886451065540314, -0.08032691478729248, -0.016775712370872498, -0.1375403255224228, 0.0753813087940216, -0.17123308777809143, 0.16253496706485748, 0.03966796398162842, 0.01683432050049305, 0.02235736884176731, 0.07684757560491562, -0.09344987571239471, -0.0611661896109581, -0.2117491513490677, -0.13478727638721466, -0.10081943869590759, -0.012215171940624714, 0.0736551433801651, 0.10392357409000397, 0.05404530093073845, 0.01179612148553133, -0.08073445409536362, -0.218346506357193, 0.032494526356458664, 0.4179362952709198], [-0.12392794340848923, -0.02926700748503208, -0.10474567115306854, 0.002085524844005704, -0.06519600749015808, 0.018890736624598503, 0.01790529489517212, -0.16750986874103546, 0.12647737562656403, 0.14869192242622375, 0.0070993732661008835, -6.24802996753715e-05, -0.04558457061648369, 0.1674305647611618, 0.007077042944729328, 0.0021165914367884398, 0.04958903416991234, 0.005697727669030428, 0.0020807809196412563, 0.0025631191674619913, -0.08614456653594971, -0.02600424364209175, -0.005420956294983625, 0.0007728333002887666, 0.003573724767193198, -0.05491460859775543, -0.01577724888920784, 0.01916654035449028, 0.02479696273803711, -0.034658707678318024, -0.00020729702373500913, 0.14617611467838287], [-0.023544995114207268, -0.020654018968343735, -0.026957571506500244, 0.0014884292613714933, -0.021641764789819717, -0.016148563474416733, 0.026251770555973053, -0.038866814225912094, 0.015894712880253792, 0.02823839895427227, -0.021763864904642105, -0.0019051993731409311, 0.030069677159190178, 0.03900421783328056, -0.0014444930711761117, 0.0006961401668377221, 0.033570121973752975, 0.0013277714606374502, 0.001718267798423767, -0.005717495921999216, -0.021433312445878983, -0.004862015601247549, 0.007082842290401459, 0.0002485745644662529, -0.01900448463857174, -0.011676585301756859, -0.019045446068048477, 0.009229542687535286, 0.011631343513727188, -0.0356178805232048, -0.0009917401475831866, 0.017983941361308098], [-0.09937364608049393, -0.03974131494760513, -0.08770522475242615, 0.0006869483040645719, -0.017752734944224358, 0.002763286931440234, -0.016647998243570328, -0.13780800998210907, 0.08363869041204453, 0.10901011526584625, -0.006067000795155764, 0.0020338071044534445, -0.0019114395836368203, 0.20731835067272186, 0.02115851826965809, 0.002932809991762042, 0.05300050228834152, 0.003861992619931698, 5.290280023473315e-05, -0.008577031083405018, -0.08093006908893585, -0.023383531719446182, 0.0224936380982399, -0.001780461287125945, 0.00885764043778181, -0.030455250293016434, -0.026561707258224487, 0.01761941984295845, 0.01385860238224268, -0.10284335166215897, -0.0015537213766947389, 0.14982445538043976], [0.0007484261877834797, -1.9737817638088018e-05, 0.00029177922988310456, -0.0001082388189388439, 0.0010559160728007555, 0.0002801174414344132, -2.5136985641438514e-05, 0.0008435312774963677, -0.0005434619961306453, -0.0005799267091788352, 0.001067133853211999, 7.309385546250269e-05, -0.0003639939532149583, -0.0009653703891672194, 7.65057047829032e-05, -1.321547279076185e-05, 8.276035077869892e-05, -0.00022958462068345398, 1.033756689139409e-05, 0.00019096511823590845, 0.0005309709231369197, 0.00020467588910833, -5.980561036267318e-05, -1.7218991388290306e-06, 0.0007199298124760389, -0.0013296859106048942, 0.0005293101421557367, -0.0001907873374875635, -0.00016144788241945207, -0.00040545230149291456, 2.7013118597096764e-05, 0.0006867592455819249], [0.03450119122862816, 0.0038890710566192865, 0.02023792639374733, -0.0009801472770050168, -0.0734650045633316, -0.007253441493958235, -0.03552250564098358, 0.0652570128440857, -0.03548260033130646, -0.04953250288963318, -0.03062666580080986, 0.0011552469804883003, 0.04526180773973465, -0.02476966194808483, -0.004662183113396168, 0.0009036432020366192, -0.004747894126921892, -0.0004625996807590127, 0.0026694966945797205, -0.0036029433831572533, -0.04644528776407242, 0.01596798747777939, 0.010549107566475868, -0.0009495431440882385, 0.00015894345415290445, 0.027559535577893257, -0.006893535144627094, -0.009337926283478737, -0.004778580740094185, 0.05128100514411926, -0.0004075869801454246, -0.08871633559465408], [0.03176454082131386, 0.0019323705928400159, 0.006913480348885059, 0.002599468920379877, 0.15062758326530457, -0.31672999262809753, 0.03761156275868416, 0.22135820984840393, -0.02122010663151741, -0.012064510025084019, -0.007905368693172932, 0.0034597767516970634, 0.11601360887289047, -0.043828658759593964, 0.011668119579553604, 0.002349280286580324, -0.19942109286785126, -0.05303714796900749, -0.0011042557889595628, 0.017532281577587128, 0.048313211649656296, 0.13320115208625793, 0.08586220443248749, -0.001760708400979638, -0.16574546694755554, -0.04550115764141083, -0.007705785799771547, -0.03582870215177536, -0.01626262255012989, -0.04301038756966591, 0.002423821482807398, -0.256676584482193], [0.06911461800336838, -0.02353212796151638, -0.005554114002734423, 0.003361445153132081, -0.003726256312802434, -0.05808176472783089, 0.10370387881994247, 0.0029725986532866955, -0.03891022875905037, 0.009842458181083202, 0.00555918924510479, -0.00991099327802658, 0.12203682214021683, -0.01300450973212719, -0.004682388622313738, 0.0006786732119508088, 0.07950171828269958, -0.026078253984451294, 0.0037549592088907957, 0.003796753939241171, -0.015417863614857197, 0.028816744685173035, 0.028822654858231544, 0.001965014496818185, -0.07734348624944687, -0.15276503562927246, -0.04682864993810654, -0.0009245679248124361, 0.021538393571972847, 0.04055791348218918, -0.006736175622791052, -0.05718135088682175], [-0.2501547634601593, 0.012669642455875874, -0.12813284993171692, -0.0005884608253836632, 0.07961796224117279, -0.32344695925712585, -0.036446329206228256, 0.00451061874628067, 0.22155532240867615, 0.29552537202835083, 0.01522715575993061, 0.015331941656768322, 0.15707778930664062, 0.1431921124458313, 0.050574254244565964, 0.004222333896905184, -0.16925424337387085, -0.044506512582302094, -0.003504302352666855, 0.05120806023478508, -0.06905342638492584, 0.06995181739330292, 0.16020752489566803, -0.012523443438112736, -0.036224525421857834, -0.10498343408107758, -0.028727147728204727, -0.011062050238251686, 0.04132271558046341, -0.07574968785047531, 0.005001352168619633, -0.08068613708019257], [-0.18153785169124603, -0.02708534151315689, -0.1193053126335144, 0.0014777397736907005, -0.040637675672769547, -0.009816480800509453, 0.04153837636113167, -0.16882844269275665, 0.14587050676345825, 0.20463193953037262, -0.011867123655974865, 0.002564258873462677, -0.028087247163057327, 0.18212494254112244, 0.005299724638462067, 0.0012446612818166614, 0.03167753294110298, 0.0007254983647726476, 0.001900520990602672, 0.01253416296094656, -0.08157909661531448, -0.027665890753269196, 0.0055754343047738075, 0.0003350707411300391, 0.0010770722292363644, -0.02817065827548504, -0.006898256950080395, 0.019907638430595398, 0.032282281666994095, -0.023003574460744858, 0.0008167248452082276, 0.10760640352964401], [-0.1941821128129959, -0.04820453003048897, -0.13099659979343414, 0.0010526356054469943, -0.08117248862981796, 0.007938324473798275, 0.050117965787649155, -0.20172524452209473, 0.17046506702899933, 0.22639909386634827, -0.019461147487163544, 0.0031622955575585365, 0.016573525965213776, 0.2421441227197647, 0.005204750224947929, 0.0019554540049284697, 0.07409310340881348, -0.00039612792897969484, 0.0011901200050488114, 0.0022535468451678753, -0.0976070687174797, -0.03289763629436493, 0.011175934225320816, -0.0005621590535156429, 0.014003758318722248, -0.02320394478738308, -0.03304838016629219, 0.028655778616666794, 0.042958859354257584, -0.03684744983911514, -0.0006255354965105653, 0.1972513198852539], [-0.005688498727977276, -0.0313175693154335, -0.06794564425945282, -0.0022819763980805874, -0.1446613371372223, -0.06980365514755249, -0.08576702326536179, 0.011983477510511875, -0.026143474504351616, 0.010353808291256428, -0.22812482714653015, 0.007475759368389845, -0.006400976330041885, 0.0669717863202095, -0.01371857337653637, -0.0005184239125810564, -0.14167742431163788, -0.014096306636929512, -2.160272742912639e-06, 0.0008487891755066812, -0.10161050409078598, 0.03041652776300907, 0.042419832199811935, -0.0039852638728916645, -0.07342817634344101, -0.06528118997812271, 0.01802651397883892, -0.01894807629287243, -0.01384984515607357, -0.2008693814277649, 0.007936351001262665, -0.009313198737800121], [0.0002997918345499784, -0.000385119958082214, 5.2856125876132865e-06, 2.525731542846188e-05, 0.0002894850622396916, -0.00034331230563111603, 0.0017693913541734219, 0.0006924515473656356, -0.00033874783548526466, -0.0003109288518317044, -0.000830591656267643, -1.771060487953946e-05, 0.0009058685973286629, -0.0005783801316283643, 2.7686917292157887e-06, 8.345736205228604e-06, 0.000554884725715965, -5.601402335742023e-06, 4.608327435562387e-05, -0.0002070901682600379, 0.00014438935613725334, 9.493063407717273e-05, 0.0002234768180642277, 3.619341805460863e-05, 0.00019806619093287736, -0.00027079530991613865, -0.00033249781699851155, 8.851040911395103e-05, 0.00012563240306917578, -0.000850479700602591, -1.2685432011494413e-05, 1.0000884685723577e-05], [-0.016899555921554565, -0.012534153647720814, 0.000184110103873536, 0.004343260079622269, -0.04436507821083069, -0.1566973626613617, 0.07448846101760864, 0.10824980586767197, -0.015864184126257896, -0.009146124124526978, -0.10732471942901611, -0.0057342094369232655, 0.16855372488498688, 0.02279297634959221, -0.007087604142725468, 0.002308426657691598, -0.035685811191797256, -0.0046025170013308525, 0.0021162338089197874, -0.0052304258570075035, -0.014336892403662205, 0.02859802544116974, 0.0434432215988636, 9.725132258608937e-05, -0.06927288323640823, 0.017788376659154892, -0.05254214629530907, -4.274466846254654e-05, 0.007502078544348478, 1.7838003259385005e-05, -0.002391945803537965, -0.1787499189376831], [-0.14873053133487701, -0.0355050228536129, -0.14464369416236877, 0.0020167625043541193, -0.07421238720417023, 0.08837379515171051, -0.0506461039185524, -0.24790537357330322, 0.14456899464130402, 0.18422184884548187, -0.016475798562169075, 0.0019347550114616752, -0.056673962622880936, 0.1852404922246933, 0.05353183299303055, 0.004119339864701033, 0.1021050438284874, 0.028272991999983788, -7.97891552792862e-05, -0.012560638599097729, -0.06445426493883133, -0.07567048817873001, -0.0221296027302742, -0.004353176336735487, 0.035444553941488266, -0.03573991358280182, -0.022197267040610313, 0.03710348531603813, 0.02740328200161457, -0.07126662880182266, -0.0016484434017911553, 0.2509557604789734], [-0.004576473031193018, 0.005602562800049782, 0.00047250374336726964, 3.384509545867331e-05, -0.012654045596718788, 0.0029787998646497726, -0.03120706044137478, -0.0029175258241593838, 0.0004369006783235818, -0.007677171844989061, -0.013859291560947895, 0.0006779382238164544, -0.0023517876397818327, 0.013274425640702248, -0.0011120056733489037, -2.2716135390510317e-06, -0.01368853822350502, 0.0022278418764472008, 0.0003244126564823091, -0.00014126344467513263, -0.01851062662899494, -0.002276845509186387, 0.0034701803233474493, -0.0011617819545790553, -0.004891279619187117, 0.02363993600010872, 0.0038350913673639297, -0.002905217232182622, -0.0036607063375413418, 0.007860178127884865, 0.00036270738928578794, 0.0018400149419903755], [0.0001142594192060642, 0.0001337280700681731, 6.840736023150384e-05, -6.863069756946061e-06, 8.0073141361936e-06, -2.5186132006638218e-06, -0.00012351339682936668, 3.650378857855685e-05, -5.835063348058611e-05, -5.855326890014112e-05, 0.0005547041655518115, 5.754633548349375e-06, -0.00016507947293575853, -0.00014588389603886753, -6.322201898001367e-06, -2.1652853320119902e-05, -0.0001461378124076873, -4.958452791470336e-06, 2.1422215468192007e-07, 1.172093743662117e-05, 0.00010208232561126351, 1.9926956156268716e-05, -4.205553705105558e-05, -4.019497737317579e-06, 8.082342901616357e-06, -0.0005920088733546436, 7.223477587103844e-05, -2.760648203548044e-05, -5.9964142565149814e-05, 3.4690790926106274e-05, 7.046909331620554e-07, 1.192692343465751e-05], [-0.012498295865952969, -0.018640689551830292, -0.00018884730525314808, 0.009089395403862, -0.05363884195685387, -0.11552775651216507, 0.05029549449682236, 0.05876057222485542, 0.0037263771519064903, 0.010272231884300709, -0.1840841919183731, -0.009574241936206818, 0.17144331336021423, -0.0018022083677351475, -0.0063490308821201324, 0.0017745107179507613, 0.01947016827762127, 0.014972325414419174, 0.0004328731738496572, -0.030588900670409203, -0.010408998467028141, 0.011422593146562576, 0.02086612954735756, -0.0012973449192941189, -0.0934978574514389, 0.06840170174837112, -0.0657578706741333, 0.010488339699804783, 0.02008144184947014, 0.015864675864577293, -0.0015964447520673275, -0.16864420473575592], [0.003140942193567753, -0.0010662816930562258, 0.001594041706994176, 0.0005502561689354479, -0.0015588229289278388, -0.006024212576448917, 0.018246930092573166, 0.0052248346619307995, -0.0027315171901136637, -0.001149641233496368, -0.008489253930747509, -0.00032960594398900867, 0.010522972792387009, -0.006045651156455278, -0.0014271982945501804, 0.00024003333237487823, -0.00117364467587322, -5.884800430067116e-06, 0.000250326149398461, -0.0013686333550140262, 0.0028091012500226498, 0.00208875210955739, -0.0011494563659653068, 0.00022804748732596636, -0.009100607596337795, -0.0017619965365156531, -0.0004173233173787594, 0.0006708148866891861, 0.0015648220432922244, 0.0012918852735310793, 0.0002456785296089947, -0.01730678789317608], [0.00020230852533131838, 0.00025290760095231235, 0.0004490913706831634, 1.1898712727997918e-05, -0.0002720413904171437, 0.00012401641288306564, 9.420947753824294e-05, 0.00017339563055429608, -0.0001385401119478047, -0.000434355839388445, 0.00027984337066300213, -3.1434195989277214e-05, -0.00018494488904252648, -0.0003944531490560621, -6.131361442385241e-05, -1.9235085346736014e-06, -0.0002915796940214932, 7.11332104401663e-05, -4.505073775362689e-06, 7.476084192603594e-06, 0.0005171192460693419, -9.091453830478713e-05, -1.6892956409719773e-05, 4.91068522023852e-06, -6.022215529810637e-05, 0.00017288276285398751, 5.758406132372329e-06, -6.984434003243223e-05, -7.688631740165874e-05, 0.00033995069679804146, -3.629894536061329e-06, 7.453015859937295e-05], [-0.007566169835627079, -0.0017689672531560063, -0.004928267560899258, 0.0004630779440049082, -0.0069940341636538506, 0.003285706043243408, 0.003982897847890854, -0.023769546300172806, 0.006108943372964859, 0.009333675727248192, -0.012656420469284058, -0.0003687251009978354, 0.0020276466384530067, 0.01919124647974968, -0.001556349452584982, 0.00048140084254555404, 0.008209962397813797, 0.0020208791829645634, 0.000758396286983043, -0.002606963040307164, -0.009833082556724548, -0.005946225021034479, -0.002689697779715061, -5.827590575790964e-05, -0.004685196094214916, -0.003306368598714471, -5.785330358776264e-05, 0.0019855150021612644, 0.0026441989466547966, -0.0004446370294317603, 0.00031359531567431986, 0.01736903004348278], [-0.044016823172569275, -0.04193010926246643, -0.0569869689643383, -0.0020550016779452562, -0.03979676961898804, 0.004787109326571226, -0.021669775247573853, -0.04799212887883186, 0.01041674055159092, 0.00460817338898778, -0.08676144480705261, 0.0009569316753186285, -0.01084570400416851, 0.10091694444417953, 0.013122732751071453, -0.00015018794510979205, 0.04743444547057152, 0.009170149452984333, 0.0027272971346974373, -0.020860252901911736, 0.0173016544431448, -0.027494585141539574, 0.017658470198512077, -0.00622362969443202, -0.0005955667584203184, 0.004960187710821629, -0.018028950318694115, 0.013136038556694984, 0.0005309651605784893, -0.13671469688415527, -0.0007971020531840622, 0.16476956009864807], [0.017495378851890564, -0.004393294453620911, -0.00045271715498529375, 0.001997730927541852, 0.01019026804715395, -0.041887350380420685, 0.08683552592992783, 0.025259261950850487, -0.012141324579715729, -0.0007252181530930102, 0.007706912700086832, -0.001535792020149529, 0.03437591344118118, -0.0252380408346653, -0.009593739174306393, 9.581491758581251e-05, -0.029332879930734634, -0.008849923498928547, 0.0008582590380683541, 0.003633108688518405, 0.016759220510721207, 0.026441369205713272, -0.0038044454995542765, 0.0010276241227984428, -0.04397064819931984, -0.02118600718677044, 0.0009555093129165471, -0.002480163937434554, 0.00691561633720994, 0.009694158099591732, 0.0004795529821421951, -0.10417182743549347], [0.009499709121882915, 0.008396564051508904, 0.0010254195658490062, 0.0007704564486630261, 0.005899356212466955, -0.07968493551015854, -0.04094754531979561, 0.09406542778015137, -0.00913440901786089, -0.003681967267766595, -0.00046259668306447566, 0.0017244776245206594, 0.04238054156303406, -0.027811827138066292, 0.003389020450413227, 0.000874819525051862, -0.05094916746020317, -0.008440317586064339, -0.0015416644746437669, 0.005002880003303289, 0.020401155576109886, 0.030078116804361343, 0.030550483614206314, -0.0025142545346170664, -0.032405827194452286, -0.03703181818127632, -0.006245626136660576, -0.010684322565793991, -0.011091107502579689, -0.013063756749033928, 0.00037243214319460094, -0.10661514103412628], [0.00024397009110543877, 0.00016903210780583322, 0.00020713175763376057, -1.4693066987092607e-05, 0.0001581343385623768, -5.525820961338468e-05, -0.00045488247997127473, -4.485817771637812e-05, -4.335069661465241e-06, -0.00013597069482784718, 0.0005433696205727756, 2.4272383598145097e-05, -0.00014049223682377487, -0.0003078238805755973, 1.0077906154037919e-05, 9.168700465522761e-09, -0.00016437914746347815, -0.00010927643597824499, -7.829977221263107e-06, 0.00015456638357136399, 0.0003995898296125233, 7.591717439936474e-05, -2.544700328144245e-05, -4.8989950300892815e-06, -0.00014815795293543488, -0.00041887868428602815, 0.00016778479039203376, -8.034556230995804e-05, -8.90821247594431e-05, 0.0002570014039520174, 1.512574544904055e-05, 0.0007332218228839338], [0.005726811476051807, 0.035011183470487595, 0.012201797217130661, 0.006091544404625893, 0.02473926730453968, -0.09561871737241745, -0.016907861456274986, 0.02695329673588276, 0.008482102304697037, 0.006093189585953951, 0.04581199213862419, -0.0002563917078077793, 0.04838048666715622, -0.04353689029812813, -0.02585405297577381, 0.0027819094248116016, -0.09674560278654099, -0.02542758174240589, -0.0012982144253328443, 0.02921418659389019, 0.05161628872156143, 0.06743547320365906, -0.01699608936905861, -0.0005710097029805183, -0.13650262355804443, -0.09895683825016022, 0.037567004561424255, -0.025624075904488564, -0.002456989837810397, 0.1181032806634903, 0.00471504544839263, -0.22582410275936127], [-0.0505242720246315, 0.016970016062259674, -0.0014385473914444447, 0.0026361735071986914, -0.05292004719376564, 0.04513099044561386, -0.047360025346279144, -0.1454586386680603, 0.028195668011903763, 0.020170139148831367, 0.005550948437303305, -0.004476705100387335, -0.09373518824577332, 0.03718096762895584, -0.026976563036441803, -0.0011121975257992744, -0.027568912133574486, 0.019925180822610855, 0.0020833893213421106, 0.0017558274557814002, -0.0064624156802892685, -0.039492376148700714, -0.04452881962060928, 0.003161068307235837, -0.033056724816560745, -0.08485157042741776, 0.05645287036895752, 0.003229150315746665, 0.013346418738365173, 0.09500491619110107, 0.006321064196527004, -0.002641538390889764], [-0.008490007370710373, -0.013973245397210121, -0.017351601272821426, 0.002050533890724182, -0.06156734749674797, -0.02272244170308113, 0.011308327317237854, -0.04324264079332352, 0.010660329833626747, 0.027275029569864273, -0.021460838615894318, -0.0036766109988093376, 0.05842144042253494, 0.02670014463365078, -0.009911040775477886, 0.00026194125530309975, 0.02944011613726616, -0.0016373301623389125, 0.0030867380555719137, -0.0028390272054821253, -0.0226589422672987, 0.004818320740014315, 0.0013133735628798604, 0.0002600621373858303, -0.021702544763684273, -0.062101177871227264, -0.007819599471986294, 0.005300937686115503, 0.014820998534560204, 0.02282111346721649, 0.0008083168650045991, -0.07492683827877045], [-0.0027466202154755592, -0.00224674423225224, -0.0012451191432774067, 0.0008512686472386122, -0.0023892372846603394, -0.002061425009742379, 0.0008060107356868684, -0.0042434982024133205, 0.0018538794247433543, 0.002475086133927107, -0.017170684412121773, -0.0010171534959226847, 0.010666492395102978, -0.0004313450481276959, 0.00014619309513363987, 0.00024408222816418856, 0.009001761674880981, 0.0026413248851895332, 6.109802052378654e-05, -0.003513967152684927, 0.0014636365231126547, -0.004969227127730846, 0.0009768122108653188, -0.00017011899035423994, -0.006523003801703453, 0.005011175759136677, -0.004719633609056473, 0.0019921381026506424, 0.001395327621139586, -0.0017510486068204045, -0.00015872421499807388, -0.008850100450217724], [-0.008983762934803963, -0.004123782739043236, -0.007479184772819281, 0.00036649059620685875, -3.189830749761313e-05, -0.00757223553955555, 0.0014390423893928528, -0.003813742194324732, 0.010600579902529716, 0.01435825601220131, -0.008078367449343204, -0.0007522118394263089, 0.011412854306399822, 0.008786628022789955, 0.001380292815156281, 0.00011844887194456533, 0.009898126125335693, 0.0006401445134542882, -0.00018722015374805778, -0.0015845887828618288, -0.003356318222358823, -0.0015731046441942453, 0.005503694526851177, -0.0003260912199039012, 0.0031125927343964577, -0.003593600820749998, -0.007853759452700615, 0.001445602159947157, 0.0016719403211027384, -0.008965064771473408, -0.00036118930438533425, 0.001134500140324235], [-0.09321831166744232, -0.03919009491801262, -0.08786430209875107, -0.0001603257260285318, 0.002156064147129655, -0.05725592002272606, -0.041569165885448456, -0.07163457572460175, 0.0496450811624527, 0.06585521996021271, -0.100750632584095, 0.0104618975892663, -0.009285922162234783, 0.1607617288827896, 0.028656410053372383, 0.003631531959399581, -0.018516192212700844, -0.006013754289597273, -0.0024556219577789307, -0.003997225314378738, -0.10580722242593765, -0.0001991746248677373, 0.03966519609093666, -0.004330504685640335, -0.045268941670656204, 0.0035419848281890154, -0.013212550431489944, 0.006635678466409445, -0.0021448275074362755, -0.12836192548274994, 0.0015804592985659838, 0.05782400816679001], [0.0001592091575730592, 6.1237492445798125e-06, 7.095016189850867e-05, -1.47057085086999e-06, 9.395216329721734e-05, -0.0001934211904881522, 0.0001185635628644377, -0.0005516282981261611, -2.9638275009347126e-05, -5.056190275354311e-05, -9.741355825099163e-06, 9.30477381189121e-06, 0.00012201933714095503, -2.9454147806973197e-05, -2.530825622670818e-05, 1.1192799320269842e-05, -8.78362789080711e-06, -4.126630301470868e-06, 1.323433025390841e-05, -2.144201789633371e-05, 0.00028495670994743705, -2.3936501747812144e-05, 4.034520679851994e-05, -7.529352387791732e-06, -0.00029045360861346126, -0.00019662677368614823, 1.603921555215493e-05, -5.464436071633827e-06, -4.5635108108399436e-05, 6.061843578208936e-06, 7.821615326975007e-06, 5.248394245427335e-06], [-0.08260276913642883, -0.004784617573022842, -0.1323763132095337, 0.006669422145932913, 0.10845980048179626, -0.28905439376831055, -0.02016204036772251, 0.21024952828884125, 0.016224615275859833, 0.07412996143102646, -0.026250801980495453, 0.009071541018784046, 0.12597984075546265, 0.13731153309345245, 0.06383146345615387, 0.006853734143078327, -0.17204497754573822, -0.10052164644002914, -0.009930995292961597, 0.02464490570127964, -0.10185005515813828, 0.1915065199136734, -0.01063441950827837, 0.006400003097951412, -0.21953906118869781, -0.0670652762055397, 0.032095059752464294, -0.044984109699726105, -0.01622621901333332, -0.008413266390562057, -0.0011850105365738273, -0.29211369156837463]], "rec.bias_ih_l0": [-0.19642077386379242, -0.1910928338766098, -0.25954464077949524, -0.018025705590844154, 0.681607186794281, -0.3268028497695923, -0.11897853016853333, -0.2754477858543396, -0.29848751425743103, -0.20853835344314575, 0.2035183161497116, -0.010791633278131485, -0.06916370242834091, -0.027674615383148193, 0.14735424518585205, -0.010971255600452423, -0.11417649686336517, -0.07556281983852386, -0.00862299744039774, -0.06511995196342468, -0.028910232707858086, -0.08474820852279663, -0.07513032108545303, -0.028214355930685997, -0.09423117339611053, 0.04427201673388481, 0.13131171464920044, -0.07871375232934952, -0.08633178472518921, -0.10537004470825195, -0.02101135067641735, -0.2679728865623474, 0.13678213953971863, 0.09365735203027725, 0.07991792261600494, -0.017310980707406998, 0.13900867104530334, 0.15693353116512299, 0.7053456902503967, 0.756732702255249, 0.13735374808311462, 0.0732203796505928, 0.1113164871931076, -0.005236505530774593, 0.08642648160457611, 0.16919665038585663, -0.044695936143398285, -0.010180175304412842, 0.22093677520751953, -0.04076830670237541, -0.008627140894532204, 0.01223470363765955, 0.13072776794433594, 0.0035925013944506645, 0.0739632248878479, -0.024767328053712845, 0.2401668131351471, 0.17817333340644836, -0.0533946268260479, 0.055444858968257904, 0.05112443119287491, 0.46632492542266846, -0.009933567605912685, 0.6231064796447754, -0.09639672189950943, -0.03233730047941208, 0.030178628861904144, 0.054946545511484146, -0.08109838515520096, -0.049383629113435745, -0.11510039865970612, -0.04362652823328972, 0.00846971943974495, 0.060920365154743195, 0.0226100105792284, -0.0031317269895225763, 0.09442701190710068, 0.03935224562883377, -0.023514851927757263, -0.018572745844721794, -0.06076553836464882, 0.008833891712129116, -0.0006657113553956151, -0.03461090102791786, -0.0634319931268692, 0.05436757206916809, 0.014432989992201328, 0.008184139616787434, 0.06584469974040985, -0.05578869208693504, -0.025024330243468285, -0.03264201432466507, 0.14054608345031738, 0.040232352912425995, -0.038576483726501465, -0.0675918310880661, -0.08012208342552185, -0.06189776957035065, -0.12023943662643433, -0.021391212940216064, 0.7474189400672913, -0.015477518551051617, 0.058386243879795074, 0.1198621317744255, -0.15901349484920502, -0.09412150084972382, 0.07227610796689987, -0.009775107726454735, 0.07128040492534637, -0.009640978649258614, 0.12875331938266754, -0.026209352537989616, -0.01949351467192173, -0.06933990865945816, -0.011979598551988602, -0.12312442064285278, -0.07373624294996262, -0.06443309783935547, 0.007783483248203993, -0.0274538304656744, -0.05404133349657059, -0.00678057549521327, 0.16921792924404144, -0.1558253914117813, -0.032571885734796524, 0.04974442347884178, -0.02518174611032009, 0.06542026996612549], "rec.bias_hh_l0": [-0.22345535457134247, -0.17002888023853302, -0.21114689111709595, -0.01808493211865425, 0.6810580492019653, -0.13050371408462524, -0.10166053473949432, -0.31444424390792847, -0.2251884639263153, -0.21342259645462036, 0.21423806250095367, -0.01086472813040018, -0.006451804656535387, 0.03605331480503082, 0.14652733504772186, -0.01211999449878931, -0.21328258514404297, -0.06563346087932587, -0.009576148353517056, -0.09636831283569336, -0.05174148827791214, -0.18956296145915985, -0.09718739986419678, -0.028520798310637474, -0.14661791920661926, 0.12478484213352203, 0.12262377887964249, -0.11074680835008621, -0.07673055678606033, -0.17138458788394928, -0.020884299650788307, -0.1950788050889969, 0.11618742346763611, 0.12992097437381744, 0.11169552057981491, -0.017482496798038483, 0.1288805454969406, 0.21076150238513947, 0.6896977424621582, 0.7141669392585754, 0.11062867194414139, 0.12070323526859283, 0.3010757863521576, -0.005220476072281599, 0.06617379188537598, 0.10700254887342453, -0.07175740599632263, -0.014046424999833107, 0.1679256558418274, -0.05384285748004913, -0.008730258792638779, -0.0028385743498802185, 0.13311433792114258, 0.07726020365953445, 0.09712797403335571, -0.0249160286039114, 0.2176171988248825, 0.26669949293136597, -0.05067959427833557, -0.04047267138957977, 0.01628076657652855, 0.54513019323349, -0.00930636003613472, 0.6717801690101624, 0.1473161280155182, 0.028014933690428734, -0.04471571743488312, -0.058981526643037796, 0.08825863897800446, 0.10269498080015182, 0.07793912291526794, 0.046178001910448074, -0.03129610791802406, -0.06276547908782959, 0.07948135584592819, 0.01164202205836773, -0.11720289289951324, 0.025073552504181862, 0.01962387003004551, 