{"model_data": {"model": "SimpleRNN", "input_size": 1, "skip": 1, "output_size": 1, "unit_type": "LSTM", "num_layers": 1, "hidden_size": 32, "bias_fl": true}, "state_dict": {"rec.weight_ih_l0": [[0.061883796006441116], [0.22753195464611053], [0.07279914617538452], [-0.01760963909327984], [-0.0018622996285557747], [-0.06751886755228043], [-0.026975637301802635], [-0.10906314104795456], [-0.06042937934398651], [0.26944342255592346], [0.1896265745162964], [-0.09809418767690659], [-0.05271361395716667], [-0.040852855890989304], [-0.1237536296248436], [0.035269349813461304], [0.008764037862420082], [-0.060807760804891586], [0.127656489610672], [0.06336674094200134], [-0.5204623341560364], [0.03489250689744949], [0.02492748573422432], [-0.04581962153315544], [-0.029942777007818222], [0.03316941857337952], [0.027624040842056274], [-0.24874500930309296], [-0.06886903196573257], [0.03197067603468895], [0.09091842919588089], [0.09332021325826645], [0.17965447902679443], [0.31417885422706604], [0.10521342605352402], [-0.012196256779134274], [-0.11244690418243408], [-0.08137956261634827], [-0.03973408788442612], [-0.04647368937730789], [0.10921693593263626], [0.19634586572647095], [0.23885264992713928], [0.04088118299841881], [-0.012485366314649582], [0.07396753877401352], [0.15261948108673096], [0.005571962334215641], [0.004241902846843004], [-0.13097965717315674], [0.0679420754313469], [0.10508136451244354], [-0.22603192925453186], [0.05491149052977562], [0.001110261189751327], [-0.07070363312959671], [-0.11222321540117264], [0.03233184292912483], [0.03928821533918381], [-0.1307222992181778], [-0.005738643929362297], [0.0415673591196537], [0.08823466300964355], [0.19471625983715057], [0.43446609377861023], [-0.1197124570608139], [-0.1019611582159996], [-0.15769225358963013], [0.47970008850097656], [-0.06756087392568588], [-0.19287827610969543], [0.09160073101520538], [-0.1210498958826065], [-0.057836975902318954], [0.27234598994255066], [0.20882444083690643], [-0.024891313165426254], [0.4289245903491974], [-1.6326611042022705], [0.0894884318113327], [-0.09849174320697784], [0.5558262467384338], [0.48923757672309875], [0.002239921595901251], [-0.024647274985909462], [0.02259466052055359], [-0.5694509148597717], [-0.009065117686986923], [0.2179347425699234], [-0.1080414354801178], [-0.2798251211643219], [-0.06526374816894531], [0.07814100384712219], [0.6365266442298889], [0.030254336073994637], [0.6346195936203003], [0.049462076276540756], [-0.10915755480527878], [0.11202201247215271], [-3.776588710024953e-05], [-0.019229387864470482], [0.002748035127297044], [0.08968078345060349], [-0.04443879425525665], [0.02113584615290165], [0.067869633436203], [0.24384355545043945], [-0.09509739279747009], [-0.001398069434799254], [0.07174724340438843], [0.01835065707564354], [0.09679824113845825], [0.03502976521849632], [-0.19476325809955597], [-0.01685093156993389], [0.06426353752613068], [0.15489189326763153], [0.19210119545459747], [0.07518849521875381], [-0.035124219954013824], [-0.0855550542473793], [0.10975217819213867], [-0.03880870342254639], [-0.19213652610778809], [0.002007185248658061], [0.038176245987415314], [0.17823587357997894], [0.3589889109134674]], "rec.weight_hh_l0": [[0.06668905913829803, 0.06823280453681946, 0.04847629368305206, 0.0427609458565712, -0.05449671670794487, 0.43295028805732727, 0.12055789679288864, -0.004248264245688915, -0.13841933012008667, -0.040626008063554764, 0.12636958062648773, -0.07689329981803894, 0.11025780439376831, -0.01709415204823017, 0.09166626632213593, 0.18690064549446106, -0.1251053661108017, -0.06701420247554779, 0.05284670740365982, 0.04642603173851967, -0.4044609069824219, 0.3441201448440552, -0.23877081274986267, -0.1357230544090271, 0.09643547981977463, -0.0955604612827301, 0.041136790066957474, 0.0548415370285511, 0.013672558590769768, 0.10137421637773514, 0.1473768949508667, 0.004764458164572716], [0.04351013898849487, -0.3829663097858429, 0.06437801569700241, 0.045482173562049866, 0.17536507546901703, 0.04283692687749863, -0.07073436677455902, -0.17639517784118652, 0.0351361483335495, -0.14258313179016113, 0.06999677419662476, 0.10912992805242538, -0.12783904373645782, -0.3100983202457428, 0.035292934626340866, 0.06998338550329208, 0.1309092789888382, 0.027197454124689102, 0.0033015788067132235, 0.03998684138059616, 0.04634729400277138, 0.06703115999698639, 0.10764198750257492, -0.0035440109204500914, 0.18616627156734467, -0.10545513778924942, -0.029798408970236778, 0.3924993574619293, 0.19800962507724762, 0.39598819613456726, 0.05023658648133278, -0.565045177936554], [0.008409536443650723, 0.01708069257438183, 0.1794273555278778, -0.11744111031293869, 0.014385713264346123, -0.010065153241157532, 0.08756687492132187, -0.06871584802865982, 0.0975649505853653, 0.06440798193216324, -0.10043676197528839, -0.017938582226634026, -0.07155873626470566, 0.20970869064331055, -0.030054381117224693, 0.026046890765428543, -0.008145831525325775, 0.008655861020088196, -0.06661184132099152, -0.2695178687572479, 0.026520444080233574, -0.02040308527648449, 0.0036939294077455997, -0.3146054148674011, -0.0031312755309045315, 0.04130910336971283, 0.0770467072725296, 0.058582618832588196, -0.007478808984160423, -0.043641261756420135, 0.08999701589345932, -0.05051207169890404], [0.14665360748767853, -0.04006604850292206, 0.07810302078723907, 0.02358817309141159, 0.1844339370727539, 0.19377751648426056, 0.08392226696014404, 0.0644950121641159, -0.012501496821641922, 0.07325643301010132, -0.012071066536009312, 0.06818225234746933, 0.030313197523355484, -0.015333610586822033, 0.023398131132125854, 0.06257801502943039, -0.1210273802280426, -0.006506735924631357, 0.0039756521582603455, -0.0343078188598156, -0.09198445081710815, 0.1980387270450592, 0.006753348279744387, 0.05227682739496231, 0.011016788892447948, 0.07491988688707352, 0.02477511763572693, 0.014850730076432228, -0.03654002025723457, 0.0760314017534256, -0.004391019232571125, 0.04011126235127449], [0.006248796358704567, -0.02609986439347267, 0.0034061181358993053, 0.08701621741056442, 0.042716555297374725, 0.10860319435596466, 0.11210060864686966, -0.02464318834245205, 0.04895055666565895, 0.00635109655559063, 0.13249942660331726, 0.022677773609757423, -0.0188240148127079, 0.017646897584199905, 0.016387097537517548, -0.02298259735107422, -0.12268982827663422, -0.12714263796806335, 0.03977840393781662, -0.04794313758611679, -0.05186609923839569, 0.031118808314204216, 0.10848432779312134, 0.03471683710813522, 0.06713808327913284, -0.05659898370504379, 0.04156261682510376, -0.05695151165127754, -0.07128381729125977, 0.1222735345363617, -0.026304323226213455, -0.05700549855828285], [0.33639195561408997, -0.04979858174920082, -0.02668900415301323, -0.049930233508348465, -0.056983575224876404, 0.26981016993522644, 0.13414639234542847, -0.06612667441368103, -0.04358179494738579, 0.002522487426176667, -0.01600748300552368, -0.11217056959867477, 0.09385113418102264, -0.03307390213012695, -0.00788100901991129, -0.08673905581235886, -0.07575934380292892, -0.10041718930006027, 0.03441726416349411, 0.030812382698059082, -0.12344559282064438, -0.1442338526248932, 0.012763760052621365, 0.023406924679875374, 0.25970259308815, -0.05299006402492523, 0.03911183774471283, 0.027963191270828247, 0.16131941974163055, 0.022618278861045837, 0.13121944665908813, -0.07492576539516449], [-0.048260703682899475, -0.009665693156421185, -0.03463195264339447, 0.11747325956821442, 0.05522754415869713, 0.08107352256774902, 0.021964818239212036, 0.1515345275402069, 0.07301601767539978, 0.06691551208496094, 0.09373209625482559, 0.026164812967181206, -0.13393273949623108, -0.247228741645813, -0.003400286426767707, -0.10295700281858444, 0.18141597509384155, -0.030044758692383766, -0.10229453444480896, -0.15056757628917694, -0.17075297236442566, -0.02361666038632393, 0.15253464877605438, -0.0008291389094665647, 0.23473457992076874, 0.0284285731613636, 0.06010991334915161, 0.09310932457447052, 0.060425274074077606, 0.09389480203390121, -0.0063211629167199135, -0.08380727469921112], [0.07048806548118591, 0.31882062554359436, -0.06776510179042816, -0.014215304516255856, -0.002859040629118681, 0.14818744361400604, -0.06308727711439133, -0.20041580498218536, -0.03715424984693527, -0.12833064794540405, 0.05718196555972099, 0.008899971842765808, 0.01918322779238224, 0.0965660810470581, 0.13447418808937073, 0.0008748153923079371, -0.018550198525190353, 0.028483282774686813, -0.07233830541372299, 0.015608400106430054, 0.05349306762218475, 0.10779315233230591, 0.08450208604335785, -0.06753279268741608, 0.16375865042209625, -0.032867785543203354, 0.025593698024749756, 0.33969417214393616, 0.06109679490327835, -0.007782014086842537, 0.014959307387471199, -0.006079040467739105], [0.02158624492585659, 0.0898502916097641, 0.17284415662288666, 0.12275135517120361, 0.020650262013077736, 0.23929928243160248, -0.03108697198331356, -0.060199204832315445, -0.23967458307743073, 0.021088717505335808, 0.03977935016155243, 0.06443275511264801, -0.03907391056418419, 0.04573584347963333, 0.09966740757226944, -0.07468004524707794, 0.1629294753074646, 0.04037090390920639, 0.025872787460684776, -0.06096285581588745, -0.09848219901323318, 0.028691677376627922, -0.014894378371536732, 0.1103307381272316, 0.25238484144210815, 0.06670290231704712, 0.045925870537757874, 0.18865469098091125, -0.011319037526845932, 0.0327506847679615, -0.009155280888080597, 0.11072587966918945], [-0.015706567093729973, 0.3065672814846039, -0.0932144969701767, -0.03715522959828377, -0.05779612809419632, 0.11399581283330917, 0.025572489947080612, 0.1319998800754547, -0.06393621116876602, -0.05222943425178528, 0.010123341344296932, 0.071772001683712, 0.02522989921271801, 0.1100054383277893, -0.4731343984603882, 0.040061112493276596, -0.012609805911779404, 0.498921275138855, -0.1072435975074768, -0.023173443973064423, -0.09718053042888641, -0.08069085329771042, -0.09967922419309616, 0.10948525369167328, 0.09596219658851624, 0.004115001764148474, -0.2433387041091919, -0.11048735678195953, -0.054002173244953156, -0.27799734473228455, -0.029493581503629684, -0.13828922808170319], [0.03519773483276367, -0.12852302193641663, -0.06777302175760269, -0.04449288174510002, -0.07026521116495132, 0.08509904146194458, -0.09069407731294632, -0.03272391855716705, 0.11097592860460281, -0.02065558359026909, 0.1615670770406723, 0.08827310055494308, 0.08315470814704895, -0.13476267457008362, 0.10741789638996124, 0.037726618349552155, -0.13126443326473236, 0.01097536738961935, -0.04925541207194328, 0.006011913996189833, -0.07122843712568283, -0.01656113937497139, 0.10791976749897003, -0.04023927450180054, 0.2761915624141693, -0.04609408974647522, 0.05326105281710625, 0.09122887253761292, -0.023027198389172554, 0.16593408584594727, -0.19450801610946655, 0.055327437818050385], [-0.020538002252578735, -0.356597363948822, 0.20805318653583527, -0.025481782853603363, 0.21120266616344452, 0.3419058918952942, -0.027832474559545517, -0.22792291641235352, 0.19724710285663605, -0.6879275441169739, 0.14702239632606506, 0.09752769768238068, -0.24555784463882446, -0.010059005580842495, 0.4781920313835144, -0.18614360690116882, -0.27326321601867676, -0.14556121826171875, 0.06745128333568573, -0.06089870259165764, -0.09612355381250381, 0.21425814926624298, 0.11549212038516998, -0.03788747638463974, 0.31197550892829895, 0.02033334970474243, 0.49172231554985046, 0.33508455753326416, 0.1099390760064125, 0.25124481320381165, -0.13027220964431763, 0.13322460651397705], [-0.06252346932888031, -0.0627073347568512, -0.012836332432925701, 0.03383764997124672, 0.17156659066677094, 0.025503847748041153, 0.0760607123374939, 0.019365744665265083, -0.006236053537577391, -0.026739904657006264, 0.10367444902658463, -0.1170952245593071, -0.13613636791706085, -0.05373916029930115, 0.08565038442611694, 0.004923757165670395, -0.13706530630588531, -0.06596702337265015, 0.05533649027347565, -0.04591631516814232, -0.05890719220042229, -0.0066495612263679504, -0.03975747525691986, 0.08870834112167358, 0.22451190650463104, -0.038575973361730576, 0.019457543268799782, 0.01979828253388405, 0.033790141344070435, -0.013622811064124107, 0.036503490060567856, -0.022760672494769096], [-0.024882644414901733, 0.12953069806098938, -0.06940431147813797, 0.04180265590548515, -0.0428079217672348, 0.05388158559799194, -0.08947392553091049, -0.1583036631345749, 0.039761025458574295, 0.2285853922367096, -0.04573073610663414, 0.2834312319755554, 0.0276077501475811, -0.24518318474292755, 0.1080092191696167, 0.04635785147547722, 0.03646862506866455, 0.3348562717437744, -0.13694646954536438, -0.03155510500073433, -0.09363890439271927, -0.01933164708316326, 0.07045451551675797, -0.008782980963587761, 0.2100083827972412, 0.17745700478553772, -0.09542497247457504, 0.4883013069629669, -0.05804745852947235, -0.007323949597775936, -0.08683004975318909, 0.4368685185909271], [0.010050867684185505, -0.10952231287956238, -0.1793118715286255, 0.07106778770685196, -0.03777185082435608, 0.06869549304246902, -0.015086346305906773, 0.1443541795015335, 0.03483122959733009, -0.3302016854286194, -0.2192857712507248, 0.020510440692305565, 0.06823709607124329, -0.09757175296545029, -0.03870362788438797, 0.14672942459583282, -0.0030224996153265238, 0.1232762485742569, 0.058369219303131104, 0.08661589026451111, -0.0527665950357914, -0.11473922431468964, 0.06845106184482574, 0.06286997348070145, 0.03684091567993164, 0.1254372000694275, -0.0537254698574543, -0.020833725109696388, -0.027433134615421295, -0.20560675859451294, -0.22443754971027374, 0.3251138925552368], [0.08638305217027664, -0.0398513600230217, 0.19479422271251678, -0.011292497627437115, 0.1475687026977539, 0.15751948952674866, -0.028400015085935593, -0.007724105846136808, -0.09739254415035248, -0.07506480813026428, 0.02604200504720211, 0.07281268388032913, 0.002441869582980871, -0.0020541721023619175, -0.006945600733160973, -0.1595453917980194, -0.44172990322113037, -0.01690923236310482, 0.07408197969198227, 0.1641949862241745, 0.12204958498477936, -0.10325388610363007, -0.029544003307819366, -0.010545589029788971, 0.2920956015586853, 0.031226076185703278, 0.1038404032588005, -0.04569941386580467, 0.05003620311617851, -0.030353160575032234, 0.05253487080335617, 0.019956033676862717], [0.13913452625274658, -0.029117217287421227, 0.001097523607313633, -0.0962473601102829, -0.08742779493331909, 0.21273624897003174, 0.08850591629743576, -0.07821044325828552, -0.04799380898475647, 0.011607126332819462, 0.11448770761489868, 0.04632012918591499, 0.1652558445930481, 0.08456974476575851, 0.07429353147745132, 0.07918033003807068, -0.21268987655639648, -0.0209457166492939, 0.015437074936926365, 0.06229279935359955, -0.12818224728107452, -0.09164595603942871, 0.11416556686162949, -0.22987817227840424, -0.258948415517807, 0.05789491906762123, -0.08800390362739563, 0.010183071717619896, 0.12414836138486862, -0.18658286333084106, 0.2023429423570633, -0.042802825570106506], [0.13712383806705475, -0.22641517221927643, -0.11451096832752228, 0.032632891088724136, 0.024105550721287727, 0.10965732485055923, 0.016996052116155624, 0.02737775631248951, 0.05502709373831749, 0.00048517106915824115, -0.11168503761291504, -0.11401589959859848, 0.050725072622299194, 0.0020970685873180628, -0.1484530121088028, -0.010494153946638107, -0.06652602553367615, 0.4012656509876251, -0.10173409432172775, 0.02153557725250721, -0.06987310200929642, -0.06255470961332321, -0.1348775327205658, -0.006519183982163668, 0.11829735338687897, 0.04147996008396149, 0.048820897936820984, -0.024547111243009567, -0.06398499757051468, 0.11419624090194702, 0.026418795809149742, 0.8460621237754822], [0.06535381823778152, -0.2055080533027649, 0.04564423859119415, -0.04078998416662216, 0.015761567279696465, 0.026132242754101753, -0.24871888756752014, -0.09522832185029984, 0.05398476496338844, -0.13293547928333282, 0.029999801889061928, 0.08644600212574005, -0.12912598252296448, 0.03375711664557457, -0.09072552621364594, 0.1348961740732193, 0.07784005999565125, 0.06459096819162369, -0.1745557337999344, -0.05560212954878807, -0.12393996864557266, 0.037101298570632935, -0.08898687362670898, -0.04525738209486008, 0.30440691113471985, 0.07175862044095993, 0.029719501733779907, 0.005196832586079836, 0.09606487303972244, -0.017403211444616318, -0.12274280190467834, 0.008512550964951515], [-0.0661337748169899, 0.06519494205713272, -0.07503367215394974, -0.0208454467356205, 0.04336913302540779, 0.1820700615644455, -0.06207054853439331, -0.2589581608772278, -0.0951991155743599, 0.0746580958366394, 0.10240134596824646, -0.12666375935077667, 0.06453195214271545, 0.11065845936536789, -0.0293890293687582, -0.029494868591427803, 0.05228772759437561, -0.011092967353761196, -0.06799613684415817, -0.24013492465019226, 0.03605060651898384, -0.0891486331820488, 0.00994812324643135, 0.21767060458660126, 0.08990172296762466, -0.006296293344348669, -0.015206456184387207, 0.3362540602684021, 0.008058185689151287, 0.13912786543369293, 0.028223901987075806, 0.04084446653723717], [0.5549882054328918, -0.0018926183693110943, 0.10506941378116608, -0.03314563259482384, 0.15167732536792755, 0.5124709606170654, -0.34572866559028625, 0.01782504841685295, -0.10480879247188568, -0.01288694143295288, 0.12768419086933136, -0.22260215878486633, -0.26184606552124023, 0.11243867874145508, 0.06293746083974838, -0.0030763628892600536, 0.1039898619055748, -0.07511322945356369, -0.23239871859550476, -0.06980469077825546, 0.6061828136444092, 0.5721859931945801, 0.06732012331485748, -0.23436827957630157, -0.6042472124099731, 0.03880131244659424, -0.02582397498190403, -0.01992504857480526, 0.022616766393184662, 0.3514348566532135, -0.17082172632217407, -0.036758389323949814], [-0.4247271716594696, 0.031720079481601715, 0.024659868329763412, 0.23656277358531952, 0.18365232646465302, 0.3577020466327667, -0.1163453757762909, 0.023636991158127785, 0.016914818435907364, -0.05674351751804352, 0.1542331576347351, 0.050239115953445435, -0.030097030103206635, 0.012508826330304146, 0.0937311127781868, -0.009722196497023106, -0.12274525314569473, -0.04487326368689537, 0.07039538770914078, 0.031606923788785934, -0.2400570660829544, 0.5310810208320618, -0.2722633481025696, 0.008267468772828579, -0.19577142596244812, 0.020554734393954277, 0.035811979323625565, -0.03479965031147003, -0.05896759033203125, 0.2275802493095398, -0.10556238144636154, 0.09435722231864929], [0.0027537017595022917, -0.017000487074255943, 0.012359840795397758, -0.019684653729200363, 0.09797997772693634, 0.12521088123321533, 0.017809007316827774, -0.061286937445402145, -0.008422989398241043, -0.09201140701770782, 0.11841218918561935, -0.08413103967905045, -0.11008338630199432, -0.033155813813209534, -0.0012719857040792704, 0.05285128206014633, -0.01956850290298462, 0.0916748046875, -0.17767733335494995, -0.061888132244348526, -0.24796369671821594, 0.10389453917741776, -0.06709552556276321, 0.062024928629398346, 0.1620291769504547, -0.08915778994560242, 0.053594619035720825, -0.003709071548655629, -0.023129016160964966, 0.0712236762046814, -0.01721937023103237, 0.005534524098038673], [0.0014162332518026233, 0.11920534074306488, 0.25588586926460266, -0.07766488194465637, -0.013964221812784672, 0.06029844284057617, -0.18790405988693237, 0.08096412569284439, 0.03897995501756668, -0.016216883435845375, 0.03168100491166115, -0.04340145364403725, -0.023407574743032455, -0.05550379678606987, 0.15259915590286255, 0.13793551921844482, -0.15956930816173553, -0.039713382720947266, 0.0392354354262352, -0.034474797546863556, -0.1611042320728302, -0.07871946692466736, 0.12498141080141068, 0.21364551782608032, 0.2625439167022705, 0.07081399112939835, 0.023460084572434425, 0.052816640585660934, -0.2004287838935852, 0.10192538052797318, -0.04902869835495949, 0.15752679109573364], [0.13556942343711853, 0.06201797351241112, -0.09128134697675705, -0.18118101358413696, 0.007405152078717947, 0.24883832037448883, 0.09079915285110474, -0.044415783137083054, -0.05214418098330498, -0.023011421784758568, 0.05459040775895119, -0.0773368552327156, 0.15231919288635254, 0.08322668075561523, 0.014782946556806564, 0.1213468685746193, -0.46175599098205566, 0.03000275045633316, 0.07933004200458527, 0.09269780665636063, -0.2634005546569824, 0.0895421952009201, 0.10509195178747177, -0.014281830750405788, 0.5098604559898376, -0.112143374979496, 0.1030922532081604, 0.028343014419078827, -0.1452760398387909, -0.017306415364146233, 0.08829446882009506, -0.0039059778209775686], [-0.028901653364300728, -0.09822981804609299, 0.023420993238687515, -0.02261723019182682, 0.010325867682695389, 0.1939643770456314, 0.08576538413763046, 0.0024220847990363836, -0.025214914232492447, 0.07209724187850952, -0.017943885177373886, -0.10992898046970367, -0.10162658989429474, 0.0007613487541675568, -0.03516317903995514, -0.02717418223619461, 0.06372625380754471, 0.05776366591453552, -0.031805381178855896, -0.04190906137228012, 0.13336242735385895, -0.03420870006084442, 0.08315757662057877, 0.07209398597478867, 0.09223621338605881, -0.0372283011674881, 0.050143416970968246, -0.060711294412612915, -0.05955493822693825, 0.045179616659879684, 0.01783989742398262, -0.015359598211944103], [0.03523669391870499, -0.17587773501873016, -0.013435065746307373, -0.08358681946992874, -0.048566997051239014, 0.07459032535552979, -0.032184846699237823, -0.03929135575890541, -0.058074112981557846, -0.0375140905380249, -0.050339341163635254, 0.0927046462893486, -0.057465191930532455, 0.01190202496945858, -0.0009790188632905483, -0.04531225562095642, 0.07157177478075027, -0.024748867377638817, -0.004200983792543411, -0.08197234570980072, -0.03652928024530411, -0.047128431499004364, 0.07640056312084198, -0.031420253217220306, 0.08417040854692459, 0.06277728825807571, 0.05831797420978546, 0.002015546429902315, -0.005450048949569464, -0.06612633913755417, -0.10532088577747345, 0.1252809315919876], [-0.1568305790424347, 0.4652349650859833, -0.09474209696054459, -0.022042574360966682, 0.07850795984268188, 0.002232720609754324, -0.03836475685238838, -0.06523913890123367, 0.015812108293175697, -0.18797969818115234, -0.017907679080963135, -0.025578584522008896, -0.04485645890235901, 0.16978679597377777, 0.06785695254802704, 0.056737374514341354, 0.022942733019590378, -0.09702283143997192, 0.10910138487815857, 0.059083592146635056, 0.0021053985692560673, -0.0013352817622944713, 0.09783811122179031, 0.10611002147197723, 0.054097771644592285, -0.013496258296072483, 0.018110651522874832, 0.1769811064004898, 0.10076422989368439, -0.15460209548473358, -0.1266244649887085, -0.2029174119234085], [-0.06602055579423904, -0.03519279509782791, 0.016114307567477226, 0.017338797450065613, 0.03940104320645332, 0.049322813749313354, 0.0073611922562122345, 0.0506218746304512, -0.007492715492844582, -0.04796712473034859, -0.09984081238508224, -0.045170705765485764, -0.10591178387403488, -0.07845664024353027, 0.05878683179616928, -0.0911913588643074, 0.1393754631280899, 0.10584262758493423, 0.02219609171152115, -0.03921986371278763, -0.11042117327451706, 0.042102083563804626, -0.007611594162881374, 0.034890707582235336, 0.2244531512260437, -0.010500571690499783, 0.07462719827890396, -0.023581646382808685, -0.08003603667020798, -0.007713473401963711, -0.040688399225473404, 0.04405727982521057], [0.0669964998960495, -0.23864372074604034, 0.03662101551890373, 0.01374014001339674, 0.0009084406774491072, 0.052755117416381836, -0.03587311506271362, 0.03369366005063057, 0.04430731385946274, 0.06433214247226715, 0.05775878205895424, -0.021673211827874184, -0.1176530048251152, 0.11175800114870071, 0.04719363898038864, 0.10581688582897186, 0.03661586716771126, -0.19871729612350464, 0.03558730706572533, -0.02290751226246357, -0.07351376116275787, 0.12362251430749893, -0.042717088013887405, 0.007802833802998066, 0.06362539529800415, 0.06379228830337524, 0.07526794075965881, -0.07703214883804321, -0.06082823500037193, 0.04659314081072807, 0.03777231276035309, -0.17242515087127686], [0.06169777736067772, -0.05509135499596596, 0.024488268420100212, 0.0185588076710701, -0.11136016994714737, 0.018086886033415794, -0.09453491866588593, -0.033202510327100754, -0.009399843402206898, 0.018231578171253204, 0.09521446377038956, -0.0271400548517704, -0.005381827708333731, 0.04155493900179863, 0.06155690550804138, -0.10547785460948944, 0.04023951664566994, -0.10934203863143921, -0.01498432643711567, 0.022120798006653786, -0.06984317302703857, 0.04563574865460396, 0.09610820561647415, 0.028711922466754913, 0.06743641942739487, -0.00791933387517929, -0.005485851317644119, -0.10633876919746399, 0.020871417596936226, 0.1710764318704605, -0.025928109884262085, -0.09210378676652908], [-0.08952589333057404, -0.3716951906681061, 0.1468072533607483, 0.030781865119934082, -0.058048833161592484, 0.025858459994196892, 0.02445186674594879, 0.06676328927278519, -0.0019221071852371097, 0.15235385298728943, 0.04810008779168129, -0.2297489047050476, -0.13957129418849945, -0.2044650912284851, 0.5995978713035583, -0.052012789994478226, 0.1058490201830864, 0.04911649599671364, -0.46616679430007935, -0.12089844793081284, -0.06710200756788254, 0.14804716408252716, 0.11116073280572891, -0.16392889618873596, 0.14574405550956726, -0.010779393836855888, 0.14689083397388458, -0.605095624923706, -0.004745881073176861, -0.47142019867897034, 0.21970194578170776, -0.1537041962146759], [-0.2054467797279358, -0.039366383105516434, 0.009246641770005226, 0.07566836476325989, -0.22259612381458282, 0.12339307367801666, 0.14760185778141022, -0.028477057814598083, -0.1063605546951294, 0.06384940445423126, 0.12650804221630096, -0.02291235327720642, 0.16552133858203888, 0.09989280998706818, -0.12374744564294815, 0.07730069011449814, 0.04359075054526329, 0.004233288113027811, 0.10401341319084167, 0.0004196071531623602, -0.5327228903770447, -0.20093119144439697, -0.09268247336149216, -0.16805939376354218, 0.3344429135322571, -0.06422214955091476, 0.0005443821428343654, -0.004605359863489866, 0.020149022340774536, -0.17727135121822357, 0.06925088167190552, 0.008234704844653606], [0.16163034737110138, -0.8602746725082397, 0.1705625206232071, 0.049094416201114655, 0.037449683994054794, 0.02927229180932045, -0.08754201233386993, -0.13710764050483704, -0.02911965921521187, 0.5803341865539551, 0.057077400386333466, -0.02961224876344204, -0.0344749391078949, 0.026976125314831734, -0.08721219748258591, -0.07012287527322769, -0.00861432310193777, -0.27208948135375977, 0.15807540714740753, -0.05666939169168472, -0.05267177149653435, -0.19810603559017181, -0.00033838720992207527, -0.22807902097702026, -0.026838017627596855, -0.04776941239833832, 0.14973899722099304, -0.2501147389411926, 0.16661234200000763, 0.49941855669021606, 0.11474279314279556, -0.260685533285141], [-0.0360708050429821, -0.013563856482505798, 0.15199783444404602, -0.13593938946723938, -0.005007452797144651, -0.06905829161405563, 0.06023264303803444, -0.03569669649004936, 0.07163495570421219, 0.13224896788597107, -0.18885886669158936, 0.013999798335134983, -0.06348583847284317, 0.23154577612876892, -0.07091435045003891, 0.05550122633576393, 0.004907695110887289, 0.004485512617975473, -0.03464939072728157, -0.23050837218761444, 0.09536305069923401, -0.08441799134016037, 0.02625887095928192, -0.37388861179351807, -0.12536002695560455, 0.04383379593491554, 0.06379388272762299, 0.021438706666231155, -0.03310221806168556, -0.029903335496783257, 0.06335844099521637, 0.018077896907925606], [-0.0598505400121212, -0.013155448250472546, 0.08812013268470764, 0.07502051442861557, -0.021652383729815483, -0.1892012059688568, 0.038413479924201965, 0.02445751614868641, 0.0758768767118454, 0.142625093460083, 0.03503270074725151, -0.049605950713157654, 0.05775163322687149, -0.04916757345199585, -0.1095518171787262, -0.054429057985544205, 0.020685948431491852, -0.04626406729221344, -0.021760176867246628, -0.013285557739436626, 0.0712963193655014, -0.04762909561395645, -0.10288412868976593, 0.011929182335734367, -0.08811461925506592, -0.04614442214369774, 0.03600689023733139, -0.004821453243494034, -0.03154543787240982, -0.06701985001564026, 0.023046646267175674, -0.04179438576102257], [-0.08266882598400116, 0.0059501780197024345, 0.11084188520908356, 0.1045062243938446, 0.07179740071296692, 0.006298029329627752, 0.005524022039026022, -0.02390718273818493, -0.034149978309869766, 0.12622641026973724, 0.09173393994569778, -0.04695854336023331, -0.078197181224823, -0.06093684956431389, -0.06440387666225433, -0.11763811111450195, -0.07197893410921097, -0.04899642616510391, -0.023887574672698975, -0.06032393127679825, -0.03859758377075195, 0.153408020734787, -0.029636617749929428, 0.07574711740016937, 0.09017889946699142, 0.019830381497740746, 0.024198241531848907, -0.022223129868507385, -0.09234283864498138, -0.048381198197603226, -0.06264597177505493, 0.0839902013540268], [0.08205859363079071, 0.061732303351163864, 0.024005625396966934, -0.004014739766716957, 0.1966342180967331, 0.2732560634613037, -0.07196943461894989, 0.05912356451153755, 0.005403356626629829, 0.0016920579364523292, -0.1702633649110794, -0.10358981788158417, -0.19258210062980652, 0.06631564348936081, -0.041082169860601425, -0.13328944146633148, 0.01267919223755598, 0.009227801114320755, -0.03676847368478775, -0.05139338597655296, 0.5159514546394348, -0.3106534779071808, 0.011396124958992004, 0.011417600326240063, -0.3165528476238251, -0.05860698223114014, 0.04392192140221596, -0.0880744606256485, 0.04018884152173996, 0.09542113542556763, 0.08809518814086914, -0.019263267517089844], [0.027616893872618675, 0.11231285333633423, -0.011079655028879642, 0.04714524745941162, -0.0595618337392807, -0.08093833178281784, 0.05378786101937294, 0.048010267317295074, -0.0055276197381317616, 0.1491488665342331, -0.09890886396169662, 0.02206304855644703, 0.09425485134124756, -0.1677972376346588, -0.04364977404475212, 5.3714727982878685e-05, -0.0016321109142154455, 0.006271546706557274, 0.07068513333797455, -0.007499737665057182, 0.0483597069978714, -0.04552406072616577, -0.043216243386268616, 0.02638709731400013, -0.12995341420173645, -0.05560964718461037, 0.10020896792411804, 0.04282880201935768, -0.016393138095736504, 0.01321353018283844, -0.01222942303866148, 0.03710252791643143], [0.04722581431269646, 0.2084769457578659, -0.035657793283462524, 0.029169557616114616, -0.0418122224509716, 0.05880154296755791, 0.017475442960858345, -0.24883012473583221, -0.052012670785188675, 0.034414928406476974, 0.029232613742351532, 0.09142138808965683, 0.08495558053255081, 0.10176577419042587, 0.12006770819425583, -0.047667160630226135, -0.016379859298467636, -0.011881615966558456, -0.06826003640890121, -0.01281529851257801, 0.07993701100349426, 0.016790712252259254, 0.04767299443483353, 0.05834643170237541, -0.06513802707195282, -0.009065331891179085, 0.026397114619612694, 0.3217772841453552, 0.03310741111636162, -0.07711539417505264, 0.08079255372285843, -0.057812295854091644], [-0.1161617785692215, 0.2146424502134323, 0.19833184778690338, -0.015479447320103645, -0.006563374772667885, -0.7287004590034485, -0.08599988371133804, 0.06467951089143753, -0.20511887967586517, 0.08901970088481903, -0.024045344442129135, 0.0043942732736468315, 0.1879766285419464, -0.05014292150735855, -0.04598506912589073, -0.11130694299936295, 0.09261468052864075, -0.0679437443614006, 0.06203733757138252, 0.07503290474414825, 0.06788444519042969, -0.09213990718126297, -0.24163071811199188, 0.02591906115412712, -0.6047670245170593, 0.023803213611245155, -0.13768713176250458, -0.06962493062019348, 0.03815571963787079, -0.02126062475144863, -0.049176108092069626, 0.025322237983345985], [-0.07486997544765472, 0.37246477603912354, 0.025313127785921097, 0.00031313401996158063, -0.07075762748718262, -0.05913601443171501, 0.14096052944660187, 0.020606204867362976, -0.14926326274871826, -0.1129799634218216, -0.06871213018894196, 0.30332663655281067, 0.021097663789987564, 0.17448605597019196, -0.2952689528465271, 0.0340956449508667, 0.008301559835672379, 0.2586742639541626, -0.03376302495598793, -0.08349360525608063, 0.07212945818901062, -0.008547389879822731, -0.05990302562713623, 0.03304285183548927, -0.09512670338153839, -0.05954994261264801, -0.12841127812862396, 0.039642248302698135, -0.06198735535144806, -0.09384824335575104, -0.011635762639343739, -0.5106337666511536], [0.0661747008562088, -0.07399968802928925, -0.10996292531490326, -0.11146646738052368, -0.12918415665626526, -0.08444777876138687, 0.059703197330236435, -0.012689833529293537, 0.09235040098428726, -0.04173522815108299, 0.13911186158657074, 0.14014898240566254, 0.18581390380859375, -0.05342704430222511, -0.028503643348813057, -0.017422761768102646, -0.1771729290485382, 0.041124746203422546, -0.10623808205127716, -0.04267730191349983, 0.13067567348480225, 0.02416776865720749, -0.03957374766469002, 0.0819370448589325, -0.31234025955200195, -0.04279850795865059, -0.04841760918498039, -0.077543705701828, 0.012065520510077477, 0.09601324051618576, -0.02755545824766159, 0.08627468347549438], [-0.16577430069446564, 0.20578323304653168, -0.20312023162841797, -0.11211837083101273, -0.32931599020957947, -0.4190627336502075, -0.004126162268221378, 0.10098379850387573, 0.42676839232444763, -0.055234067142009735, -0.592596173286438, 0.29183512926101685, 0.21242547035217285, -0.033117882907390594, 0.055705733597278595, 0.05468638613820076, 0.18388114869594574, -0.2287847101688385, 0.34150591492652893, 0.13828344643115997, 0.13862425088882446, -0.16389800608158112, 0.11290891468524933, 0.264786958694458, -0.5681096315383911, 0.11185191571712494, -0.04231976717710495, -0.32143470644950867, -0.20106999576091766, -0.10207980871200562, -0.07143838703632355, 0.2731773257255554], [-0.15224245190620422, 0.08999911695718765, -0.06131621450185776, -0.08974349498748779, 0.01675557903945446, -0.16443289816379547, -0.03223453089594841, 0.02745174430310726, -0.04229648411273956, 0.059088774025440216, -0.045673880726099014, -0.06945168226957321, -0.16410748660564423, -0.029696160927414894, -0.06978703290224075, -0.059428613632917404, 0.056900255382061005, 0.0265293437987566, 0.020794661715626717, -0.06270299851894379, 0.11693325638771057, 0.0008621199522167444, 0.00016815242997836322, 0.1755187064409256, -0.1689336597919464, 0.020196575671434402, -0.061747003346681595, -0.03302927315235138, -0.063142791390419, -0.07563187927007675, 0.026910260319709778, 0.05199120566248894], [-0.07684631645679474, -0.048679739236831665, -0.07557058334350586, 0.11464141309261322, -0.20673079788684845, -0.027467919513583183, 0.09538879990577698, -0.032831355929374695, -0.10155452787876129, 0.2898833155632019, -0.200295552611351, 0.2283446192741394, 0.15352550148963928, -0.145177960395813, -0.022105347365140915, -0.06324847787618637, 0.026426414027810097, -0.06217622011899948, 0.05051615461707115, -0.03417949005961418, 0.035037875175476074, -0.09411818534135818, -0.01206675823777914, -0.13383933901786804, -0.2423926740884781, 0.024999847635626793, -0.1699570268392563, 0.2756510376930237, -0.114112988114357, -0.018374498933553696, -0.019179880619049072, 0.2141822725534439], [-0.009554947726428509, -0.1804112046957016, -0.12539853155612946, 0.10727781802415848, -0.22873292863368988, -0.1530267596244812, 0.03452426195144653, 0.1785409152507782, 0.0494370236992836, 0.9412429928779602, -0.41169941425323486, 0.43565672636032104, 0.17457391321659088, 0.04250945523381233, -0.030208855867385864, -0.06967677921056747, -0.03605811297893524, -0.08479831367731094, 0.09110800921916962, 0.1237228587269783, 0.002804563380777836, -0.11202433705329895, 0.05116155743598938, 0.045237358659505844, -0.24883675575256348, 0.03790486976504326, 0.013237711042165756, -0.2910992205142975, -0.17548708617687225, -0.03917650505900383, 0.05549958720803261, -0.15137547254562378], [-0.09603586047887802, -0.043616171926259995, 0.13036227226257324, 0.16035325825214386, -0.07987655699253082, -0.21078473329544067, 0.03520204499363899, -0.028263449668884277, -0.1692752093076706, 0.1170569360256195, -0.01921720616519451, 0.06098227947950363, -0.019017985090613365, -0.013213681988418102, -0.17447848618030548, -0.21096694469451904, 0.1567467600107193, 0.0005232715047895908, -0.12055522948503494, 0.0028938071336597204, 0.04884940758347511, 0.028031550347805023, -0.21254950761795044, 0.12568442523479462, -0.23455090820789337, -0.06417465209960938, 0.05863763764500618, -0.07651123404502869, -0.048447385430336, -0.03743300214409828, -0.016657626256346703, 0.045548927038908005], [0.002119658049196005, 0.028934523463249207, -0.04156508669257164, -0.08310818672180176, -0.052069418132305145, -0.0403762087225914, 0.014624884352087975, -0.0532972477376461, -0.009927136823534966, 0.02530819922685623, 0.13219287991523743, -0.0038166504818946123, 0.1288001984357834, -0.0189481470733881, 0.05550873652100563, -0.10207405686378479, -0.16543033719062805, -0.017844192683696747, -0.029425913468003273, 0.0856633335351944, 0.023842671886086464, -0.1321907937526703, 0.008553223684430122, -0.09529046714305878, -0.3217426836490631, -0.02187994495034218, -0.1196456328034401, -0.05581830069422722, 0.14864592254161835, -0.11590311676263809, 0.2559966742992401, -0.014297348447144032], [-0.043678272515535355, 0.18009600043296814, -0.09864573925733566, 0.0004946483531966805, -0.03156571835279465, -0.001145747839473188, 0.19230344891548157, 0.04693048819899559, 0.062117788940668106, 0.027783213183283806, -0.20121288299560547, 0.1787407398223877, 0.05366275832056999, -0.04847537726163864, -0.2818772494792938, 0.02658545784652233, -0.053582221269607544, 0.41728100180625916, -0.06324263662099838, 0.053681619465351105, 0.06997448951005936, -0.11531233787536621, -0.053666599094867706, 0.1017671748995781, -0.14263200759887695, -0.0814427062869072, -0.028200481086969376, -0.06249476596713066, -0.13505135476589203, 0.15177686512470245, 0.015815190970897675, 0.3927745223045349], [0.07153180986642838, 0.09829729795455933, -0.007441201247274876, -0.05005723983049393, -0.1888323873281479, 0.07693684101104736, -0.10019214451313019, -0.1445561796426773, 0.04197458177804947, 0.10508503764867783, -0.052853599190711975, 0.3626084625720978, 0.18127621710300446, 0.05185369402170181, -0.03505890816450119, 0.07397900521755219, -0.18458770215511322, -0.007886660285294056, -0.16815677285194397, 0.005274223163723946, 0.0557393878698349, 0.02432626485824585, -0.060925085097551346, 0.06766001880168915, -0.16797421872615814, -0.03371226042509079, 0.00833215657621622, 0.10575321316719055, -0.059967897832393646, 0.15479379892349243, -0.00982719473540783, 0.4560145437717438], [-0.04213036969304085, 0.07101402431726456, -0.04459259659051895, 0.005361606832593679, -0.03598042577505112, -0.05524490773677826, 0.11608302593231201, -0.11686141788959503, -0.04788500443100929, 0.04415808990597725, 0.014343583956360817, -0.12137629836797714, 0.0033768676221370697, 0.0940428301692009, -0.14502540230751038, -0.0501517616212368, 0.056828245520591736, -0.06544189155101776, 0.05386284366250038, -0.2559858560562134, -0.06318382173776627, 0.0010807730723172426, -0.03573331609368324, 0.07272730767726898, -0.10929526388645172, 0.013755443505942822, 0.04249408096075058, 0.07531018555164337, -0.06820202618837357, 0.043968699872493744, -0.06772231310606003, 0.07169341295957565], [0.6591787934303284, 0.0005038022063672543, -0.004934180062264204, -0.1503446400165558, 0.31164252758026123, -0.4160219728946686, -0.3440430462360382, 0.24020473659038544, -0.2588028311729431, 0.03526104986667633, -0.0721738263964653, -0.09263167530298233, -0.2398921549320221, 0.0469503290951252, -0.1245771199464798, 0.05019298940896988, 0.012610413134098053, 0.10398248583078384, -0.13767005503177643, -0.10460393875837326, 1.0120214223861694, 0.8409532308578491, -0.19112607836723328, -0.0554967038333416, -1.0677769184112549, 0.44899722933769226, -0.1453368365764618, 0.13432125747203827, -0.09896242618560791, 0.23006966710090637, -0.42105597257614136, -0.05821731314063072], [-0.3037670850753784, -0.07948604971170425, -0.04277868568897247, 0.14088954031467438, -0.054046910256147385, 0.1343453824520111, -0.12245161086320877, -0.01902502216398716, 0.022107841446995735, 0.08888925611972809, 0.12538039684295654, -0.09840590506792068, -0.10872155427932739, 0.0006028837524354458, -0.022087905555963516, -0.08111877739429474, 0.19680604338645935, 0.054839372634887695, -0.0542340986430645, -0.06321968138217926, 0.2932160496711731, 0.23520472645759583, 0.08975555002689362, -0.026154644787311554, -0.15688017010688782, 0.13750001788139343, -0.03710544481873512, 0.005815195385366678, -0.0928855612874031, -0.13659286499023438, -0.18590675294399261, -0.025143088772892952], [-0.3984551727771759, 0.05203406140208244, 0.01965337246656418, -0.04253524914383888, 0.1064128577709198, 0.0518677644431591, -0.15891556441783905, -0.041816987097263336, -0.07808241248130798, 0.12745974957942963, -0.06114111468195915, -0.014520864933729172, 0.05879264324903488, -0.055426064878702164, 0.09771475195884705, -0.08971252292394638, -0.11386322975158691, 0.03218671679496765, -0.020492203533649445, 0.022951491177082062, 0.10722386091947556, -0.011269322596490383, -0.09793319553136826, -0.07182010263204575, -0.21018226444721222, -0.08659647405147552, 0.029916886240243912, -0.028932230547070503, -0.04341602697968483, 0.09485292434692383, -0.14442792534828186, -0.023984018713235855], [-0.023475918918848038, 0.016672013327479362, 0.27656832337379456, 0.022738570347428322, -0.22914882004261017, -0.06043883413076401, -0.025231491774320602, -0.14830122888088226, 0.03854120522737503, 0.06671828031539917, 0.18195483088493347, -0.19927558302879333, 0.07103824615478516, 0.0028566280379891396, -0.27117234468460083, -0.14063748717308044, -0.05202598124742508, -0.1489279717206955, -0.22560885548591614, 0.023686537519097328, -0.0165182426571846, 0.09556615352630615, -0.05488589406013489, 0.0974188819527626, -0.18610748648643494, -0.17953939735889435, -0.1971881240606308, -0.1243027001619339, -0.0766359269618988, 0.009811350144445896, 0.12445835769176483, -0.06283022463321686], [0.08380206674337387, 0.058164749294519424, -0.01648017205297947, -0.2508414089679718, -0.042558424174785614, -0.09242784231901169, 0.009007205255329609, -0.13591058552265167, -0.08206610381603241, 0.09328244626522064, 0.17432212829589844, 0.052137590944767, 0.199139803647995, -0.02043313905596733, -0.16534844040870667, 0.022070560604333878, -0.46839097142219543, -0.1489323526620865, -0.2212774008512497, -0.061082325875759125, 0.045361947268247604, 0.21951265633106232, 0.03444545343518257, -0.10255291312932968, -0.1366102248430252, -0.22764162719249725, -0.06973129510879517, -0.04865005612373352, -0.08995511382818222, -0.1054176464676857, 0.08739715069532394, 0.08199722319841385], [-0.08782760798931122, -0.07403893768787384, -0.046499524265527725, 0.011950529180467129, 0.019370736554265022, 0.031188009306788445, 0.01770186424255371, -0.030932990834116936, -0.029744908213615417, 0.09034210443496704, -0.06157226487994194, -0.024986211210489273, -0.004120939876884222, -0.0012884545139968395, 0.03899133577942848, 0.015880558639764786, 0.0007748603820800781, 0.02509084716439247, 0.01662478782236576, -0.002702566096559167, 0.10020028054714203, -0.02922484092414379, 0.04956413805484772, 0.14160847663879395, -0.029587583616375923, -0.017566142603754997, 0.02705003321170807, 0.031921736896038055, -0.06675561517477036, 0.09696867316961288, -0.02119222842156887, 0.038198065012693405], [0.01786375604569912, -0.03481701761484146, -0.05884610489010811, -0.09569749236106873, -0.030805278569459915, -0.08160597085952759, 0.04261843115091324, 0.018103506416082382, -0.018533391878008842, -0.049077462404966354, -0.014856087975203991, 0.03667694330215454, -0.05940590798854828, -0.05887160077691078, -0.05579160153865814, -0.0028084167279303074, 0.030718358233571053, -0.010743712075054646, -0.00023749572574160993, -0.0666842833161354, -0.04527406021952629, 0.03398745134472847, 0.01840396225452423, -0.03957950323820114, -0.24479815363883972, 0.0771905928850174, -0.035707395523786545, -0.09247323125600815, -0.027925170958042145, -0.12604275345802307, -0.03680667653679848, -0.00982736051082611], [-0.11938805133104324, 0.6099216938018799, -0.07907883822917938, -0.004311369266360998, -0.011582739651203156, -0.18411876261234283, -0.08070468157529831, -0.0229498203843832, 0.004798952490091324, 0.03128809481859207, -0.0732903778553009, 0.09816958010196686, 0.0855889692902565, 0.20365530252456665, 0.017369568347930908, 0.012573321349918842, -0.047857850790023804, -0.20561352372169495, 0.08067921549081802, 0.12435409426689148, 0.003691644174978137, -0.05821586772799492, -0.07048975676298141, 0.15077407658100128, -0.12663914263248444, 0.044344037771224976, -0.022344401106238365, 0.11227233707904816, 0.05535883828997612, -0.3646296560764313, -0.07478716224431992, -0.16805104911327362], [-0.13393773138523102, 0.05115468427538872, -0.00626636017113924, -0.02141263335943222, -0.018079813569784164, -0.18725058436393738, 0.0026469994336366653, -0.0008066351292654872, 0.014270110987126827, -0.00948190875351429, -0.1301279515028, -0.041477270424366, -0.09020990133285522, -0.05835370346903801, -0.07483728975057602, -0.17675179243087769, 0.13439901173114777, 0.07329566031694412, 0.033501651138067245, -0.036524850875139236, 0.10199973732233047, 0.019233625382184982, -0.04929352551698685, 0.06593221426010132, 0.05644544959068298, -0.00853531714528799, 0.06576081365346909, 0.004383519291877747, -0.04424397647380829, -0.00501733273267746, -0.029152626171708107, -0.03529996797442436], [0.0010326779447495937, 0.09282760322093964, -0.08444759249687195, 0.05626901611685753, -0.03647928312420845, 0.09325029700994492, -0.00842935312539339, 0.10900471359491348, 0.08327191323041916, 0.1800708770751953, -0.09644961357116699, -0.09783362597227097, 0.044916365295648575, 0.10815036296844482, -0.09997986257076263, 0.1144486665725708, -0.07037575542926788, -0.06737849116325378, 0.06568041443824768, 0.08715233206748962, -0.13323050737380981, -0.004561280366033316, -0.12972185015678406, -0.06619719415903091, -0.08915204554796219, 0.0004910853458568454, 0.012146923691034317, -0.09609206020832062, -0.1450657695531845, -0.00032271118834614754, 0.1464640349149704, 0.2858406603336334], [0.04352967441082001, 0.05950538441538811, -0.056275565177202225, 0.058014895766973495, -0.04163495451211929, -0.04899074509739876, -0.09546004980802536, -0.004313378594815731, -0.05766038969159126, 0.09284020215272903, -0.008497378788888454, -0.021643130108714104, 0.03195536881685257, 0.0029586467426270247, 0.04858208820223808, -0.09460409730672836, 0.0638531744480133, -0.009383352473378181, 0.004763144068419933, 0.044080689549446106, 0.12206831574440002, 0.09752975404262543, -0.0021367440931499004, -0.056867100298404694, -0.2395588904619217, 0.036324333399534225, -0.026427753269672394, 0.00998971052467823, -0.019348349422216415, 0.06642691045999527, -0.05908891186118126, 0.1390307992696762], [-0.07632122188806534, 0.6992183923721313, 0.21900226175785065, 0.02591782994568348, -0.10252191871404648, -0.34015220403671265, 0.27856117486953735, 0.14850835502147675, 0.001083506504073739, 0.16957436501979828, -0.16643007099628448, 0.3193015456199646, 0.010158093646168709, -0.11333370208740234, 0.7659165859222412, -0.10488568991422653, 0.06701139360666275, -0.4615359604358673, -0.023351822048425674, 0.00041415562736801803, -0.04494892433285713, 0.16987434029579163, 0.23661485314369202, -0.06614602357149124, -0.2310284972190857, -0.09302408993244171, 0.07956139743328094, -0.6466583609580994, -0.08702732622623444, -0.08251522481441498, 0.3116930425167084, -0.7436168789863586], [0.21490371227264404, -0.10369494557380676, 0.03813907504081726, -0.060022927820682526, -0.16019128262996674, -0.11758090555667877, 0.29234832525253296, -0.00781125808134675, -0.08592073619365692, 0.04059911519289017, 0.04426908120512962, -0.03996168076992035, 0.7404683232307434, -0.060206539928913116, 0.15650968253612518, 0.22536247968673706, 0.2303050458431244, 0.01936344802379608, 0.440731018781662, 0.08834925293922424, 0.4005889892578125, 1.1168886423110962, -0.162131667137146, -0.019284699112176895, 0.43909522891044617, 0.12219714373350143, -0.050882261246442795, -0.020334893837571144, 0.2316816747188568, -0.20195788145065308, 0.24016804993152618, 0.10179408639669418], [0.08997780084609985, 1.190713882446289, -0.226536825299263, -0.06823748350143433, 0.01083431113511324, 0.112554632127285, -0.038601938635110855, 0.4557855725288391, 0.1794530749320984, 0.40190207958221436, 0.026704149320721626, -0.4952555298805237, -0.028559278696775436, 0.09807240962982178, -1.3631244897842407, 0.1829109489917755, -0.07852369546890259, 0.23186349868774414, 0.10296521335840225, -0.037442177534103394, 0.0979401096701622, -0.12277553230524063, -0.32179537415504456, 0.008676620200276375, 0.017151467502117157, 0.026730258017778397, -0.11781008541584015, -0.1523061990737915, 0.05836047977209091, -0.0568767711520195, -0.1335284560918808, -0.27140992879867554], [-0.06634045392274857, 0.12497209012508392, 0.5526926517486572, -0.021218786016106606, 0.18324978649616241, 0.0735158771276474, 0.5445883274078369, -0.09232879430055618, 0.11078302562236786, 0.08512932807207108, 0.22341203689575195, 0.07282781600952148, -0.2672806680202484, 0.1895928531885147, -0.14394071698188782, -0.10649248957633972, 0.06898587942123413, -0.05908755958080292, 0.008589034900069237, -0.3936706781387329, 0.07194358855485916, 0.12038464099168777, -0.2290978729724884, -0.5726123452186584, 0.031450264155864716, 0.07754121720790863, 0.19613251090049744, 0.08434530347585678, 0.13956482708454132, -0.13198238611221313, 0.21816538274288177, -0.007761297281831503], [-0.03772753104567528, -0.031109042465686798, 0.17828592658042908, 0.769721269607544, 0.14319710433483124, 0.28725665807724, 0.34809181094169617, -0.13243016600608826, -0.3443853557109833, 0.06702069193124771, 0.3848433196544647, 0.08017707616090775, 0.054966725409030914, 0.004674490075558424, -0.06869494915008545, 0.026053430512547493, -0.04904710873961449, 0.006663998123258352, -0.020781638100743294, -0.006744516082108021, -0.021993739530444145, -0.3620878756046295, 0.08483392745256424, 0.07793654501438141, -0.34916192293167114, 0.054558273404836655, -0.10148118436336517, -0.07605472207069397, -0.0435909703373909, -0.1499394029378891, 0.16523537039756775, 0.006969767156988382], [-0.15282094478607178, -0.020937258377671242, 0.1296166181564331, -0.1407119482755661, 0.43534234166145325, 0.03487526625394821, 0.7813084125518799, 0.0686199963092804, -0.21175767481327057, -0.05074436962604523, 0.10764322429895401, -0.4701988101005554, 0.03250686079263687, -0.2306993156671524, 0.38315704464912415, -0.03582349047064781, -0.22178740799427032, 0.051507435739040375, 0.11502454429864883, 0.06307761371135712, 0.0011882593389600515, -0.005387030076235533, 0.020911557599902153, 0.23734156787395477, -0.28860482573509216, -0.0586903914809227, 0.040799375623464584, 0.19184450805187225, 0.08787279576063156, -0.39040225744247437, 0.02861270122230053, -0.10611922293901443], [1.0500940084457397, -0.03701913356781006, 0.04300319403409958, -0.25265559554100037, 0.03866710141301155, 0.2520595192909241, 0.03959271311759949, -0.17729641497135162, 0.023166727274656296, -0.05099822208285332, -0.2844759225845337, -0.018613124266266823, -0.018819231539964676, -0.07642241567373276, -0.14515554904937744, -0.049078214913606644, -0.13576120138168335, -0.09685561060905457, -0.12238973379135132, -0.006158722098916769, 0.26629000902175903, -0.3238261640071869, 0.6492655873298645, 0.01924712024629116, 0.0888073667883873, 0.07098287343978882, -0.06521659344434738, 0.006066606845706701, -0.20095759630203247, -0.09611260145902634, -0.1514396369457245, 0.07744345813989639], [0.2529487609863281, 0.01756054162979126, -0.12326198816299438, -0.1975467950105667, -0.41850435733795166, 0.049653928726911545, 0.32316428422927856, -0.009427960962057114, 0.027673887088894844, 0.016632338985800743, 0.2733081579208374, -0.022274011746048927, 0.3875214457511902, 0.35381752252578735, -0.10399118810892105, -0.22474993765354156, 0.011986239813268185, 0.17823918163776398, -0.28545793890953064, -0.4071972966194153, -0.150905579328537, 0.009924500249326229, 0.1881687045097351, 0.20401868224143982, -0.05478333681821823, -0.10183367878198624, 0.04343365877866745, -0.1320752203464508, -0.1998642086982727, 0.21245355904102325, -0.05270572006702423, -0.0231467317789793], [-0.014878517016768456, -0.037401873618364334, -0.009662561118602753, 0.07525450736284256, 0.2584989368915558, -0.05487491935491562, 0.22263772785663605, 0.3491835594177246, -0.13003313541412354, 0.35815170407295227, -0.14592333137989044, -0.19171562790870667, -0.08815274387598038, -0.08151402324438095, -0.12496218085289001, 0.03815123066306114, 0.12074116617441177, 0.12224208563566208, -0.06221449375152588, -0.0741773322224617, -0.12941280007362366, 0.03660409152507782, -0.08969958126544952, -0.023309361189603806, -0.17390917241573334, 0.25501811504364014, -0.006061342544853687, -0.5106246471405029, -0.1553984433412552, -0.25938236713409424, 0.019726557657122612, 0.2578020989894867], [0.1561330407857895, 0.05872697755694389, 0.031231286004185677, 0.34671545028686523, 0.11761904507875443, -0.05454444885253906, 0.08561685681343079, -0.0354604609310627, 0.8600889444351196, 0.0679156556725502, -0.022638842463493347, 0.014987964183092117, 0.09862054884433746, -0.13452108204364777, -0.03573191165924072, 0.07481115311384201, -0.17235445976257324, -0.08987363427877426, -0.013568791560828686, -0.07451161742210388, 0.5114083290100098, -0.3249499201774597, -0.2745095491409302, 0.08325269818305969, 0.17144343256950378, -0.29471975564956665, 0.13029707968235016, -0.08343198895454407, 0.005931435152888298, 0.025241447612643242, -0.23236656188964844, 0.017668558284640312], [-0.0941777303814888, -0.10565033555030823, 0.009997558780014515, -0.04666639864444733, 0.15445323288440704, -0.04071257263422012, -0.0758260115981102, -0.19211724400520325, -0.009887163527309895, 0.2971663177013397, -0.07379060983657837, -0.20495301485061646, 0.049127839505672455, -0.14885427057743073, 0.577056348323822, -0.006302721798419952, -0.02657129615545273, -0.45207834243774414, 0.09295885264873505, 0.01102039497345686, 0.02568390779197216, 0.08390432596206665, 0.261233389377594, 0.0359051488339901, 0.08073756098747253, 0.04475177079439163, 0.08347351104021072, 0.19529560208320618, 0.07410230487585068, 0.10099539905786514, 0.043481141328811646, 0.4220767915248871], [-0.14230388402938843, -0.2853808104991913, 0.1489580273628235, -0.16867753863334656, -0.23380517959594727, 0.07426845282316208, -0.24753859639167786, -0.1595989614725113, -0.07837182283401489, -0.05209760367870331, 0.5534032583236694, -0.31274884939193726, 0.08973779529333115, -0.2616679072380066, -0.09957607090473175, 0.18317654728889465, -0.09716109186410904, -0.12472275644540787, -0.35022127628326416, 0.17119289934635162, -0.026970719918608665, -0.15067137777805328, 0.2526114583015442, -0.10341665148735046, 0.09182818979024887, -0.22815504670143127, -0.2243778258562088, 0.111300989985466, 0.12417081743478775, 0.28253379464149475, -0.027902033179998398, -0.0158940851688385], [0.005332376342266798, 0.09589878469705582, -0.07582547515630722, 0.0948699340224266, 0.07201015204191208, 0.09882038086652756, -0.012870075181126595, 0.2481294572353363, -0.07015329599380493, -0.16873426735401154, -0.04380803182721138, 0.6110020279884338, -0.07561802119016647, 0.07375598698854446, -0.6592366099357605, 0.09842602908611298, -0.019002407789230347, 0.1739293485879898, -0.03269687667489052, -0.04347320273518562, -0.05975108966231346, -0.10439611226320267, -0.11811527609825134, -0.10282622277736664, -0.014686666429042816, -0.07176239043474197, -0.18851113319396973, -0.1634170562028885, 0.025903746485710144, -0.04495735839009285, -0.03787606954574585, -0.060955971479415894], [-0.2748633027076721, 0.20974691212177277, -0.3570919334888458, 0.3053041100502014, -0.6763569712638855, -0.044214166700839996, -0.5142796635627747, -0.08198782056570053, 0.03717247396707535, 0.054057035595178604, -0.13065940141677856, -0.0003892265376634896, 0.35752031207084656, 0.1098482608795166, 0.08456923812627792, 0.08815434575080872, -0.21813194453716278, -0.13516132533550262, -0.3447225093841553, 0.14059492945671082, -0.20728254318237305, -0.006347225047647953, 0.17639215290546417, -0.32507672905921936, 0.17442765831947327, -0.06974859535694122, -0.02957422286272049, -0.06016805022954941, -0.12386645376682281, 0.004089104011654854, -0.17630869150161743, 0.03125988319516182], [0.006767377723008394, -0.03255026042461395, -0.059082578867673874, -0.11717904359102249, 0.02779778093099594, 0.01770416460931301, -0.4118199646472931, -0.4760335683822632, -0.1263105720281601, 0.1372365951538086, -0.022224584594368935, -0.2503281235694885, 0.10678726434707642, 0.6117343306541443, -0.08694563806056976, 0.015548952855169773, -0.049172211438417435, -0.57975172996521, 0.22495611011981964, -0.2016208916902542, -0.016608448699116707, -0.13165728747844696, 0.002202572301030159, 0.19905135035514832, -0.11001645773649216, 0.15639564394950867, 0.11309383809566498, 0.11287881433963776, -0.03495851159095764, -0.12026237696409225, -0.04495576024055481, 0.018070843070745468], [-0.14677996933460236, 0.05174259841442108, 0.0758771151304245, -0.04798154532909393, -0.2107836902141571, -0.04529457911849022, 0.2397814393043518, -0.021691901609301567, 0.22666987776756287, -0.17995630204677582, 0.014555621892213821, 0.7202807664871216, -0.023938633501529694, -0.04204219579696655, 0.30951958894729614, 0.004660593345761299, 0.040848907083272934, -0.027269653975963593, -0.165532648563385, -0.07953216135501862, 0.031266938894987106, 0.1330489218235016, -0.04327238351106644, -0.06942065805196762, -0.06625176221132278, -0.010453592985868454, 0.14249959588050842, 0.11142884194850922, 0.022198615595698357, -0.36998414993286133, 0.02515929751098156, -0.24146437644958496], [0.04663126543164253, 0.03321585804224014, -0.08952873945236206, 0.08374844491481781, 0.029611870646476746, 0.1155676394701004, 0.19197550415992737, -0.00510206026956439, -0.04985838755965233, 0.027838781476020813, -0.07302938401699066, -0.0669293999671936, -0.08707617968320847, -0.07351626455783844, -0.0005561506259255111, 0.6835973262786865, 0.2331998348236084, -0.0939839631319046, -0.07063478976488113, -0.14262814819812775, -0.18087561428546906, -0.1641242951154709, 0.27454280853271484, 0.3473716974258423, 0.1789102703332901, -0.041297346353530884, 0.13819092512130737, -0.044932588934898376, -0.2746184766292572, -0.060565028339624405, -0.10089712589979172, 0.050404347479343414], [-0.18308044970035553, 0.024057913571596146, 0.08997420966625214, 0.10056290030479431, 0.40171727538108826, -0.03206712752580643, -0.021580995991826057, 0.009360825642943382, -0.08075793832540512, -0.01923232339322567, -0.06476950645446777, -0.1717802733182907, -0.2655234932899475, 0.044346604496240616, -0.06497400999069214, -0.27852553129196167, 0.41393613815307617, 0.1373557299375534, -0.08427431434392929, -0.32433652877807617, 0.014060362242162228, 0.28047436475753784, 0.1315954625606537, 0.37369802594184875, -0.0975835919380188, 0.04054467752575874, 0.1508813053369522, -0.06315132230520248, -0.33240827918052673, -0.14157995581626892, -0.30663642287254333, -0.037590377032756805], [-0.07820333540439606, 0.12468511611223221, -0.13504184782505035, 0.1465221345424652, -0.04553673788905144, -0.04653400927782059, 0.2125483751296997, 0.325520783662796, -0.13488928973674774, 0.03565048426389694, -0.08037131279706955, -0.401151180267334, -0.023804176598787308, -0.00783900823444128, -0.19713696837425232, 0.08155699074268341, 0.18751463294029236, 0.3245016634464264, -0.16490578651428223, -0.07756303995847702, -0.027166834101080894, -0.07842269539833069, -0.061089564114809036, -0.048827238380908966, -0.2667025327682495, 0.01154395379126072, 0.03455940634012222, -0.3268167972564697, -0.20911112427711487, -0.05443700775504112, 0.05370141565799713, 0.403117835521698], [-0.12799841165542603, 0.018102005124092102, -0.10545249283313751, 0.10924918949604034, 0.04051782935857773, 0.10579095035791397, 0.6197436451911926, 0.03173725679516792, -0.08064598590135574, -0.006002829410135746, -0.1784978061914444, -0.15731720626354218, 0.2783255875110626, -0.30843833088874817, 0.3305140733718872, -0.23337213695049286, 0.21681882441043854, -0.009049700573086739, 0.37756484746932983, 0.15879419445991516, -0.254835307598114, 0.009463503956794739, 0.5110904574394226, -0.0851525366306305, -0.24276843667030334, -0.045273374766111374, 0.08510757982730865, 0.11669939756393433, -0.09819990396499634, 0.3545575737953186, -0.18725070357322693, -0.22165030241012573], [0.06629098951816559, 0.1258186250925064, -0.021335290744900703, -0.06386075913906097, -0.029935358092188835, 0.12640215456485748, -0.05669771134853363, 0.2837580144405365, -0.05401875078678131, -0.007613416761159897, -0.10052629560232162, 0.1501876413822174, 0.07720635086297989, -0.6560041308403015, 0.15221592783927917, 0.11065737158060074, -0.0711965337395668, 0.07699784636497498, 0.31030941009521484, 0.41075509786605835, -0.08603867888450623, 0.036374531686306, 0.1833338588476181, -0.2757393419742584, 0.05236841365695, 0.06938431411981583, -0.16469065845012665, -0.045102253556251526, 0.07041509449481964, -0.158859983086586, -0.07586870342493057, -0.09709484130144119], [0.7876177430152893, 0.006710742600262165, 0.024530483409762383, 0.3811834752559662, -0.064736507833004, -0.6522003412246704, -0.5410577058792114, 0.250173956155777, -0.184075266122818, -0.06820543110370636, -0.10258776694536209, -0.10864640027284622, -0.3768063187599182, 0.1396075189113617, 0.01842552423477173, -0.10049798339605331, 0.2083660513162613, 0.13128846883773804, -0.16334599256515503, -0.11181692779064178, 0.40392962098121643, 0.7274103760719299, -0.04176945984363556, -0.004746385384351015, -0.7813546657562256, 0.6910686492919922, -0.1326093077659607, 0.07769448310136795, -0.05648607760667801, 0.2768338918685913, -0.17805764079093933, -0.08036503940820694], [-0.6907494068145752, 0.0040931482799351215, 0.024247119203209877, 0.2566554844379425, 0.16743893921375275, 0.11228811740875244, -0.37969473004341125, -0.002941535320132971, -0.037793394178152084, 0.0019317243713885546, 0.21648253500461578, 0.0075415512546896935, 0.1531761884689331, 0.1479361355304718, 0.050161540508270264, -0.25739237666130066, -0.01966608315706253, 0.10389993339776993, -0.343161404132843, -0.2594832479953766, -0.27670836448669434, 0.5962128043174744, 0.2026224285364151, -0.0672672912478447, -0.3347626328468323, -0.016775455325841904, -0.07735240459442139, -0.17508652806282043, -0.36029544472694397, -0.11279145628213882, -0.5279378294944763, -0.11680097132921219], [0.27727803587913513, 0.06917475163936615, -0.014726182445883751, -0.4788348078727722, -0.29748255014419556, -0.16876736283302307, 0.061201438307762146, 0.10176499933004379, 0.12038472294807434, -0.096187524497509, -0.08896646648645401, 0.0820217952132225, -0.127905011177063, -0.09483149647712708, 0.0680486261844635, 0.09309202432632446, -0.13362309336662292, 0.2056545913219452, -0.2118729054927826, -0.027249278500676155, 0.4465987980365753, -0.14045892655849457, -0.05090966820716858, -0.04174419119954109, 0.038651254028081894, -0.3380780816078186, -0.06551597267389297, -0.003167614107951522, -0.3995590806007385, 0.2169250249862671, -0.23382321000099182, -0.24097180366516113], [-0.008142574690282345, 0.03318061679601669, -0.36756229400634766, -0.03865240514278412, -0.01668727397918701, -0.015798669308423996, -0.13096436858177185, -0.15618889033794403, 0.010836717672646046, -0.02869974821805954, 0.2274121195077896, 0.04891413450241089, 0.12479002773761749, -0.24298423528671265, -0.06164955347776413, -0.3878217041492462, 0.0069833239540457726, -0.16143392026424408, 0.011292007751762867, 0.2729991674423218, -0.005363796837627888, 0.024789724498987198, -0.04623279348015785, 0.6169651746749878, -0.03242453187704086, -0.006563781760632992, -0.23282469809055328, -0.009478732012212276, 0.03940677270293236, -0.004928047303110361, 0.10832832008600235, 0.05356597900390625], [0.11036477237939835, -0.07568522542715073, 0.03644617274403572, 0.3539811074733734, -0.07318317145109177, 0.03840202838182449, -0.14550429582595825, 0.15627840161323547, -0.022974586114287376, -0.07018160074949265, -0.3168300986289978, -0.22091816365718842, -0.3492068946361542, -0.19365999102592468, 0.10342153161764145, -0.4288162589073181, 0.1643916666507721, 0.05781874433159828, -0.08506748825311661, -0.07417435199022293, -0.1034860759973526, 0.0038436157628893852, 0.13188108801841736, 0.13472270965576172, 0.5793237686157227, 0.05728539451956749, 0.1579446643590927, 0.17044280469417572, -0.35542091727256775, 0.010144514963030815, -0.20818990468978882, -0.07531306147575378], [0.4169864058494568, 0.02210896834731102, 0.026989558711647987, 0.10891009867191315, 0.20317287743091583, -0.11204029619693756, -0.07038190215826035, -0.2151501476764679, -0.0719112753868103, 0.13847441971302032, 0.2310813069343567, 0.0786479040980339, -0.13863588869571686, 0.09665274620056152, -0.07601573318243027, 0.05633407086133957, 0.2318807691335678, -0.13075681030750275, 0.3752642273902893, -0.04065628722310066, -0.30362334847450256, 0.22437052428722382, 0.4766300618648529, -0.08844932168722153, -0.35200509428977966, 0.21273183822631836, -0.11714563518762589, 0.16089825332164764, -0.1360989511013031, -0.19607146084308624, -0.4818113148212433, 0.2162003070116043], [-0.054841648787260056, -0.08356518298387527, 0.06261030584573746, 0.0981375053524971, 0.15470881760120392, 0.0014703484484925866, 0.35494354367256165, -0.10111132264137268, 0.10652056336402893, -0.09785271435976028, -0.12188949435949326, 0.3024364411830902, -0.16268306970596313, 0.32519546151161194, 0.13449227809906006, -0.20590251684188843, 0.03368481621146202, -0.15781892836093903, -0.045956969261169434, -0.37753596901893616, 0.01824529469013214, 0.056015949696302414, -0.14077505469322205, 0.18983784317970276, 0.10199704766273499, -0.08631673455238342, 0.2472013682126999, 0.07176467031240463, -0.0218668170273304, 0.20198404788970947, 0.202830970287323, -0.03906632587313652], [0.10655664652585983, 0.36053863167762756, 0.14169493317604065, 0.007534983102232218, 0.18781989812850952, -0.0056902337819337845, 0.10406013578176498, -0.19595547020435333, 0.03666485473513603, -0.25705766677856445, 0.034823257476091385, 0.2237728387117386, 0.0582771934568882, 0.03134781867265701, 0.02097197435796261, 0.07787442952394485, 0.012059207074344158, 0.10124810039997101, 0.35329848527908325, -0.008661722764372826, -0.1111646294593811, 0.1106916293501854, 0.29452523589134216, 0.06857366859912872, 0.012506306171417236, 0.01654917746782303, -0.021864376962184906, 0.6737074851989746, 0.04077177122235298, 0.27930283546447754, -0.11214051395654678, -0.7693899273872375], [0.2918829917907715, -0.14702144265174866, -0.0014206906780600548, -0.14970619976520538, 0.022785216569900513, 0.06374844163656235, 0.17853191494941711, -0.17327053844928741, -0.003117520362138748, -0.23373836278915405, 0.12799440324306488, -0.13522805273532867, 0.2519165873527527, -0.1769961714744568, 0.07925507426261902, 0.1279270350933075, -0.09043005853891373, 0.12815441191196442, 0.008146537467837334, 0.19369392096996307, -0.21705535054206848, -0.015867887064814568, 0.19409716129302979, -0.48708316683769226, 0.02141348086297512, 0.011848251335322857, -0.17111748456954956, 0.12347609549760818, 0.31964144110679626, 0.09533195197582245, -0.02220718190073967, -0.15890631079673767], [-0.07543500512838364, -0.09462650120258331, -0.08454000949859619, 0.1628052443265915, 0.1590520590543747, -0.08915648609399796, -0.18019206821918488, 0.2480987310409546, -0.10666219145059586, -0.14406171441078186, -0.45527100563049316, -0.19016394019126892, 0.07568547874689102, -0.09965282678604126, 0.5612014532089233, -0.026915505528450012, 0.12491238862276077, 0.2468913197517395, -0.5000742673873901, 0.051508091390132904, 0.014535142108798027, 0.15074363350868225, -0.05281580612063408, -0.010374765843153, -0.02148190140724182, -0.3594719469547272, -0.010335593484342098, 0.05751679092645645, -0.16467413306236267, 0.41666358709335327, 0.7711590528488159, -0.13001589477062225], [0.4816026985645294, 0.08107507228851318, -0.09888651221990585, -0.18518871068954468, -0.031869713217020035, 0.32311147451400757, -0.10601179301738739, 0.07320704311132431, 0.03754380717873573, 0.06733332574367523, -0.0017119344556704164, -0.0957115888595581, 0.11603964120149612, 0.13687458634376526, 0.2395014762878418, -0.07669774442911148, -0.07027244567871094, -0.06575174629688263, -0.568135142326355, -0.017743289470672607, -0.23764286935329437, -0.028494568541646004, 0.06940673291683197, -0.04403303563594818, 0.008849101141095161, 0.3255545496940613, -0.20282459259033203, -0.10018131881952286, -0.043555475771427155, -0.652090311050415, 0.19499042630195618, -0.1950807273387909], [0.05070924013853073, -0.6220139861106873, -0.06033605337142944, -0.1280001997947693, 0.10882765054702759, 0.07841011881828308, -0.13938409090042114, -0.09534090012311935, -0.07346826046705246, 0.3733504116535187, -0.12385496497154236, -0.0747346580028534, 0.06429481506347656, -0.08364427834749222, 0.6828165054321289, -0.11008818447589874, -0.13771089911460876, -0.3392183482646942, 0.32156169414520264, 0.024914594367146492, -0.0006182016804814339, -0.20099462568759918, 0.05545935779809952, 0.025809984654188156, -0.005983985960483551, 0.09967829287052155, 0.23694801330566406, -0.1517811119556427, 0.05558985844254494, 0.3794170320034027, -0.03824061527848244, 1.0566895008087158], [0.014994203113019466, 0.08119494467973709, 0.03904493898153305, 0.04230378195643425, 0.008431337773799896, 0.1079259142279625, 0.04799257218837738, 0.011393800377845764, -0.08206361532211304, -0.040343500673770905, 0.11436141282320023, -0.06933625042438507, 0.06328969448804855, -0.033577922731637955, 0.010293138213455677, 0.12834982573986053, -0.026553887873888016, 0.0004051600117236376, 0.013145510107278824, 0.011344240047037601, 0.025846317410469055, 0.257170706987381, -0.21466322243213654, -0.07131665199995041, -0.2694900929927826, -0.06838899850845337, -0.0014507254818454385, -0.041905976831912994, 0.009964068420231342, 0.08435844630002975, 0.02484830468893051, -0.09270227700471878], [-0.12279687821865082, -0.3164866268634796, 0.025585267692804337, 0.03545442968606949, 0.13732312619686127, -0.13437923789024353, -0.08193431049585342, -0.18395087122917175, 0.006806659512221813, -0.1978043019771576, 0.14565302431583405, 0.24393245577812195, -0.1200171485543251, -0.28761953115463257, 0.0038680462166666985, 0.18072478473186493, 0.0879945456981659, -0.1283949911594391, 0.046722162514925, 0.06365521997213364, -0.022138768807053566, 0.09082376956939697, 0.10733368247747421, 0.11809662729501724, 0.018967462703585625, -0.14277051389217377, -0.014012021943926811, 0.3109114468097687, 0.207987442612648, 0.36703604459762573, -0.014113242737948895, -0.79106205701828], [-0.05724313110113144, -0.03795735165476799, 0.20345769822597504, -0.14462412893772125, 0.0035651603247970343, 0.01922091655433178, 0.07679207623004913, -0.07423913478851318, 0.09749408066272736, 0.08068631589412689, -0.11272527277469635, 0.02732234075665474, -0.06123393028974533, 0.22364263236522675, -0.08072315156459808, 0.08647265285253525, -0.058881569653749466, 0.009103324264287949, -0.04703912511467934, -0.2563847303390503, -0.10184594988822937, -0.05211729556322098, -0.002721480093896389, -0.3911357820034027, 0.05218503996729851, 0.03298971801996231, 0.08845872431993484, 0.06408451497554779, -0.004002685658633709, 0.0033552839886397123, 0.07602960616350174, -0.02383587509393692], [-0.039589688181877136, -0.009826461784541607, 0.003440756583586335, -0.020750002935528755, 0.0352773554623127, -0.02740975096821785, 0.020985115319490433, 0.0217287614941597, -0.027234109118580818, 0.029256796464323997, 0.018248772248625755, 0.07904164493083954, 0.03284931182861328, 0.035963647067546844, -0.04767351597547531, 0.0032982071861624718, -0.05256902053952217, 0.0016236258670687675, 0.00767937209457159, 0.016217028722167015, -0.022652994841337204, 0.10593491792678833, -0.05517295375466347, -0.024693097919225693, -0.03350469097495079, 0.03507748991250992, 0.009489531628787518, -0.030465157702565193, 0.004456554539501667, -0.05072816461324692, -0.011265064589679241, 0.00521462969481945], [-0.06171669811010361, 0.06328422576189041, 0.00392528623342514, 0.05224360525608063, 0.05609893798828125, 0.005088326521217823, 0.10698966681957245, -0.022719772532582283, 0.02894233725965023, 0.018570100888609886, 0.0940837636590004, 0.007398856338113546, -0.012206857092678547, 0.046102624386548996, -0.029480911791324615, -0.019134681671857834, -0.06770967692136765, -0.06282250583171844, -0.01593090035021305, -0.052629053592681885, -0.18510694801807404, 0.13311786949634552, 0.01211191900074482, 0.039388831704854965, -0.08629436790943146, -0.013170456513762474, 0.008333231322467327, -0.000564601446967572, -0.08777638524770737, -0.007679494097828865, -0.014515203423798084, -0.04305730760097504], [0.41796207427978516, 0.03222060203552246, -0.05189553275704384, -0.007353294640779495, -0.25446459650993347, 0.5033629536628723, 0.04894532635807991, -0.13160495460033417, 0.053035423159599304, -0.045498017221689224, -0.10873248428106308, 0.021707072854042053, -0.13698770105838776, -0.032423630356788635, -0.057445280253887177, -0.22751301527023315, 0.08948396146297455, -0.09917149692773819, -0.08204462379217148, -0.03632410243153572, 0.27237945795059204, -0.3908841013908386, 0.4420406222343445, 0.1385987102985382, 0.32401081919670105, -0.16009823977947235, 0.058147966861724854, 0.030373135581612587, -0.031590815633535385, 0.048107802867889404, 0.14758096635341644, -0.04766787216067314], [0.025400374084711075, -0.07121989876031876, -0.0029745653737336397, 0.02717394195497036, 0.020545711740851402, -0.055182524025440216, -0.02542673423886299, 0.024703456088900566, 0.01241437066346407, -0.02069280669093132, 0.14523500204086304, -0.07064837217330933, -0.12575578689575195, -0.080586276948452, -0.04910637065768242, -0.04538992419838905, 0.09502572566270828, -0.021289609372615814, -0.059384431689977646, -0.06515641510486603, -0.12369868159294128, 0.021666768938302994, 0.08144061267375946, -0.07041035592556, -0.14136657118797302, 0.0370296910405159, -0.019199764356017113, 0.009176029823720455, 0.06962471455335617, 0.05614614859223366, 0.027194678783416748, -0.011487208306789398], [0.06001913547515869, -0.056762173771858215, -0.12356054037809372, -0.008326047100126743, 0.03928282484412193, 0.07736945897340775, 0.0016347614582628012, -0.2627429962158203, -0.02309056743979454, 0.005163303576409817, 0.07231459021568298, -0.06589388847351074, 0.052536673843860626, 0.08498287200927734, 0.2582891583442688, 0.03968794271349907, 0.05670209228992462, 0.034979019314050674, -0.04338923096656799, -0.0037207272835075855, -0.058303359895944595, 0.04573407396674156, 0.04232608154416084, 0.10032226890325546, 0.1426374465227127, -0.0254752729088068, 0.05485571548342705, 0.33244553208351135, 0.05827406793832779, 0.019901704043149948, 0.10348005592823029, -0.04966678470373154], [0.008748054504394531, 0.06853098422288895, 0.24160245060920715, 0.022954486310482025, 0.047389015555381775, -0.049618545919656754, -0.05130710452795029, -0.015307493507862091, -0.28327178955078125, -0.11625469475984573, 0.16734172403812408, -0.13943898677825928, -0.0544271394610405, -0.04735853523015976, -0.028197452425956726, -0.0786455050110817, 0.12476266920566559, 0.07456997781991959, -0.1165141686797142, -0.058280739933252335, -0.09396912157535553, 0.02861575223505497, -0.03908304497599602, 0.003948942758142948, 0.2822811007499695, 0.03431297093629837, -0.023925412446260452, 0.0926860049366951, 0.03531601279973984, -0.06841515749692917, -0.06524672359228134, 0.08235222846269608], [-0.052274152636528015, 0.45301568508148193, 0.024422433227300644, -0.07749135047197342, -0.013169785030186176, -0.06703593581914902, 0.07937275618314743, 0.029607245698571205, -0.061416175216436386, -0.4573819637298584, 0.08978066593408585, 0.20423220098018646, -0.034489113837480545, 0.08921187371015549, -0.3048554062843323, 0.10059899836778641, 0.03762035816907883, 0.2817126214504242, -0.14084382355213165, -0.0470636822283268, -0.04678693786263466, 0.07789327949285507, -0.06420180946588516, 0.053032036870718, -0.03702622652053833, -0.0554741732776165, -0.16816779971122742, 0.11810622364282608, 0.036929089576005936, -0.1623632311820984, -0.02177467569708824, -0.37644270062446594], [-0.04201580584049225, -0.09521559625864029, -0.07248638570308685, -0.04391804337501526, 0.04969572275876999, 0.051884688436985016, 0.06421100348234177, -0.05127863585948944, 0.07460865378379822, -0.14041604101657867, 0.26840364933013916, 0.012787381187081337, 0.05158156901597977, -0.07204888761043549, -0.019609754905104637, -0.012480976060032845, -0.11724340915679932, 0.08388930559158325, 0.02396083064377308, -0.02007763832807541, -0.03636833652853966, -0.07329098880290985, 0.04796219989657402, 0.057672783732414246, 0.0027414122596383095, -0.05760951712727547, -0.006575767882168293, 0.05722837150096893, -0.003220081329345703, 0.15869803726673126, -0.05565302446484566, -0.08050896227359772], [0.009097017347812653, -0.035987820476293564, 0.12097718566656113, -0.15357115864753723, 0.13743393123149872, -0.05118680000305176, -0.17679999768733978, -0.002797322114929557, 0.057438924908638, -0.34109267592430115, 0.14984974265098572, -0.6370391249656677, 0.13461607694625854, -0.14801135659217834, 0.21662390232086182, 0.006538201589137316, -0.1532813459634781, -0.19988003373146057, -0.09146007150411606, -0.026236260309815407, 0.01209201104938984, 0.013813652098178864, -0.03965021297335625, -0.048473212867975235, 0.12486144155263901, -0.014139670878648758, 0.08992617577314377, -0.10646824538707733, 0.21248196065425873, 0.01434308011084795, -0.05745294690132141, 0.2766185402870178], [-0.0005795378237962723, -0.0198000967502594, 0.061850666999816895, 0.03392999246716499, 0.14645512402057648, -0.12714457511901855, 0.05161377042531967, -0.01875564083456993, -0.012813623063266277, -0.05770194157958031, 0.09080898761749268, -0.08138535916805267, -0.16275151073932648, -0.012237535789608955, -0.007098446600139141, 0.001771158305928111, -0.15010245144367218, -0.057149454951286316, -0.05559059605002403, -0.10627591609954834, 0.24696709215641022, 0.07035234570503235, -0.012506775557994843, -0.011405707336962223, 0.09784194082021713, -0.07908038049936295, 0.06443479657173157, 0.07677115499973297, -0.02091209404170513, 0.01076702494174242, -0.005207148380577564, -0.07049891352653503], [-0.04736458510160446, -0.002688979497179389, -0.13258549571037292, 0.03017975017428398, -0.029515480622649193, -0.03939707204699516, -0.09038637578487396, -0.12078113108873367, -0.0002421828976366669, -0.04689826816320419, 0.13928396999835968, 0.08457495272159576, 0.1514059603214264, -0.22921164333820343, 0.09995946288108826, 0.1558719426393509, -0.04641265422105789, -0.05533037334680557, 0.010632993653416634, -0.07323722541332245, -0.008570236153900623, 0.07503865659236908, -0.05566614493727684, -0.003722443012520671, -0.03552324324846268, 0.050492122769355774, -0.20402425527572632, 0.14117319881916046, 0.1353195458650589, -0.05837219953536987, -0.07678782939910889, 0.05389438942074776], [-0.08344615250825882, -0.07587622851133347, -0.14739887416362762, 0.026252390816807747, -0.015790192410349846, -0.08286656439304352, -0.018248096108436584, 0.07902159541845322, -0.020083561539649963, -0.14865660667419434, -0.03575194254517555, -0.12211330235004425, 0.054031845182180405, -0.04387734457850456, -0.05117090791463852, 0.09133536368608475, -0.014369023963809013, 0.07867786288261414, -0.024506472051143646, -0.010336456820368767, 0.005515928380191326, -0.06602754443883896, -0.020765995606780052, -0.020660003647208214, -0.15875555574893951, 0.044534385204315186, -0.0993117094039917, -0.10876402258872986, 0.03996757045388222, -0.12564390897750854, -0.12891733646392822, 0.03003542870283127], [0.0671708732843399, -0.021647285670042038, 0.029881613329052925, -0.03051454946398735, -0.0704408511519432, -0.006064202636480331, -0.15651142597198486, 0.0023383419029414654, -0.08308140188455582, 0.03406108543276787, -0.08104551583528519, -0.032938651740550995, -0.03383825346827507, -0.02438349835574627, -0.12604935467243195, -0.034748319536447525, 0.18826691806316376, 0.08380068838596344, 0.024581557139754295, 0.04618440568447113, -0.1771257221698761, 0.09520776569843292, 0.19519734382629395, 0.06469924002885818, -0.11249341070652008, 0.08798868209123611, -0.08382654190063477, -0.018096473067998886, -0.07380294054746628, 0.16541887819766998, -0.08299662917852402, -0.03835735842585564], [0.05048130825161934, -0.01872137375175953, -0.017280690371990204, -0.056114859879016876, 0.031513139605522156, 0.099668487906456, 0.11017688363790512, -0.049683067947626114, -0.04664652794599533, 0.012450490146875381, 0.13165509700775146, 0.019203640520572662, 0.13749875128269196, 0.0811803862452507, 0.06802468001842499, 0.026975274085998535, -0.3034968972206116, -0.05548987165093422, 0.01936827041208744, 0.04531102627515793, -0.28614258766174316, -0.15237149596214294, 0.025339478626847267, -0.14306668937206268, -0.4465412497520447, 0.024882525205612183, -0.08112017810344696, -0.01801293157041073, 0.11751113086938858, 0.0037478560116142035, 0.2710636854171753, -0.015163919888436794], [-0.04432385414838791, -0.1973421722650528, -0.08149111270904541, 0.038131292909383774, -0.014504900202155113, -0.09855227917432785, 0.08781510591506958, 0.03992274031043053, 0.029084568843245506, 0.0048428745940327644, -0.08119441568851471, -0.14576049149036407, -0.03021085448563099, -0.048800498247146606, -0.2198089361190796, 0.006820729002356529, 0.032301608473062515, 0.5083127021789551, -0.12291711568832397, -0.043526966124773026, -0.024815045297145844, 0.002220361726358533, -0.05521096661686897, -0.0010901668574661016, -0.0031624853145331144, 0.013645561411976814, 0.011761121451854706, -0.05397259071469307, -0.05878754332661629, 0.08620335161685944, -0.16647587716579437, 0.5251308679580688], [0.11596399545669556, -0.23454125225543976, 0.02652377262711525, -0.0481557659804821, -0.011471105739474297, -0.022945228964090347, -0.14242824912071228, -0.09553859382867813, 0.04257560148835182, 0.012587166391313076, 0.09650047868490219, 0.02539418451488018, -0.07079828530550003, 0.04323078691959381, -0.14556026458740234, 0.06299547851085663, 0.07060122489929199, 0.05837906897068024, -0.22255785763263702, -0.07676173001527786, 0.07205352932214737, 0.030701417475938797, -0.032929107546806335, -0.02853100746870041, 0.0935831293463707, 0.05928808078169823, 0.000755142595153302, 0.018016768619418144, 0.08865708857774734, -0.06114692613482475, -0.1040271669626236, 0.12132678180932999], [-0.0015501172747462988, 0.0961330384016037, -0.007257221266627312, -0.015466274693608284, 0.022793971002101898, 0.01688355579972267, 0.04125714674592018, -0.16540119051933289, -0.0711371898651123, 0.05652202293276787, 0.13824965059757233, -0.11273479461669922, -0.013580629602074623, 0.14046970009803772, -0.13375182449817657, 0.004831159021705389, 0.03991178423166275, -0.05731334909796715, -0.03336266428232193, -0.293163925409317, -0.014612536877393723, 0.01208589319139719, -0.07711241394281387, 0.14076676964759827, 0.060659315437078476, 0.04617205262184143, 0.04782280698418617, 0.13644039630889893, -0.025295671075582504, -0.056478504091501236, -0.029437007382512093, 0.04377991706132889], [0.6625009179115295, 0.03287319466471672, 0.044844433665275574, -0.08637744933366776, 0.2410663366317749, 0.955329954624176, -0.23234745860099792, 0.033535756170749664, -0.01764776185154915, 0.11334913969039917, -0.23449884355068207, 0.07549317181110382, 0.020474638789892197, 0.053341321647167206, -0.008168814703822136, -0.04021724686026573, 0.19880129396915436, -0.02642129734158516, 0.03646157681941986, 0.016750620678067207, -0.6741864681243896, 0.6524202823638916, -0.613599419593811, 0.19353041052818298, 0.10954820364713669, -0.18213769793510437, 0.08972608298063278, 0.027262242510914803, 0.029813922941684723, 0.2418345957994461, -0.02992444671690464, 0.031695734709501266], [-0.4368622303009033, 0.04338868707418442, -0.002194478875026107, 0.18482442200183868, 0.11408109962940216, 0.4098900258541107, -0.1086595356464386, 0.01832360215485096, 0.007354284171015024, -0.08171495795249939, 0.11506275832653046, 0.03954701870679855, 0.002574400743469596, 0.008092855103313923, 0.051452700048685074, -0.024720368906855583, -0.047974925488233566, -0.027965642511844635, 0.0900401696562767, 0.022266028448939323, -0.19640232622623444, 0.681070864200592, -0.32472360134124756, 0.03766198828816414, -0.294050008058548, 0.06165095418691635, -0.0259375162422657, -0.040379639714956284, -0.08107980340719223, 0.07503756135702133, -0.03014320880174637, -0.0530102364718914], [-0.10795768350362778, -0.014742998406291008, -0.035734761506319046, -0.011618709191679955, 0.051911599934101105, 0.051379941403865814, -0.02573881298303604, -0.03625038266181946, -0.01326708123087883, -0.05051756277680397, 0.14943914115428925, -0.07976484298706055, -0.04178249463438988, -0.014133613556623459, -0.04342610016465187, 0.04952748492360115, 0.008899213746190071, 0.07242096215486526, -0.10255484282970428, -0.026704493910074234, -0.2046540528535843, 0.20836761593818665, -0.07781969010829926, 0.051925044506788254, 0.02349771000444889, -0.04557715356349945, -0.004987945314496756, 0.0031246612779796124, -0.03496336191892624, 0.05417804419994354, 0.018702007830142975, -0.06946225464344025], [-0.04751259833574295, 0.0023578458931297064, 0.167281374335289, -0.038366399705410004, -0.12662425637245178, -0.05221516266465187, -0.0940290316939354, -0.005953322164714336, 0.02855166606605053, -0.008445444516837597, 0.06402932107448578, 0.03975299745798111, 0.04347803071141243, 0.020632322877645493, 0.006935032084584236, 0.2074277400970459, -0.023158377036452293, 0.028318343684077263, -0.08779358118772507, 0.058163877576589584, 0.10811091214418411, -0.052919644862413406, 0.16629351675510406, 0.21029582619667053, -0.05184633284807205, 0.04062405228614807, -0.09651902318000793, 0.05820750817656517, -0.0998384952545166, 0.043453510850667953, -0.048351824283599854, 0.11426645517349243], [0.1274864822626114, 0.09124809503555298, -0.048501428216695786, -0.06906787306070328, 0.08252311497926712, 0.144710510969162, 0.04057955741882324, -0.030284591019153595, -0.048431146889925, 0.07291185855865479, -0.02298387512564659, -0.08111374080181122, 0.013228396885097027, 0.15786026418209076, -0.052803024649620056, 0.026402130722999573, -0.1319202333688736, -0.03074260987341404, -0.03851482272148132, -0.001597560360096395, 0.013765610754489899, 0.07845602929592133, 0.2351285070180893, 0.001520457211881876, -0.023065997287631035, 0.032511189579963684, -0.013342780992388725, -0.06550133228302002, -0.18624357879161835, 0.022472478449344635, 0.11345790326595306, 0.032247401773929596], [-0.04721451178193092, -0.10044527053833008, 0.02693074569106102, -0.021500909700989723, 0.03396226465702057, 0.22942854464054108, 0.0791240856051445, 0.00784355029463768, -0.024871643632650375, 0.06567814946174622, -0.007012451533228159, -0.12016314268112183, -0.11036042869091034, 0.010514989495277405, -0.07686170935630798, -0.019813483580946922, 0.07016600668430328, 0.06657738238573074, -0.007657097652554512, -0.04948711022734642, 0.1573706567287445, -0.02407807670533657, 0.05721183493733406, 0.06571052968502045, 0.0836034044623375, -0.05923879146575928, 0.053071554750204086, -0.08727157115936279, -0.0635814368724823, 0.06769824773073196, -0.006732831709086895, 0.0008829452563077211], [0.010994408279657364, -0.1307973563671112, 0.019090436398983, -0.07543986290693283, -0.016620183363556862, 0.104445680975914, -0.014122187159955502, -0.010874668136239052, -0.05721016228199005, -0.05870808660984039, -0.008319957181811333, 0.05106155946850777, -0.07219889014959335, 0.00013107381528243423, 0.05396580696105957, -0.032558344304561615, 0.03992534801363945, -0.04020772501826286, -0.014077517203986645, -0.06696260720491409, -0.15928341448307037, -0.04049171879887581, 0.03159564733505249, -0.046476300805807114, 0.05516812950372696, 0.05754966288805008, 0.08518200367689133, -0.04678409546613693, -0.01028048899024725, -0.08752824366092682, -0.011395531706511974, 0.0837608128786087], [-0.18526963889598846, 0.5058319568634033, -0.1421634703874588, -0.04096962884068489, 0.08218496292829514, -0.06344150751829147, -0.052115850150585175, -0.09848438203334808, 0.024392019957304, -0.23592627048492432, -0.056005753576755524, -0.054121047258377075, 0.0023307434748858213, 0.25157082080841064, 0.3555248975753784, 0.13381515443325043, 0.0868881493806839, -0.1318538784980774, -0.014513939619064331, 0.0634717047214508, 0.10100927948951721, 0.01169111393392086, 0.15962782502174377, 0.24980084598064423, -0.03176775574684143, 0.03326180577278137, 0.03888053819537163, 0.3450470566749573, 0.014013119973242283, -0.4065549373626709, 0.008504699915647507, -0.21005889773368835], [-0.023778218775987625, 0.04153347387909889, 0.009381874464452267, -0.0006648459238931537, -0.00730438856408, -0.0839163288474083, -0.018963932991027832, 0.03146768733859062, -0.015206411480903625, -0.08622314035892487, -0.041380979120731354, -0.04292893782258034, -0.08258099108934402, -0.09159542620182037, 0.039706818759441376, -0.07562847435474396, 0.09815492480993271, 0.05603881552815437, 0.040515486150979996, -0.014861841686069965, 0.10982691496610641, 0.04228636249899864, 0.031172094866633415, -0.01239162776619196, 0.2076433300971985, -0.01066629495471716, 0.0640479326248169, -0.001762892585247755, -0.062088120728731155, 0.021068500354886055, -0.07270489633083344, -0.12339075654745102], [0.046299487352371216, -0.15700936317443848, 0.0196357611566782, -0.005150682758539915, -0.010538235306739807, -0.04317249357700348, -0.04878371208906174, 0.0408036969602108, 0.02727457880973816, 0.03118187189102173, 0.0600002259016037, -0.039012160152196884, -0.07149995863437653, 0.0862298309803009, -0.038490574806928635, 0.09004031866788864, 0.016951829195022583, -0.11401960253715515, -0.02068869210779667, -0.018067996948957443, -0.05053960159420967, 0.09949558228254318, -0.113036148250103, -0.015553371980786324, -0.03681038320064545, 0.037888191640377045, 0.02307484671473503, -0.0658969059586525, -0.018950149416923523, 0.055934272706508636, 0.03166699409484863, -0.11398196220397949], [0.100343719124794, -0.07103696465492249, 0.006785860285162926, 0.003921886906027794, -0.11065006256103516, 0.004045991227030754, -0.061484675854444504, -0.006079657468944788, -0.014996948651969433, -0.018338926136493683, 0.10090626031160355, -0.05714030936360359, -0.01557602547109127, 0.04476751759648323, -0.0013835361460223794, -0.08843785524368286, 0.05474954843521118, -0.09950640052556992, -0.02626664936542511, -0.008782824501395226, -0.18622027337551117, 0.08236264437437057, 0.04145264998078346, 0.06326131522655487, 0.02672305516898632, 0.01986999250948429, -0.01566397398710251, -0.11906716227531433, 0.024145040661096573, 0.16155658662319183, -0.018277980387210846, -0.053985413163900375], [0.02379014901816845, 0.1842464804649353, 0.17992950975894928, 0.026665866374969482, 0.09076573699712753, 0.08419449627399445, 0.04844752699136734, 0.2716362178325653, -0.06159081310033798, -0.10260267555713654, 0.12599046528339386, -0.4259929656982422, -0.11726263165473938, -0.03258826956152916, 0.03941404074430466, -0.014524980448186398, 0.05853068456053734, 0.0044882637448608875, -0.2184392511844635, -0.12993119657039642, -0.024859681725502014, 0.0699700117111206, -0.09040801227092743, -0.24708382785320282, 0.10305781662464142, -0.06224820762872696, 0.14235743880271912, -0.7467107176780701, -0.03746279701590538, 0.044326815754175186, 0.05199810490012169, 0.4454646408557892]], "rec.bias_ih_l0": [-0.03424999490380287, -0.18583594262599945, -0.3233114182949066, -0.9812853932380676, -0.26243698596954346, 0.04566729813814163, -0.370863139629364, -0.4254724383354187, -1.3054451942443848, -0.5349801182746887, -0.5038253664970398, -0.9581280946731567, -0.3899085521697998, -0.5383169651031494, -0.19409163296222687, -0.9953587651252747, -0.35242190957069397, -0.36152884364128113, -0.28915631771087646, -0.46051186323165894, 0.2574733793735504, -0.2047954499721527, -0.20418401062488556, -0.37277963757514954, -0.3708363473415375, -0.01232954766601324, -0.27210909128189087, -0.28187400102615356, -0.29762002825737, 0.10509304702281952, -0.08647380769252777, -0.27586135268211365, 0.472342848777771, 0.39320629835128784, 0.4002501964569092, 1.4242736101150513, 0.6668316125869751, 0.42836618423461914, 0.8693970441818237, 0.5977866053581238, 2.0459063053131104, 0.5532355308532715, 0.9010009169578552, 1.3537269830703735, 0.8193068504333496, 0.9197960495948792, 0.5250444412231445, 1.5243489742279053, 0.5869309306144714, 0.508509635925293, 0.6121456623077393, 0.6679920554161072, 0.5092287063598633, 0.5848997831344604, 0.5904577970504761, 0.8827640414237976, 0.8689612746238708, 0.27242785692214966, 0.574897050857544, 0.4967091977596283, 0.6555067896842957, 0.5361214876174927, 0.5216049551963806, 0.5266097784042358, 0.005926240235567093, -0.029185127466917038, -0.03272843360900879, -0.024684488773345947, -0.016638020053505898, -0.06523896008729935, -0.0026955471839755774, -0.001470764633268118, -0.01362845953553915, 0.029303841292858124, 0.011851562187075615, -0.020741375163197517, 0.03155270218849182, -0.007295969408005476, -0.08243925124406815, -0.07185342162847519, 0.018079174682497978, -0.06213534623384476, -0.0008904195856302977, -0.00179628049954772, -0.037524543702602386, -0.035547107458114624, -0.026364678516983986, -0.01886693574488163, 0.0355730839073658, -0.006016647908836603, 0.004622646141797304, -0.04939501732587814, 0.030810946598649025, -0.013398474082350731, 0.02952950820326805, -0.014036562293767929, 0.31249329447746277, -0.08696075528860092, -0.3480972647666931, -0.2082945704460144, 0.038805801421403885, -0.030521325767040253, 0.26683494448661804, -0.2577926218509674, -0.5583419799804688, -0.12649500370025635, -0.06544970721006393, -0.08479175716638565, -0.03957916796207428, -0.058312445878982544, 0.28205227851867676, 8.07877368060872e-05, -0.2060823291540146, -0.06174376979470253, -0.014083745889365673, -0.1560310274362564, 0.015483452938497066, 0.14244140684604645, 0.1829707771539688, 0.16847629845142365, 0.3832305073738098, 0.015291618183255196, -0.1475740224123001, -0.2354566752910614, -0.11359881609678268, 0.30710938572883606, 0.08666332811117172, 0.0740610808134079], "rec.bias_hh_l0": [-0.03424972668290138, -0.1858363151550293, -0.323310911655426, -0.9812856316566467, -0.26243746280670166, 0.04566773772239685, -0.3708631992340088, -0.4254724383354187, -1.3054440021514893, -0.534980833530426, -0.503826379776001, -0.9581281542778015, -0.38990843296051025, -0.5383174419403076, -0.19403183460235596, -0.9693270921707153, -0.35242170095443726, -0.36152806878089905, -0.28915637731552124, -0.46051207184791565, 0.2574719488620758, -0.20479533076286316, -0.20418375730514526, -0.3727799952030182, -0.37083694338798523, -0.012329339049756527, -0.27210891246795654, -0.28187379240989685, -0.2976205050945282, 0.10509321093559265, -0.08647395670413971, -0.27586081624031067, 0.47234341502189636, 0.3932065963745117, 0.40025049448013306, 1.4242730140686035, 0.6668318510055542, 0.42836615443229675, 0.869396984577179, 0.5977867245674133, 2.0459065437316895, 0.5532362461090088, 0.9010004997253418, 1.3537276983261108, 0.8193069100379944, 0.9197974801063538, 0.5251140594482422, 1.4654724597930908, 0.5869317650794983, 0.5085098147392273, 0.6121454834938049, 0.6679911613464355, 0.509229302406311, 0.5849004983901978, 0.5904574394226074, 0.8827643394470215, 0.8689603805541992, 0.2724280059337616, 0.5748978853225708, 0.49670979380607605, 0.6555066108703613, 0.5361208319664001, 0.5216046571731567, 0.526608943939209, 0.0005518910475075245, -0.021015072241425514, -0.0038123540580272675, -0.016012806445360184, -0.0399315319955349, -0.06632424890995026, 0.0008336833561770618, -0.0060649472288787365, -0.012849711813032627, 0.10071577876806259, 0.005384037271142006, 0.021967608481645584, 0.022431548684835434, -0.009679875336587429, 0.0641302764415741, 0.1328427791595459, 0.008935275487601757, -0.05907455086708069, -0.008065315894782543, 0.047444552183151245, -0.1635146290063858, -0.004017098806798458, -0.02817077934741974, -0.007912988774478436, -0.052879270166158676, -0.019476084038615227, -0.0004109507135581225, -0.05232207849621773, 0.02023368701338768, -0.007524175103753805, 0.026905464008450508, -0.009306319989264011, 0.3124935030937195, -0.08696098625659943, -0.34809741377830505, -0.20829446613788605, 0.03880540654063225, -0.03052137792110443, 0.26683488488197327, -0.25779253244400024, -0.5583418011665344, -0.12649501860141754, -0.06544985622167587, -0.0847918838262558, -0.03957917168736458, -0.05831226706504822, 0.28209587931632996, 0.016231095418334007, -0.2060820758342743, -0.06174343451857567, -0.014084089547395706, -0.15603068470954895, 0.01547961588948965, 0.14244134724140167, 0.18297071754932404, 0.16847655177116394, 0.383230060338974, 0.015291591174900532, -0.1475745290517807, -0.23545658588409424, -0.11359873414039612, 0.3071092963218689, 0.08666308969259262, 0.0740608274936676], "lin.weight": [[-0.4422110915184021, -0.038075756281614304, -0.1659029871225357, -0.5394529700279236, -0.1968994140625, 0.5561364889144897, -0.19630268216133118, -0.022661447525024414, 0.2640771269798279, 0.06053772568702698, 0.02231348678469658, -0.43314775824546814, -0.32721418142318726, 0.11897498369216919, 0.2969653606414795, -0.43197786808013916, 0.610308051109314, 0.004268087446689606, -0.17525236308574677, 0.06565555930137634, -1.6495440006256104, 0.3240772485733032, 1.1835341453552246, -0.07667267322540283, -0.42992153763771057, 0.6491761803627014, -0.2789570987224579, 0.008473150432109833, -0.313973993062973, 0.048649877309799194, 0.39607951045036316, 0.04189176857471466]], "lin.bias": [0.1307099461555481]}}