{"model_data": {"model": "SimpleRNN", "input_size": 1, "skip": 1, "output_size": 1, "unit_type": "LSTM", "num_layers": 1, "hidden_size": 32, "bias_fl": true}, "state_dict": {"rec.weight_ih_l0": [[-0.12086857855319977], [0.006453448440879583], [0.10459211468696594], [-0.06114592030644417], [-0.043978311121463776], [0.004057650920003653], [-0.1508127599954605], [-0.016827421262860298], [0.03407340124249458], [-7.526296940341126e-06], [-0.009578532539308071], [0.0535181500017643], [0.004015546292066574], [0.06617192178964615], [-0.12943033874034882], [0.3878038823604584], [-0.0600188672542572], [0.00608827406540513], [0.0013984148390591145], [-0.043938394635915756], [-0.1160137727856636], [-0.13350482285022736], [-0.08957649767398834], [-0.011512890458106995], [0.009412272833287716], [-0.13132897019386292], [0.15468339622020721], [-0.13929115235805511], [-0.07685184478759766], [0.020482869818806648], [-0.08875308185815811], [-0.023564130067825317], [0.01988883502781391], [0.04952390864491463], [0.12642747163772583], [0.008370050229132175], [0.0745951384305954], [-0.11255711317062378], [0.05833286792039871], [-0.19522173702716827], [0.05709358677268028], [0.01303122378885746], [0.01442655548453331], [0.03306238353252411], [-0.1080918237566948], [0.08954840153455734], [-0.054522499442100525], [0.24437792599201202], [-0.2633296251296997], [0.051967136561870575], [0.12391214072704315], [0.0006607644027099013], [-0.09433304518461227], [-0.0333268940448761], [0.2021479308605194], [0.06014490872621536], [0.20764411985874176], [-0.11021111905574799], [-0.007881371304392815], [0.14259974658489227], [-0.03819040581583977], [0.00584816001355648], [0.0084140719845891], [-0.013898283243179321], [0.15222494304180145], [0.020514778792858124], [-0.39882737398147583], [0.13817688822746277], [-0.09507866203784943], [0.05104881525039673], [0.5336920619010925], [-0.21513038873672485], [-0.0707259550690651], [-0.06909625232219696], [0.283668577671051], [0.04852345213294029], [-0.0796174556016922], [0.03221449255943298], [-0.05724227800965309], [-0.2521916627883911], [-0.9240951538085938], [0.2321797013282776], [1.0017451047897339], [0.5507445335388184], [0.12369845807552338], [0.030569985508918762], [0.011280511505901814], [-0.10916045308113098], [0.14658181369304657], [-0.1512579768896103], [0.1523372232913971], [0.25150415301322937], [0.19759275019168854], [0.08071019500494003], [1.1624770164489746], [-0.05039021372795105], [-0.06843967735767365], [0.05821451544761658], [0.26291391253471375], [-0.09092855453491211], [0.06930360198020935], [0.013492916710674763], [0.06404009461402893], [-0.03517896682024002], [-0.04049108549952507], [0.16422739624977112], [0.11840776354074478], [0.07585274428129196], [0.01460940670222044], [-0.04787929356098175], [0.10176979005336761], [0.18041472136974335], [-0.2261987328529358], [0.009985396638512611], [-0.3915051221847534], [-0.049900613725185394], [0.04826675355434418], [0.03681822866201401], [-0.028024397790431976], [0.05145672336220741], [-0.04023241251707077], [-0.11329188942909241], [0.06345091760158539], [-0.010294057428836823], [-0.04733747988939285], [0.025821562856435776], [-0.07752899825572968], [-0.03338591381907463]], "rec.weight_hh_l0": [[-0.007237097714096308, -0.03179989755153656, 0.06358343362808228, -0.023541303351521492, -0.013651424087584019, -0.05294523388147354, -0.1217486634850502, 0.027540259063243866, -0.09423530101776123, -0.008168673142790794, -0.09450846910476685, -0.0323575995862484, 0.05097804218530655, -0.08293915539979935, -0.03110099956393242, 0.023515937849879265, -0.009018012322485447, -0.020728038623929024, 0.08531180769205093, -0.07635147869586945, -0.002007562667131424, -0.14873474836349487, 0.03662413731217384, -0.003922699019312859, -0.060950711369514465, 0.016816601157188416, 0.024077821522951126, 0.01438696589320898, -0.030887223780155182, -0.007553406525403261, -0.04544980451464653, -0.016376350075006485], [-0.01935740001499653, -0.17209668457508087, 0.05086508393287659, 0.1472948044538498, 0.03707268089056015, -0.06834050267934799, -0.11784733831882477, -0.1512843519449234, -0.1588115394115448, 0.2621268630027771, -0.03121391125023365, 0.07798547297716141, 0.03867030888795853, -0.08852367103099823, -0.12210507690906525, -0.15880799293518066, 0.030539121478796005, 0.027106789872050285, 0.10618709027767181, -0.06081660836935043, -0.11391150206327438, -0.006430864334106445, 0.17901746928691864, -0.07192227989435196, 0.21340247988700867, -0.08152247220277786, 0.10352098196744919, -0.030702581629157066, 0.05126207321882248, 0.022326471284031868, -0.003765589790418744, 0.012514537200331688], [-0.02357538603246212, 0.0318247526884079, -0.04392203688621521, -0.002480719704180956, -0.030472176149487495, 0.062213074415922165, -0.09356355667114258, -0.032816220074892044, -0.0947774276137352, 0.027513813227415085, 0.11025027185678482, 0.018584921956062317, -0.011169815436005592, -0.039035193622112274, 0.021117305383086205, -0.0028848503716289997, -0.1637343317270279, 0.0005272249691188335, 0.08359307050704956, 0.043077751994132996, -0.25335368514060974, -0.10528707504272461, 0.025426581501960754, -0.050095707178115845, -0.018566900864243507, 0.038072969764471054, -0.052638016641139984, 0.0237885694950819, 0.052898671478033066, 0.015648990869522095, -0.06306169927120209, -0.03482808917760849], [-0.022804494947195053, 0.048619672656059265, 0.07682517915964127, 0.06526700407266617, 0.07645414769649506, -0.013654322363436222, 0.012928077019751072, -0.012634629383683205, -0.1268787831068039, 0.08531755208969116, -0.04425520449876785, -0.01855914667248726, -0.031219089403748512, -0.10342845320701599, -0.008566249161958694, -0.06790336966514587, -0.06667733192443848, 0.00926914718002081, -0.05994746461510658, -0.07249768823385239, -0.07285438477993011, 0.07765647768974304, 0.20622950792312622, -0.013224586844444275, 0.04453088715672493, 0.011362539604306221, 0.16739380359649658, -0.00016407016664743423, 0.005225892644375563, -0.008331122808158398, -0.0692412257194519, 0.00809348002076149], [0.0017426664708182216, 0.023804066702723503, -0.05810588225722313, 0.035606298595666885, -0.1493583470582962, -0.0045268237590789795, -0.05844028666615486, -0.09112688899040222, -0.06530247628688812, 0.047247983515262604, 0.0496966689825058, 0.05138048529624939, 0.03140641003847122, -0.05600082501769066, -0.014833764173090458, -0.00733690382912755, 0.010637819766998291, -0.018280882388353348, -0.017820443958044052, -0.04791419208049774, -0.12146937102079391, -0.1575241982936859, 0.25934192538261414, -0.008054167032241821, 0.10716807842254639, 0.01917891576886177, -0.0866101011633873, -0.027929440140724182, -0.019993647933006287, 0.010221126489341259, -0.06268148869276047, -0.01521261502057314], [0.035736676305532455, -0.2034507840871811, -0.013041583821177483, 0.09150887280702591, -0.15401123464107513, 0.0042869956232607365, -0.04708490148186684, -0.024485396221280098, 0.08792519569396973, 0.07367410510778427, -0.013340264558792114, -0.03495669737458229, 0.17083010077476501, 0.07009468227624893, 0.05610557273030281, -0.060897767543792725, 0.05460028350353241, 0.010019702836871147, -0.051877640187740326, 0.013989965431392193, 0.03434165567159653, 0.0010103791719302535, 0.20564095675945282, 0.08107665181159973, 0.22509831190109253, 0.0024812105111777782, -0.06281670182943344, -0.015490862540900707, 0.024074219167232513, -0.03892229124903679, 0.06766016036272049, 0.0008789973799139261], [0.052185311913490295, -0.2596774399280548, 0.29337358474731445, 0.025891367346048355, 0.2771245539188385, -0.02830909937620163, -0.10221100598573685, 0.06300663948059082, -0.5494288802146912, -0.0714215487241745, -0.216868594288826, -0.0683961883187294, -0.06969239562749863, -0.45240727066993713, -0.17629310488700867, -0.10010567307472229, -0.10132166743278503, -0.06740307807922363, 0.37229782342910767, -0.04742045700550079, -0.5511487722396851, 0.15586216747760773, -0.016348255798220634, -0.3423067033290863, 0.01663310080766678, 0.20191694796085358, 0.20163950324058533, -0.12287070602178574, 0.023670658469200134, -0.0380629226565361, -0.12754032015800476, -0.0416257306933403], [-0.014940429478883743, -0.08650809526443481, -0.03759075701236725, 0.04209044575691223, -0.08874993771314621, 0.005647444166243076, -0.12446397542953491, -0.028022438287734985, 0.0005677365115843713, 0.05096130818128586, 0.05550754815340042, 0.07002094388008118, 0.04452342540025711, 0.04666424170136452, -0.01762613281607628, -0.13165704905986786, 0.03416447713971138, 0.05773830786347389, 0.06706541776657104, -0.0320611447095871, 0.04659119248390198, -0.059166520833969116, 0.19338318705558777, -0.0023442020174115896, 0.0821988508105278, -0.026804685592651367, -0.09939508885145187, 0.02229991741478443, 0.016137419268488884, -0.048509493470191956, -0.03010355494916439, -0.0036228173412382603], [0.03843405842781067, 0.011971089988946915, -0.062420304864645004, -0.02436620369553566, -0.025727536529302597, 0.020349955186247826, 0.07745432108640671, -0.009167677722871304, 0.25099945068359375, -0.0756053626537323, 0.0897957906126976, -0.020588599145412445, -0.004505675286054611, 0.11058905720710754, 0.12006880342960358, 0.011009818874299526, -0.015656905248761177, 0.018150046467781067, -0.09821492433547974, 0.02758275531232357, -0.0025716014206409454, 0.03915609419345856, 0.0026971250772476196, 0.010211898013949394, -0.035503730177879333, 0.012655303813517094, -0.011375990696251392, -0.015292800962924957, 0.03694333881139755, -0.008913518860936165, -0.039025112986564636, 0.00015678475028835237], [-0.015264266170561314, 0.15625761449337006, 0.18535034358501434, 0.13877420127391815, -0.04058343544602394, 0.007966111414134502, 0.08391207456588745, -0.08162198215723038, -0.4384911358356476, 0.04954709857702255, -0.12429431825876236, 0.06359156966209412, -0.21714156866073608, -0.4032112956047058, -0.14296004176139832, 0.1356518417596817, -0.020237699151039124, 0.09964284300804138, 0.1637496054172516, -0.10073082894086838, -0.2722795605659485, 0.0423368364572525, 0.5338866710662842, -0.3276291787624359, 0.20065772533416748, -0.015961460769176483, 0.0682799220085144, -0.22572705149650574, 0.1367567628622055, 0.11972402781248093, -0.10546371340751648, 0.05228860676288605], [-0.05591103807091713, 0.044159695506095886, 0.08598493784666061, 0.07521449774503708, -0.0767480880022049, -0.01694703847169876, -0.010347976349294186, -0.048134464770555496, -0.12838685512542725, 0.14026981592178345, -0.11864598095417023, 0.06213388219475746, -0.06298542767763138, -0.11952651292085648, -0.08932964503765106, -0.0457625687122345, 0.06726081669330597, 0.02458360232412815, 0.13558103144168854, -0.03698800876736641, -0.32430246472358704, -0.055798813700675964, 0.15687981247901917, -0.25194111466407776, -0.02532094158232212, -0.1304943859577179, 0.0024008341133594513, -0.05517891049385071, -0.011802121996879578, 0.08808694779872894, 0.017493905499577522, -0.04045046493411064], [0.0072136688977479935, -0.08618826419115067, -0.03967650234699249, 0.09242555499076843, -0.14643706381320953, -0.023126672953367233, -0.1932467371225357, -0.20008288323879242, -0.03902827203273773, 0.08105579763650894, -0.029585594311356544, 0.03837636113166809, 0.08224146068096161, -0.05391542613506317, -0.037715647369623184, -0.18125443160533905, -0.007978405803442001, 0.06443778425455093, 0.0983748808503151, -0.009583082981407642, -0.1032719686627388, -0.20558854937553406, 0.18498842418193817, -0.055845364928245544, 0.016851482912898064, -0.027521515265107155, -0.08029092848300934, -0.08642910420894623, -0.043785203248262405, 0.024515820667147636, -0.07718503475189209, -0.0039961617439985275], [0.019434716552495956, -0.14828409254550934, 0.08405408263206482, 0.07550197094678879, -0.14362064003944397, -0.07588912546634674, 0.008821633644402027, 0.021327367052435875, -0.1308269500732422, 0.06727749854326248, -0.10389954596757889, 0.029299510642886162, 0.07856642454862595, -0.08172343671321869, -0.026070013642311096, 0.022188492119312286, -0.005538065452128649, 0.011368192732334137, 0.06295216083526611, -0.050324566662311554, -0.05410918593406677, 0.005434914957731962, 0.30695849657058716, -0.015230418182909489, 0.11449331045150757, -0.11553698033094406, -0.005294119939208031, -0.024333523586392403, -0.0552789531648159, -0.0596400611102581, 0.005739692598581314, -0.021498192101716995], [0.03287127986550331, -0.008894502185285091, -0.11857669055461884, -0.04285626858472824, -0.028939390555024147, -0.015796136111021042, -0.004808415193110704, -0.027108721435070038, 0.13444669544696808, -0.031173940747976303, 0.15117816627025604, 0.13180594146251678, 0.0433710478246212, 0.12160611152648926, 0.07070600241422653, -0.037767194211483, 0.0171945970505476, -0.03746079280972481, 0.024774687364697456, 0.004347383975982666, -0.051262445747852325, -0.01037152111530304, -0.06707732379436493, -0.0730888694524765, 0.04195662587881088, 0.002708698622882366, -0.000514546234626323, 0.08890341967344284, 0.03264157846570015, 0.00889497622847557, 0.017984863370656967, 0.02101976051926613], [0.02072165533900261, 0.030522583052515984, -0.0446743480861187, -0.04993757605552673, -0.14459088444709778, 0.10456182062625885, 0.05170002579689026, 0.0221931841224432, 0.15166790783405304, -0.06965145468711853, 0.005197206977754831, -0.10383754968643188, 0.11028037965297699, 0.12639561295509338, 0.23664771020412445, 0.027237368747591972, -0.04774100333452225, -0.09366443753242493, -0.08223886787891388, -0.061471112072467804, 0.09107889235019684, 0.07191576808691025, 0.11876913905143738, 0.114497110247612, 0.10293860733509064, -0.020690230652689934, -0.12422888725996017, -0.007411872502416372, -0.03821258246898651, -0.07897461205720901, -0.11658045649528503, 0.02465207874774933], [0.2775491178035736, 0.14296065270900726, -0.03475014865398407, -0.08751848340034485, 0.09843185544013977, -0.19907259941101074, -8.003875677786709e-07, 0.06053585559129715, -0.1959943026304245, 0.08524879813194275, 0.11865110695362091, 0.011210650205612183, 0.18041086196899414, -0.06588993221521378, 0.06797171384096146, -0.2412344515323639, 0.16724295914173126, 0.11756809055805206, 0.17668044567108154, 0.10552395135164261, -0.03093891218304634, 0.12202384322881699, 0.027380431070923805, -0.13898468017578125, 0.042057979851961136, -0.153505340218544, 0.02176787704229355, -0.041994642466306686, 0.022520745173096657, -0.0007066745893098414, 0.17768540978431702, 0.011750772595405579], [-0.039732467383146286, 0.042691271752119064, -0.011660141870379448, 0.02774902433156967, -0.14700822532176971, 0.004061663988977671, 0.08547689765691757, 0.03183691203594208, -0.5048196315765381, 0.03728899732232094, -0.34983929991722107, 0.11262249946594238, -0.11533796787261963, -0.34272709488868713, -0.01626030169427395, 0.18433737754821777, -0.261981725692749, 0.24935030937194824, 0.42414188385009766, -0.05332697182893753, -0.1218070536851883, -0.10858634859323502, 0.2101411670446396, -0.4720411002635956, -0.09088863432407379, 0.054056525230407715, 0.07954111695289612, 0.00918637029826641, -0.07028654217720032, 0.06228033825755119, -0.13807430863380432, 0.06097732484340668], [0.035008326172828674, -0.07661066949367523, -0.03249293938279152, -0.0012783898273482919, -0.02587285451591015, -0.016117168590426445, 0.023855239152908325, 0.013347214087843895, 0.050526004284620285, 0.060820672661066055, -0.018898161128163338, -0.05074821040034294, 0.053422100841999054, 0.06265585124492645, 0.12013062834739685, -0.048683494329452515, 0.03580483794212341, 0.03465161472558975, 0.017988618463277817, -0.02045905590057373, -0.026118002831935883, -0.007512545678764582, 0.00996710080653429, 0.031051846221089363, 0.028883179649710655, -0.0028772109653800726, 0.0008523220312781632, -0.03663920983672142, 0.049756720662117004, 0.02209305204451084, -0.0004954632604494691, 0.020012205466628075], [0.09103000164031982, 0.06170603632926941, 0.07918981462717056, 0.0716681107878685, -0.007396710570901632, -0.0643182024359703, 0.0726546198129654, -0.13555021584033966, -0.141737699508667, -0.017917700111865997, -0.051613710820674896, -0.06959633529186249, 0.12748590111732483, -0.1449652761220932, -0.07522546499967575, -0.032939862459897995, 0.1326495110988617, 0.08200941234827042, -0.05874394625425339, -0.07394236326217651, -0.1497478187084198, -0.006889198906719685, 0.16247346997261047, -0.06232110410928726, 0.08728235214948654, 0.05825359746813774, 0.25989049673080444, -0.014519496820867062, 0.05365605652332306, 0.008318660780787468, -0.007940004579722881, 0.015001694671809673], [-0.058372341096401215, 0.022249946370720863, -0.07371864467859268, 0.0479939840734005, -0.07752083241939545, -0.07782254368066788, 0.08769961446523666, -0.08617804944515228, 0.1543142944574356, -0.009224305860698223, 3.6396093491930515e-05, -0.1062246784567833, 0.07761124521493912, 0.14124080538749695, 0.10394001007080078, 0.03196641057729721, 0.0326232872903347, -0.07120218873023987, -0.12761171162128448, -0.02700602449476719, 0.13994067907333374, 0.015440902672708035, -0.017449377104640007, 0.17820951342582703, 0.06381014734506607, 0.029470406472682953, 0.031904999166727066, -0.012827304191887379, -0.010078610852360725, -0.032544273883104324, -0.038724277168512344, -0.0034476842265576124], [0.015293696895241737, 0.02400285005569458, 0.2974594533443451, 0.1241021379828453, -0.043114982545375824, -0.007525748573243618, -0.08425639569759369, -0.12020601332187653, -0.12573842704296112, -0.22900272905826569, -0.13319140672683716, 0.0025013694539666176, -0.22304946184158325, -0.19792771339416504, -0.19751878082752228, -0.05937832221388817, -0.1727634221315384, 0.15079402923583984, 0.21321938931941986, -0.10213708132505417, -0.03556660935282707, -0.041291818022727966, 0.04293886572122574, -0.038873184472322464, 0.17444705963134766, 0.01997574418783188, 0.016681814566254616, -0.09760867804288864, 0.06804735213518143, 0.03380223363637924, 0.039380308240652084, 0.02038256637752056], [-0.032404374331235886, -0.13008637726306915, 0.24936553835868835, 0.13120809197425842, 0.06986740231513977, 0.0019070693524554372, -0.0002886430884245783, -0.0353364534676075, -0.4090254604816437, 0.09363637119531631, -0.07377468049526215, -0.03568369895219803, -0.037784475833177567, -0.31322747468948364, -0.1191575825214386, -0.077185720205307, -0.10472407937049866, 0.0544327013194561, 0.16742199659347534, -0.0392804853618145, -0.32283541560173035, -0.1563451588153839, 0.18616072833538055, -0.12914703786373138, 0.08158787339925766, 0.11385653913021088, 0.06771101802587509, -0.05383451655507088, 0.05929955840110779, -0.017249228432774544, -0.21776972711086273, -0.05010395869612694], [-0.006351867690682411, -0.004898909945040941, 0.03494816645979881, -0.09132019430398941, -0.06250748783349991, 0.1509668529033661, 0.12671883404254913, 0.15676502883434296, -0.13058693706989288, -0.2087109237909317, 0.03442443534731865, 0.07204379886388779, -0.19475984573364258, -0.06465716660022736, -0.06855794787406921, 0.022572727873921394, -0.04410821571946144, 0.02709812857210636, 0.12061131000518799, 0.01333298534154892, 0.008943016640841961, 0.04116178676486015, 0.4872613847255707, 0.026098068803548813, -0.025080563500523567, -0.09036847203969955, -0.3633742332458496, -0.15107667446136475, -0.02370435744524002, -0.04059299826622009, -0.05110318958759308, -0.021034663543105125], [-0.14720186591148376, 0.00032527020084671676, 0.10027873516082764, -0.010720533318817616, 0.08009781688451767, -0.05683427304029465, -0.015360536053776741, 0.030955558642745018, -0.0607483871281147, -0.09139540791511536, -0.15902556478977203, 0.07656901329755783, 0.06185559928417206, -0.09995026886463165, 0.1187758594751358, 0.028106054291129112, -0.043608952313661575, -0.08882483094930649, 0.1223960816860199, -0.05857836455106735, -0.02176135964691639, -0.029591796919703484, 0.06719507277011871, 0.06943631172180176, -0.031904786825180054, 0.08393361419439316, 0.1070423424243927, 0.029139572754502296, -0.04109593480825424, -0.004906775429844856, -0.07931425422430038, 0.0008536063251085579], [-0.12393282353878021, 0.18654409050941467, 0.19820302724838257, -0.009659039787948132, -0.03984202817082405, 0.009138308465480804, -0.1450607180595398, -0.1673991084098816, -0.30351346731185913, 0.05708982050418854, -0.027073407545685768, 0.22591747343540192, -0.04742547124624252, -0.25085148215293884, -0.01667972281575203, 0.09229704737663269, -0.1664489209651947, 0.10190246999263763, 0.12731137871742249, -0.054791055619716644, -0.2708790898323059, -0.08326706290245056, 0.20253467559814453, -0.22300925850868225, 0.009715531952679157, -0.08315448462963104, 0.06275748461484909, -0.014258213341236115, -0.0192937683314085, 0.059870366007089615, -0.10437426716089249, 0.012361302971839905], [-0.08099037408828735, -0.010381780564785004, -0.04463246092200279, -0.008855319581925869, -0.0340644009411335, 0.00661072414368391, -0.10472211241722107, 0.04067350924015045, -0.05499936640262604, 0.15126793086528778, -0.0057187932543456554, 0.005610004998743534, -0.07039499282836914, -0.009174946695566177, -0.13405084609985352, 0.08927170187234879, 0.06823331862688065, -0.016306636855006218, 0.04441899061203003, 0.03586128354072571, 0.19191473722457886, -0.10588989406824112, -0.0028500817716121674, -0.07274436950683594, -0.13185177743434906, -0.04952876642346382, -0.13863366842269897, -0.04730606451630592, -0.04839203134179115, 0.008192946203052998, 0.013982711359858513, -0.024005433544516563], [0.043886490166187286, -0.2741856276988983, 0.07962904125452042, 0.15259966254234314, 0.06268167495727539, -0.26429709792137146, 0.014727534726262093, 0.03132431581616402, -0.2241867035627365, 0.22947783768177032, -0.04462625831365585, 0.09984355419874191, 0.34391552209854126, -0.09090537577867508, -0.1515822559595108, 0.03479909151792526, -0.0673355981707573, 0.09930552542209625, -0.057387575507164, -0.1426771730184555, -0.0976267158985138, -0.02018856257200241, 0.4286164939403534, -0.13823916018009186, 0.24846719205379486, -0.014986785128712654, -0.009095568209886551, 0.09637757390737534, 0.04290227219462395, -0.05679579824209213, 0.04863449186086655, 0.029122482985258102], [-0.016602806746959686, 0.05051100254058838, 0.10761400312185287, 0.06664364039897919, 0.044467370957136154, -0.0346820205450058, -0.22368212044239044, -0.04943075776100159, -0.20579054951667786, 0.2869088649749756, -0.05283965915441513, -0.12540526688098907, -0.05793578177690506, -0.1940240114927292, -0.14809753000736237, 0.031119152903556824, -0.04894295707345009, 0.040821660310029984, 0.0579216331243515, -0.08761733770370483, 0.14318548142910004, -0.18133853375911713, 0.03676418960094452, -0.047045134007930756, -0.16046805679798126, -0.012520896270871162, 0.031598106026649475, -0.17883333563804626, -0.0249544158577919, 0.05442936718463898, -0.16844706237316132, 0.03326929360628128], [-0.04914752021431923, -0.059124793857336044, 0.038543280214071274, 0.06151794642210007, -0.0007248616893775761, 0.04041446000337601, -0.03808675333857536, -0.04683123156428337, -0.1276356726884842, 0.13100828230381012, -0.060754068195819855, -0.02374386228621006, -0.049352504312992096, -0.10993152111768723, -0.050446294248104095, -0.009220657870173454, -0.05072474479675293, 0.09032163769006729, 0.06777533143758774, -0.08301345258951187, 0.2215389907360077, -0.10269499570131302, 0.010149847716093063, -0.0585484504699707, -0.0829167440533638, 0.009583923034369946, -0.01042371429502964, -0.050057437270879745, 0.03956083208322525, 0.06324800103902817, -0.06409990787506104, 0.020345821976661682], [0.01073436252772808, 0.002563145477324724, 0.20055893063545227, 0.0068039679899811745, 0.15284603834152222, 0.0408836305141449, -0.04513080418109894, 0.0366051085293293, -0.46194988489151, 0.09374365210533142, -0.025096360594034195, -0.022590087726712227, 0.006949485745280981, -0.2496032863855362, 0.05180155858397484, -0.005658538546413183, -0.044786546379327774, 0.0035513381008058786, 0.25030040740966797, 0.0042900159023702145, -0.014307303354144096, 0.03298870474100113, 0.04899383336305618, -0.2558780610561371, 0.022470034658908844, 0.08323989063501358, 0.006318366155028343, -0.00030610262183472514, 0.07204453647136688, -0.061458032578229904, -0.03421454876661301, -0.001466686138883233], [-0.03995462879538536, 0.010177169926464558, 0.018232129514217377, 0.04568980261683464, -0.08334367722272873, 0.06520003080368042, -0.0630299374461174, -0.05595392733812332, -0.10191124677658081, 0.019434038549661636, -0.03342226892709732, 0.07654969394207001, -0.012216012924909592, -0.09033513814210892, -0.19360463321208954, -0.003049903316423297, -0.05148285627365112, -0.02320875972509384, -0.004089022055268288, 0.05332126468420029, -0.24537749588489532, -0.07362890988588333, 0.12340155243873596, -0.08091606199741364, -0.05851440131664276, 0.03259044513106346, -0.02345692738890648, 0.002485548844560981, -0.019070621579885483, 0.014518565498292446, -0.11106709390878677, -0.019332583993673325], [-0.014611170627176762, 0.03984605893492699, -0.0278027281165123, 0.0008993889787234366, -0.009078200906515121, 0.012890136800706387, 0.03161978721618652, 0.010397412814199924, 0.03160087391734123, 0.019376611337065697, 0.02993285097181797, -0.019094198942184448, 0.01408170536160469, 0.03656747192144394, 0.04644640162587166, 0.009880781173706055, 0.03426329419016838, 0.014836465939879417, -0.054172858595848083, -0.018628926947712898, 0.045966532081365585, -0.010450699366629124, -0.0003486252389848232, 0.04426312446594238, -0.005439170636236668, 0.016883473843336105, 0.014871472492814064, 0.00926318857818842, 0.010309849865734577, -0.011942336335778236, -0.0319528728723526, 0.008532346226274967], [0.05457357317209244, 0.08940857648849487, -0.09224536269903183, -0.07641708850860596, 0.03605421259999275, -0.07463143020868301, 0.057927895337343216, 0.07652463763952255, 0.3229617476463318, -0.025094810873270035, 0.08827177435159683, -0.026452843099832535, 0.096369668841362, 0.19592560827732086, 0.17083773016929626, 0.12445305287837982, 0.0704546645283699, 0.009419864043593407, -0.1042306050658226, -0.04117521643638611, 0.09764068573713303, 0.0838489979505539, -0.06459556519985199, 0.1016753762960434, 0.029966989532113075, 0.049688227474689484, 0.036559659987688065, -0.053696438670158386, 0.03641657903790474, -0.021331364288926125, -0.03303508833050728, 0.03285806253552437], [-0.018479663878679276, -0.0392112173140049, -0.21480993926525116, -0.025309167802333832, -0.09744583815336227, -0.01118366327136755, -0.0958494171500206, 0.04956218600273132, 0.5273304581642151, 0.1754133254289627, 0.1420694887638092, 0.012625100091099739, 0.00991816632449627, 0.3106793165206909, -0.007760829757899046, 0.014937140978872776, 0.04591558873653412, 0.017092129215598106, -0.26886773109436035, -0.00293677463196218, 0.30334562063217163, -0.09281130135059357, -0.10849160701036453, 0.3228660821914673, 0.1100558340549469, 0.06997799873352051, 0.031770408153533936, 0.01805056445300579, -0.003813275368884206, -0.03569374606013298, -0.04331180825829506, 0.009306452237069607], [-0.016755077987909317, -0.02169235236942768, -0.14798203110694885, 0.00970209389925003, -0.07565142214298248, 0.08204074203968048, -0.0869479849934578, -0.025999531149864197, 0.1966068297624588, 0.05237089842557907, 0.21880148351192474, -0.018735060468316078, -0.00035797953023575246, 0.1779373735189438, 0.09228972345590591, 0.006152309477329254, -0.1307089924812317, 0.0032355240546166897, -0.012668229639530182, 0.07031399756669998, -0.12316006422042847, -0.08256467431783676, -0.01472729817032814, 0.07023601233959198, -0.03294225409626961, 0.07209328562021255, -0.0726432278752327, 0.006745212711393833, 0.06290917843580246, 0.011092624627053738, -0.08306244015693665, -0.03218177706003189], [-0.021458229050040245, 0.07847022265195847, 0.010533123277127743, 0.05295517295598984, 0.08029399812221527, 0.008055233396589756, 0.0736832544207573, -0.03127007558941841, 0.10524902492761612, 0.12025287002325058, -0.07728195935487747, -0.09922551363706589, -0.016755443066358566, 0.030230296775698662, 0.12479547411203384, -0.014975463971495628, -0.03843200206756592, -0.00800736527889967, -0.03742425888776779, 0.004756133537739515, 0.006686271633952856, 0.09928792715072632, -0.0021138617303222418, 0.13821101188659668, 0.09303837269544601, 0.012766627594828606, 0.13653583824634552, -0.02478051371872425, 0.017138976603746414, -0.00028373757959343493, 0.011836347170174122, -2.7232279535382986e-05], [-0.01634198985993862, -0.021291593089699745, -0.28245729207992554, 0.059838321059942245, -0.2725450396537781, 0.11317002028226852, 0.029136892408132553, -0.006455230992287397, 0.3983301818370819, 0.1074332445859909, 0.24744538962841034, -0.043483916670084, -0.012584888376295567, 0.32482874393463135, 0.1296909749507904, 0.02177981100976467, 0.11347626894712448, 0.02391906827688217, -0.27707868814468384, 0.07075412571430206, 0.16672100126743317, -0.10212184488773346, -0.0037341504357755184, 0.23559507727622986, 0.22772571444511414, 0.05370502173900604, -0.007987222634255886, 0.025545265525579453, -0.03628481179475784, -0.03973221406340599, -0.03995201736688614, -0.022617017850279808], [-0.0434802770614624, -0.039004478603601456, -0.11684982478618622, 0.06641045957803726, -0.0813533142209053, 0.12979231774806976, 0.030291186645627022, 0.10353175550699234, 0.2502979636192322, 0.10017089545726776, 0.020427970215678215, 0.07820127159357071, 0.18472039699554443, 0.19264085590839386, 0.26545289158821106, -0.03897771239280701, -0.01147671788930893, 0.01517174020409584, -0.13184373080730438, -0.013713345862925053, 0.14718729257583618, 0.06676910817623138, -0.05092988535761833, 0.1627844274044037, 0.1370393931865692, 0.0016863298369571567, 0.200089693069458, 0.07460997998714447, -0.04154976084828377, -0.041086576879024506, 0.0008159967255778611, -0.015424278564751148], [-0.03848346322774887, 0.04037007689476013, -0.410675048828125, -0.042234864085912704, -0.19583745300769806, 0.08047686517238617, 0.2939940094947815, 0.007313982583582401, 0.8909637928009033, -0.05260924622416496, 0.32396796345710754, -0.06271898001432419, -0.10034110397100449, 0.5959419012069702, 0.20142684876918793, -0.1312359869480133, 0.029757829383015633, -0.006154877599328756, -0.5748690366744995, 0.09171725809574127, 0.6142247319221497, 0.023123594000935555, -0.304117888212204, 0.6454993486404419, -0.0979805663228035, 0.05881302058696747, 0.13040798902511597, -0.0064866612665355206, -0.09757582098245621, 0.07671698927879333, -0.23730601370334625, -0.012461969628930092], [-0.088672935962677, -0.07057800143957138, -0.12954315543174744, 0.03762024641036987, -0.10047316551208496, 0.10075509548187256, -0.030489496886730194, -0.0015087106730788946, 0.29581183195114136, 0.04478193074464798, 0.06407332420349121, 0.02343735657632351, 0.010697178542613983, 0.22205926477909088, 0.08645584434270859, -0.020695935934782028, -0.0028542769141495228, -0.03368793800473213, -0.0590042844414711, -0.013890998438000679, 0.20111675560474396, -0.030516836792230606, -0.021113188937306404, 0.20517395436763763, 0.09049183875322342, 0.05076630413532257, -0.10747858136892319, 0.07473662495613098, 0.011519617401063442, -0.05874258652329445, -0.07775206118822098, 0.002232170198112726], [0.083137646317482, -0.0321819894015789, -0.13081133365631104, -0.04356588050723076, -0.0162437055259943, 0.058231618255376816, 0.1397935301065445, -0.03255347162485123, 0.3348630964756012, -0.17121672630310059, 0.2103351503610611, -0.027065536007285118, -0.008334287442266941, 0.218898743391037, 0.21012188494205475, 0.020240651443600655, -0.009874645620584488, 0.03315894305706024, -0.19205015897750854, 0.031263601034879684, 0.0010657046223059297, 0.08855314552783966, -0.006791777443140745, 0.035902317613363266, -0.10160446912050247, 0.05756819248199463, -0.038770951330661774, -0.03049328178167343, 0.12672416865825653, -0.001954364590346813, -0.10162004828453064, 0.009678729809820652], [-0.029971830546855927, 0.15137945115566254, -0.33905425667762756, 0.0505354106426239, -0.10821209847927094, 0.09742294251918793, 0.15459038317203522, -0.02859148569405079, 0.8285807371139526, 0.17742295563220978, 0.19210320711135864, 0.010766123421490192, -0.0655585303902626, 0.5239320993423462, 0.1541287899017334, 0.06424232572317123, 0.06101319566369057, 0.0781405121088028, -0.39555442333221436, 0.02467031031847, 0.25101491808891296, 0.08532771468162537, -0.16155511140823364, 0.3364991545677185, 0.18244658410549164, -0.02439425326883793, 0.20288270711898804, -0.09464897960424423, 0.07000403106212616, 0.11983054131269455, -0.11407647281885147, 0.028551092371344566], [-0.015212326310575008, -0.05484425649046898, -0.010925931856036186, 0.060815803706645966, 0.06670315563678741, 0.06336086988449097, 0.017773527652025223, 0.048784252256155014, 0.3515263497829437, 0.13755030930042267, -0.03191782534122467, -0.15102362632751465, -0.04540521278977394, 0.2841120958328247, 0.08270300924777985, -0.013607559725642204, 0.2082969844341278, -0.05954217165708542, -0.062467120587825775, 0.02093169093132019, -0.10966399312019348, 0.026740653440356255, 0.043947480618953705, 0.08417631685733795, 0.14582118391990662, 0.1420251727104187, -0.11017607152462006, -0.05572891607880592, 0.10451801866292953, -0.037159521132707596, 0.10005167871713638, -0.047772739082574844], [-0.0870203822851181, 0.007383384276181459, -0.21212899684906006, 0.08043501526117325, -0.13631671667099, 0.07391227781772614, -0.10552280396223068, -0.1486397385597229, 0.4235863983631134, 0.07932116091251373, 0.11337743699550629, 0.069575235247612, 0.119068942964077, 0.2902684807777405, 0.15673117339611053, -0.042913421988487244, 0.051761604845523834, 0.021918732672929764, -0.16082800924777985, -0.005374875385314226, 0.1525575965642929, -0.038460440933704376, -0.034644026309251785, 0.15710818767547607, 0.09452179074287415, 0.04471142590045929, -0.005093866493552923, -0.10186512768268585, -0.07586024701595306, -0.02418554574251175, -0.12813717126846313, 0.011153067462146282], [-0.006992705632001162, -0.14924433827400208, -0.11050840467214584, 0.06328936666250229, -0.17290395498275757, 0.08814726024866104, 0.0535343736410141, 0.02155153825879097, 0.4136192798614502, -0.08117416501045227, 0.06085849925875664, -0.02895367331802845, 0.10672151297330856, 0.2990513741970062, 0.10271432250738144, -0.028728626668453217, 0.10601292550563812, 0.03401995450258255, -0.11437179148197174, 0.04700204357504845, 0.114322729408741, 0.042025722563266754, -0.16243663430213928, 0.23187969624996185, 0.098493292927742, 0.06805947422981262, 0.04299324005842209, 0.015154978260397911, -0.003273811424151063, -0.027360528707504272, -0.06753314286470413, -0.02142975479364395], [0.041018422693014145, -0.01090996153652668, -0.17857712507247925, -0.07034569978713989, -0.05545515567064285, 0.0013895994052290916, -0.013323884457349777, -0.031053900718688965, 0.235393688082695, -0.009869086556136608, 0.2084716260433197, 0.16770470142364502, 0.053569938987493515, 0.21586427092552185, 0.09864187985658646, -0.03592221438884735, 0.04238582029938698, -0.04720635339617729, -0.025568529963493347, 0.027667317539453506, 0.0007570112938992679, -0.02789766900241375, -0.11043376475572586, -0.025376148521900177, 0.0557992123067379, 0.021705059334635735, -0.011559423059225082, 0.13426107168197632, 0.05468040332198143, 0.009578784927725792, 0.03062198869884014, 0.030545050278306007], [0.04862634092569351, 0.022031882777810097, -0.12543447315692902, -0.06524638831615448, -0.13822123408317566, 0.3454449474811554, 0.06908528506755829, 0.07537664473056793, 0.21221433579921722, 0.10492580384016037, 0.04554228484630585, -0.20031686127185822, 0.19401857256889343, 0.17727448046207428, 0.5377818942070007, 0.02941996045410633, -0.1926395446062088, -0.054784294217824936, 0.037909939885139465, -0.0030517252162098885, 0.13392305374145508, 0.13301101326942444, -0.12553298473358154, 0.13460978865623474, 0.15483129024505615, -0.013301493600010872, -0.08186697959899902, 0.032133858650922775, 0.010492224246263504, -0.08233961462974548, -0.09377226233482361, 0.06051594018936157], [0.19409021735191345, 0.10788527876138687, -0.08851125091314316, -0.03970455378293991, 0.07397232949733734, -0.16717104613780975, 0.19704662263393402, -0.009476032108068466, 0.15693622827529907, 0.023878317326307297, 0.08562461286783218, 0.09365832060575485, 0.17979276180267334, 0.15999393165111542, 0.17922182381153107, -0.2977370321750641, 0.17981451749801636, 0.06557050347328186, -0.02215724065899849, 0.08770988881587982, -0.00472863856703043, 0.2538484036922455, 0.006399857811629772, -0.045091770589351654, 0.14416611194610596, -0.11986274272203445, 0.10208772867918015, -0.04064332693815231, 0.02869931049644947, -0.01462977472692728, 0.10447117686271667, 0.025402352213859558], [-0.13431107997894287, -0.07517305016517639, -0.4580667316913605, -0.11243592947721481, -0.30484795570373535, 0.08792603760957718, -0.2974795699119568, 0.06383594870567322, 0.5256891250610352, 0.18259873986244202, 0.24624377489089966, 0.02423902601003647, 0.11291030049324036, 0.5012391209602356, 0.30460232496261597, 0.19493958353996277, 0.4515545964241028, -0.043781790882349014, -0.17484672367572784, 0.22999684512615204, 0.3154335916042328, -0.15731653571128845, -0.3980448544025421, 0.5044357180595398, -0.08970408141613007, -0.0707705095410347, -0.019380930811166763, 0.06005796790122986, -0.2600975036621094, 0.04912063479423523, -0.14357230067253113, 0.0428130142390728], [0.07476773113012314, 0.0014113161014392972, -0.030438683927059174, -0.05391833558678627, 0.07893145084381104, -0.01038854569196701, 0.07785039395093918, 0.05411246046423912, 0.21972288191318512, 0.049331504851579666, -0.05424058064818382, -0.03680777549743652, 0.03627118095755577, 0.11788717657327652, 0.14341214299201965, -0.09600464999675751, 0.054010502994060516, 0.04591119661927223, -0.043888818472623825, -0.024855898693203926, 0.035488493740558624, 0.07704344391822815, -0.012769395485520363, 0.07554564625024796, -0.0037021939642727375, -0.021792883053421974, 0.10344437509775162, -0.036962054669857025, 0.04198993369936943, 0.030173687264323235, 0.044190771877765656, 0.017920460551977158], [0.12481837719678879, 0.015489856712520123, -0.18152593076229095, 0.11233747005462646, -0.19802351295948029, 0.059598155319690704, 0.1480294018983841, -0.14376384019851685, 0.28529781103134155, -0.056261468678712845, 0.20319223403930664, -0.09938216954469681, 0.11945753544569016, 0.18437349796295166, 0.02588282711803913, -0.06271564960479736, 0.3316424489021301, 0.08029243350028992, -0.15659675002098083, 0.14780762791633606, 0.10717832297086716, 0.07692074775695801, 0.12828512489795685, 0.17013242840766907, 0.08513329923152924, 0.059770967811346054, 0.2848176062107086, -0.061055731028318405, 0.09069561958312988, 0.0008506125886924565, -0.0397886261343956, -0.014594277366995811], [-0.012129236944019794, -0.060927968472242355, -0.08033210784196854, 0.1562924087047577, -0.20088239014148712, -0.03952109441161156, 0.08170533925294876, -0.13105706870555878, 0.13112731277942657, 0.1000908762216568, 0.00672145327553153, -0.1728162318468094, 0.1315966695547104, 0.0974629670381546, 0.0931132584810257, 0.0033377669751644135, -0.0143058430403471, -0.03711089491844177, -0.01975196972489357, 0.11950724571943283, 0.1017342135310173, 0.07759206742048264, -0.05900704860687256, 0.1274617314338684, 0.08697596937417984, -0.0030345511622726917, -0.0029662868473678827, -0.07745284587144852, 0.014579743146896362, -0.02409878931939602, -0.029668981209397316, -0.032053086906671524], [-0.050271350890398026, 0.042398061603307724, -0.5203606486320496, 0.08752796053886414, -0.27577346563339233, 0.0040351771749556065, -0.18794067203998566, -0.01054199319332838, 0.677653431892395, -0.09730999916791916, 0.5337474942207336, -0.047103893011808395, -0.0871322900056839, 0.5669846534729004, 0.2751939594745636, 0.10546406358480453, 0.17262113094329834, 0.11260966956615448, -0.39973869919776917, 0.3077844977378845, 0.440679132938385, 0.04295812547206879, -0.15691888332366943, 0.5269007682800293, 0.0980733260512352, 0.08157586306333542, 0.12203370034694672, -0.04519844427704811, 0.022556060925126076, -0.0768873542547226, -0.29789382219314575, 0.09569263458251953], [-0.030507655814290047, 0.11488160490989685, -0.12510819733142853, -0.06265795230865479, -0.013293478637933731, 0.09149619191884995, 0.2609572410583496, 0.06470495462417603, 0.4000185430049896, 0.027268897742033005, 0.07581855356693268, -0.06205377355217934, -0.042892079800367355, 0.3312719166278839, 0.10620347410440445, 0.057487230747938156, 0.09352488815784454, 0.03433153033256531, -0.2431993931531906, -0.014069263823330402, 0.2703867554664612, 0.007353004068136215, -0.026367532089352608, 0.33500221371650696, -0.0666293054819107, 0.04756464809179306, 0.04390246421098709, 0.021592821925878525, -0.03238465636968613, -0.034662261605262756, -0.06671212613582611, -0.015325897373259068], [0.07685083150863647, 0.2175213098526001, -0.16191120445728302, -0.13659892976284027, -0.029729723930358887, 0.15329362452030182, 0.10175172984600067, 0.11413812637329102, 0.4320680499076843, -0.10280093550682068, 0.2639111578464508, 0.03777991607785225, -0.23545154929161072, 0.24670444428920746, 0.1135040670633316, 0.014629505574703217, 0.04529399424791336, 0.09017081558704376, -0.1926700472831726, 0.051040902733802795, 0.16489647328853607, 0.10116551071405411, 0.2949563264846802, 0.27165311574935913, 0.051698680967092514, 0.003896402893587947, 0.0064254263415932655, -0.10039792209863663, 0.051770586520433426, -0.013158394023776054, -0.06256517022848129, 0.034015119075775146], [-0.14040853083133698, -0.06191495433449745, 0.04553835093975067, -0.03379741311073303, 0.06169196963310242, -0.029332570731639862, 0.008864312432706356, 0.06889012455940247, 0.08283410966396332, -0.10227841138839722, -0.14543358981609344, 0.041888557374477386, 0.08819612115621567, -0.0034651949536055326, 0.19137759506702423, 0.046039775013923645, -0.04269663989543915, -0.1241503432393074, 0.10214786231517792, -0.012026767246425152, 0.09554093331098557, 0.0008885111892595887, -0.018202288076281548, 0.16402696073055267, -0.04975159838795662, 0.07071366161108017, 0.07141662389039993, -0.011755167506635189, -0.05887683853507042, 0.01253464724868536, -0.04494377598166466, -0.004114780109375715], [0.00037483411142602563, -0.027276376262307167, -0.3646756708621979, -0.1055832952260971, -0.19628188014030457, -0.07802975177764893, -0.11687985807657242, -0.031949419528245926, 0.4751232862472534, 0.021180013194680214, 0.44834432005882263, 0.018176931887865067, 0.17142291367053986, 0.4507153034210205, 0.19874219596385956, 0.07133455574512482, 0.05672530084848404, -0.05187508091330528, -0.43579617142677307, 0.11183924973011017, 0.3627079725265503, 0.09227561205625534, -0.07152567058801651, 0.35512155294418335, -0.028309347108006477, 0.02733505330979824, 0.07644358277320862, 0.04766061156988144, -0.0805799588561058, -0.027280200272798538, -0.07320325821638107, 0.027080191299319267], [-0.03363187983632088, -0.02962825819849968, -0.2428487092256546, -0.03607560694217682, -0.06951730698347092, -0.06814540922641754, 0.025613388046622276, 0.08130895346403122, 0.42530617117881775, 0.06064727529883385, 0.1940748393535614, 0.04454958066344261, 0.02616436965763569, 0.3626140356063843, -0.037077758461236954, 0.10038062185049057, 0.15438587963581085, -0.10417885333299637, -0.2005443572998047, 0.06106092035770416, 0.4710528254508972, 0.09019151329994202, -0.0779295414686203, 0.15769413113594055, -0.07415265589952469, -0.050008486956357956, -0.1156332939863205, -0.014773102477192879, -0.0793164074420929, -0.06173474341630936, 0.0464397557079792, -0.025408893823623657], [-0.07210908085107803, -0.005954043939709663, -0.14147330820560455, -0.18960070610046387, 0.011059947311878204, 0.10087168961763382, -0.008242586627602577, 0.12224731594324112, 0.34584808349609375, -0.008442352525889874, 0.09089260548353195, -0.003862818470224738, -0.03155149519443512, 0.2879638373851776, 0.10492753237485886, -0.012199834920465946, 0.16146603226661682, -0.03422931209206581, -0.03199402987957001, 0.06112472340464592, 0.20555733144283295, -0.06998904794454575, -0.07562913000583649, 0.3348439931869507, 0.1254313886165619, 0.04093123599886894, -0.28125450015068054, -0.022588444873690605, 0.018298642709851265, -0.028620200231671333, 0.005882408004254103, -0.014157645404338837], [-0.0211004801094532, 0.012236371636390686, -0.1260664463043213, 0.03377927839756012, -0.027506856247782707, -0.028620030730962753, -0.10925029218196869, 0.05570045858621597, 0.3394494652748108, 0.3394283652305603, 0.14628645777702332, -0.1520511955022812, 0.0443308986723423, 0.21958611905574799, 0.10405081510543823, 0.014048456214368343, 0.0006636301404796541, 0.014422482810914516, -0.10018131136894226, 0.02273694984614849, 0.4871908128261566, -0.040285833179950714, -0.09946372359991074, 0.22176353633403778, -0.054437924176454544, -0.02639804407954216, 0.02051500789821148, -0.20959369838237762, -0.07369410246610641, 0.0009567824308760464, -0.08466877788305283, 0.006588552612811327], [-0.047123681753873825, -0.07916570454835892, -0.046435367316007614, 0.0667693018913269, 0.04045725241303444, 0.0683215782046318, -0.03901379182934761, -0.02338232472538948, 0.24411964416503906, 0.17695540189743042, 0.04823358729481697, -0.05551709979772568, -0.06274572759866714, 0.1287163347005844, 0.017163366079330444, -0.01730877161026001, -0.04608333855867386, 0.11211339384317398, -0.04875563830137253, -0.0547342412173748, 0.3255685865879059, -0.0830470398068428, -0.06533101201057434, 0.09399014711380005, -0.0613350011408329, 0.03650536760687828, -0.04351357743144035, -0.052084702998399734, 0.06811990588903427, 0.06084439158439636, -0.04743483290076256, 0.03367484733462334], [-0.026356015354394913, -0.0685599222779274, -0.14467766880989075, -0.007383335847407579, -0.010234844870865345, 0.1014241948723793, 0.031099816784262657, 0.054239120334386826, 0.3224800229072571, 0.13981790840625763, 0.19293023645877838, -0.07552199065685272, 0.01063546072691679, 0.31794488430023193, 0.21272112429141998, 0.03414696827530861, -0.004328207112848759, -0.02014034241437912, -0.1863035410642624, 0.08869639039039612, 0.5968081951141357, 0.02002391777932644, -0.1479949802160263, 0.2779427766799927, -0.18581275641918182, 0.02101746015250683, -0.07639186829328537, -0.009161531925201416, 0.0116813313215971, -0.030825333669781685, -0.03807610273361206, -0.006421251222491264], [-0.03388764336705208, -0.030397929251194, -0.17904852330684662, 0.001221603131853044, -0.13385140895843506, 0.07892932742834091, 0.0664401426911354, -0.052649080753326416, 0.31475579738616943, -0.05609733238816261, 0.12472765892744064, 0.049311112612485886, 0.021279051899909973, 0.21778175234794617, 0.0684160441160202, 0.0797102153301239, -0.05903191864490509, -0.09034866839647293, -0.11148196458816528, 0.08820776641368866, -0.12796302139759064, 0.041922636330127716, -0.011615527793765068, 0.12126906961202621, 0.007910818792879581, 0.055077701807022095, -0.038344044238328934, -0.017123578116297722, 0.011662340722978115, 0.0016980465734377503, -0.07605434209108353, -0.0058133238926529884], [-0.0021737823262810707, 0.004628801718354225, -0.02592100016772747, 0.010349558666348457, -0.03483928367495537, 0.01163497194647789, 0.02960101142525673, 0.008769292384386063, 0.047180719673633575, 0.028514444828033447, 0.0286407507956028, -0.03206116706132889, 0.01092542801052332, 0.03564653545618057, 0.047304242849349976, 0.010145324282348156, 0.002401909325271845, 0.023573994636535645, -0.0125347301363945, 0.0033359043300151825, 0.03431549668312073, -0.007507149130105972, 0.0003976270090788603, 0.02140561304986477, -0.01995263621211052, 0.007582539226859808, -0.004526128992438316, -2.4394565116381273e-05, 0.012164750136435032, -0.0024523078463971615, -0.032496608793735504, 0.007934284396469593], [0.2977069318294525, -0.20048823952674866, -0.08421263098716736, -0.18487538397312164, 0.04884917661547661, 0.0401739627122879, -0.29222360253334045, -0.11378049105405807, -0.1167856827378273, -0.2623530626296997, 0.17171812057495117, -0.18387745320796967, -0.15495488047599792, -0.05736852064728737, -0.06547270715236664, 0.2058134824037552, 0.14815670251846313, 0.004838056396692991, 0.12200634181499481, 0.25256749987602234, -0.11931909620761871, -0.2524791657924652, 0.21466198563575745, 0.14831021428108215, -0.1733274757862091, 0.021960336714982986, 0.33866119384765625, 0.2077084332704544, 0.08269190788269043, 0.23347364366054535, 0.4436112344264984, -0.07696488499641418], [0.1538875848054886, 0.2502303421497345, -0.007255095988512039, -0.24769406020641327, 0.09221597760915756, 0.2565350830554962, 0.4724698066711426, 0.06337907910346985, -0.004191437736153603, -0.3288475573062897, -0.04538421332836151, -0.1924644410610199, 0.31326961517333984, -0.09791256487369537, 0.16119827330112457, 0.15658749639987946, 0.05911293998360634, 0.16981622576713562, 0.09123267233371735, 0.04074515402317047, -0.04501067474484444, -0.6013202667236328, 0.25541719794273376, 0.21412444114685059, -0.46202224493026733, 0.058060821145772934, -0.13943414390087128, 0.08871085196733475, 0.13248580694198608, -0.26397281885147095, 0.018474943935871124, -0.014814192429184914], [-0.020852794870734215, -0.055677901953458786, 0.07210680097341537, 0.13974511623382568, 0.04492451250553131, -0.14012332260608673, 0.11902280896902084, -0.001661461777985096, -0.25542503595352173, -0.13321003317832947, -0.32765015959739685, -0.07912516593933105, -0.002334883203729987, -0.20459136366844177, -0.12020611763000488, 0.016436321660876274, 0.06518461555242538, -0.04637990519404411, -0.013937308453023434, -0.028388112783432007, 0.07511607557535172, 0.11453007161617279, 0.1081152930855751, 0.013787100091576576, 0.18791957199573517, 0.01476346980780363, 0.1893247663974762, -0.018442921340465546, -0.11930445581674576, -0.16701515018939972, 0.21106582880020142, 0.0038491454906761646], [-0.308969646692276, -0.18422579765319824, 0.03120167925953865, 0.33617904782295227, -0.058106452226638794, 0.23927566409111023, -0.10756166279315948, 0.07592761516571045, -0.07134021818637848, 0.3935222327709198, 0.06133212149143219, 0.2082235962152481, 0.4259319603443146, 0.03534463793039322, -0.06999849528074265, -0.23734033107757568, -0.15264064073562622, 0.1318821907043457, -0.029132366180419922, 0.06809673458337784, -0.15271751582622528, 0.42688778042793274, 0.17938446998596191, 0.2617444396018982, 0.05142565444111824, 0.15713588893413544, 0.29759481549263, -0.3948366343975067, -0.1786024570465088, -0.0587022490799427, -0.3061543405056, -0.1802351474761963], [0.22674106061458588, 0.32465916872024536, 0.2959302067756653, -0.09835874289274216, 0.24696864187717438, -0.3141399323940277, 0.027620088309049606, -0.04975447803735733, -0.10783977061510086, -0.1043284609913826, -0.18623939156532288, -0.260233610868454, 0.38046929240226746, -0.03542816638946533, -0.21737268567085266, 0.06592674553394318, -0.181022509932518, -0.11796780675649643, 0.07063762098550797, -0.18625298142433167, -0.014598448760807514, 0.06413757055997849, 0.03869877755641937, 0.2644406855106354, 0.00826708972454071, 0.25952577590942383, 0.037921540439128876, -0.2644798457622528, 0.2318355292081833, 0.10986912250518799, 0.25650298595428467, -0.01926403120160103], [-0.25677797198295593, -0.24205739796161652, 0.09766414761543274, 0.08548031002283096, 0.2187296599149704, 0.26914751529693604, 0.2626930773258209, 0.5297558307647705, -0.020162703469395638, -0.2124471366405487, -0.13408870995044708, 0.4840298295021057, -0.2508853077888489, 0.03991885855793953, -0.20851214230060577, 0.10063407570123672, -0.19307495653629303, 0.6886163353919983, -0.005379030480980873, -0.14095436036586761, -0.18429653346538544, 0.010166304185986519, -0.2844729423522949, 0.16445967555046082, 0.01405860111117363, 0.01564681902527809, -0.25939732789993286, -0.2416253536939621, -0.09045103192329407, -0.005299019627273083, 0.09290944039821625, -0.09826358407735825], [0.2046528309583664, -0.5406467318534851, -0.0427832305431366, 0.0037936740554869175, -0.11459720879793167, -0.04760606586933136, 0.4128958284854889, -0.09763534367084503, 0.014796318486332893, -0.24117934703826904, -0.07084187120199203, -0.20554107427597046, 0.020223092287778854, 0.11749821901321411, 0.04661986231803894, -0.1248285174369812, 0.1472521424293518, -0.10750338435173035, 0.0008564742747694254, 0.08541654050350189, -0.08694156259298325, 0.00789550319314003, -0.015573147684335709, 0.0970042496919632, -0.17885980010032654, -0.2039777636528015, 0.03099822625517845, -0.0920371264219284, 0.03636118769645691, 0.25905245542526245, 0.07168415188789368, -0.13483598828315735], [0.18927332758903503, -0.06817331910133362, -0.06597138196229935, -0.623697817325592, 0.06926091760396957, -0.5034616589546204, 0.1882234811782837, 0.265502393245697, 0.0385483056306839, 0.21466752886772156, 0.044793955981731415, -0.244879812002182, -0.5450557470321655, -0.05691146478056908, -0.049003031104803085, 0.20783573389053345, -0.02827347069978714, -0.0991656631231308, 0.10814083367586136, -0.0994328185915947, 0.02591177634894848, -0.12204257398843765, -0.17478445172309875, -0.22518695890903473, 0.21300135552883148, -0.2105490118265152, -0.01682853139936924, 0.23087377846240997, -0.04180945083498955, 0.021418098360300064, 0.006341384258121252, 0.07057008892297745], [0.07889530062675476, -0.07193243503570557, -0.2533576786518097, -0.03242800757288933, -0.10212097316980362, 0.15152570605278015, 0.26241442561149597, -0.004329186864197254, 0.30929845571517944, -0.14639434218406677, 0.22348402440547943, -0.052972983568906784, -0.05243419110774994, 0.18303504586219788, 0.2796887755393982, 0.053955961018800735, 0.08136244863271713, 0.047238949686288834, -0.2121782898902893, 0.04331661015748978, 0.12383097410202026, 0.003358328016474843, -0.09618204832077026, -0.056341350078582764, -0.27258220314979553, 0.06932806223630905, -0.06227767467498779, -0.08693490922451019, 0.13845011591911316, 0.06726104766130447, -0.2142646163702011, 0.016077570617198944], [0.13665315508842468, 0.313525527715683, 0.03430373966693878, 0.10639620572328568, 0.4546496272087097, 0.10896007716655731, 0.23297686874866486, -0.03604770451784134, -0.0787324607372284, 0.3684130609035492, 0.004939546342939138, -0.23892784118652344, -0.2773018181324005, -0.16122610867023468, -0.09557748585939407, 0.02352820709347725, -0.02171626314520836, 0.3634883463382721, 0.03336092457175255, -0.13024532794952393, 0.0054353978484869, -0.02818247675895691, 0.2187943011522293, -0.05595182999968529, -0.2672710418701172, 0.18803061544895172, 0.27038174867630005, -0.09526770561933517, 0.2860066294670105, 0.1353851556777954, -0.03372590243816376, 0.056563850492239], [0.272882878780365, -0.14509320259094238, 0.02021624892950058, -0.10255443304777145, 0.3047923147678375, 0.18787385523319244, -0.26118192076683044, 0.027020977810025215, 0.1340925395488739, -0.10661069303750992, 0.3666010797023773, -0.07854170352220535, -0.09545285254716873, 0.11821930855512619, 0.12754212319850922, 0.1166217029094696, 0.18627485632896423, -0.08981329202651978, -0.04830704629421234, 0.02105315588414669, -0.3017239570617676, -0.16218134760856628, 0.07374020665884018, 0.053550053387880325, 0.049473755061626434, 0.3753891587257385, -0.3266429901123047, -0.070620596408844, 0.41302362084388733, 0.02961653843522072, -0.2557945251464844, 0.11800380796194077], [0.10324034839868546, 0.40846189856529236, -0.2579301595687866, -0.1895287185907364, 0.026610877364873886, -0.33572810888290405, 0.1806865930557251, 0.309349000453949, 0.08557493984699249, 0.14916536211967468, 0.2863495647907257, 0.27312231063842773, 0.2563125789165497, 0.15825286507606506, -0.04281158372759819, -0.059382256120443344, -0.0227244570851326, -0.0811963602900505, -0.13205209374427795, 0.047761864960193634, -0.22559212148189545, -0.17160800099372864, 0.11101026087999344, -0.12065079808235168, 0.053733404725790024, 0.045516736805438995, -0.26290595531463623, -0.06670404970645905, 0.06979541480541229, -0.2030407041311264, -0.2906627357006073, -0.013497430831193924], [0.5165203213691711, -0.11597394943237305, -0.09496107697486877, -0.07191099226474762, -0.1993832290172577, 0.05821901559829712, -0.15407395362854004, 0.5130292177200317, -0.0637090876698494, 0.13658565282821655, 0.0776548907160759, -0.020485328510403633, 0.27926141023635864, -0.014292133040726185, 0.12537747621536255, 0.07595944404602051, -0.0014418554492294788, 0.17758995294570923, 0.0565573126077652, 0.035763662308454514, 0.05155395716428757, -0.21249713003635406, 0.16829892992973328, -0.03414008766412735, 0.14435362815856934, -0.021428745239973068, 0.5436052083969116, 0.3793446719646454, -0.22956803441047668, 0.07283029705286026, 0.06342653185129166, -0.13160070776939392], [0.12557227909564972, -0.06250400096178055, -0.28865674138069153, -0.13720883429050446, -0.04112081974744797, -0.1086665615439415, -0.022735117003321648, -0.03324976563453674, 0.2627622187137604, -0.05680757015943527, 0.3965701460838318, 0.350783109664917, 0.14637842774391174, 0.1981784850358963, 0.1446171998977661, -0.10473252087831497, 0.19274592399597168, -0.10664822161197662, -0.11014162749052048, 0.11856789141893387, 0.0619492344558239, 0.04079814255237579, -0.17459550499916077, -0.15152141451835632, 0.06644139438867569, 0.017273038625717163, -0.0658964142203331, 0.18299485743045807, 0.06863760948181152, -0.007810573559254408, -0.008364174515008926, 0.04938190057873726], [0.4731956422328949, -0.1777038723230362, 0.05563943460583687, -0.15043190121650696, 0.07503317296504974, 0.6194987893104553, 0.12827065587043762, 0.05092648044228554, 0.17474213242530823, 0.00986876804381609, 0.08896932005882263, -0.08832685649394989, -0.10468496382236481, 0.1540544629096985, 0.22933676838874817, 0.12215571105480194, -0.0742938295006752, 0.339129775762558, -0.22499282658100128, -0.4477420747280121, -0.04167179390788078, 0.20985107123851776, -0.18362393975257874, -0.3391604721546173, 0.009265894070267677, -0.3325684070587158, -0.23731476068496704, 0.24085745215415955, -0.019882000982761383, 0.02002830244600773, 0.18525967001914978, 0.3238307237625122], [-0.22228692471981049, -0.08494793623685837, 0.003943823743611574, 0.23317216336727142, -0.17787319421768188, 0.12029994279146194, -0.0059696463868021965, -0.3244168758392334, 0.10571920871734619, 0.13500821590423584, -0.04558277130126953, -0.15160764753818512, -0.37408000230789185, 0.03671139478683472, -0.27933603525161743, 0.49308085441589355, 0.007987738586962223, -0.06277546286582947, -0.3062499165534973, 0.0029453427996486425, 0.19516779482364655, -0.25278812646865845, -0.1598454862833023, -0.015597501769661903, -0.005415425635874271, 0.1302216649055481, 0.08756832778453827, 0.04827642813324928, -0.03896573185920715, -0.00781459640711546, 0.08757876604795456, -0.11605570465326309], [-0.21303635835647583, -0.22025634348392487, -0.13430741429328918, -0.11722797900438309, -0.17442376911640167, 0.2748483717441559, -0.05069884657859802, 0.10401651263237, -0.06476937234401703, 0.05641185864806175, 0.12892639636993408, -0.12444441765546799, 0.013413416221737862, -0.10677799582481384, 0.343313068151474, -0.025507191196084023, 0.509300172328949, -0.14745604991912842, 0.6367691159248352, 0.18958593904972076, 0.052706047892570496, -0.18677261471748352, 0.0032653349917382, -0.09372629225254059, 0.11043429374694824, 0.02672538533806801, -0.40522855520248413, -0.08286748081445694, 0.0725778266787529, 0.15929874777793884, 0.4586235582828522, -0.030381890013813972], [-0.04773551598191261, -0.10524938255548477, 0.003290059743449092, 0.01860962063074112, -0.046517450362443924, -0.17507155239582062, 0.3358362317085266, 0.45971453189849854, 0.04584866017103195, 0.25811100006103516, 0.06771392375230789, -0.03945201635360718, -0.2651289105415344, 0.05495937913656235, -0.502395510673523, -0.18146538734436035, -0.14267340302467346, 0.2850373089313507, -0.015694163739681244, 0.10772725194692612, -0.18072612583637238, -0.25738075375556946, 0.020926710218191147, 0.17678360641002655, -0.05728656426072121, 0.03804736211895943, 0.15963923931121826, -0.32194140553474426, 0.01815067231655121, 0.010587826371192932, -0.15023696422576904, -0.2584953308105469], [-0.20926302671432495, -0.4605244994163513, 0.4525940716266632, -0.4386017322540283, -0.03944047540426254, 0.3968184292316437, -0.36078739166259766, 0.5106746554374695, -0.05888424441218376, 0.19199687242507935, -0.6013153791427612, -0.2045297473669052, 7.261628979904344e-06, 0.1942063868045807, 0.3987748324871063, 0.015880445018410683, 0.10458838939666748, -0.3625262975692749, -0.27006641030311584, -0.20485182106494904, -0.06605178117752075, -0.22111833095550537, -0.2976681590080261, -0.118264339864254, 0.18506871163845062, -0.18121623992919922, -0.7019633054733276, 0.11565797030925751, -0.09239663183689117, -0.06584425270557404, -0.4841172397136688, -0.036201003938913345], [-0.3458297550678253, 0.026697060093283653, 0.01613502949476242, -0.11731725931167603, 0.0326235257089138, 0.11759091913700104, -0.006363356485962868, 0.1428767442703247, 0.1487036645412445, -0.007477960083633661, 0.15021245181560516, 0.15284357964992523, -0.076482854783535, 0.12509655952453613, 0.2299610823392868, -0.04979114979505539, -0.07996515184640884, -0.2627376914024353, 0.33490699529647827, 0.07891674339771271, -0.17243318259716034, -0.09051074087619781, -0.1495354026556015, 0.010882061906158924, -0.010247229598462582, 0.16149775683879852, -0.042400065809488297, 0.09085752815008163, 0.032955922186374664, 0.013472454622387886, -0.0715501680970192, -0.21257558465003967], [-0.045883502811193466, -0.06011195108294487, -0.1198195368051529, -0.007101031951606274, -0.16060008108615875, -0.14124055206775665, -0.10878445953130722, -0.11787021160125732, 0.0527287982404232, 0.4742285907268524, 0.0012336911167949438, 0.3341127336025238, 0.05527014285326004, 0.13669149577617645, -0.09566844254732132, 0.17344434559345245, -0.01833266019821167, -0.03864620625972748, -0.09042640775442123, 0.05697254464030266, 0.4723764955997467, 0.009813228622078896, -0.06780707091093063, -0.009551653638482094, -0.41503262519836426, -0.17117685079574585, 0.04027260094881058, 0.02375119738280773, -0.3159979283809662, -0.1063963919878006, -0.13866715133190155, -0.04942493885755539], [0.19190309941768646, 0.447433203458786, -0.20735228061676025, -0.06765235215425491, 0.21979714930057526, 0.07470893114805222, -0.08779577165842056, 0.046898793429136276, -0.07504690438508987, -0.011072312481701374, 0.1577076017856598, 0.29018837213516235, -0.03759033605456352, 0.0005141519359312952, -0.03717159479856491, -0.1146085113286972, 0.18612797558307648, -0.17070645093917847, 0.09934388846158981, 0.14811135828495026, 0.1791689693927765, 0.31316936016082764, 0.1809963881969452, -0.0852552056312561, 0.13774681091308594, -0.28623610734939575, -0.228489488363266, -0.25782859325408936, -0.11911720782518387, -0.042112771421670914, 0.23368142545223236, -0.09634144604206085], [0.2189556211233139, 0.05745096132159233, 0.03211742639541626, -0.34397390484809875, -0.0729096531867981, 0.34613412618637085, -0.0880308747291565, 0.10971494764089584, 0.015451417304575443, -0.5867329239845276, -0.09422025084495544, 0.06801114976406097, -0.4457557797431946, 0.018078509718179703, 0.15668949484825134, -0.34151217341423035, 0.13240373134613037, -0.10238146036863327, 0.02302974835038185, 0.06308329105377197, -0.050441913306713104, -0.21984945237636566, 0.6535527110099792, 0.2801491320133209, -0.14651228487491608, -0.2430279701948166, -0.45635801553726196, -0.08678808063268661, -0.0696072205901146, 0.18541932106018066, -0.07766684144735336, -0.008717687800526619], [-0.2462652176618576, -0.05731303244829178, 0.19235403835773468, -0.2734484374523163, 0.0906074270606041, 0.33513927459716797, -0.04331332445144653, 0.39129960536956787, 0.07536007463932037, -0.41002047061920166, -0.20002558827400208, -0.1205553412437439, 0.023685213178396225, -0.04932773858308792, 0.34054988622665405, -0.15242278575897217, -0.07569140940904617, -0.20362098515033722, 0.27521470189094543, 0.05092524737119675, 0.0643722340464592, -0.10280485451221466, 0.1656932234764099, 0.22839795053005219, -0.04031971096992493, 0.1705292910337448, -0.07091798633337021, -0.15356656908988953, -0.1986800581216812, 0.04665394127368927, -0.1277998387813568, -0.01907464489340782], [-0.2528502345085144, 0.344927579164505, 0.024174483492970467, -0.04446827247738838, 0.032139603048563004, 0.03506675735116005, 0.08050204068422318, -0.16229599714279175, -0.055318355560302734, 0.6410342454910278, -0.11490388959646225, 0.38599643111228943, -0.0692632645368576, 0.015474304556846619, 0.008805647492408752, 0.0827397033572197, 0.0780012235045433, -0.14470095932483673, 0.05436300113797188, 0.02150685153901577, -0.15474289655685425, 0.02184944413602352, -0.03559846058487892, -0.004518349189311266, 0.3274618983268738, -0.15285643935203552, -0.060058798640966415, 0.38793766498565674, -0.10871317982673645, -0.41384100914001465, 0.11397721618413925, 0.049084559082984924], [-0.09820374846458435, -0.20756970345973969, 0.20232608914375305, 0.104335717856884, 0.29915255308151245, 0.13325262069702148, -0.039261527359485626, 0.19129657745361328, -0.0284464992582798, -0.23352277278900146, -0.11003363877534866, -0.4269821047782898, 0.2899295389652252, -0.005710357800126076, 0.1751396358013153, 0.026325292885303497, -0.19086779654026031, -0.13830246031284332, 0.009474866092205048, -0.1497931033372879, -0.4141121506690979, 0.2545773684978485, 0.10809338837862015, 0.145622119307518, 0.23220039904117584, 0.30958282947540283, 0.20529194176197052, -0.16594259440898895, 0.21441452205181122, -0.2737504243850708, -0.09817776083946228, 0.003738459898158908], [-0.16583000123500824, 0.06317587196826935, 0.038223765790462494, -0.12062863260507584, -0.08253924548625946, 0.08203655481338501, -0.3585110902786255, 0.2358858734369278, 0.006945629604160786, -0.07077669352293015, 0.04376896470785141, -0.09884515404701233, -0.650894820690155, 0.02957964316010475, 0.20962224900722504, -0.1933441013097763, 0.09569576382637024, -0.0813145861029625, -0.014958039857447147, 0.1103503480553627, -0.0971805527806282, 0.6634994745254517, 0.4940726161003113, 0.17309953272342682, -0.020527493208646774, -0.04968966916203499, 0.3367699980735779, -0.0020175075624138117, -0.20582956075668335, -0.16942232847213745, -0.1933164894580841, -0.06383104622364044], [-0.15605227649211884, 0.29515981674194336, -0.005223914980888367, 0.20537394285202026, -0.2572301924228668, 0.23517654836177826, 0.1460963636636734, -0.12426915764808655, 0.0701955109834671, -0.1187882274389267, 0.14751656353473663, -0.003066412638872862, -0.4316449761390686, 0.027132224291563034, -0.040098126977682114, 0.20550379157066345, -0.06278838217258453, 0.22587983310222626, -0.2859925627708435, 0.03083418868482113, -0.01650657132267952, -0.29550600051879883, 0.059735070914030075, -0.09311910718679428, 0.27314457297325134, 0.2723601162433624, 0.16639216244220734, 0.3225788474082947, 0.10088329017162323, -0.43045857548713684, -0.060676101595163345, 0.09148174524307251], [0.08943141251802444, -0.08055379241704941, 0.060558732599020004, 0.16320151090621948, 0.29601985216140747, 0.1326807737350464, 0.03352056443691254, -0.21455219388008118, -0.03151637688279152, -0.05232377350330353, -0.020338302478194237, -0.3440886437892914, 0.1459503173828125, -0.17724570631980896, -0.0193717572838068, -0.13604825735092163, -0.09549397230148315, -0.00617206422612071, -0.006385368295013905, -0.019363783299922943, -0.46476954221725464, -0.09413422644138336, 0.03814053162932396, 0.01658722758293152, 0.08467661589384079, 0.3893658518791199, 0.028883056715130806, -0.3275717794895172, 0.1912662535905838, 0.14125053584575653, -0.009577343240380287, -0.07787024974822998], [0.019380200654268265, -0.1671714186668396, -0.0993930846452713, 0.19381779432296753, 0.19170133769512177, -0.20707394182682037, -0.4172990024089813, -0.23529157042503357, -0.10589532554149628, -0.15161876380443573, -0.05629010871052742, -0.21148349344730377, -0.03836030513048172, -0.07849956303834915, -0.0653030201792717, 0.02618742361664772, -0.19731006026268005, -0.08128158748149872, 0.09663387387990952, -0.05420055240392685, -0.028174104169011116, 0.3104858100414276, -0.15471217036247253, 0.0006578193278983235, -0.18176697194576263, -0.12409760802984238, 0.4033946692943573, -0.4162440598011017, 0.07204641401767731, 0.3685365617275238, -0.0642443299293518, 0.03387675806879997], [-0.23591755330562592, -0.11374734342098236, 0.38874155282974243, -0.09815862774848938, -0.024620002135634422, 0.3580196499824524, -0.19000017642974854, 0.08982214331626892, -0.1573997586965561, 0.11634805053472519, -0.6263324022293091, 0.0965806320309639, -0.1451035439968109, 0.11597301810979843, -0.1664183884859085, 0.19614394009113312, 0.04533731937408447, -0.13015131652355194, -0.4601331651210785, 0.032850656658411026, 0.23912356793880463, -0.2731269598007202, -0.18278013169765472, 0.09106960147619247, 0.31319740414619446, -0.17853857576847076, -0.3563457429409027, 0.15526065230369568, -0.12442316114902496, -0.24664731323719025, -0.20344240963459015, -0.15822575986385345], [0.31008708477020264, 0.0953550636768341, 0.0032045934349298477, 0.05691201984882355, -0.008176039904356003, 0.09992185235023499, -0.01704016886651516, -0.25330600142478943, 0.07286091893911362, 0.08947078138589859, 0.055622827261686325, -0.2528214752674103, -0.06059618666768074, 0.04016955941915512, -0.064883753657341, 0.075562983751297, -0.015087533742189407, 0.13109202682971954, -0.27333417534828186, -0.14712581038475037, -0.04289301484823227, 0.02560972049832344, 0.009309427812695503, -0.12789486348628998, 0.08811794966459274, -0.06534623354673386, -0.16466224193572998, -0.07485727965831757, 0.09016378968954086, -0.051807504147291183, 0.005473064724355936, 0.037083085626363754], [-0.044837966561317444, 0.017682602629065514, -0.015850229188799858, -0.01764746941626072, 0.0026146587915718555, -0.04620029404759407, -0.08690446615219116, 0.05082324892282486, 0.02643267810344696, 0.03577468544244766, -0.015195402316749096, 0.0037781766150146723, 0.052786655724048615, 0.020726382732391357, -0.018174368888139725, -0.0015232221921905875, 0.016241023316979408, -0.04035012796521187, 0.04530680924654007, -0.011029561050236225, 0.06670891493558884, -0.10256268084049225, -0.001576267764903605, 0.06470625102519989, -0.055821891874074936, 0.034712664783000946, 0.033907923847436905, -0.007793659809976816, -0.05291479825973511, -0.01898631826043129, -0.06423311680555344, -0.03218232840299606], [0.0017132344655692577, -0.1801079660654068, -0.11930122971534729, 0.0567103736102581, -0.06490322202444077, -0.02807585336267948, -0.05241798609495163, -0.019865548238158226, 0.18192638456821442, 0.12361794710159302, 0.10407911241054535, 0.04086720570921898, 0.14312727749347687, 0.20456324517726898, -0.02540651522576809, -0.06301342695951462, 0.06224768981337547, 0.03442802280187607, -0.11187136918306351, -0.02199859917163849, 0.13917435705661774, -0.017024165019392967, 0.16913944482803345, 0.15760566294193268, 0.1338862180709839, -0.034452080726623535, 0.0810665637254715, 0.004185197874903679, 0.027874769642949104, -0.001628519152291119, 0.006810127757489681, -0.006447979249060154], [-0.029676828533411026, 0.004976037424057722, -0.05772716924548149, 0.007135654333978891, -0.07305622845888138, 0.03537744656205177, -0.0809834897518158, -0.042295634746551514, -0.028246384114027023, 0.013918871060013771, 0.14180117845535278, 0.011042233556509018, 0.01959718018770218, 0.014230675995349884, -0.008516349829733372, -0.014347200281918049, -0.12346113473176956, 0.012208870612084866, 0.04464992508292198, 0.03517701476812363, -0.3372800052165985, -0.06256306916475296, 0.0352209210395813, -0.025643641129136086, 0.03991260752081871, 0.06818336993455887, -0.05303268879652023, 0.01310603879392147, 0.050710152834653854, -0.004750870633870363, -0.07361623644828796, -0.020210031419992447], [-0.03613287955522537, 0.025681519880890846, 0.04670614376664162, 0.07058610767126083, 0.07467096298933029, -0.030197059735655785, 0.012460424564778805, 0.0033121563028544188, -0.04967976734042168, 0.08810442686080933, -0.01710485853254795, -0.016938868910074234, -0.03791680932044983, -0.033071503043174744, -0.007935650646686554, -0.042793966829776764, -0.04859313368797302, 0.025407977402210236, -0.12294184416532516, -0.09932004660367966, -0.041191697120666504, 0.05933455377817154, 0.12009098380804062, 0.003042609663680196, 0.04507087916135788, 0.03427193686366081, 0.17459474503993988, 0.012384243309497833, 0.00824425183236599, -0.005929060745984316, -0.10002557933330536, 0.014886626042425632], [-0.004417859483510256, 0.06134449318051338, -0.18513703346252441, 0.0177195742726326, -0.27317702770233154, -0.020768072456121445, -0.02470879629254341, -0.09363832324743271, 0.18921373784542084, -0.03245535120368004, 0.12095633894205093, 0.043294116854667664, 0.1248876079916954, 0.15310820937156677, 0.05021083354949951, -0.0326417051255703, 0.0552898533642292, -0.021071098744869232, -0.14630009233951569, -0.00918574258685112, 0.0976044312119484, -0.09801265597343445, 0.13233833014965057, 0.15086691081523895, 0.11013815551996231, -0.00045462840353138745, -0.027229757979512215, -0.006171736866235733, -0.03562036156654358, -0.02145068347454071, -0.034036118537187576, -0.020546134561300278], [-0.004896992817521095, -0.1906740516424179, -0.04500100016593933, 0.10160019248723984, -0.1600770652294159, 0.006332653108984232, -0.01719830557703972, -0.06206236779689789, 0.18966937065124512, 0.03986867144703865, -0.001330464263446629, -0.06207903102040291, 0.23311515152454376, 0.15120266377925873, 0.0706910490989685, -0.04631504788994789, 0.08348886668682098, -0.043380461633205414, -0.13605540990829468, 0.009616270661354065, 0.08680183440446854, 0.0004419009492266923, 0.08922906219959259, 0.12497858703136444, 0.19646067917346954, 0.03769939765334129, -0.05060264840722084, -0.027047965675592422, 0.01165890134871006, -0.040915731340646744, 0.010642310604453087, -0.003066875273361802], [0.020334333181381226, -0.025194773450493813, -0.0799717903137207, 0.004856393672525883, 0.02976001426577568, -0.09199482202529907, 0.02256065420806408, -0.21338923275470734, -0.04635840281844139, -0.06975024938583374, 0.013097595423460007, -0.01793299987912178, -0.09369538724422455, 0.036367859691381454, -0.06520408391952515, -0.27898257970809937, 0.0982033908367157, 0.15880444645881653, -0.03854270651936531, -0.08514484763145447, -0.18837350606918335, -0.12965892255306244, 0.028174323961138725, 0.0032248212955892086, -0.13301649689674377, 0.018500328063964844, 0.017929216846823692, -0.0020337135065346956, 0.09328193962574005, 0.05138690024614334, -0.06854958087205887, 0.04607480391860008], [-0.02723661996424198, -0.0682472363114357, -0.09590673446655273, 0.03486807644367218, -0.1208360344171524, 0.016769105568528175, -0.0950031727552414, -0.033717285841703415, 0.10716091841459274, 0.027930552139878273, 0.10226625204086304, 0.04036371409893036, 0.04525506868958473, 0.14509303867816925, 0.04345674440264702, -0.08948958665132523, 0.08159986138343811, 0.02294209599494934, -0.033290352672338486, -0.01182639691978693, 0.10950475931167603, -0.04227772727608681, 0.1464168131351471, 0.05389734357595444, 0.09004799276590347, -0.010147275403141975, -0.07021521776914597, 0.011457978747785091, 0.005461963824927807, -0.05832204222679138, -0.05441777780652046, -0.006136090029031038], [-0.025754475966095924, -0.022138481959700584, -0.08950983732938766, -0.07542046159505844, 0.00907412450760603, 0.11763983964920044, 0.0405031181871891, 0.00783635675907135, 0.2219657152891159, -0.07545049488544464, 0.2272302657365799, -0.018920773640275, 0.04045344144105911, 0.1704353243112564, 0.26036906242370605, 0.0736137181520462, -0.06298191100358963, 0.026164906099438667, -0.09712914377450943, -0.06963994354009628, -0.13572019338607788, 0.042371466755867004, -0.09210113435983658, -0.014953956939280033, 0.09088955819606781, 0.1855863332748413, -0.09581472724676132, 0.0876481756567955, 0.1961338222026825, -0.04865461215376854, -0.07348846644163132, 0.1008569672703743], [-0.11914575099945068, 0.0052473414689302444, -0.054824069142341614, 0.12622317671775818, -0.28135809302330017, 0.07085055857896805, 0.06860502064228058, -0.030247202143073082, 0.0652235597372055, 0.05183234438300133, 0.053594764322042465, -0.03659328818321228, -0.01516161672770977, -0.03376471996307373, 0.09571438282728195, 0.15110673010349274, 0.07975547015666962, 0.08916591852903366, -0.09015344828367233, 0.019493823871016502, -0.24099349975585938, -0.008787001483142376, 0.04550427198410034, 8.39250351418741e-05, 0.27064695954322815, 0.026819108054041862, 0.14610351622104645, -0.07678017020225525, 0.13465912640094757, 0.13158519566059113, -0.12715181708335876, 0.033207397907972336], [0.00896360818296671, 0.07885059714317322, -0.02213573269546032, 0.07381142675876617, -0.08579064905643463, -0.08259118348360062, 0.004282314796000719, -0.11070653796195984, 0.05011710897088051, 0.13065658509731293, -0.004570763558149338, 0.038077086210250854, -0.005742401350289583, 0.04098442196846008, -0.06501060724258423, -0.03810647875070572, 0.11015211790800095, 0.03997842222452164, -0.09742917865514755, -0.05170353874564171, -0.25168853998184204, -0.013322439044713974, 0.1941688358783722, -0.07162099331617355, -0.00414963299408555, -0.07239674031734467, 0.10826460272073746, -0.04253293201327324, -0.024064399302005768, 0.055340975522994995, -0.012040707282721996, -0.0133667578920722], [-0.03143659234046936, -0.07622546702623367, -0.12735089659690857, 0.057642847299575806, -0.18580783903598785, -0.02874596230685711, -0.09446539729833603, -0.21042943000793457, 0.14593787491321564, 0.004215977154672146, 0.03374074772000313, 0.017267359420657158, 0.060176752507686615, 0.12334392964839935, 0.04049522429704666, -0.172529935836792, 0.06567399948835373, -0.011151105165481567, -0.008001280948519707, 0.012373200617730618, 0.02997010387480259, -0.10531508922576904, 0.12339520454406738, 0.06803771108388901, 0.08501404523849487, -0.0005249120877124369, -0.062108177691698074, -0.07672169059515, -0.013970848172903061, -0.0033087669871747494, -0.06657754629850388, -0.0025449073873460293], [0.014034166000783443, -0.056239452213048935, -0.05555087700486183, 0.052363958209753036, -0.14379481971263885, -0.03919540345668793, 0.03341419994831085, -0.04441027343273163, 0.13573548197746277, -0.0020249413792043924, 0.005932621192187071, -0.03582325205206871, 0.14796727895736694, 0.14244632422924042, 0.028310533612966537, 0.028923701494932175, 0.0769711434841156, 0.0002788148995023221, -0.1065504401922226, -0.03725716844201088, 0.1343597173690796, -0.018984412774443626, 0.15033619105815887, 0.13911736011505127, 0.04802355915307999, -0.033020906150341034, -0.018513761460781097, -0.014461604878306389, -0.031050216406583786, -0.04392518103122711, -0.016293296590447426, -0.007670891005545855], [0.008608132600784302, -0.010427838191390038, -0.13089227676391602, -0.10147584229707718, -0.04008324444293976, 0.14710581302642822, -0.031696662306785583, 0.004846545401960611, 0.1496717482805252, 0.04352038726210594, 0.13169865310192108, 0.1163989007472992, 0.029691210016608238, 0.127751886844635, 0.14433300495147705, -0.043043043464422226, 0.017539378255605698, -0.0408301055431366, 0.056436020880937576, -0.00668773939833045, -0.08328313380479813, -0.09644391387701035, -0.10466385632753372, -0.07091517001390457, 0.0427832305431366, 0.005999872460961342, -0.05049583315849304, 0.12351063638925552, 0.041553277522325516, 0.03918907791376114, 0.019832102581858635, 0.020244870334863663], [-0.13301785290241241, 0.05280351638793945, -0.060826513916254044, -0.007187218405306339, -0.18127988278865814, 0.032227277755737305, 0.09370198845863342, -0.014796813018620014, 0.1884845495223999, -0.047101397067308426, -0.026170233264565468, -0.09910199046134949, 0.18792831897735596, 0.1459171175956726, 0.31461459398269653, -0.007497651036828756, -0.03756571561098099, -0.23389974236488342, 0.022267930209636688, -0.019106624647974968, 0.09180779755115509, 0.04806305468082428, 0.0851658433675766, 0.1937665343284607, 0.09356551617383957, 0.05259731784462929, -0.10770381987094879, -0.011433939449489117, -0.03861486539244652, -0.09942976385354996, -0.2126016616821289, -0.0008797794580459595], [0.1937665045261383, 0.06308702379465103, -0.03882988169789314, -0.05302473530173302, 0.11439496278762817, -0.2014712691307068, 0.02132447622716427, 0.0679396316409111, -0.1004665270447731, 0.04273040592670441, 0.13001404702663422, 0.12460653483867645, 0.21783261001110077, 0.007917250506579876, 0.05398380011320114, -0.239212304353714, 0.16772514581680298, 0.045782722532749176, -0.02862430363893509, 0.005776736419647932, -0.009826968424022198, 0.16396977007389069, -0.0005225369823165238, -0.1255054473876953, 0.07153666764497757, -0.12235947698354721, 0.0342683270573616, -0.061433326452970505, 0.004369573201984167, -2.6639943826012313e-05, 0.03359280154109001, 0.028170928359031677], [-0.017191346734762192, 0.12001387774944305, -0.2226496934890747, -0.06922969222068787, -0.09909891337156296, 0.06259055435657501, -0.08680896461009979, 0.05968403071165085, 0.05002154782414436, 0.02617192268371582, 0.16616502404212952, 0.007015477865934372, -0.0018384656868875027, 0.029813619330525398, 0.01478976383805275, 0.024554675444960594, 0.08278915286064148, 0.01968870870769024, 0.06965949386358261, 0.07057081162929535, -0.37482625246047974, -0.12946085631847382, 0.027759145945310593, -0.005168054718524218, -0.11648841202259064, 0.04923434928059578, -0.004584622103720903, 0.06914186477661133, 0.056443292647600174, 0.04819198325276375, 0.051087092608213425, 0.016097484156489372], [0.0292699933052063, -0.06779755651950836, -0.0518927201628685, 0.007293498609215021, -0.03579547628760338, 0.005841472186148167, 0.03422529250383377, 0.020835844799876213, 0.08814754337072372, 0.08476754277944565, 0.001192491385154426, -0.05971410498023033, 0.07948226481676102, 0.0942893773317337, 0.1349533200263977, -0.07493546605110168, 0.0359419584274292, 0.04517996311187744, 0.030056245625019073, 0.02253049798309803, -0.012295830994844437, 0.0013404112542048097, -0.0012874285457655787, 0.06567451357841492, 0.028616998344659805, 0.019319254904985428, -0.0044202120043337345, -0.054250407963991165, 0.05656888335943222, 0.016739774495363235, -0.03430074080824852, 0.005131029989570379], [0.06578322499990463, 0.02782679721713066, -0.061770107597112656, 0.07230617851018906, -0.06893207132816315, -0.02378246560692787, 0.06644891202449799, -0.13996343314647675, 0.061193786561489105, -0.007747902534902096, 0.09207601100206375, -0.07155649363994598, 0.1502186506986618, 0.05556574836373329, 0.048144418746232986, 0.0017317795427516103, 0.16833768784999847, 0.03409714624285698, -0.19447584450244904, -0.09970931708812714, -0.031166383996605873, -0.027858413755893707, 0.015581028535962105, -0.03271463140845299, 0.08349325507879257, 0.045620549470186234, 0.19098322093486786, 0.02321767248213291, 0.04595420882105827, 0.0014240964083001018, -0.08083659410476685, 0.03707622364163399], [-0.057419076561927795, 0.020574742928147316, -0.06971760094165802, 0.04755545035004616, -0.05479641631245613, -0.16235554218292236, 0.10275917500257492, -0.12563766539096832, 0.17108497023582458, -0.023634715005755424, -0.00642719492316246, -0.10890771448612213, 0.07215176522731781, 0.14637279510498047, 0.06488442420959473, 0.03831462189555168, 0.03949790075421333, -0.0663929209113121, -0.18494756519794464, -0.07389824837446213, 0.14468874037265778, 0.012257127091288567, -0.033482540398836136, 0.1649426966905594, 0.06305262446403503, 0.028324682265520096, 0.026801837608218193, -0.010860010981559753, -0.0007687479956075549, -0.02704778127372265, -0.039067283272743225, 0.007735549006611109], [-0.03053024224936962, 0.1613287627696991, 0.052774813026189804, 0.05001895874738693, -0.20722553133964539, 0.12808293104171753, -0.008116891607642174, -0.03413955122232437, 0.009057576768100262, -0.20889721810817719, 0.06177995726466179, -0.05470386892557144, -0.10686232149600983, -0.01913798414170742, 0.02112421579658985, 0.16789701581001282, 0.10545779764652252, 0.1690647304058075, 0.04964432120323181, 0.013039357028901577, -0.05422142148017883, -0.10415740311145782, 0.06479019671678543, 0.08347757160663605, 0.036954864859580994, -0.17154227197170258, -0.10309763997793198, -0.06117856502532959, -0.09994373470544815, 0.007819321006536484, -0.14800433814525604, 0.056175947189331055], [-0.051669150590896606, -0.027607394382357597, 0.03702617436647415, 0.036248113960027695, -0.05811798945069313, 0.13102185726165771, -0.011347165331244469, 0.03830607607960701, -0.07601703703403473, 0.11089186370372772, 0.07496660202741623, -0.024010561406612396, -0.027958452701568604, -0.022160761058330536, 0.05429713428020477, -0.1684790700674057, -0.002364457119256258, 0.10177940875291824, -0.07682809233665466, -0.02940165065228939, -0.03650931641459465, -0.20025791227817535, 0.1592927873134613, 0.04998676851391792, 0.0726018100976944, 0.03553367778658867, 0.028009876608848572, 0.02317352220416069, 0.01957840658724308, -0.035354357212781906, -0.13619786500930786, -0.002993308939039707], [0.0002951468632090837, -0.06740690022706985, -0.0407806821167469, -0.06459210813045502, -0.14397192001342773, 0.35522234439849854, 0.11751826852560043, 0.24220722913742065, -0.03817347064614296, -0.13266360759735107, 0.11786525696516037, 0.08208701759576797, -0.09452825039625168, 0.06104365736246109, 0.17404477298259735, 0.020916353911161423, -0.04798371344804764, 0.10015854984521866, 0.018798023462295532, -0.004635725636035204, 0.03930440545082092, 0.095540352165699, 0.6256968975067139, 0.0731300637125969, 0.017385229468345642, -0.07078403979539871, -0.11457493156194687, -0.062081485986709595, -0.053056348115205765, -0.05952411890029907, -0.03817266225814819, -0.012505702674388885], [-0.15126897394657135, -0.02031351812183857, 0.11656061559915543, 0.04432351514697075, 0.07890692353248596, -0.007546693552285433, -0.009296121075749397, -0.006611593533307314, -0.06765193492174149, -0.10073041915893555, -0.19110092520713806, 0.047376856207847595, 0.05303920432925224, -0.12047258764505386, -0.02058512531220913, 0.010667819529771805, -0.039654046297073364, -0.06688176840543747, 0.1473345011472702, 0.05377500504255295, -0.042359285056591034, -0.057137444615364075, 0.06480631232261658, 0.12372063100337982, -0.00253310683183372, 0.10217184573411942, 0.15042534470558167, -0.009795470163226128, -0.03517596423625946, -0.005157734267413616, 0.02630060911178589, -0.07252297550439835], [-0.0425199531018734, -0.0848102793097496, -0.04826213791966438, -0.007107602898031473, -0.14684949815273285, -0.007805577479302883, -0.017201874405145645, -0.062436092644929886, 0.041390206664800644, 0.01672201417386532, 0.17998121678829193, 0.04451080784201622, 0.05174730718135834, 0.08073265850543976, 0.062182411551475525, 0.0820837914943695, -0.035095322877168655, -0.010257268324494362, -0.08134967088699341, 0.035992782562971115, -0.015718424692749977, -0.01000511646270752, 0.01016976498067379, 0.03219489008188248, -0.05141911283135414, -0.07200908660888672, -0.027171239256858826, -0.09040568023920059, -0.03225124627351761, 0.07782500982284546, -0.08239424973726273, 0.010395045392215252], [-0.06684326380491257, -0.03373342007398605, -0.09830711036920547, 0.01763674058020115, -0.056148648262023926, -0.009836620651185513, -0.08310234546661377, 0.032526757568120956, 0.04014997184276581, 0.151056706905365, 0.050012316554784775, 0.039493244141340256, -0.10159435123205185, 0.08042839169502258, -0.09221625328063965, 0.026406744495034218, 0.09003371745347977, -0.01041060034185648, 0.013773953542113304, 0.0707160159945488, 0.23607268929481506, -0.0363323874771595, 0.0065593053586781025, -0.008259190246462822, -0.14830243587493896, -0.1195063441991806, -0.06556085497140884, -0.0747016966342926, -0.07807844132184982, 0.016026349738240242, 0.006017222069203854, -0.03061036579310894], [0.0376800037920475, -0.13833202421665192, -0.09430821985006332, 0.03032046929001808, 0.008373883552849293, 0.015662746503949165, 0.051980890333652496, 0.10153929144144058, 0.12456393241882324, 0.10481563210487366, 0.11661027371883392, 0.06597719341516495, 0.15851503610610962, 0.18797864019870758, 0.07865336537361145, 0.0025287792086601257, 0.05136026814579964, 0.08225315064191818, -0.17323367297649384, -0.04148641601204872, 0.13402165472507477, 0.021933263167738914, 0.21379032731056213, 0.09123805165290833, 0.12106778472661972, -0.011749024502933025, 0.008080990985035896, 0.0372810922563076, 0.016342680901288986, -0.051701620221138, 0.035401053726673126, 0.00718277832493186], [-0.0468333400785923, -0.019235964864492416, 0.04695539176464081, 0.06942322850227356, -0.008058777078986168, -0.07870297878980637, -0.14382264018058777, -0.046573929488658905, -0.06154442951083183, 0.2054472118616104, -0.01146478857845068, -0.026313425973057747, -0.015125999227166176, -0.08643139153718948, -0.15058375895023346, -0.08375298231840134, -0.016714422032237053, 0.03241104632616043, -0.0878463163971901, -0.06417056918144226, 0.23312625288963318, -0.10754473507404327, -0.02300499565899372, 0.005191802512854338, -0.05697731301188469, -0.05744440108537674, 0.07351420074701309, -0.1696651428937912, -0.03890097886323929, 0.041740015149116516, -0.10161659866571426, 0.021831683814525604], [-0.049666475504636765, -0.04908960685133934, 0.01118285022675991, 0.038543038070201874, -0.05364692583680153, 0.0904972106218338, -0.027864400297403336, -0.03562129661440849, -0.06108798459172249, 0.13534694910049438, -0.023083239793777466, -0.027122575789690018, -0.06783987581729889, -0.050512198358774185, -0.002575930440798402, 0.005719663109630346, -0.015361389145255089, 0.0954810231924057, 0.039890628308057785, -0.034148138016462326, 0.23445585370063782, -0.11097095906734467, -0.01918376050889492, -0.01832992024719715, -0.07044747471809387, -0.00876836758106947, -0.04699445143342018, -0.03261734917759895, 0.029818672686815262, 0.0479319803416729, -0.02650563418865204, 0.015756556764245033], [0.02108946070075035, -0.06418215483427048, 0.1501891165971756, 0.012922385707497597, 0.09051051735877991, -0.05207640677690506, -0.05674683302640915, -0.022361811250448227, -0.36391112208366394, 0.0592566654086113, 0.005701620131731033, 0.017385106533765793, 0.023657824844121933, -0.17255158722400665, 0.010846741497516632, -0.006255771033465862, 0.003976333886384964, -0.003619810100644827, 0.12460939586162567, -0.015919726341962814, 0.10144525021314621, 0.028369810432195663, 0.039075128734111786, -0.14827878773212433, -0.017812078818678856, 0.01292487047612667, 0.015992578119039536, -0.009701792150735855, 0.02988588623702526, -0.003604987869039178, -0.038744110614061356, 0.007815109565854073], [-0.04714512079954147, 0.0244003739207983, -0.06331831216812134, 0.03898957744240761, -0.09353518486022949, 0.05414262041449547, -0.013830629177391529, -0.05793849006295204, 0.0718938559293747, 0.019038258120417595, 0.050612859427928925, 0.03273589909076691, -0.013186383061110973, 0.05251999571919441, -0.05180428549647331, -0.03335880488157272, -0.007470196112990379, -0.04417244717478752, -0.048765040934085846, 0.0722082182765007, -0.12551456689834595, -0.03004990890622139, 0.09789852797985077, 0.05020265281200409, -0.0359165221452713, 0.047081537544727325, 0.012388085946440697, -0.027038682252168655, -0.011815177276730537, -0.0020805071108043194, -0.11669998615980148, -0.020861782133579254], [-0.01813722401857376, 0.04959646984934807, -0.027153970673680305, -0.0009685446857474744, -0.011380678042769432, 0.004944398067891598, 0.030783038586378098, 0.006234061438590288, 0.030534986406564713, 0.020276065915822983, 0.027421850711107254, -0.013204453513026237, 0.017933540046215057, 0.03672811761498451, 0.04540940746665001, 0.00977917481213808, 0.03429308906197548, 0.011325540021061897, -0.06319235265254974, -0.02207823097705841, 0.04771571233868599, -0.01333077996969223, 0.001989093841984868, 0.041473388671875, -0.005391575396060944, 0.015406815335154533, 0.01413868647068739, 0.011634674854576588, 0.008344373665750027, -0.013495909050107002, -0.03663703426718712, 0.008528415113687515]], "rec.bias_ih_l0": [-0.15327779948711395, -0.2064151167869568, -0.18721111118793488, -0.06282557547092438, -0.197822704911232, 0.09772490710020065, -0.7051770091056824, -0.035254012793302536, 0.20599432289600372, -0.5195625424385071, -0.20018689334392548, -0.19211746752262115, -0.05823633447289467, 0.05957900360226631, 0.13790060579776764, -0.2665806710720062, -1.0767898559570312, 0.015458129346370697, 0.3054448366165161, 0.05645057559013367, -0.21074742078781128, -0.24251091480255127, -0.157527357339859, 0.05013201758265495, -0.2951852083206177, -0.25150734186172485, -0.11016926914453506, -0.2801100015640259, -0.17791497707366943, -0.38874661922454834, 0.029981369152665138, -0.023579472675919533, 0.413079172372818, 0.5784682035446167, 0.1935322880744934, 0.31144994497299194, 0.3676258325576782, 0.3349437713623047, 0.8866292834281921, 0.4117419123649597, 0.3315427005290985, 0.8673102259635925, 0.6282384991645813, 0.3921060562133789, 0.519733190536499, 0.19371965527534485, 0.2447919100522995, 0.3094497323036194, 1.648574948310852, 0.34105736017227173, 0.05732135474681854, 0.11989685893058777, 0.5797137022018433, 0.5693618655204773, 0.49180805683135986, 0.2266327291727066, 0.5274472832679749, 0.31407487392425537, 0.5501218438148499, 0.49410077929496765, 0.2828056216239929, 0.47875192761421204, 0.18720434606075287, 0.048734478652477264, 0.04538401588797569, -0.012075502425432205, -0.023366762325167656, 0.015786416828632355, 0.06389293819665909, 0.07480966299772263, 0.015801923349499702, 0.033477555960416794, 0.17632128298282623, 0.08590549230575562, -0.002768541220575571, -0.08029775321483612, -0.014855202287435532, 0.17941376566886902, 0.025176988914608955, -0.05774449184536934, -0.004967289045453072, -0.042688678950071335, 0.006494008004665375, -0.013623323291540146, -0.046025797724723816, 0.015770476311445236, -0.025984641164541245, 0.14631624519824982, 0.012794221751391888, 0.02107182703912258, -0.012008288875222206, -0.05404404550790787, 0.09069260209798813, 0.12425866723060608, -0.02248723804950714, -0.030210472643375397, -0.01918240450322628, 0.1783304661512375, -0.1304451823234558, 0.023864582180976868, 0.10038786381483078, 0.22832266986370087, -0.10089249908924103, 0.08482436090707779, 0.2032725065946579, -0.007721425965428352, 0.03336521238088608, 0.03669619560241699, 0.21969209611415863, 0.05081264302134514, 0.17521482706069946, -0.1617954522371292, -0.0318102091550827, 0.06586267799139023, 0.4638466238975525, 0.07879780977964401, -0.13681714236736298, 0.11341943591833115, -0.009450932033360004, 0.08440203219652176, 0.0698389932513237, -0.15110279619693756, 0.25056418776512146, -0.12956133484840393, -0.10615107417106628, -0.2454814463853836, 0.22505611181259155, -0.02298407256603241], "rec.bias_hh_l0": [-0.15327779948711395, -0.2064151167869568, -0.18708819150924683, -0.06282557547092438, -0.197822704911232, 0.09772490710020065, -0.7051770091056824, -0.035254012793302536, 0.20599432289600372, -0.5195625424385071, -0.20018646121025085, -0.19211746752262115, -0.05823633447289467, 0.05957900360226631, 0.13797956705093384, -0.2665806710720062, -0.9815426468849182, 0.015458129346370697, 0.30386096239089966, 0.0564422570168972, -0.21074742078781128, -0.24251091480255127, -0.157527357339859, 0.05013201758265495, -0.2951852083206177, -0.25150734186172485, -0.11016926914453506, -0.2801100015640259, -0.17791497707366943, -0.38874661922454834, 0.030008792877197266, -0.023579472675919533, 0.413079172372818, 0.5784682035446167, 0.19349528849124908, 0.31144994497299194, 0.3676258325576782, 0.3349437713623047, 0.8866292834281921, 0.4117419123649597, 0.3315427005290985, 0.8673102259635925, 0.6282396912574768, 0.3921060562133789, 0.519733190536499, 0.19371968507766724, 0.24541088938713074, 0.309449702501297, 1.5036331415176392, 0.34105736017227173, 0.05240178108215332, 0.11989610642194748, 0.579713761806488, 0.5693618655204773, 0.49180805683135986, 0.2266327291727066, 0.5274472832679749, 0.31407487392425537, 0.5501218438148499, 0.49410077929496765, 0.2828056216239929, 0.47875186800956726, 0.18746161460876465, 0.048734478652477264, 0.0718664601445198, 0.025829626247286797, 0.0004741263692267239, -0.05732830613851547, 0.0613829530775547, 0.04489760845899582, -0.011012635193765163, 0.046400848776102066, 0.1617203950881958, 0.06988492608070374, -0.022854063659906387, -0.11488138884305954, 0.026259606704115868, 0.21661603450775146, -0.03640788793563843, -0.02034107781946659, 0.14025844633579254, 0.052649810910224915, -0.16202914714813232, -0.12111511081457138, 0.03399853780865669, 0.04753686860203743, -0.011503687128424644, 0.16045384109020233, 0.09685160219669342, 0.050028037279844284, -0.03781558945775032, -0.10342662036418915, 0.09588319063186646, -0.04988374188542366, 0.02301299199461937, -0.033223915845155716, -0.01918240450322628, 0.1783304661512375, -0.1303844302892685, 0.023864582180976868, 0.10038786381483078, 0.22832266986370087, -0.10089249908924103, 0.08482436090707779, 0.2032725065946579, -0.007721425965428352, 0.033365193754434586, 0.036696191877126694, 0.21969209611415863, 0.05081266164779663, 0.17468301951885223, -0.1617954522371292, -0.03684345260262489, 0.06586267799139023, 0.46388787031173706, 0.07878151535987854, -0.13681714236736298, 0.11341943591833115, -0.009450932033360004, 0.08440203219652176, 0.0698389932513237, -0.15110279619693756, 0.25056418776512146, -0.12956133484840393, -0.10615107417106628, -0.2454814463853836, 0.22497665882110596, -0.02298407256603241], "lin.weight": [[0.26827505230903625, 0.39179727435112, 0.4412153661251068, 0.09715187549591064, 0.4219724237918854, -0.33831897377967834, 0.10398487001657486, -0.1214432418346405, 0.03410749137401581, -0.1462680995464325, -0.3509310185909271, 0.2722871005535126, 0.07488483190536499, 0.08588690310716629, -0.4352168142795563, 0.19173413515090942, 0.33932751417160034, 0.09655915945768356, -1.177532434463501, -0.47960394620895386, -0.09560389071702957, 0.24814140796661377, 0.10423670709133148, 0.059868525713682175, -0.15321195125579834, 0.009313677437603474, 0.49413472414016724, 0.18085655570030212, -0.03331034630537033, -0.28016185760498047, -0.870028555393219, 0.12131986767053604]], "lin.bias": [-0.131112739443779]}}