{"model_data": {"model": "SimpleRNN", "input_size": 1, "skip": 1, "output_size": 1, "unit_type": "LSTM", "num_layers": 1, "hidden_size": 32, "bias_fl": true}, "state_dict": {"rec.weight_ih_l0": [[-0.033703092485666275], [0.03189300000667572], [0.37366026639938354], [-0.06496481597423553], [-0.04963420704007149], [-0.07786872237920761], [-0.2762731611728668], [-0.12909728288650513], [0.13774889707565308], [0.300409734249115], [-0.01686902716755867], [0.24635036289691925], [0.1185796931385994], [-0.10507447272539139], [-0.00609304616227746], [-0.06819980591535568], [-0.21750548481941223], [0.0953575149178505], [0.29284679889678955], [-0.23669013381004333], [-0.24479331076145172], [-0.10108166933059692], [-0.27464237809181213], [0.034573353826999664], [0.07525628805160522], [0.06002410501241684], [-0.2072061151266098], [0.21442554891109467], [-0.18369963765144348], [-0.10886479169130325], [-0.21754051744937897], [-0.21135853230953217], [-0.4062017500400543], [0.1784825623035431], [0.05037807300686836], [0.061620552092790604], [-0.014943210408091545], [-0.07423780113458633], [-0.20803219079971313], [0.10155005753040314], [0.14839884638786316], [0.6979153156280518], [-0.03388010710477829], [0.2602972388267517], [0.12420918047428131], [-0.03382004052400589], [0.21580719947814941], [0.23588871955871582], [-0.022482866421341896], [0.10208987444639206], [0.0863846093416214], [0.11986278742551804], [-0.2553779184818268], [0.01684383489191532], [0.05649654194712639], [0.0007000602199696004], [0.11988511681556702], [0.07794910669326782], [0.18276625871658325], [0.15075352787971497], [0.008957979269325733], [-0.19765402376651764], [-0.10669421404600143], [0.1917462795972824], [-0.18631859123706818], [0.09022566676139832], [0.3163331151008606], [-0.5367577075958252], [0.13247297704219818], [-0.10160627216100693], [0.1598730832338333], [0.20298777520656586], [-0.018589144572615623], [0.1995941400527954], [0.05201892554759979], [-0.14688456058502197], [-0.2752606272697449], [0.4048389494419098], [0.9448814392089844], [-0.04028460383415222], [0.049196965992450714], [-0.09393464773893356], [-0.27788400650024414], [-0.27608034014701843], [0.46295154094696045], [0.10864558070898056], [-0.3846329152584076], [0.04561658948659897], [-0.07014887034893036], [-0.23954463005065918], [0.09175052493810654], [-0.02736743725836277], [-0.2405143827199936], [-0.02760762721300125], [0.3415130376815796], [0.46051713824272156], [0.4083921015262604], [0.10093140602111816], [0.06419290602207184], [-0.015476644039154053], [-0.0927579328417778], [0.4277809262275696], [-0.065217986702919], [-0.05366264656186104], [0.23330524563789368], [0.32126492261886597], [0.1563642919063568], [0.357442170381546], [-0.40903952717781067], [-0.03056834638118744], [-0.2876189649105072], [-0.136276513338089], [-0.08004346489906311], [0.13234776258468628], [0.30426856875419617], [0.2428220808506012], [-0.35655832290649414], [0.07726156711578369], [-0.509788453578949], [-0.16768720746040344], [0.008268107660114765], [0.15353958308696747], [0.10713440179824829], [0.1452217400074005], [-0.049793124198913574], [0.2340470254421234], [-0.013370051048696041], [0.4440438151359558]], "rec.weight_hh_l0": [[-0.2593546211719513, 0.011536972597241402, -0.15265201032161713, -0.14139431715011597, -0.11414702236652374, -0.10571207851171494, -0.19475212693214417, -0.3872830271720886, 0.5379197001457214, 0.4576922357082367, -0.5262423753738403, -0.16448518633842468, 0.024256380274891853, 0.1117156445980072, -0.36069294810295105, -0.16242766380310059, 0.06987506151199341, 0.42916789650917053, -0.5011330842971802, -0.26849985122680664, -0.19460225105285645, -0.17419403791427612, 0.46495404839515686, 0.2602466344833374, 0.06930139660835266, 0.06749175488948822, 0.21700206398963928, 0.13065725564956665, -0.21464873850345612, -0.14349250495433807, -0.23318983614444733, 0.5936844348907471], [0.17005394399166107, -0.19099710881710052, -0.05730002373456955, 0.012013949453830719, -0.018116435036063194, -0.0587373822927475, -0.06623635441064835, 0.04369877651333809, 0.09014502912759781, 0.21828007698059082, -0.09786961227655411, -0.10421563684940338, 0.029140053316950798, -0.009160337969660759, -0.06997404247522354, -0.3269615173339844, 0.021573957055807114, 0.07484438270330429, 0.023599814623594284, 0.22522959113121033, -0.1408163607120514, -0.15499143302440643, 0.12926572561264038, 0.16627353429794312, -0.06752626597881317, 0.1546512246131897, 0.1690630465745926, 0.09019223600625992, 0.02461322583258152, -0.01410222239792347, -0.18243959546089172, 0.11253169178962708], [-0.009520890191197395, 0.040061380714178085, -0.10049651563167572, 0.06166465952992439, -0.15702509880065918, -0.012745164334774017, -0.3168352544307709, -0.21895428001880646, 0.19093064963817596, 0.12086906284093857, -0.2034209966659546, -0.17789512872695923, -0.05025031045079231, 0.16426712274551392, -0.23526115715503693, -0.060551952570676804, 0.037883542478084564, 0.17505672574043274, -0.12991541624069214, -0.03780974820256233, 0.023476002737879753, 0.07939232140779495, 0.18107256293296814, 0.23757542669773102, -0.47559818625450134, 0.0632614940404892, -0.042715929448604584, -0.03353944048285484, -0.03933848813176155, -0.005555673036724329, -0.07229377329349518, 0.19191421568393707], [0.1136133223772049, 0.0754939392209053, -0.09082571417093277, 0.12484754621982574, -0.137090802192688, -0.01887815073132515, 0.07687490433454514, 0.006828724406659603, 0.12221905589103699, -0.013600921258330345, -0.02518373727798462, 0.3703932464122772, -0.12864156067371368, -0.056960150599479675, -0.26887047290802, -0.010448283515870571, 0.051405854523181915, 0.10981494933366776, -0.06060486286878586, 0.0970761701464653, -0.058046501129865646, -0.36725515127182007, 0.10413937270641327, 0.19440771639347076, -0.3583793342113495, 0.14665587246418, 0.022098610177636147, -0.06373202055692673, 0.09109501540660858, 0.13240504264831543, -0.07655549049377441, 0.06868576258420944], [-0.10735934972763062, -0.22762276232242584, 0.03787340596318245, -0.08526681363582611, 0.08330509066581726, -0.2521851062774658, 0.022148484364151955, 0.018877211958169937, 0.06367703527212143, -0.15935373306274414, -0.03817403316497803, -0.05765552073717117, -0.0926821306347847, -0.06717600673437119, -0.08379849791526794, -0.26305878162384033, 0.001044878619723022, 0.04832649230957031, -0.03356555849313736, 0.2640528976917267, -0.12495078891515732, 0.016113707795739174, 0.08260633796453476, -0.09851688146591187, 0.06521344184875488, -0.03893915191292763, 0.146579772233963, -0.15486745536327362, 0.04744240641593933, 0.202029287815094, -0.05177631974220276, 0.046812158077955246], [-0.07939412444829941, -0.29989901185035706, -0.8702259063720703, -0.0240236297249794, -0.3294743299484253, -0.18636012077331543, -0.3265702426433563, -0.1773393452167511, 0.2155115157365799, -0.10177535563707352, -0.11957340687513351, 0.07477805763483047, 0.05988769233226776, -0.13318775594234467, -0.41190579533576965, -0.05025169625878334, 0.07996632158756256, 0.16351601481437683, -0.26469260454177856, 0.4037710428237915, 0.01738150604069233, -0.019337497651576996, 0.10106004029512405, 0.3112889528274536, -0.6243926286697388, 0.2245749533176422, -0.13413329422473907, 0.18637369573116302, 0.05452089384198189, 0.21111920475959778, -0.018793052062392235, 0.1430300623178482], [0.03873331472277641, -0.10579374432563782, -0.2886030077934265, -0.07573458552360535, 0.044956158846616745, -0.03993470221757889, -0.005821871571242809, 0.0359935536980629, -0.06642375141382217, -0.1199503093957901, 0.00901961699128151, -0.2693006098270416, 0.015119710937142372, -0.10910147428512573, 0.08323782682418823, 0.15143252909183502, -0.21140529215335846, -0.05346965044736862, 0.06392133235931396, -0.05775497481226921, 0.02319779247045517, -0.1510050892829895, -0.03016170859336853, -0.03437059000134468, -0.0963498055934906, 0.23617324233055115, -0.05978943407535553, -0.04575912281870842, 0.04354197531938553, 0.18070656061172485, 0.019408702850341797, -0.013457409106194973], [0.1985175907611847, 0.09655692428350449, 0.10796776413917542, -0.010333102196455002, -0.23367908596992493, 0.2383819967508316, 0.06449821591377258, -0.04557448998093605, 0.10296884924173355, 0.056846123188734055, -0.12885381281375885, -0.06964287906885147, -0.06784380227327347, -0.10502099990844727, -0.0923425704240799, 0.12946413457393646, 0.15368419885635376, 0.10154084861278534, -0.10955561697483063, -0.1266299933195114, 0.012587769888341427, -0.1706962138414383, 0.1494758576154709, 0.6165886521339417, 0.007498378865420818, 0.22991131246089935, -0.008919520303606987, 0.37438735365867615, -0.028567127883434296, 0.2090647667646408, -0.045582227408885956, 0.09853784739971161], [0.03827032446861267, -0.014015796594321728, -0.033583179116249084, -0.06941338628530502, -0.035370130091905594, 0.03127545490860939, -0.14018645882606506, 0.05198343098163605, 0.10974372923374176, 0.1746736466884613, -0.07971799373626709, 0.06647416949272156, -0.05622154846787453, -0.04090043157339096, -0.13964083790779114, -0.059693168848752975, -0.03310427814722061, 0.08573202788829803, -0.13965372741222382, -0.01202538050711155, -0.06244269385933876, 0.06707124412059784, 0.09118493646383286, -0.0185104813426733, 0.006023711990565062, 0.02655799314379692, 0.07902122288942337, -0.06498274207115173, -0.07030151784420013, -0.06313575059175491, -0.05356511473655701, 0.06746729463338852], [0.016791947185993195, -0.035165827721357346, 0.14718137681484222, 0.07097041606903076, -0.0008009416051208973, 0.06387119740247726, 0.21630291640758514, -0.11912154406309128, 0.10639942437410355, -0.022842377424240112, -0.0486605279147625, -0.10435518622398376, 0.07430385798215866, -0.09602592140436172, -0.010746842250227928, -0.2295873612165451, -0.033339519053697586, 0.0708664059638977, -0.08771898597478867, -0.17640267312526703, -0.05956118926405907, -0.189948171377182, 0.09744938462972641, 0.09144812077283859, 0.1763981133699417, -0.04942363128066063, 0.3173219859600067, 0.07548485696315765, -0.027589166536927223, 0.1106579601764679, -0.04436062276363373, 0.032075185328722], [-0.09297294169664383, 0.03625183925032616, -0.011823861859738827, 0.03725691884756088, -0.056355416774749756, -0.05919178947806358, -0.03870784863829613, 0.042364414781332016, 0.045533113181591034, -0.05077740177512169, -0.16634443402290344, 0.045762188732624054, -0.07394716888666153, 0.05916370451450348, 0.08308536559343338, -0.00020707061048597097, 0.1317785233259201, 0.026895590126514435, 0.0009195638704113662, -0.030647670850157738, -0.008122633211314678, 0.0393582284450531, 0.24298347532749176, -0.02459421381354332, -0.005476231221109629, -0.11382553726434708, -0.012881781905889511, -0.06196734681725502, -0.03573304042220116, -0.04425062984228134, -0.11482734978199005, 0.028614532202482224], [0.014216468669474125, -0.1975780427455902, -0.13875792920589447, -0.027017537504434586, 0.04960132762789726, 0.13062158226966858, -0.025097597390413284, -0.059012413024902344, 0.030095262452960014, -0.028909903019666672, -0.03603119030594826, -0.08543024957180023, 0.0730028972029686, -0.027720067650079727, 0.004380053840577602, 0.14267681539058685, 0.1542510837316513, 0.031881581991910934, -0.10002051293849945, -0.08893352746963501, -0.07478652149438858, 0.19760408997535706, 0.021597106009721756, 0.14775386452674866, -0.005408914759755135, 0.018113719299435616, 0.13729754090309143, -0.019923698157072067, -0.0603988915681839, -0.11532498896121979, -0.08809734880924225, 0.04204929247498512], [-0.01207190752029419, -0.2879217863082886, -0.0860128328204155, -0.10125770419836044, 0.10774002969264984, 0.10796640813350677, -0.010630613192915916, -0.08850276470184326, -0.09338920563459396, -0.10720422118902206, 0.05942859500646591, -0.02909846045076847, -0.021269964054226875, -0.1107921376824379, 0.16461199522018433, -0.04324642941355705, -0.06599284708499908, -0.08720267564058304, 0.23820357024669647, 0.11262300610542297, 0.11970994621515274, 0.05968577787280083, 0.14713142812252045, -0.0865606814622879, 0.15310323238372803, 0.04314302280545235, 0.005084780976176262, 0.07832081615924835, 0.0768124908208847, -0.12286332249641418, 0.018915235996246338, -0.29539841413497925], [0.01550157368183136, 0.218152716755867, 0.10301870107650757, 0.057449523359537125, -0.0017459806986153126, 0.12344172596931458, 0.06845414638519287, 0.10502675175666809, 0.06243474408984184, 0.08375860005617142, 0.07720743864774704, 0.15961085259914398, -0.3866656720638275, 0.12646916508674622, -0.17182381451129913, -0.07766438275575638, -0.18797767162322998, 0.017133407294750214, -0.031557805836200714, 0.08368323743343353, 0.020081529393792152, 0.11833970993757248, -0.06156129017472267, 0.0017117593670263886, -0.13560384511947632, -0.20521242916584015, 0.10445588827133179, -0.011549919843673706, 0.13811078667640686, 0.006178782321512699, 0.04645140469074249, -0.041225966066122055], [-0.06689830124378204, -0.02592620812356472, -0.02575167454779148, 0.21724268794059753, 0.10274706035852432, -0.16177521646022797, 0.0032837206963449717, -0.17128947377204895, 0.030183423310518265, -0.051311757415533066, -0.15220576524734497, -0.131177619099617, -0.11216853559017181, 0.06677278876304626, -0.16534502804279327, -0.13016006350517273, 0.2639619708061218, 0.03320470452308655, -0.09736823290586472, -0.03042941354215145, 0.04355575144290924, -0.0629178062081337, -0.18958838284015656, -0.229019433259964, 0.07474004477262497, -0.18853308260440826, -0.1397157609462738, -0.161654993891716, -0.13147899508476257, 0.10161531716585159, -0.18149031698703766, 0.18751464784145355], [0.0020936329383403063, 0.1442878246307373, -0.06917931884527206, -0.003042670199647546, -0.14584442973136902, 0.05397579446434975, -0.05029940977692604, 0.0387747623026371, -0.06885785609483719, -0.011312948539853096, 0.023549716919660568, 0.1536151021718979, -0.018321242183446884, -0.0946015864610672, -0.08462323993444443, -0.07195042818784714, -0.075517438352108, -0.07394536584615707, 0.015678690746426582, 0.032447244971990585, 0.10056771337985992, 0.11555395275354385, -0.010814127512276173, 0.08005975931882858, -0.13653266429901123, -0.16214321553707123, -0.14554473757743835, 0.17678673565387726, 0.1664055585861206, 0.06526006758213043, 0.005705683026462793, 0.034935303032398224], [0.0864574983716011, 0.0026761419139802456, -0.07514838874340057, -0.15104955434799194, -0.0418497659265995, 0.13431285321712494, 0.011490700766444206, 0.056022968143224716, 0.027503274381160736, 0.33150437474250793, -0.06571014970541, 0.053768400102853775, 0.15721815824508667, -0.0019435894209891558, 0.1800912320613861, 0.08908432722091675, -0.025584528222680092, 0.007581531535834074, -0.020779987797141075, -0.21217529475688934, -0.0205437820404768, 0.07748337090015411, 0.05634928494691849, 0.1858924925327301, 0.041735801845788956, -0.09283800423145294, -0.031020067632198334, 0.1445707231760025, -0.06666403263807297, -0.11935602873563766, -0.05952591449022293, 0.13008905947208405], [-0.0028511672280728817, -0.010151681490242481, -0.05008593946695328, -0.012256053276360035, -0.0698951929807663, 0.02727336436510086, -0.11890935152769089, 0.03510203957557678, 0.06012126803398132, 0.13755182921886444, -0.02742782235145569, 0.04395359754562378, -0.05762593075633049, -0.013510952703654766, -0.15250980854034424, 0.0031723619904369116, -0.0209160465747118, 0.05046764388680458, -0.09896215796470642, -0.08447445183992386, -0.042256034910678864, 0.0577835738658905, 0.03858048841357231, -0.013703668490052223, 0.07673594355583191, 0.022127117961645126, -0.03251485154032707, -0.06156941130757332, -0.08885937929153442, -0.09365976601839066, -0.014669605530798435, 0.0248040072619915], [0.15665407478809357, -0.21942183375358582, -0.03987697884440422, -0.07308835536241531, -0.0019876016303896904, 0.04088115692138672, -0.12992580235004425, -0.1145775243639946, 0.08605072647333145, 0.33277878165245056, -0.0609053410589695, -0.23905973136425018, 0.12260112911462784, -0.03498820960521698, -0.015538251027464867, -0.2189997285604477, -0.1827268749475479, 0.08473788946866989, -0.27261248230934143, 0.14429369568824768, 0.02201399765908718, 0.020781351253390312, 0.01997404731810093, 0.07901816070079803, 0.18339228630065918, -0.12913750112056732, -0.11766733974218369, 0.023286467418074608, -0.044301822781562805, -0.04729443043470383, 0.02216195873916149, 0.03362583369016647], [0.11736446619033813, -0.09360433369874954, 0.1646842062473297, 0.17563897371292114, -0.008296403102576733, -0.023542188107967377, -0.07247999310493469, -0.06538542360067368, 0.03341254964470863, -0.09230057895183563, 0.04714348912239075, -0.03019576705992222, -0.03538583219051361, 0.04141278192400932, -0.1730838567018509, 0.030019646510481834, -0.04478595778346062, 0.027035927399992943, -0.19432416558265686, -0.16296695172786713, -0.004872582852840424, -0.21119052171707153, 0.025546448305249214, -0.056320834904909134, 0.17628800868988037, -0.07811161875724792, -0.1458452045917511, -0.046104371547698975, 0.13174188137054443, 0.06112455949187279, 0.06437548249959946, -0.03707073628902435], [-0.0872197151184082, -0.010388227179646492, 0.04115649685263634, 0.10818465799093246, -0.010728873312473297, 0.06636404246091843, -0.010273695923388004, 0.003907982259988785, 0.04408484697341919, 0.03644229844212532, -0.05180884525179863, 0.045111581683158875, -0.1377328783273697, 0.10743279755115509, 0.04630960151553154, -0.14387695491313934, 0.14249327778816223, 0.042784858494997025, -0.04672731086611748, -0.09574161469936371, -0.10487436503171921, 0.05295965075492859, 0.10663513839244843, 0.09968048334121704, 0.08655652403831482, -0.05565917491912842, 0.018276236951351166, 0.016018802300095558, -0.08001722395420074, -0.13282372057437897, -0.05101723223924637, 0.0024366003926843405], [-0.003626226680353284, 0.11468397080898285, 0.050964709371328354, -0.04461510479450226, -0.11422449350357056, -0.06956270337104797, -0.24291308224201202, -0.3438148498535156, 0.22206296026706696, 0.16099102795124054, -0.15785819292068481, 0.10692330449819565, 0.07119925320148468, -0.10260871052742004, -0.23179103434085846, 0.20642507076263428, 0.1797035187482834, 0.20383931696414948, -0.2584604322910309, 0.00450381264090538, -0.16176114976406097, -0.14328661561012268, 0.17530450224876404, 0.2033538669347763, -0.20686155557632446, 0.38106217980384827, 0.068049356341362, 0.08156483620405197, -0.16521069407463074, -0.12055397033691406, -0.17134395241737366, 0.14148525893688202], [-0.08393247425556183, -0.07633911818265915, -0.025321612134575844, -0.1205272302031517, 0.018551435321569443, 0.04831288009881973, -0.018969031050801277, 0.018009528517723083, -0.09401117265224457, -0.16438700258731842, -0.026244670152664185, 0.0093223350122571, 0.02796960435807705, -0.07146354764699936, 0.27506861090660095, -0.03822016343474388, 0.12425215542316437, -0.10603474080562592, 0.22816918790340424, -0.24712243676185608, -0.048530567437410355, 0.06065952777862549, 0.038832973688840866, 0.002153063891455531, -0.024092944338917732, -0.10200998187065125, 0.19416430592536926, -0.05193623900413513, 0.14415405690670013, -0.024943094700574875, -0.05185350403189659, -0.05753793194890022], [-0.041332077234983444, -0.153082013130188, -0.3398144543170929, -0.005231376737356186, 0.02224579080939293, 0.2883710563182831, -0.04294756054878235, 0.033991001546382904, 0.05526750907301903, -0.009875519201159477, -0.11206791549921036, 0.04220206290483475, -0.049814704805612564, 0.07954427599906921, 0.12250472605228424, 0.1983124315738678, 0.062114860862493515, 0.0493893176317215, 0.04036181792616844, -0.06549853086471558, -0.1029013991355896, -0.02866331860423088, 0.17389151453971863, 0.08939346671104431, -0.11508651077747345, 0.17823755741119385, -0.023676028475165367, -0.03560592606663704, -0.12172960489988327, -0.05983074754476547, -0.09744139015674591, 0.07219651341438293], [-0.03435874730348587, -0.15071114897727966, -0.3069118559360504, -0.055408675223588943, -0.014037078246474266, -0.07705178111791611, -0.0668322741985321, -0.10596637427806854, 0.0007161670946516097, -0.326251357793808, 0.049827396869659424, -0.1822410523891449, 0.12459278851747513, -0.06641241163015366, -0.11902178823947906, 0.21446554362773895, 0.058848440647125244, 0.001578044262714684, -0.026721345260739326, -0.10372834652662277, 0.13879083096981049, -0.08593200892210007, -0.0817236602306366, -0.08579031378030777, 0.1244070753455162, 0.22906358540058136, -0.05872174724936485, 0.1059352308511734, -0.007721498608589172, 0.2185090184211731, 0.06703395396471024, -0.015436605550348759], [0.08477412909269333, 0.026342082768678665, 0.010639273561537266, 0.10854681581258774, 0.09746714681386948, -0.09706883877515793, -0.033141762018203735, -0.04677984490990639, 0.03344476595520973, 0.0784345492720604, 0.03036532923579216, 0.08201990276575089, -0.11191470921039581, 0.0664042979478836, -0.02428174391388893, -0.06576275080442429, -0.0805332362651825, 0.029227348044514656, 0.09376600384712219, 0.10787809640169144, -0.07404288649559021, 0.22977539896965027, 0.019765136763453484, -0.029872840270400047, -0.05059397965669632, 0.06228764355182648, 0.03232167288661003, -0.051213882863521576, -0.11688105016946793, -0.07686809450387955, -0.029405172914266586, 0.002931891940534115], [0.05669129639863968, -0.37649595737457275, -0.14164569973945618, -0.1456519514322281, 0.30704525113105774, -0.03432191535830498, 0.10299462825059891, -0.021188724786043167, -0.11534646153450012, -0.19377432763576508, 0.2988705337047577, 0.018176967278122902, -0.3303205668926239, -0.04832678288221359, 0.03672463446855545, 0.014533227309584618, 0.179536834359169, -0.1189766600728035, 0.07783295214176178, 0.1343580186367035, 0.07879603654146194, 0.02234613709151745, 0.24978797137737274, -0.08361099660396576, 0.014661002904176712, 0.12007251381874084, -0.13818834722042084, -0.03629549220204353, 0.05752556398510933, 0.13993951678276062, 0.3322218954563141, -0.24954164028167725], [-0.1849365234375, 0.10684902220964432, 0.08728037774562836, -0.03670318052172661, -0.06828177720308304, -0.07271789759397507, -0.18417972326278687, -0.04153280705213547, 0.2033310830593109, 0.01816561259329319, -0.11141898483037949, 0.21228806674480438, 0.003636915236711502, 0.07262995839118958, -0.2004733383655548, 0.05774058774113655, 0.019713642075657845, 0.16747230291366577, -0.029349150136113167, -0.21878351271152496, -0.02632094919681549, 0.20846164226531982, 0.1587093621492386, -0.10603445023298264, 0.005599328316748142, -0.10313549637794495, 0.13258521258831024, -0.31956636905670166, -0.07688774913549423, -0.24072083830833435, -0.012115721590816975, 0.13602851331233978], [-0.04278338700532913, -0.012823979370296001, -0.1700570285320282, -0.11240632086992264, 0.07293690741062164, 0.027741428464651108, -0.008226150646805763, -0.007936444133520126, 0.026225658133625984, 0.06173686683177948, -0.10826601088047028, -0.12044123560190201, -0.05625532194972038, -0.05316830426454544, 0.09527722746133804, 0.06330016255378723, 0.008049894124269485, 0.01394746545702219, -0.0748562142252922, 0.019342593848705292, -0.04953610897064209, 0.14548359811306, 0.12206540256738663, 0.00018921185983344913, 0.06667684763669968, -0.029644675552845, 0.006017554085701704, -0.01883244700729847, -0.10455290973186493, -0.019509948790073395, -0.1267910748720169, -0.003046486061066389], [-0.04450136050581932, -0.05546267703175545, -0.04300938919186592, -0.12554004788398743, -0.30289602279663086, -0.33184340596199036, 0.10171102732419968, 0.16329261660575867, 0.11806929111480713, -0.08314605057239532, -0.0815386101603508, 0.22515109181404114, -0.29278266429901123, 0.35037916898727417, -0.23098629713058472, -0.3136908710002899, 0.18415135145187378, 0.1361989825963974, 0.05541374161839485, 0.23468393087387085, -0.21815834939479828, -0.3578684329986572, 0.07311658561229706, 0.0073265195824205875, -0.6761007905006409, 0.19911812245845795, 0.02173946239054203, -0.71308833360672, -0.0849350318312645, 0.04542428255081177, -0.12439525872468948, 0.04005511477589607], [-0.05033954605460167, 0.02188151329755783, -0.08220427483320236, 0.019324898719787598, 0.0010347592178732157, -0.03199075162410736, -0.05889526382088661, 0.02540602907538414, -0.011604164727032185, -0.013521535322070122, -0.07137192040681839, 0.12891055643558502, -0.25804176926612854, 0.1186254546046257, 0.15166515111923218, -0.08819620311260223, 0.031009351834654808, -0.017206119373440742, 0.11549285054206848, -0.01582941599190235, -0.018899770453572273, 0.11490713804960251, 0.22370252013206482, 0.03379621356725693, 0.0760701447725296, -0.0452093742787838, -0.04202421009540558, -0.02202587202191353, -0.001706909155473113, -0.045333381742239, -0.06893493235111237, -0.020206857472658157], [-0.03920996934175491, -0.21034719049930573, 0.0385730043053627, -0.13822272419929504, 0.07918037474155426, 0.06915046274662018, -0.11386318504810333, 0.05130361393094063, 0.04441259056329727, 0.06060751900076866, -0.09126821160316467, 0.24810120463371277, 0.04859844967722893, -0.16484183073043823, -0.1265115737915039, -0.10379837453365326, -0.15180683135986328, 0.02572563663125038, -0.14887644350528717, 0.22367066144943237, -0.02416693978011608, 0.08674722909927368, 0.046344559639692307, 0.0051365867257118225, 0.0035578410606831312, -0.015246281400322914, 0.10115240514278412, -0.052742600440979004, 0.04641808196902275, -0.00041174038778990507, -0.07738552242517471, 0.10006927698850632], [0.5351451635360718, 0.031753040850162506, -0.18832185864448547, -0.31970149278640747, -0.1793140023946762, -0.10867645591497421, -0.045832712203264236, -0.718403160572052, 0.43160128593444824, 0.5525617003440857, -0.3903772830963135, 0.05981948599219322, 0.37475672364234924, 0.32892081141471863, -0.2574664354324341, -0.17015346884727478, 0.21985431015491486, 0.3835676312446594, -0.32632875442504883, 0.031067870557308197, -0.32559269666671753, -0.4671153724193573, 0.35538938641548157, 0.27843335270881653, 0.06340370327234268, 0.15802626311779022, 0.009745437651872635, 0.02445932850241661, -0.27471256256103516, 0.4163588285446167, -0.36860066652297974, 0.3787853419780731], [0.25008198618888855, -0.46448907256126404, 0.03399617224931717, -0.11059533804655075, 0.0923805683851242, 0.19629570841789246, 0.017943641170859337, -0.08412797003984451, 0.049535851925611496, 0.327157199382782, -0.10200051963329315, -0.2240811288356781, -0.06470507383346558, -0.036060724407434464, 0.012543355114758015, -0.29100489616394043, -0.12885428965091705, 0.045393217355012894, 0.04256805405020714, 0.1237480640411377, -0.1951841115951538, -0.18031416833400726, 0.13822214305400848, 0.3086002767086029, 0.030688393861055374, 0.2458934783935547, 0.21786239743232727, 0.16140954196453094, 0.03852967917919159, 0.03165310248732567, -0.18373934924602509, 0.1211395114660263], [-0.11678615212440491, -0.08411570638418198, 0.012334376573562622, 0.3508182466030121, -0.07680918276309967, -0.4183511435985565, 0.004075878765434027, -0.220934197306633, 0.16275736689567566, 0.1286991387605667, -0.14583861827850342, -0.08696353435516357, 0.08396811783313751, -0.15727880597114563, -0.17224839329719543, -0.0011287363013252616, 0.11823910474777222, 0.17030386626720428, -0.03922925144433975, -0.3653014302253723, -0.22430561482906342, 0.12845714390277863, 0.20307733118534088, 0.08685220032930374, -0.09144027531147003, 0.29198625683784485, 0.04981066286563873, -0.15341295301914215, -0.04491967335343361, -0.1955692023038864, -0.11223983019590378, 0.16108202934265137], [0.03017999231815338, 0.10028492659330368, 0.3753238916397095, 0.17643478512763977, -0.1751134842634201, -0.041641075164079666, -0.006657963618636131, 0.10321438312530518, 0.23256534337997437, 0.06400573998689651, -0.13958489894866943, 0.19706358015537262, -0.21296001970767975, 0.13738104701042175, -0.39326080679893494, -0.12831665575504303, 0.12776881456375122, 0.22133947908878326, -0.18649698793888092, 0.07841984927654266, -0.0942007526755333, -0.5186351537704468, 0.198442280292511, 0.29393887519836426, -0.2631906569004059, 0.07226695120334625, -0.09498048573732376, -0.20991070568561554, -0.015302897430956364, -0.0996350571513176, -0.11197257786989212, 0.1981891542673111], [-0.022538645192980766, -0.1453450620174408, 0.08306165039539337, 0.005974714178591967, 0.05154271423816681, -0.3323487341403961, 0.08979040384292603, -0.08200334012508392, 0.1346788853406906, -0.10498112440109253, -0.13019178807735443, -0.18574218451976776, -0.18575653433799744, 0.06956595927476883, -0.09135930240154266, -0.22874142229557037, 0.03595682978630066, 0.11809586733579636, -0.0739004984498024, 0.04206616058945656, -0.16657406091690063, -0.02068425714969635, 0.18997463583946228, -0.025509102270007133, 0.06966209411621094, -0.02580203488469124, 0.22957558929920197, -0.1622416079044342, -0.019426314160227776, 0.0916920155286789, -0.117289237678051, 0.12914659082889557], [0.5917624831199646, 0.13960857689380646, 0.1814005821943283, 0.326269268989563, 0.05099153518676758, -0.7140278816223145, 0.4318043887615204, -0.4399968087673187, 0.15640948712825775, 0.3876108229160309, -0.0707687959074974, 0.058904554694890976, 0.5533199310302734, 0.015438316389918327, -0.02998337522149086, 0.0809025913476944, 0.43038856983184814, 0.1276519000530243, -0.1284240037202835, -0.16991665959358215, -0.15368492901325226, -0.0536159984767437, 0.1415252685546875, 0.14147064089775085, 0.04562273994088173, 0.3351600468158722, 0.08731359988451004, 0.17718754708766937, -0.07586723566055298, 0.8443891406059265, 0.008002074435353279, 0.09118390828371048], [0.33042067289352417, 0.07052449882030487, 0.42466527223587036, -0.052780184894800186, -0.019440483301877975, -0.0638233944773674, -0.04114006459712982, -0.3048737645149231, 0.2141018807888031, 0.32651129364967346, -0.28675633668899536, -0.32289764285087585, 0.24121183156967163, -0.04149438813328743, -0.10376640409231186, 0.009069825522601604, -0.04689502716064453, 0.21015438437461853, -0.2006911337375641, -0.24510328471660614, -0.24989654123783112, 0.014843735843896866, 0.2990822196006775, 0.12211507558822632, -0.03767987713217735, 0.18898256123065948, 0.27035000920295715, -0.07808102667331696, -0.1493506133556366, 0.13477416336536407, -0.23720914125442505, 0.2917228639125824], [0.04747539758682251, -0.20281240344047546, 0.26617205142974854, -0.008835742250084877, -0.2273460477590561, 0.18076345324516296, 0.12323420494794846, 0.08771924674510956, 0.20346468687057495, 0.11516027897596359, -0.2323036640882492, -0.26469671726226807, -0.011420072056353092, 0.06648151576519012, -0.15997298061847687, -0.09991844743490219, 0.14515267312526703, 0.20386166870594025, -0.16656988859176636, -0.09868316352367401, -0.2305561900138855, -0.26226410269737244, 0.25748249888420105, 0.10567124933004379, -0.03487924858927727, 0.29210686683654785, 0.18597324192523956, -0.043444689363241196, -0.16474467515945435, 0.21898700296878815, -0.16701896488666534, 0.20070436596870422], [0.017615338787436485, -0.005856937728822231, -0.08449586480855942, -0.09121250361204147, -0.0729236975312233, 0.08576590567827225, -0.1803222894668579, 0.0403808169066906, 0.10598358511924744, 0.23966333270072937, -0.12531022727489471, 0.05811333656311035, 0.0069375596940517426, -0.10172688215970993, -0.09767700731754303, -0.028098467737436295, -0.021207846701145172, 0.08618003129959106, -0.1429147720336914, -0.011060107499361038, -0.10031010210514069, 0.09044785052537918, 0.1464996188879013, 0.04252815619111061, 0.002016327576711774, 0.03490797057747841, 0.048977330327034, -0.015235630795359612, -0.11643119156360626, -0.12262706458568573, -0.09549089521169662, 0.1092638224363327], [0.034874480217695236, 0.11640168726444244, 0.17136341333389282, 0.09896185994148254, -0.1529196947813034, -0.03454210236668587, 0.22951865196228027, -0.055040206760168076, 0.20463475584983826, 0.016675863415002823, -0.19587545096874237, 0.06278671324253082, 0.2658158540725708, 0.011690438725054264, -0.019249290227890015, -0.20603026449680328, -0.05826447531580925, 0.175231471657753, -0.10248872637748718, -0.0622737854719162, -0.20473811030387878, -0.28958386182785034, 0.21088117361068726, 0.01365599874407053, -0.049604736268520355, 0.1786355972290039, 0.3073188066482544, -0.08332792669534683, -0.1893809586763382, 0.14004996418952942, -0.2107894867658615, 0.17254804074764252], [-0.03439367190003395, 0.1009545549750328, -0.016189707443118095, 0.08800900727510452, -0.08960101008415222, -0.09339988976716995, -0.0484306737780571, 0.031134145334362984, 0.05669743940234184, -0.020557163283228874, -0.1754923164844513, 0.00665269372984767, -0.14360862970352173, 0.10384566336870193, 0.19406776130199432, -0.016935493797063828, 0.14782322943210602, 0.036045629531145096, -0.0003932991239707917, -0.18691177666187286, -0.01891554705798626, -0.014775768853724003, 0.3429993689060211, -0.018136586993932724, 0.026098251342773438, -0.12562333047389984, 0.00309958029538393, -0.040266670286655426, -0.059364236891269684, -0.10757887363433838, -0.1227143406867981, -0.01752929762005806], [0.13782255351543427, -0.17521889507770538, -0.034951332956552505, -0.007309550419449806, 0.06761034578084946, 0.15314117074012756, -0.14874912798404694, -0.04793554171919823, 0.1562211811542511, 0.06794673949480057, -0.1601657122373581, -0.17838700115680695, 0.18043118715286255, 0.13538911938667297, -0.08841800689697266, -0.02047000080347061, 0.23705583810806274, 0.14853471517562866, -0.20367950201034546, -0.05072483420372009, -0.15543095767498016, -0.145172119140625, 0.14977236092090607, 0.07652770727872849, -0.07701359689235687, -0.13116200268268585, 0.1984524130821228, -0.2452884018421173, -0.11566118896007538, -0.09802337735891342, -0.17334556579589844, 0.18054699897766113], [0.04554412141442299, -0.08918740600347519, -0.11375612765550613, -0.11941776424646378, -0.12430601567029953, -0.16737796366214752, -0.08047179877758026, 0.00998646579682827, 0.2069409191608429, 0.1418924182653427, -0.1605967879295349, -0.2611258327960968, 0.06375686824321747, 0.0817706435918808, 0.06632769107818604, -0.16928288340568542, 0.2737668752670288, 0.21616888046264648, -0.05944417044520378, 0.05284551903605461, -0.06759057939052582, -0.09998222440481186, -0.1656228005886078, 0.014955961145460606, -0.03866955265402794, 0.15364032983779907, 0.24864406883716583, -0.11934026330709457, -0.14958611130714417, -0.2287062257528305, -0.20717798173427582, -0.0665680542588234], [0.02222268283367157, 0.4413434863090515, 0.1142248809337616, 0.08273667842149734, -0.25764235854148865, 0.030745333060622215, -0.07113128900527954, 0.19723229110240936, 0.32684850692749023, 0.4222232401371002, -0.21962828934192657, 0.34989622235298157, -0.3094828426837921, 0.28088775277137756, -0.39174801111221313, -0.0918346494436264, -0.00705911498516798, 0.28685006499290466, -0.1552247852087021, 0.028097569942474365, -0.2139570713043213, 0.024904189631342888, 0.2368483543395996, 0.2086600363254547, -0.3094128966331482, 0.20339049398899078, 0.16395820677280426, -0.05309031158685684, -0.23980356752872467, -0.017196742817759514, -0.23754262924194336, 0.23721694946289062], [-0.17302650213241577, 0.18874722719192505, -0.20168901979923248, 0.05051349848508835, -0.08252182602882385, -0.07247696071863174, -0.01704654097557068, 0.10287082940340042, 0.05114826560020447, 0.0924992561340332, 0.17850930988788605, 0.1868261694908142, -0.32499656081199646, -0.1223364993929863, -0.3072958290576935, 0.10460714995861053, 0.3642895817756653, 0.0532696396112442, -0.2106037139892578, 0.049817826598882675, 0.04127975553274155, 0.10685423761606216, -0.34639838337898254, -0.10924434661865234, -0.15264670550823212, -0.1190018579363823, -0.25075191259384155, -0.15138980746269226, -0.026661505922675133, -0.013574947603046894, 0.1280939280986786, 0.18776237964630127], [0.038109879940748215, 0.18664218485355377, -0.02910839393734932, 0.011936930008232594, -0.14280839264392853, -0.04670746996998787, -0.0035933253820985556, -0.1938091516494751, 0.16075891256332397, 0.1599263697862625, -0.2708469331264496, -0.16665251553058624, 0.16136005520820618, 0.07172469049692154, -0.01929471455514431, -0.05833014100790024, 0.026121681556105614, 0.15696705877780914, -0.15693961083889008, -0.0234198197722435, -0.10101926326751709, -0.12201371043920517, 0.28100961446762085, -0.010616268031299114, -0.22328433394432068, -0.01389685645699501, -0.16582417488098145, 0.0180505458265543, -0.16466601192951202, -0.05014351010322571, -0.27218976616859436, 0.33301645517349243], [0.08656811714172363, 0.09659851342439651, 0.006250822450965643, 0.04022754356265068, -0.11931825429201126, 0.1008993610739708, -0.058502085506916046, -0.005972398445010185, 0.13420067727565765, 0.3295690417289734, -0.17316798865795135, -0.09971452504396439, 0.2319526970386505, 0.1648906022310257, 0.14849220216274261, 0.16027332842350006, 0.16926699876785278, 0.11839322745800018, -0.11790179461240768, -0.2851063907146454, -0.1289280354976654, -0.06116756424307823, 0.15975069999694824, 0.08613146841526031, 0.032277848571538925, -0.11523830145597458, -0.24764497578144073, -0.02024458535015583, -0.22093158960342407, -0.26180726289749146, -0.1474769562482834, 0.24119055271148682], [-0.04010327160358429, -0.008763379417359829, -0.07233204692602158, -0.021524524316191673, -0.09463320672512054, 0.06354715675115585, -0.11447933316230774, 0.03286369517445564, 0.053789958357810974, 0.17335061728954315, -0.06440499424934387, 0.05004847049713135, -0.01874708943068981, -0.06108444184064865, -0.11174001544713974, 0.04205481335520744, -0.005789067596197128, 0.04728863015770912, -0.09580052644014359, -0.06659259647130966, -0.0682353675365448, 0.07981276512145996, 0.07735549658536911, 0.020903872326016426, 0.08640606701374054, 0.03209701180458069, -0.0721583366394043, -0.03596736863255501, -0.11544990539550781, -0.12034232914447784, -0.04648234695196152, 0.05730854719877243], [0.037233866751194, -0.04326895996928215, -0.22087045013904572, -0.27495694160461426, -0.20028744637966156, 0.11688844859600067, -0.2352050393819809, 0.03694858402013779, 0.19471460580825806, 0.44329962134361267, -0.21979865431785583, -0.015097199007868767, 0.3384903371334076, -0.22322113811969757, -0.05537648871541023, -0.0972653180360794, -0.15869219601154327, 0.18710054457187653, -0.3138221204280853, 0.3241927921772003, -0.07707294076681137, 0.12042580544948578, 0.19908763468265533, 0.1448713093996048, -0.026798216626048088, 0.04316487908363342, -0.11237943172454834, 0.07003305107355118, -0.14367304742336273, -0.11760786920785904, -0.18360258638858795, 0.19188359379768372], [-0.02359401434659958, 0.48495134711265564, -0.059486500918865204, 0.06892973929643631, -0.06043792515993118, -0.10225750505924225, -0.1872251331806183, -0.025670208036899567, 0.2590324282646179, 0.1900220513343811, -0.2700645923614502, 0.12116359174251556, 0.09509850293397903, 0.21868325769901276, -0.2909262478351593, 0.04287567734718323, 0.0846334770321846, 0.2393355369567871, -0.2730284631252289, -0.14938706159591675, -0.18826976418495178, -0.14938074350357056, 0.4017360508441925, 0.09902513027191162, -0.0033176622819155455, 0.09505955874919891, 0.06489851325750351, 0.060998596251010895, -0.13915280997753143, 0.13544481992721558, -0.2103215605020523, 0.25183984637260437], [-0.07160843908786774, 0.014659404754638672, 0.02027134969830513, 0.10956960171461105, -0.04381575435400009, 0.07012589275836945, 0.010243536904454231, 0.07623046636581421, 0.04196534305810928, 0.04233603924512863, -0.04600224271416664, 0.08099358528852463, -0.17718718945980072, 0.16480180621147156, 0.03223898261785507, -0.17553287744522095, 0.08320814371109009, 0.03838975727558136, -0.01321444846689701, 0.007806477602571249, -0.0898985043168068, 0.0036430316977202892, 0.0765983834862709, 0.028757717460393906, 0.013629859313368797, -0.08630280941724777, -0.031024198979139328, -0.015035353600978851, -0.05948864668607712, -0.07010560482740402, -0.04357696697115898, 0.013688749633729458], [0.1535811573266983, 0.10086885094642639, -0.12446258217096329, -0.14798220992088318, -0.2329941689968109, -0.11207038164138794, 0.004162663593888283, -0.44579508900642395, 0.17103129625320435, 0.09825372695922852, -0.12267990410327911, -0.021837716922163963, 0.41877901554107666, -0.06514507532119751, -0.16741928458213806, 0.3030402958393097, 0.1959950476884842, 0.14948107302188873, -0.1343168318271637, 0.055338092148303986, -0.10835055261850357, -0.1832413375377655, 0.15912200510501862, 0.1408037543296814, -0.3158636689186096, 0.39010074734687805, 0.07302215695381165, -0.003196758683770895, -0.05155833065509796, 0.3909038007259369, -0.07555115222930908, 0.1168513149023056], [-0.09272105246782303, 0.013897095806896687, -0.06082400679588318, 0.0005202052416279912, -0.07496348023414612, -0.010083330795168877, 0.08345385640859604, 0.017507502809166908, -0.05685819685459137, -0.19779206812381744, -0.06260396540164948, 0.0093132508918643, -0.07389254868030548, 0.08277340978384018, 0.24990452826023102, -0.09647020697593689, 0.17622938752174377, -0.052024949342012405, 0.23337027430534363, -0.40241119265556335, -0.11700494587421417, -0.11943130940198898, -0.14784398674964905, -0.06847327947616577, -0.10690063238143921, -0.08528096228837967, 0.2011675387620926, -0.11841815710067749, 0.12122957408428192, 0.007929407991468906, -0.0975012257695198, -0.20598183572292328], [0.04482116550207138, -0.18550972640514374, -0.13535282015800476, -0.03469505161046982, -0.15633416175842285, 0.07858195155858994, -0.274577796459198, -0.04213341325521469, 0.2007739096879959, 0.14804880321025848, -0.21302926540374756, -0.20447766780853271, 0.12011747062206268, 0.06859876960515976, -0.030418580397963524, 0.13118340075016022, 0.20395120978355408, 0.18964919447898865, -0.10011240839958191, -0.06536081433296204, -0.15637372434139252, -0.05142901837825775, 0.29187244176864624, 0.2161392867565155, -0.07362344861030579, 0.11547281593084335, -0.12667377293109894, -0.14164653420448303, -0.20005355775356293, -0.2692871689796448, -0.12446622550487518, 0.20641416311264038], [0.23611649870872498, 0.12447304278612137, 0.17658691108226776, 0.23238079249858856, 0.14249062538146973, -0.37082377076148987, -0.35963302850723267, -0.2657548189163208, 0.2970309555530548, 0.21106533706188202, -0.2524760961532593, -0.29991695284843445, 0.2083825320005417, 0.17966772615909576, -0.24374312162399292, -0.09385157376527786, 0.19763799011707306, 0.27825263142585754, -0.331134170293808, -0.1585812270641327, -0.13577187061309814, -0.06601616740226746, 0.20416544377803802, 0.16100476682186127, 0.12466523051261902, 0.4900118410587311, 0.18622493743896484, 0.013988072052598, -0.3421788513660431, 0.21551010012626648, -0.2323381006717682, 0.2740529775619507], [-0.10158596932888031, 0.014848859049379826, -0.08115843683481216, -0.14597167074680328, -0.09087036550045013, 0.025068989023566246, -0.250996857881546, 0.11869422346353531, 0.09083414077758789, 0.12119754403829575, -0.07457102090120316, 0.1365429162979126, 0.015478264540433884, 0.07147336006164551, -0.09566684812307358, 0.07755791395902634, -0.05953650921583176, 0.08617223799228668, 0.02010955475270748, 0.10991431027650833, -0.14521799981594086, 0.21610255539417267, 0.12649928033351898, 0.020893216133117676, -0.2596001625061035, 0.10787923634052277, 0.07165537774562836, -0.12234722077846527, -0.14562183618545532, -0.24343974888324738, -0.09652329236268997, 0.08615938574075699], [-0.04289998114109039, 0.07329840958118439, -0.09099322557449341, -0.10512764751911163, 0.05192221328616142, 0.06339188665151596, -0.1610015332698822, -0.03732100501656532, 0.19593870639801025, 0.21135598421096802, -0.38164758682250977, -0.012283139862120152, -0.21505789458751678, -0.06644365936517715, 0.18492968380451202, 0.020525570958852768, 0.29902929067611694, 0.18479599058628082, -0.27593278884887695, 0.11921696364879608, -0.17207126319408417, 0.12030544877052307, 0.8125267028808594, 0.1721968799829483, -0.12690867483615875, 0.03177915886044502, -0.018374528735876083, 0.06845279783010483, -0.3906056582927704, -0.07925202697515488, -0.2216438204050064, 0.33163559436798096], [-0.21615591645240784, -0.012566638179123402, -0.059369638562202454, -0.09936828166246414, -0.14133979380130768, -0.07746275514364243, -0.2635955512523651, 0.15234693884849548, 0.21000191569328308, 0.07480792701244354, -0.184636190533638, 0.1404062658548355, 0.08886661380529404, 0.02113874815404415, -0.18658889830112457, -0.11830667406320572, -0.11825618147850037, 0.18980157375335693, -0.0457100085914135, -0.18918903172016144, -0.12354842573404312, 0.12740392982959747, 0.23969683051109314, -0.048705458641052246, -0.012576140463352203, -0.09783341735601425, -0.015769610181450844, -0.20180945098400116, -0.16486644744873047, -0.45377543568611145, -0.12460362166166306, 0.20582503080368042], [-0.055291932076215744, 0.029608072713017464, -0.200468510389328, -0.16871154308319092, -0.04675351455807686, -0.002901377622038126, -0.07763167470693588, 0.09431914240121841, 0.12315681576728821, 0.135527104139328, -0.23081664741039276, -0.0748453140258789, 0.0034415507689118385, -0.0806138664484024, 0.18320216238498688, 0.13177943229675293, 0.12270467728376389, 0.11128007620573044, -0.1807713657617569, -0.009321916848421097, -0.14250004291534424, 0.14309580624103546, 0.3233088552951813, 0.03146729618310928, 0.009302287362515926, -0.012372007593512535, -0.06201375275850296, -0.03744984045624733, -0.27420973777770996, -0.11521352082490921, -0.23315303027629852, 0.15898558497428894], [0.4997462332248688, -0.038265906274318695, 0.494262158870697, -0.01883704401552677, -0.11443734914064407, -0.05399417504668236, 0.033043183386325836, 0.1458204835653305, 0.17123419046401978, 0.2024461328983307, -0.13015055656433105, -0.07455845922231674, -0.09582323580980301, 0.0914236456155777, -0.1965310424566269, -0.15175990760326385, 0.15256856381893158, 0.18333254754543304, -0.11485558748245239, -0.037315163761377335, -0.20769928395748138, -0.4359171688556671, 0.12902645766735077, -0.0879085510969162, -0.1429530829191208, 0.08578257262706757, -0.0077941748313605785, -0.5795741081237793, -0.11720633506774902, -0.14057116210460663, -0.1056649312376976, 0.11338740587234497], [-0.03101446107029915, 0.0714985653758049, -0.15200011432170868, 0.0511687695980072, -0.06196514144539833, -0.07965505868196487, -0.07500399649143219, 0.07775319367647171, -0.018633482977747917, -0.03563232719898224, -0.07705254852771759, 0.09782083332538605, -0.26700976490974426, 0.19128897786140442, 0.2770169675350189, -0.061652712523937225, 0.029234496876597404, -0.026210762560367584, 0.13092480599880219, -0.06287442892789841, -0.010756260715425014, -0.0017744015203788877, 0.30817073583602905, -0.01430280040949583, -0.003996742889285088, -0.033271338790655136, -0.06173984706401825, -0.04270125553011894, -0.013806662522256374, -0.05185971409082413, -0.07097359001636505, -0.04619082063436508], [-0.0223295446485281, -0.13717924058437347, 0.003296592505648732, -0.04000053182244301, 0.07901090383529663, -0.03366983309388161, -0.03928562253713608, 0.01912503130733967, 0.12159213423728943, 0.06224966049194336, -0.3505723178386688, 0.10614509880542755, 0.07286445796489716, 0.000989522784948349, -0.08225327730178833, -0.1473075896501541, -0.08800143748521805, 0.1046166941523552, -0.1735251098871231, 0.19312196969985962, -0.04479798302054405, -0.04900925233960152, 0.2679543197154999, -0.08289028704166412, -0.047016896307468414, -0.03427821770310402, 0.00886823795735836, -0.10605461150407791, -0.18372200429439545, 0.018444668501615524, -0.3303926885128021, 0.37315112352371216], [0.5070413947105408, 0.04285992681980133, 0.4116670787334442, 0.2774274945259094, 0.14712317287921906, 0.19891257584095, 0.38751640915870667, -0.6167187690734863, -0.04016009345650673, 0.31996893882751465, -0.010234823450446129, 0.0974518284201622, 0.032256174832582474, -0.11966599524021149, 0.1167152002453804, 0.09360164403915405, -0.0648551657795906, -0.04376452788710594, -0.0811014398932457, -0.3100595772266388, 0.060631100088357925, 0.3366876542568207, -0.0338035449385643, 0.1338014453649521, 0.38686317205429077, 0.2526204288005829, 0.11605174094438553, 0.1699950248003006, -0.09332579374313354, 0.31292662024497986, -0.04250147193670273, -0.1625497192144394], [0.13672974705696106, 0.15115652978420258, 0.11359833180904388, 0.09545664489269257, -0.12381892651319504, 0.08831165730953217, 0.09140408784151077, -0.1345222294330597, 0.02003704570233822, -0.011162929236888885, -0.03908190131187439, -0.015384884551167488, -0.037922538816928864, 0.10235770791769028, -0.0501694530248642, 0.2193615883588791, 0.06218134984374046, 0.023562651127576828, -0.002981426427140832, -0.10881639271974564, -0.02743060328066349, -0.17634998261928558, -0.017287205904722214, 0.08038187772035599, -0.018796097487211227, 0.07178689539432526, 0.1973802000284195, -0.01630331762135029, 0.006405460648238659, -0.01283845491707325, -0.03459695354104042, 0.08312700688838959], [0.02003934420645237, -0.029219238087534904, 0.10500495880842209, 0.1411687731742859, 0.01012328453361988, 0.371034175157547, -0.13618279993534088, 0.002523950766772032, 0.046691425144672394, -0.08883554488420486, -0.012209216132760048, 0.08291933685541153, 0.005777509417384863, -0.054421957582235336, -0.1877831071615219, 0.026913223788142204, -0.07922185957431793, 0.06125504896044731, 0.04401372745633125, -0.051253221929073334, 0.06436341255903244, 0.04751105234026909, 0.000996980699710548, -0.0989624634385109, -0.03506853058934212, 0.022729743272066116, -0.10350962728261948, -0.17365135252475739, 0.05885731056332588, -0.16340383887290955, 0.023534847423434258, 0.058482274413108826], [0.0602714903652668, 0.017481066286563873, -0.020286405459046364, 0.2483988255262375, 0.007655139546841383, 0.09928005933761597, -0.01945442333817482, -0.11723743379116058, -0.0016389477532356977, 0.03563292324542999, 0.03239373490214348, -0.15832439064979553, 0.017580149695277214, 0.2900979220867157, -0.11947207897901535, 0.026527969166636467, 0.024663258343935013, 0.017952658236026764, 0.013760458678007126, -0.07952195405960083, 0.04252788424491882, -0.0254804827272892, -0.046524591743946075, -0.01448731403797865, 0.08601687848567963, 0.015692586079239845, -0.17730939388275146, 0.01229714136570692, -0.06273358315229416, -0.02983829751610756, -0.02181386388838291, 0.009141502901911736], [0.0609162375330925, -0.052429623901844025, 0.0007817114819772542, -0.01617944799363613, 0.16355346143245697, 0.11718466877937317, 0.007650493644177914, -0.04040875658392906, -4.5876233343733475e-05, 0.0393993966281414, 0.005222358275204897, -0.0745086744427681, -0.018615934997797012, -0.07694513350725174, 0.040233369916677475, -0.27698883414268494, -0.1368391215801239, -0.008475303649902344, -0.021466998383402824, 0.12819258868694305, 0.004847494885325432, 0.03304580599069595, 0.03507549688220024, -0.0023650750517845154, 0.08446433395147324, -0.006636675912886858, -0.11902058869600296, 0.04052576795220375, -0.02086164429783821, -0.08104810118675232, -0.006298914086073637, 0.04677414894104004], [-0.24952737987041473, 0.05710421875119209, -0.425474613904953, 0.08185942471027374, 0.04587665945291519, 0.21365343034267426, -0.13590870797634125, 0.03968469798564911, -0.060161832720041275, 0.024425465613603592, -0.0044662924483418465, 0.13479384779930115, 0.13308824598789215, 0.1405227780342102, 0.043938685208559036, 0.03304198384284973, -0.051957715302705765, -0.04549470543861389, -0.029691211879253387, 0.10078515112400055, 0.07518773525953293, 0.0008910337928682566, -0.10998373478651047, -0.29083186388015747, -0.3882472515106201, -0.13191959261894226, 0.14260263741016388, 0.14522874355316162, -0.10494127124547958, -0.24720138311386108, -0.030922498553991318, -0.010823287069797516], [0.024493250995874405, -0.04255653917789459, -0.03156613931059837, 0.054320309311151505, 0.13054749369621277, 0.1278485655784607, 0.28866806626319885, -0.042024165391922, 0.0115432757884264, -0.001637189881876111, -0.022777613252401352, -0.12263984233140945, -0.001543715363368392, 0.02486439049243927, -0.026820911094546318, -0.03502034395933151, 0.05386727675795555, 0.012486380524933338, 0.0009359412360936403, -0.023306863382458687, -0.07326339185237885, -0.05766955390572548, 0.05158980190753937, -0.02530641481280327, 0.11599498987197876, 0.1268535554409027, 0.10471813380718231, -0.08930673450231552, -0.0842626765370369, 0.006895803846418858, -0.032788850367069244, 0.036565087735652924], [0.021870393306016922, 0.2546091675758362, -0.04736628755927086, 0.16519388556480408, -0.08955621719360352, -0.34995073080062866, 0.04554231837391853, 0.13568498194217682, -0.024479983374476433, 0.004707062151283026, 0.030308835208415985, 0.12239452451467514, 0.03276890888810158, -0.11609934270381927, 0.08954273909330368, 0.049012117087841034, 0.00011205258488189429, -0.032870590686798096, 0.019269809126853943, 0.07937321066856384, 0.05738452821969986, -0.21389611065387726, -0.036680109798908234, 0.023417064920067787, 0.08634866029024124, -0.015073934569954872, 0.14730146527290344, -0.07584494352340698, 0.07997874915599823, -0.058665983378887177, 0.01282604318112135, 0.01117733120918274], [-0.02632337249815464, 0.11419426649808884, -0.01981576904654503, -0.03880269080400467, -0.00492523517459631, -0.04462363198399544, 0.02255229279398918, 0.038563575595617294, 0.148115873336792, 0.07875055819749832, -0.2243097573518753, 0.06877285987138748, -0.049572791904211044, 0.12379994243383408, -0.30959370732307434, -0.09879989922046661, 0.11616941541433334, 0.12107431143522263, -0.11974425613880157, -0.011059273034334183, -0.03852554038167, -0.009482775814831257, 0.028113076463341713, -0.04985831305384636, -0.05383485183119774, 0.014236452989280224, 0.21024364233016968, -0.14097462594509125, -0.09009688347578049, 0.061867356300354004, -0.20911552011966705, 0.04969395697116852], [0.057995881885290146, -0.05835674703121185, 0.08413287997245789, -0.1570844054222107, -0.08842484652996063, 0.16118952631950378, 0.003908777143806219, 0.05783267691731453, 0.04542727768421173, 0.20782017707824707, -0.06445025652647018, 0.19880802929401398, 0.2508171796798706, -0.17491140961647034, -0.02379707619547844, -0.035329047590494156, -0.11209811270236969, 0.036965709179639816, -0.1509629637002945, 0.12139928340911865, -0.03818880394101143, 0.10269607603549957, 0.048467934131622314, 0.14092786610126495, -0.008188391104340553, 0.05892994627356529, 0.11179321259260178, 0.16084173321723938, 0.03344701603055, -0.010968898423016071, -0.044224318116903305, 0.10599884390830994], [0.0555594302713871, -0.15242107212543488, -0.012444269843399525, -0.14676038920879364, 0.13117845356464386, 0.014843160286545753, 0.038037583231925964, -0.16977953910827637, -0.09870784729719162, 0.08916714787483215, 0.42213308811187744, -0.12795494496822357, 0.06494694948196411, -0.08096145838499069, -0.2772672474384308, -0.010813698172569275, -0.015043730847537518, -0.09410715103149414, -0.09718007594347, 0.15421903133392334, 0.12259231507778168, 0.12588901817798615, -0.3049022853374481, -0.0733729675412178, 0.050693079829216, -0.04766584187746048, 0.04945920780301094, -0.030114930123090744, 0.20423662662506104, 0.03790448606014252, 0.39692920446395874, -0.08752558380365372], [-0.02312622405588627, 0.17339268326759338, 0.11817264556884766, 0.24912217259407043, -0.029056791216135025, -0.017124218866229057, 0.12414990365505219, -0.0076040406711399555, 0.0015617955941706896, -0.024836381897330284, -0.027636004611849785, 0.20585986971855164, -0.05484599620103836, -0.029413631185889244, 0.003383177099749446, 0.11726875603199005, 0.003674567211419344, 0.003900100477039814, 0.025943676009774208, 0.026418177410960197, -0.02667311392724514, -0.1364796906709671, 0.003788525704294443, -0.03668421134352684, -0.01896846480667591, 0.047816574573516846, 0.21607770025730133, 0.03528815135359764, 0.009412220679223537, 0.030021118000149727, -0.04945764318108559, 0.029682913795113564], [-0.021139150485396385, -0.01956227794289589, 0.003943983465433121, -0.0092112235724926, 0.04157954081892967, -0.025507435202598572, -0.009680009447038174, -0.03269365802407265, -0.04183501377701759, -0.010475551709532738, -0.07918832451105118, -0.08102603256702423, 0.7609464526176453, -0.026674866676330566, 0.2165747582912445, 0.07782502472400665, 0.09878979623317719, -0.043729886412620544, 0.059770114719867706, -5.818909266963601e-05, -0.003340182825922966, -0.016294920817017555, 0.01759941689670086, -0.046856243163347244, -0.055571213364601135, -0.08998309820890427, 0.1611400693655014, 0.030129486694931984, -0.16094675660133362, 0.004850743338465691, -0.05697599798440933, 0.11129842698574066], [0.02624632604420185, -0.06469380110502243, -0.03194809705018997, -0.10791464149951935, 0.07513754814863205, 0.018803024664521217, -0.010717703960835934, -0.02571266144514084, 0.0039622047916054726, 0.057881228625774384, 0.02881002612411976, -0.020720941945910454, 0.017851363867521286, 0.24373672902584076, -0.01945030689239502, -0.10852666944265366, 0.0596095472574234, 0.002061873907223344, -0.005228680092841387, -0.0869850441813469, 0.023567643016576767, 0.0753675326704979, -0.0816279724240303, 0.029159065335989, -0.03422022983431816, -0.025930484756827354, -0.009570055641233921, -0.06287037581205368, -0.10201514512300491, 0.0067627630196511745, 0.014896489679813385, 0.0270534660667181], [0.19245627522468567, -0.03860315680503845, 0.13067054748535156, -0.04408344253897667, 0.0799022912979126, 0.0448034331202507, 0.018955962732434273, -0.08153889328241348, -0.10174497961997986, 0.00941147655248642, 0.07574325799942017, -0.058927521109580994, 0.1510271281003952, -0.05124063789844513, -0.22959785163402557, -0.22721202671527863, -0.1768750250339508, -0.10961563885211945, 0.15834003686904907, 0.07175460457801819, -0.25793471932411194, -0.061232924461364746, 0.6502736210823059, 0.02938944660127163, -0.023341303691267967, 0.16655652225017548, -0.11274787038564682, 0.07458188384771347, 0.1401224583387375, 0.002532725455239415, 0.009661639109253883, -0.47370681166648865], [-0.026683326810598373, 0.05797585844993591, -0.04180317744612694, -0.05977368727326393, -0.060308124870061874, 0.03514909744262695, 0.005179146770387888, 0.03772873058915138, -0.009303064085543156, 0.00713661452755332, -0.0741463452577591, -0.028297798708081245, 0.058221496641635895, -0.014790353365242481, 0.08726602047681808, 0.403003454208374, 0.019794940948486328, 0.00016695461818017066, -0.014607072807848454, -0.024050366133451462, 0.0032380004413425922, 0.0603373683989048, -0.031270597130060196, -0.06841262429952621, 0.0030975539702922106, 0.11063271015882492, 0.28714412450790405, -0.02719193510711193, -0.05844930559396744, -0.03978278115391731, -0.08927538990974426, -0.008050662465393543], [-0.003188305301591754, 0.16770166158676147, 0.10433237999677658, -0.00041317925206385553, 0.0325971357524395, -0.011499783955514431, 0.19691315293312073, 0.03270207345485687, 0.04881777986884117, 0.02560916543006897, 0.01249496079981327, 0.13707442581653595, 0.40261319279670715, 0.07295453548431396, -0.0612444207072258, 0.18433777987957, 0.2379077821969986, 0.04023323580622673, -0.06771399825811386, 0.019828204065561295, 0.02756034955382347, 0.007301512639969587, 0.060072556138038635, -0.0036585757043212652, -0.07253558188676834, -0.07064307481050491, 0.28636690974235535, -0.034989241510629654, 0.008014573715627193, 0.04734236001968384, 0.04757151007652283, 0.16802136600017548], [-0.043568726629018784, 0.06986407190561295, -0.01694384589791298, -0.007608301471918821, -0.00013601079990621656, -0.04351552203297615, 0.004910088609904051, -0.02240326628088951, 0.0922284871339798, 0.059880711138248444, -0.2089044600725174, -0.007235580123960972, -0.051353659480810165, 0.09920477867126465, -0.2593746483325958, -0.04065202549099922, 0.07606671750545502, 0.07952746003866196, -0.09421095997095108, -0.03378249332308769, -0.03550192713737488, -0.027704300358891487, -0.038761530071496964, -0.04451059550046921, 0.01136456336826086, 0.02036106213927269, 0.07811429351568222, -0.12439248710870743, -0.13758081197738647, 0.03485285863280296, -0.22180551290512085, 0.025271175429224968], [-0.029607832431793213, 0.04559110477566719, 0.04951511695981026, 0.17370407283306122, -0.03315172716975212, -0.008930721320211887, 0.039253976196050644, 0.011903941631317139, -0.12414857000112534, -0.07058405131101608, 0.06272989511489868, -0.01539382990449667, -0.07305653393268585, 0.13908740878105164, 0.1809467077255249, -0.03016635961830616, -0.03578289598226547, -0.09311285614967346, 0.32441580295562744, -0.3155161142349243, 0.03443837910890579, -0.11929004639387131, 0.1300022155046463, -0.01531995926052332, -0.012208708561956882, -0.022728269919753075, 0.10221777856349945, 0.022075606510043144, 0.07669045776128769, 0.0008742088102735579, 0.06650246679782867, 0.09138952940702438], [0.003610380692407489, 0.09587600082159042, 0.027199022471904755, 0.013146613724529743, 0.011093219742178917, 0.007988216355443, 0.046856820583343506, 0.00407125661149621, 0.01202153880149126, -0.08766564726829529, -0.09046100080013275, 0.09895138442516327, -0.08636172115802765, -0.07305841147899628, 0.034382496029138565, -0.0565948411822319, 0.07894737273454666, 0.00388628663495183, -0.07033564895391464, 0.32378217577934265, -0.07443659752607346, -0.039925310760736465, 0.05191511660814285, -0.02886498160660267, -0.09151202440261841, 0.02706688456237316, -0.19356206059455872, -0.01748020015656948, -0.05671270191669464, 0.013231958262622356, -0.07758527994155884, -0.21328496932983398], [0.16104158759117126, 0.22310633957386017, 0.07249589264392853, -0.01090002991259098, -0.007347289938479662, -0.016166627407073975, -0.03766244277358055, -0.10069391131401062, 0.018203604966402054, 0.13781140744686127, 0.19701708853244781, 0.04731224477291107, 0.23797418177127838, 0.15410584211349487, -0.2454991638660431, 0.2518841624259949, -0.006954428274184465, 0.040489595383405685, -0.07949782907962799, -0.07719460129737854, 0.10131855309009552, -0.07493805140256882, -0.21565698087215424, 0.05806964635848999, -0.11424096673727036, 0.11611916124820709, -0.011087805032730103, 0.12515313923358917, 0.07006604969501495, -0.020556392148137093, 0.21780627965927124, 0.001664801500737667], [-0.03465000540018082, 0.1928706020116806, 0.20485395193099976, -0.060102518647909164, 0.14560584723949432, 0.01205603126436472, 0.12066110223531723, 0.11150898784399033, -0.002932970877736807, 0.07579171657562256, -0.01435209158807993, 0.11095644533634186, -0.04042256250977516, -0.20050100982189178, 0.17589379847049713, 0.029720917344093323, -0.03126054257154465, -0.028695544227957726, -0.05846544727683067, 0.0752955973148346, 0.03295399248600006, 0.215425044298172, 0.028847578912973404, -0.012608950026333332, 0.08947808295488358, -0.08496267348527908, 0.1364792138338089, 0.11790557950735092, -0.026837121695280075, 0.07277224957942963, 0.0017086535226553679, -0.041942186653614044], [-0.03544124960899353, 0.0037335825618356466, 0.0011151825310662389, 0.045509204268455505, 0.000729080056771636, 0.0342976413667202, -0.051652487367391586, -0.06651359796524048, 0.008443692699074745, -0.07484608888626099, -0.12154579907655716, -0.049309179186820984, -0.43825873732566833, 0.015180850401520729, 0.1428457349538803, -0.1322891265153885, 0.12127681076526642, -0.020112566649913788, 0.20031291246414185, -0.3144669532775879, -0.028569644317030907, 0.007604988291859627, 0.5704704523086548, -0.01572933793067932, 0.026834087446331978, -0.2614804208278656, 0.17816947400569916, 0.03600413724780083, 0.1007772833108902, 0.014731639064848423, -0.07923010736703873, 0.07724165171384811], [-0.09775559604167938, 0.0378485731780529, 0.01466586533933878, -0.12924134731292725, -0.20446071028709412, 0.08671756088733673, 0.021833784878253937, 0.15772126615047455, -0.01871340163052082, 0.04694885388016701, 0.01582920551300049, 0.20464065670967102, -0.03711230307817459, -0.06066371127963066, 0.023616399616003036, 0.027334310114383698, 0.211876779794693, -0.01770644076168537, 0.010539066977798939, 0.09249171614646912, 0.00590484868735075, 0.1817026436328888, 0.07060326635837555, 0.1995319128036499, -0.13548147678375244, -0.09106697142124176, -0.0922471359372139, 0.09162037819623947, 0.17379233241081238, 0.05391738936305046, 0.05607198178768158, -0.13027532398700714], [-0.005142643582075834, -0.0805501714348793, -0.05017387121915817, 0.003557843854650855, -0.010083625093102455, 0.11378810554742813, 0.03623766824603081, 0.05219130218029022, 0.011338685639202595, 0.037886690348386765, 0.04924160614609718, -0.02017842046916485, 0.039144158363342285, -0.07629279792308807, -0.014232141897082329, -0.0647360235452652, -0.020844653248786926, 0.010049750097095966, 0.00030978716677054763, -0.1055736243724823, -0.008547376841306686, 0.05812150239944458, 0.006209554150700569, 0.08065000921487808, 0.24035526812076569, 0.02877545729279518, -0.22943948209285736, -0.030949868261814117, 0.023612406104803085, -0.0759967491030693, 0.06169586256146431, -0.031370729207992554], [-0.06972790509462357, -0.01356100756675005, -0.041287027299404144, -0.016854271292686462, -0.06100984290242195, 0.024467017501592636, -0.008633727207779884, -0.008684813044965267, 0.07139062881469727, -0.04647960886359215, -0.1435946375131607, -0.025470416992902756, -0.2554609179496765, 0.019506679847836494, 0.2384653240442276, 0.05337020382285118, -0.13193781673908234, 0.09303534030914307, 0.1564335972070694, -0.09050991386175156, -0.04940973222255707, 0.0411834754049778, -0.08196365833282471, 0.01565890945494175, -0.015666089951992035, 0.2450123429298401, -0.1182989627122879, -0.009432574734091759, -0.13756313920021057, 0.017592156305909157, -0.22360707819461823, -0.2412661761045456], [0.05160319805145264, -0.17823073267936707, 0.0030196860898286104, -0.01412847451865673, 0.13564373552799225, -0.017469141632318497, -0.011755809187889099, -0.06653155386447906, -0.032291121780872345, -0.019558463245630264, -0.10012225806713104, -0.09695050865411758, -0.28237971663475037, -0.030240677297115326, -0.14715412259101868, -0.13014823198318481, -0.062037162482738495, -0.0586819052696228, 0.050233881920576096, -0.02447427622973919, -0.16391830146312714, 0.013847866095602512, 0.17541329562664032, 0.00776485214009881, 0.06030791625380516, -0.0650683343410492, 0.4283638298511505, 0.0005070058978162706, 0.24266070127487183, -0.004248547367751598, -0.009254074655473232, 0.12210669368505478], [0.04776470735669136, 0.01808151975274086, -0.09787881374359131, -0.03792751207947731, -0.0718332901597023, 0.08954179286956787, -0.094049833714962, 0.021980129182338715, -0.05079459026455879, 0.07307066768407822, 0.023916447535157204, -0.0425509549677372, 0.009402139112353325, -0.0036818382795900106, 0.027448857203125954, 0.04365755617618561, 0.030469099059700966, -0.045667003840208054, 0.046486034989356995, -0.016804639250040054, 0.06733457744121552, 0.00768145639449358, -0.021879982203245163, 0.33437785506248474, 0.017861705273389816, -0.042051054537296295, -0.16809991002082825, 0.2639438509941101, 0.08735674619674683, -0.10285977274179459, 0.026301510632038116, -0.09716252237558365], [-0.008736002258956432, 0.0008262202027253807, 0.05069612339138985, 0.013683824799954891, 0.006336110644042492, 0.005994591861963272, 0.038381993770599365, -0.041505906730890274, -0.049019116908311844, -0.05920761451125145, 0.19739201664924622, 0.005239955615252256, 0.0021252220030874014, -0.016586923971772194, -0.2625981271266937, -0.021087374538183212, 0.05158694088459015, -0.04070372134447098, 0.042427003383636475, 0.02876073122024536, 0.09717727452516556, -0.04692038521170616, -0.013414673507213593, -0.061864834278821945, -0.06677679717540741, -0.07321669906377792, 0.2940959334373474, -0.0051481835544109344, 0.17976117134094238, 0.05014318972826004, 0.22174742817878723, 0.09224121272563934], [-7.609037129441276e-05, -0.09009653329849243, 0.2080669403076172, -0.06512577831745148, 0.0704568400979042, 0.0870077908039093, 0.1839761734008789, 0.14885477721691132, 0.011834465898573399, 0.030664395540952682, 0.01221923716366291, 0.05485871806740761, -0.0394962802529335, 0.028653038665652275, -0.053703177720308304, -0.05232090502977371, -0.015097074210643768, 0.008752051740884781, 0.03893539309501648, -0.005212169606238604, 0.05026527866721153, 0.06134042143821716, 0.0020240850280970335, -0.22593167424201965, 0.049783337861299515, -0.06481405347585678, -0.04709803685545921, -0.22023209929466248, 0.02596905268728733, 0.22012239694595337, 0.051110439002513885, -0.017420994117856026], [-0.028742007911205292, 0.12967486679553986, 0.05546879395842552, -0.07867782562971115, 0.03580647334456444, -0.009675713256001472, -0.012348786927759647, 0.005757095292210579, -0.051643334329128265, 0.06062955781817436, 0.3865254819393158, 0.0694565400481224, 0.27687105536460876, -0.04128015413880348, -0.3434339463710785, 0.17297130823135376, 0.20695990324020386, -0.06751371920108795, -0.15299949049949646, -0.1251741349697113, 0.10424023121595383, -0.039291709661483765, -0.06329184025526047, -0.05463464930653572, -0.093763068318367, -0.12862175703048706, 0.21656912565231323, -0.006815771106630564, 0.2595100402832031, -0.043893225491046906, 0.39062032103538513, -0.023136479780077934], [0.11156363040208817, -0.29084286093711853, 0.0693482831120491, 0.09391126781702042, 0.05352238565683365, 0.05000036582350731, -0.01622392050921917, 0.012934337370097637, 0.06174088269472122, 0.058343831449747086, -0.3427603840827942, 0.07090114057064056, 0.0062635233625769615, 0.09012901037931442, -0.30657437443733215, -0.3590955436229706, -0.19778038561344147, 0.03428350016474724, -0.0779440626502037, 0.09318725019693375, -0.1078108623623848, -0.12027885764837265, 0.2573915123939514, 0.08113900572061539, 0.09844926744699478, -0.11559823900461197, -0.04663817957043648, -0.008283023722469807, -0.2311079502105713, 0.016928501427173615, -0.28979727625846863, 0.24571597576141357], [0.2483120709657669, -0.3337400257587433, -0.05804656073451042, -0.12679094076156616, -0.2692393362522125, 0.33213189244270325, 0.1147855892777443, -0.6370123028755188, 0.06802494078874588, 0.11695344001054764, -0.011855915188789368, 0.795437216758728, 0.08419566601514816, -0.19503599405288696, 0.017685111612081528, -0.10001113265752792, 0.13042262196540833, 0.05598407983779907, -0.04710971564054489, -0.2008267045021057, -0.14928358793258667, -0.5111079216003418, -0.026157747954130173, 0.23482991755008698, -0.40512675046920776, -0.06568112969398499, 0.08888442814350128, 0.22844457626342773, 0.05488306283950806, 0.26911595463752747, -0.032601773738861084, -0.03776855766773224], [0.24955567717552185, -0.18593883514404297, 0.12652155756950378, -0.01604555919766426, 0.05956253036856651, -0.0016357291024178267, -0.0010952866869047284, -0.2105177640914917, 0.1419714242219925, 0.3172062933444977, -0.14180369675159454, -0.1337994933128357, -0.008055150508880615, 0.03368906304240227, -0.07933111488819122, -0.28744974732398987, -0.0025757031980901957, 0.12092875689268112, -0.06908205896615982, 0.08205637335777283, -0.168825164437294, -0.09771609306335449, 0.15742254257202148, 0.19373616576194763, 0.0258710365742445, 0.22144261002540588, 0.26716652512550354, 0.15374304354190826, -0.030372707173228264, -0.06322844326496124, -0.21673423051834106, 0.16622699797153473], [0.006453271955251694, 0.18572351336479187, -0.04409322142601013, 0.14356215298175812, -0.2407168745994568, -0.13100077211856842, -0.204769566655159, -0.33525362610816956, 0.31865787506103516, 0.2241607904434204, -0.3324111998081207, -0.06023464724421501, 0.03977829962968826, 0.2528632581233978, -0.316214382648468, -0.08933362364768982, 0.21338696777820587, 0.29791682958602905, -0.1941797286272049, -0.1523343324661255, -0.05011790245771408, -0.0159812830388546, 0.31105878949165344, 0.13975967466831207, -0.42035970091819763, 0.12110784649848938, 0.07995780557394028, -0.18285714089870453, -0.13675129413604736, 0.0184633731842041, -0.1415543407201767, 0.3200913965702057], [0.09978581964969635, 0.10897114872932434, 0.1574597805738449, -0.013513091020286083, -0.035859204828739166, 0.031141966581344604, 0.04391448199748993, 0.03555892035365105, 0.19721192121505737, 0.08437532931566238, -0.14028169214725494, 0.12637615203857422, -0.09582784026861191, -0.07607484608888626, -0.20714055001735687, -0.14283400774002075, 0.07790783047676086, 0.17389467358589172, -0.1029120534658432, 0.06659072637557983, -0.19763165712356567, -0.3913591206073761, 0.2379618138074875, 0.2864440977573395, -0.2208431363105774, 0.1184542253613472, 0.1594942808151245, -0.10244210064411163, 0.021433116868138313, 0.0511087067425251, -0.20599164068698883, 0.1626252830028534], [-0.04225688800215721, -0.24287299811840057, -0.0385131873190403, -0.03669494390487671, 0.07870578020811081, -0.24436429142951965, 0.06060732528567314, -0.07003569602966309, 0.08949216455221176, -0.1128644347190857, -0.0723273828625679, -0.08526989817619324, -0.06405027210712433, -0.0774449035525322, -0.07938386499881744, -0.27039051055908203, -0.01168535090982914, 0.0706629604101181, -0.08108066767454147, 0.23666851222515106, -0.17172153294086456, 0.011763122864067554, 0.1187722235918045, -0.14284397661685944, 0.02255321480333805, -0.01802176423370838, 0.24145494401454926, -0.18665215373039246, 0.022382840514183044, 0.1776820868253708, -0.08561045676469803, 0.06696582585573196], [0.19093981385231018, -0.22746123373508453, -0.8494107723236084, 0.050839055329561234, -0.2795167863368988, -0.48679810762405396, -0.21598796546459198, -0.5847750902175903, 0.16779284179210663, -0.21970351040363312, -0.09277410805225372, 0.007882834412157536, 0.0425175279378891, -0.09699766337871552, -0.25038856267929077, -0.2040872573852539, 0.09631891548633575, 0.11759384721517563, -0.28269723057746887, 0.41206565499305725, 0.039659518748521805, -0.1388099193572998, 0.055917609483003616, 0.10535954684019089, -0.7592039108276367, 0.12360361218452454, -0.1164885088801384, 0.08043105900287628, 0.07498535513877869, 0.29172971844673157, -0.0013646893203258514, 0.1432434320449829], [-0.00853380560874939, -0.0535183884203434, -0.09299187362194061, -0.024472154676914215, 0.06578739732503891, -0.1580447107553482, 0.08658832311630249, -0.41100701689720154, 0.04855429008603096, -0.04667884483933449, -0.09910149872303009, -0.23547479510307312, 0.016355719417333603, -0.0879385694861412, 0.005726005416363478, 0.035151995718479156, -0.053488850593566895, 0.061564650386571884, -0.07919318974018097, -0.029722455888986588, -0.12408284842967987, -0.027910593897104263, 0.06652180105447769, 0.07969972491264343, -0.05204806476831436, 0.22173522412776947, 0.022181255742907524, -0.05745212361216545, -0.06958874315023422, 0.14589139819145203, -0.08860744535923004, 0.0826028436422348], [0.4059598743915558, 0.06911245733499527, 0.24651750922203064, -0.16294051706790924, -0.20417113602161407, 0.3024718165397644, 0.000683107937220484, -0.21585257351398468, 0.19058109819889069, 0.15177346765995026, -0.21717752516269684, -0.23533698916435242, 0.003268353408202529, -0.03500301390886307, -0.10433989763259888, 0.015316066332161427, 0.19494663178920746, 0.18074563145637512, -0.20702886581420898, -0.10890806466341019, -0.12509498000144958, -0.04259737953543663, 0.2531743049621582, 0.6294886469841003, -0.03513962775468826, 0.33387044072151184, 0.1448255330324173, 0.24523605406284332, -0.12473969906568527, 0.43498462438583374, -0.17105770111083984, 0.189723402261734], [0.03669296205043793, -0.05544758588075638, -0.05422147363424301, -0.033796779811382294, -0.11233387142419815, 0.0567932091653347, -0.17693467438220978, -0.009967399761080742, 0.05034137889742851, 0.26326823234558105, -0.045312780886888504, 0.03729015588760376, -0.017646726220846176, -0.07630681246519089, -0.08903250098228455, -0.04814897105097771, -0.05101902782917023, 0.03536835312843323, -0.1136685162782669, -0.11278797686100006, -0.06510516256093979, 0.037724461406469345, 0.07372301816940308, 0.060362398624420166, 0.08114682883024216, 0.011998260393738747, -0.06514479219913483, -0.005774583667516708, -0.10084181278944016, -0.15139542520046234, -0.029248174279928207, 0.040182776749134064], [0.011996500194072723, 0.05964631214737892, 0.3418119549751282, 0.06465902179479599, -0.0743577778339386, 0.022660765796899796, 0.20538467168807983, -0.2545419931411743, 0.1639423817396164, 0.007882704958319664, -0.09924615174531937, -0.09457191824913025, 0.08495122939348221, 0.07150094956159592, -0.05282806605100632, -0.17979435622692108, 0.07884648442268372, 0.1340979039669037, -0.1256176084280014, -0.3646427392959595, -0.13588911294937134, -0.10487870872020721, 0.14511986076831818, 0.10963961482048035, 0.15944921970367432, -0.026564091444015503, 0.41637203097343445, 0.01901261880993843, -0.0863814428448677, 0.17896197736263275, -0.09200363606214523, 0.10902243107557297], [0.007211626041680574, -0.14348366856575012, -0.041243042796850204, 0.031945958733558655, 0.02859669178724289, -0.015116024762392044, -0.11456124484539032, -0.052358049899339676, 0.08832225948572159, 0.09968241304159164, -0.1926974654197693, -0.09019821882247925, -0.15927086770534515, 0.02029523253440857, 0.18051955103874207, -0.16368599236011505, 0.006163609214127064, 0.058856066316366196, -0.1141422912478447, 0.025943739339709282, -0.08395048975944519, 0.0350581593811512, 0.3025611937046051, 0.039978306740522385, 0.09704886376857758, -0.0757712572813034, 0.010636567138135433, -0.027837110683321953, -0.09178179502487183, -0.0893792137503624, -0.16978111863136292, -0.019440826028585434], [-0.018017077818512917, -0.2343992441892624, -0.15591809153556824, -0.03699169680476189, 0.12426431477069855, 0.1878558248281479, -0.059039387851953506, -0.18387480080127716, 0.07008183747529984, 0.044113192707300186, -0.07023724168539047, -0.24911850690841675, 0.06275485455989838, 0.00021009976626373827, -0.019817696884274483, 0.11308811604976654, 0.15690410137176514, 0.0755843073129654, -0.175358384847641, -0.22289498150348663, -0.08223318308591843, 0.17398814857006073, 0.05063163489103317, 0.29095256328582764, 0.15800507366657257, -0.02047131210565567, 0.1501258760690689, 0.06402767449617386, -0.11144530028104782, -0.19597738981246948, -0.07492220401763916, 0.07638122141361237], [0.043503183871507645, -0.17197896540164948, -0.06475132703781128, -0.22690793871879578, 0.025367029011249542, -0.06534505635499954, -0.03402259573340416, -0.1999448835849762, 0.058881890028715134, -0.0433717705309391, 0.1283804029226303, -0.1578873097896576, 0.004595530219376087, -0.07000359147787094, -0.10689092427492142, -0.09120410680770874, 0.2657857835292816, 0.06058163195848465, 0.016758404672145844, 0.22214743494987488, 0.04140261188149452, 0.03254837170243263, -0.1328853964805603, -0.10872375220060349, 0.12935079634189606, 0.2044711858034134, 0.09432392567396164, -0.1034640520811081, 0.0852748230099678, 0.022392190992832184, 0.10125616937875748, -0.15460637211799622], [0.028393501415848732, 0.26012885570526123, 0.04971086233854294, 0.07969222217798233, -0.13405601680278778, -0.0018375806976109743, 0.012881087139248848, 0.038658421486616135, 0.17621175944805145, 0.1694868952035904, -0.04513177275657654, 0.01968204975128174, -0.22810669243335724, 0.08929941803216934, -0.2703583240509033, -0.05933793634176254, -0.057536061853170395, 0.1371036022901535, -0.11122507601976395, 0.03216424211859703, -0.07535041123628616, -0.029593663290143013, 0.10925234109163284, 0.03264286369085312, -0.19963760673999786, -0.1229386180639267, 0.16440416872501373, -0.05562499165534973, 0.018687721341848373, 0.09752669185400009, -0.0649399384856224, 0.08665186911821365], [-0.0528591051697731, -0.03429033234715462, -0.08147163689136505, 0.04715629294514656, 0.010966160334646702, -0.001062959898263216, -0.0005979339475743473, -0.04549091309309006, 0.060489553958177567, 0.008851875551044941, -0.23779909312725067, 0.046728458255529404, -0.15077993273735046, -0.028240157291293144, -0.2146642804145813, -0.05846685171127319, 0.24002975225448608, 0.06997905671596527, -0.10534493625164032, 0.039621636271476746, -0.0637224018573761, 0.04876688867807388, -0.12108342349529266, -0.19269482791423798, -0.0460335947573185, -0.007212574128061533, -0.09752447158098221, -0.20160357654094696, -0.17045550048351288, 0.10520688444375992, -0.3222006857395172, 0.1946491152048111], [0.03885035589337349, -0.08218064904212952, -0.0196173544973135, 0.09578821063041687, -0.04108674079179764, 0.06441546231508255, 0.00828692875802517, -0.10961849987506866, 0.0799909308552742, 0.061505865305662155, -0.11203352361917496, -0.06432247161865234, 0.005109073594212532, 0.07380454242229462, 0.01739480346441269, -0.2179078906774521, -0.05573928728699684, 0.07271777838468552, -0.027625342831015587, 0.03608899936079979, -0.1488202065229416, -0.06469330936670303, 0.1629660427570343, -0.05560990050435066, 0.06914769113063812, 0.018538571894168854, -0.07620816677808762, -0.049405768513679504, -0.01129126362502575, 0.05921327322721481, -0.1496681123971939, 0.16444258391857147], [-0.04939282312989235, 0.009908577427268028, -0.055868420749902725, -0.077327661216259, -0.09784886986017227, -0.03372186794877052, -0.01302871573716402, -0.03650781884789467, 0.05981586501002312, 0.1512615978717804, -0.12639126181602478, -0.05452725663781166, 0.18159574270248413, 0.08206832408905029, 0.2383289635181427, 0.10223659127950668, 0.14237640798091888, 0.046476926654577255, -0.03084622323513031, -0.2718122601509094, -0.11430191248655319, -0.021964607760310173, 0.15144950151443481, 0.04314279556274414, 0.018849289044737816, 0.0033999287988990545, -0.21413065493106842, -0.012503118254244328, -0.18477556109428406, -0.11825436353683472, -0.13374671339988708, 0.17021070420742035], [-0.028704117983579636, -0.037410393357276917, -0.059057023376226425, 0.006649970542639494, -0.10975173115730286, 0.04344644770026207, -0.12419963628053665, 0.006018990650773048, 0.026829181239008904, 0.18663907051086426, -0.006104657892137766, 0.038789715617895126, -0.040043458342552185, -0.03200165927410126, -0.12097287178039551, -0.005667185876518488, -0.026674499735236168, 0.020431149750947952, -0.08146557956933975, -0.11594057083129883, -0.0454372800886631, 0.04307769984006882, 0.030794508755207062, 0.027363207191228867, 0.10045630484819412, 0.008283738978207111, -0.09053699672222137, -0.033661164343357086, -0.0858822762966156, -0.12102483212947845, 0.003316854825243354, 0.00652859453111887], [0.02443801425397396, -0.06987782567739487, -0.12529942393302917, -0.00598036777228117, -0.1036485955119133, -0.03572392836213112, 0.010863248258829117, -0.10303610563278198, 0.20019304752349854, 0.2676268517971039, -0.17256242036819458, -0.07984132319688797, 0.14752338826656342, -0.13117524981498718, -0.17872855067253113, -0.028604896739125252, 0.032865170389413834, 0.19062745571136475, -0.3699796497821808, 0.05685361474752426, -0.09355779737234116, -0.07759638130664825, 0.18126794695854187, 0.0714847594499588, 0.0933040976524353, -0.09499206393957138, -0.02240154892206192, 0.030775627121329308, -0.12088992446660995, 0.050163477659225464, -0.0976523607969284, 0.18900495767593384], [0.015031015500426292, -0.04938123747706413, 0.06003156304359436, 0.016916504129767418, -0.1380760669708252, -0.07805991917848587, 0.02839641273021698, -0.05824834853410721, 0.04088858515024185, -0.10408125072717667, -0.036635588854551315, -0.2721119523048401, -0.08347471803426743, -0.10765690356492996, -0.07880658656358719, -0.009614511393010616, 0.042021699249744415, 0.034456148743629456, -0.10631465911865234, -0.18645413219928741, -0.08228638023138046, 0.03704012930393219, 0.14953656494617462, -0.08865869790315628, 0.14055098593235016, -0.03602374345064163, -0.1171436682343483, -0.03803035616874695, -0.003190746298059821, -0.06306847929954529, -0.0097438283264637, 0.02026062086224556], [-0.015972163528203964, -0.03513031080365181, 0.0063484590500593185, 0.11328157782554626, -0.031553637236356735, 0.16410326957702637, -0.016957798972725868, -0.010425025597214699, 0.05228014290332794, 0.0905066654086113, -0.010628290474414825, 0.06613609194755554, -0.16247053444385529, 0.12114619463682175, 0.011783725582063198, -0.182938352227211, 0.10295622050762177, 0.051012828946113586, -0.06185346469283104, -0.12031185626983643, -0.11843457818031311, 0.01658632606267929, 0.061808712780475616, 0.10333438217639923, 0.08082978427410126, -0.026577506214380264, 0.014182275161147118, 0.016497479751706123, -0.06937096267938614, -0.16291387379169464, -0.013159188441932201, -0.019009660929441452], [0.20735672116279602, 0.1098417341709137, 0.0884791687130928, 0.06666894257068634, -0.10870583355426788, -0.23104003071784973, -0.23225894570350647, -0.2694074809551239, 0.26011866331100464, 0.14448052644729614, -0.20039716362953186, 0.11584962904453278, 0.06891520321369171, -0.09185879677534103, -0.2192099541425705, 0.09920352697372437, 0.19950631260871887, 0.23902291059494019, -0.32931676506996155, 0.0949382558465004, -0.18243539333343506, -0.25175154209136963, 0.20118559896945953, 0.20331023633480072, -0.2114836722612381, 0.3324678838253021, 0.011324201710522175, 0.10026270151138306, -0.19255861639976501, -0.24353128671646118, -0.23317474126815796, 0.200666144490242], [0.059024494141340256, -0.20793461799621582, 0.018500668928027153, -0.04234705865383148, 0.057482123374938965, 0.11876949667930603, 0.048065003007650375, -0.04900612309575081, -0.012062963098287582, -0.04440418630838394, -0.018021563068032265, -0.07340054214000702, -0.08706413209438324, -0.10586334764957428, 0.1286408007144928, -0.22726231813430786, -0.036895111203193665, -0.02956516481935978, 0.0680733397603035, -0.0012604740913957357, -0.15494850277900696, 0.041658710688352585, 0.02175120823085308, 0.0942382887005806, 0.07510147243738174, -0.04393020272254944, -0.14834293723106384, -0.02743046171963215, -0.0176061000674963, 0.021025273948907852, -0.02778775803744793, -0.2076435536146164], [0.09508493542671204, -0.2883118987083435, -0.14370043575763702, 0.0406346470117569, 0.12546174228191376, 0.2631525695323944, -0.02497032843530178, -0.18602898716926575, 0.1395132690668106, 0.09392399340867996, -0.19694821536540985, -0.17802168428897858, -0.02795826829969883, 0.10201767832040787, 0.07366495579481125, 0.0014767006505280733, -0.026438482105731964, 0.13072536885738373, -0.023279130458831787, -0.09833912551403046, -0.22238455712795258, -0.2626398801803589, 0.2612326741218567, 0.12458936125040054, -0.11819004267454147, 0.2377818524837494, 0.11872205138206482, -0.21195407211780548, -0.16820594668388367, 0.03404466062784195, -0.18069542944431305, 0.15414005517959595], [-0.3089245557785034, -0.18372714519500732, -0.39292168617248535, -0.06564060598611832, -0.0730365589261055, -0.23159678280353546, -0.35461169481277466, 0.039588116109371185, 0.09451938420534134, -0.3395054340362549, -0.05574100464582443, -0.08964800089597702, 0.12633535265922546, -0.012264972552657127, -0.20218779146671295, -0.008441184647381306, 0.07207935303449631, 0.0871482864022255, -0.08003333956003189, -0.05714670941233635, -0.02098151668906212, -0.10749569535255432, 0.03640012815594673, -0.15902483463287354, -0.03095846250653267, 0.17949478328227997, 0.09260019659996033, 0.028385555371642113, -0.03980794548988342, 0.19662058353424072, -0.0493704192340374, 0.09328006207942963], [0.048524096608161926, 0.011009550653398037, 0.007549663539975882, 0.18120884895324707, 0.069425068795681, 0.0002572825469542295, 0.07212986797094345, -0.11273126304149628, 0.10676214843988419, 0.15385428071022034, 0.012576387263834476, 0.000677101721521467, -0.07722645252943039, 0.13880914449691772, -0.10394105315208435, -0.12976539134979248, -0.0660456120967865, 0.09847237914800644, -0.022042449563741684, 0.018657473847270012, -0.12315957993268967, 0.11047075688838959, 0.05700907111167908, -0.06890809535980225, 0.015231573954224586, 0.12405284494161606, 0.09722214192152023, -0.13214179873466492, -0.12905184924602509, -0.11167895793914795, -0.04001012444496155, 0.028005326166749], [0.12328480929136276, -0.3028331696987152, 0.000985930091701448, 0.0566474124789238, 0.1996631920337677, -0.0497409850358963, -0.026594853028655052, -0.09610779583454132, 0.06191815808415413, -0.018936850130558014, 0.07950763404369354, -0.03226597234606743, -0.08072962611913681, 0.029927805066108704, 0.04442897439002991, -0.06641495227813721, 0.20940858125686646, 0.05632784217596054, -0.0886879712343216, 0.04597272351384163, -0.01785360276699066, -0.039792127907276154, 0.4153888523578644, 0.0002673379494808614, 0.13397851586341858, 0.024458428844809532, -0.0853579118847847, -0.01590897887945175, -0.022956786677241325, 0.11438821256160736, 0.13643698394298553, 0.02062668278813362], [0.07479275017976761, -0.14106866717338562, -0.07070651650428772, -0.08882386982440948, 0.10812214761972427, -0.036128148436546326, -0.33037498593330383, 0.05262807011604309, 0.09474705159664154, 0.11369007080793381, -0.10190370678901672, -0.056579750031232834, 0.0854063332080841, 0.038774408400058746, 0.037503018975257874, 0.07834893465042114, -0.07800301909446716, 0.07132286578416824, 0.038559138774871826, -0.06257738173007965, -0.016420649364590645, 0.26022183895111084, 0.11282629519701004, 0.15352778136730194, 0.17253588140010834, -0.035428985953330994, -0.21494756639003754, -0.08108179271221161, -0.16803649067878723, -0.36876171827316284, -0.034375522285699844, 0.09751567989587784], [-0.09244205802679062, 0.039042696356773376, -0.16714954376220703, -0.06339184939861298, 0.007496698293834925, 0.009698746725916862, 0.029779663309454918, -0.05252743139863014, 0.04661824554204941, 0.09199105948209763, -0.1779288649559021, -0.2100241482257843, -0.038036566227674484, 0.021996546536684036, -0.042188242077827454, 0.07137950509786606, 0.1041046753525734, 0.04247811809182167, -0.10056328773498535, -0.12402521818876266, -0.03052383102476597, 0.065499447286129, 0.2045101672410965, -0.017959963530302048, 0.0332566536962986, -0.045562054961919785, 0.021411443129181862, -0.02435767464339733, -0.1363828331232071, -0.006898108404129744, -0.16992972791194916, 0.10917818546295166], [0.25701650977134705, 0.07587112486362457, 0.1606357991695404, 0.021828779950737953, -0.174692764878273, -0.38744813203811646, 0.18205863237380981, 0.07994604110717773, 0.16536004841327667, -0.08919943124055862, -0.11108889430761337, 0.14075089991092682, -0.29339420795440674, 0.2681010663509369, -0.1985800862312317, -0.4367949664592743, 0.258789986371994, 0.16426466405391693, -0.01578914187848568, 0.19148889183998108, -0.17235933244228363, -0.5372267961502075, 0.11791038513183594, -0.06939087808132172, -0.476766973733902, 0.043536316603422165, 0.106715627014637, -0.6061493158340454, -0.04700108617544174, 0.16513779759407043, -0.12091132253408432, 0.0757988914847374], [-0.002141603734344244, 0.04539826139807701, -0.0052589066326618195, 0.05285410210490227, 0.019499069079756737, -0.04403639957308769, -0.06525471806526184, -0.029997291043400764, 0.07023042440414429, 0.06443005055189133, -0.07473146915435791, 0.10801245272159576, -0.12149842083454132, 0.15513096749782562, 0.1414860635995865, -0.10940966755151749, 0.03276124224066734, 0.048545822501182556, -0.013423796743154526, -0.1131264865398407, -0.06854808330535889, 0.030293235555291176, 0.2756151854991913, -0.0029999609105288982, 0.06483876705169678, 0.016876058652997017, 0.04271288961172104, -0.09479469805955887, -0.07335086166858673, -0.059352047741413116, -0.09853704273700714, -0.043535616248846054], [0.04065319895744324, -0.0331360287964344, -0.012181580066680908, -0.0003131867269985378, 0.06428489089012146, -0.07866721600294113, -0.08355416357517242, -0.007431906647980213, 0.08638203144073486, 0.0636739656329155, -0.30287113785743713, -0.0313134491443634, 0.297037810087204, -0.02522634156048298, -0.05408771336078644, 0.005261944141238928, 0.019011206924915314, 0.07064488530158997, -0.12264127284288406, 0.08721853792667389, 0.013918987475335598, -0.022525370121002197, 0.15750621259212494, -0.054666344076395035, -0.0010043918155133724, -0.05683739483356476, 0.15147937834262848, -0.028421755880117416, -0.06917363405227661, -0.03834440931677818, -0.30471667647361755, 0.31173375248908997]], "rec.bias_ih_l0": [0.7405202984809875, 0.10644007474184036, 0.22372257709503174, 0.10645417869091034, 0.05577501654624939, 0.18260033428668976, 0.037468958646059036, 0.1673465371131897, 0.04975656792521477, 0.0774446502327919, 0.10039611160755157, 0.07322593778371811, -0.4752536714076996, -0.05578736215829849, 0.3301379382610321, 0.06490203738212585, 0.07634494453668594, 0.005658396985381842, 0.035735033452510834, 0.01012470293790102, 0.02167458087205887, 0.18488511443138123, 0.25220978260040283, 0.12301871925592422, 0.015582474879920483, 0.067497119307518, -0.18454337120056152, 0.1401377171278, -0.07141534239053726, -0.0034266961738467216, 0.04956096410751343, 0.0886988416314125, 0.4380216896533966, 0.11590450257062912, 0.18379490077495575, 0.22711530327796936, 0.14715974032878876, 0.12890459597110748, 0.353614866733551, 0.24684685468673706, 0.0969330221414566, 0.19681742787361145, 0.2837449908256531, 0.2193969339132309, 1.0117374658584595, 0.23632636666297913, 0.04931703582406044, 0.3702312111854553, 0.2011742740869522, 0.04462888091802597, 0.17876924574375153, 0.27746886014938354, 0.07822724431753159, 0.16858597099781036, 0.5512946248054504, 0.26594042778015137, 0.30605456233024597, 0.28348976373672485, 0.45747998356819153, 0.2004624456167221, 0.1736050248146057, 0.09576883912086487, 0.2474064826965332, 0.26947110891342163, 0.058645620942115784, -0.07256973534822464, 0.024879593402147293, -0.013769860379397869, -0.026245607063174248, 0.012149973772466183, -0.0700443834066391, -0.03539331257343292, 0.16261909902095795, 0.009343992918729782, -0.11732801795005798, -0.04529097303748131, -0.037232279777526855, 0.004847511183470488, 0.05145951732993126, -0.033620502799749374, -0.0876329317688942, 0.1219240352511406, -0.015551095828413963, 0.027044378221035004, -0.05801263824105263, 0.019096970558166504, 0.14232182502746582, 0.06859032809734344, 0.06038559228181839, 0.09612559527158737, -0.04124019667506218, 0.06440594792366028, -0.02893105149269104, -0.0019688066095113754, -0.05138286203145981, -0.02189289778470993, -0.0623144768178463, 0.15185080468654633, 0.36992019414901733, 0.20060302317142487, 0.07332610338926315, 0.1673576384782791, 0.1339014321565628, 0.2634889483451843, 0.01678498648107052, 0.15532465279102325, 0.09217838197946548, 0.1105566918849945, -0.050164397805929184, 0.08955662697553635, 0.4210469722747803, 0.1991422027349472, 0.12207731604576111, -0.01074929628521204, 0.1824006289243698, 0.04311991110444069, -0.00642473716288805, 0.24189196527004242, 0.31720054149627686, 0.20991644263267517, 0.12088671326637268, 0.0921514630317688, 0.04300493374466896, 0.1144668459892273, -0.010469903238117695, 0.036653392016887665, 0.044879619032144547, 0.18468688428401947], "rec.bias_hh_l0": [0.7405203580856323, 0.10644005239009857, 0.22372256219387054, 0.10645414143800735, 0.05577494576573372, 0.18260043859481812, 0.03746899217367172, 0.16734659671783447, 0.049756500869989395, 0.0774446502327919, 0.10039599984884262, 0.07322588562965393, -0.47792676091194153, -0.05578736960887909, 0.3301331102848053, 0.06490229070186615, 0.07634501904249191, 0.005658445879817009, 0.03573507443070412, 0.010124659165740013, 0.02167442999780178, 0.1848849207162857, 0.2522217631340027, 0.12301904708147049, 0.015582448802888393, 0.06749720126390457, -0.18454331159591675, 0.14013780653476715, -0.07141528278589249, -0.003426753683015704, 0.04956112429499626, 0.08869866281747818, 0.43802160024642944, 0.11590442061424255, 0.1837950497865677, 0.22711530327796936, 0.14715979993343353, 0.12890475988388062, 0.3536147177219391, 0.2468469738960266, 0.09693315625190735, 0.19681762158870697, 0.2837449908256531, 0.21939678490161896, 0.9949049949645996, 0.23632636666297913, 0.04931345954537392, 0.37023138999938965, 0.20117446780204773, 0.04462868720293045, 0.17876914143562317, 0.2774689793586731, 0.07822700589895248, 0.168585866689682, 0.5515240430831909, 0.26594069600105286, 0.30605456233024597, 0.2834897041320801, 0.45748043060302734, 0.20046237111091614, 0.1736050695180893, 0.09576882421970367, 0.24740637838840485, 0.26947087049484253, 0.061250604689121246, -0.0700591653585434, 0.027789397165179253, -0.01044269185513258, -0.03188750520348549, 0.007318048272281885, -0.07506421208381653, -0.042616501450538635, 0.13777928054332733, 0.011304216459393501, -0.11632197350263596, -0.039676256477832794, -0.048133205622434616, 0.00037055936991237104, -0.09215115010738373, -0.06582866609096527, -0.08940954506397247, 0.10752376914024353, -0.015153350308537483, 0.02011684887111187, -0.1140352413058281, 0.018040597438812256, 0.13454827666282654, 0.08755218982696533, 0.05472180247306824, 0.09411051124334335, -0.040356263518333435, 0.06424955278635025, -0.03306547924876213, -0.018917832523584366, -0.04526069387793541, -0.01103251613676548, -0.06231458857655525, 0.15185081958770752, 0.3699200451374054, 0.20060288906097412, 0.07332626730203629, 0.1673576682806015, 0.13390161097049713, 0.26348885893821716, 0.016785021871328354, 0.15532487630844116, 0.09217796474695206, 0.11055662482976913, -0.06581532955169678, 0.0895567461848259, 0.4210425317287445, 0.19914226233959198, 0.12207743525505066, -0.010749241337180138, 0.18240052461624146, 0.04311981424689293, -0.006424708291888237, 0.24189189076423645, 0.317140132188797, 0.20991642773151398, 0.12088670581579208, 0.09215149283409119, 0.04300487041473389, 0.11446689814329147, -0.01046989019960165, 0.036653418093919754, 0.04487982019782066, 0.18468689918518066], "lin.weight": [[-0.45313096046447754, -0.29909366369247437, -0.40908917784690857, 0.1652805060148239, -0.023734964430332184, 0.7127125263214111, 0.2952769994735718, 0.663772463798523, -0.03304016962647438, -0.03172384202480316, 0.026874316856265068, 0.1406853049993515, 0.7363041639328003, 0.024547290056943893, -1.294398307800293, -0.2697024941444397, 0.004472826607525349, 0.00797996949404478, 0.07619017362594604, -0.37060701847076416, -0.5669922232627869, 0.565609872341156, 0.5859819650650024, -0.07741434872150421, 0.43310534954071045, 0.16277864575386047, -0.1884544938802719, -0.07583727687597275, -0.043216194957494736, 0.14363491535186768, 0.028695398941636086, -0.2995211184024811]], "lin.bias": [-0.041802406311035156]}}