{"model_data": {"model": "SimpleRNN", "input_size": 1, "skip": 1, "output_size": 1, "unit_type": "LSTM", "num_layers": 1, "hidden_size": 32, "bias_fl": true}, "state_dict": {"rec.weight_ih_l0": [[0.0536322295665741], [0.14079493284225464], [0.0124823534861207], [-0.09613974392414093], [0.022396966814994812], [0.02930571138858795], [0.19039948284626007], [0.020274657756090164], [-0.05041738227009773], [0.24168385565280914], [0.00547431455925107], [-0.023898771032691002], [-0.1733534187078476], [-0.007438678294420242], [-0.06765236705541611], [-0.02484438568353653], [-0.03187749907374382], [0.055348750203847885], [-0.019292248412966728], [0.005158385261893272], [-0.046487562358379364], [-0.008790682069957256], [0.07657093554735184], [-0.032952237874269485], [-0.004523293115198612], [-0.021243197843432426], [0.058282092213630676], [-0.021826980635523796], [0.00862700492143631], [-0.33697888255119324], [0.1743064671754837], [-0.055190302431583405], [0.04469654709100723], [-0.07762844860553741], [0.027228303253650665], [-0.10491293668746948], [-0.3286769986152649], [0.010592438280582428], [0.173843652009964], [-0.022003058344125748], [0.01827336847782135], [0.2107316255569458], [0.03582035005092621], [0.000649805529974401], [-0.14269030094146729], [-0.02969895303249359], [-0.09898694604635239], [0.025758681818842888], [-0.012281744740903378], [0.025987299159169197], [-0.004798433743417263], [0.05382179468870163], [0.055798549205064774], [-0.008750339969992638], [0.10574521869421005], [0.012226484715938568], [-0.011344376020133495], [-0.018702559173107147], [0.06576372683048248], [-0.03083733282983303], [-0.06710962951183319], [-0.3321574330329895], [0.02076706849038601], [0.005291822832077742], [-0.02124744839966297], [-0.06691315770149231], [0.09980951249599457], [2.0330917835235596], [-0.27193647623062134], [0.2783084213733673], [0.22042500972747803], [-0.13467226922512054], [-0.06863666325807571], [-0.5819672346115112], [-0.08367256820201874], [0.1667686402797699], [-0.011319645680487156], [-0.14997947216033936], [0.13046763837337494], [-0.0036242555361241102], [-0.007272085640579462], [0.06983979046344757], [0.08592208474874496], [-0.3440963327884674], [0.12855084240436554], [-1.190282940864563], [-0.24771428108215332], [-0.037864916026592255], [0.0462002269923687], [0.02905396744608879], [0.02766738459467888], [-0.07366477698087692], [0.9077605605125427], [-0.3992368280887604], [-0.17134130001068115], [0.07963000982999802], [0.046286240220069885], [0.04878444969654083], [0.007132915314286947], [-0.2419053167104721], [-0.14911797642707825], [0.03391839563846588], [0.2464209496974945], [0.04364622011780739], [0.018988527357578278], [0.4168359339237213], [0.03225130960345268], [-0.029192833229899406], [-0.040304530411958694], [0.013306943699717522], [-0.05153756961226463], [0.005935758352279663], [0.011733158491551876], [-0.012629453092813492], [0.011571019887924194], [-0.005948279518634081], [0.049666259437799454], [-0.011347053572535515], [0.03890518099069595], [-0.025573868304491043], [-0.008545340970158577], [-0.003146024886518717], [0.024066289886832237], [-0.054733362048864365], [0.011827905662357807], [-0.27071717381477356], [0.023626213893294334], [0.08034005016088486]], "rec.weight_hh_l0": [[-0.002415304072201252, -0.025464782491326332, -0.02036270499229431, 0.024589961394667625, 0.07852959632873535, -0.03261953964829445, 0.00571172870695591, 0.10721776634454727, -0.05569692701101303, -0.08847799152135849, -0.005150472279638052, 0.0064782556146383286, -0.031243322417140007, -0.10319804400205612, -0.000322892505209893, -0.06623081117868423, 0.18428200483322144, -0.057780005037784576, -0.031923264265060425, -0.05382619425654411, 0.018608009442687035, -0.05091109499335289, 0.017510507255792618, 0.045329879969358444, 0.07340113818645477, 0.12486740946769714, 0.06864064186811447, 0.2062349170446396, -0.06497030705213547, 0.04462628439068794, -0.04508710280060768, -0.0819975957274437], [-0.055809181183576584, -0.007433016784489155, 0.0706326887011528, 0.08145372569561005, 0.6171243190765381, -0.17213918268680573, 0.4152225852012634, 0.10893559455871582, 0.005851417779922485, -0.6023233532905579, -0.09456683695316315, 0.009597337804734707, -1.0239120721817017, -0.18904882669448853, 0.0854664295911789, 0.043222565203905106, 0.1726064234972, 0.1311747282743454, -0.028500622138381004, 0.04708343371748924, 0.18968719244003296, 0.155379980802536, -0.005118167493492365, 0.05253016576170921, 0.0571281835436821, 0.04229563847184181, 0.048675037920475006, 0.10959162563085556, 0.030032623559236526, 1.0712530612945557, -0.1512109935283661, -0.040063243359327316], [-0.013769647106528282, -0.10688725858926773, 0.09898099303245544, -0.0419393926858902, -0.010441883467137814, -0.06288575381040573, -0.05626249685883522, -0.020255111157894135, -0.0389481782913208, -0.012293800711631775, 0.16922342777252197, -0.05246557667851448, -0.06410416215658188, -0.03566373884677887, -0.07306089997291565, 0.011934204958379269, 0.08625844866037369, -0.03631806746125221, 0.008908849209547043, -0.03683727607131004, -0.05811915174126625, -0.031900420784950256, 0.02897583320736885, -0.13181978464126587, -0.06204450875520706, -0.03314607962965965, -0.05737994983792305, -0.09448647499084473, -0.015196769498288631, -0.10554570704698563, -0.07129424810409546, -0.004074057564139366], [-0.004176056012511253, 0.10889285057783127, -0.029966965317726135, -0.03163725137710571, 0.11819405853748322, 0.006976896431297064, -0.13059300184249878, -0.018775464966893196, 0.02425381727516651, 0.010816399939358234, -0.01886686123907566, -0.04384242743253708, 0.52512526512146, 0.16342787444591522, -0.16534703969955444, 0.03928877040743828, 0.06327489018440247, -0.04942760244011879, 0.024768734350800514, -0.006601783446967602, 0.04917825758457184, -0.014522659592330456, 0.02678706869482994, -0.024495761841535568, -0.02463167905807495, 0.04423240199685097, -0.016959043219685555, 0.017221691086888313, -0.052990879863500595, -0.4350409507751465, 0.4738858640193939, -0.04314859211444855], [-0.011448162607848644, -0.07427134364843369, 0.020916648209095, 0.05129755288362503, 0.183747798204422, 0.00509242806583643, 0.03519454225897789, -0.008210320957005024, -0.030648844316601753, 0.06708509474992752, 0.02730589732527733, -0.010789848864078522, 0.15380562841892242, -0.029973434284329414, 0.0870460495352745, -0.022880997508764267, -0.1069580540060997, -0.012756217271089554, 0.07613655924797058, -0.03690589591860771, 0.007156183011829853, -0.11518294364213943, -0.08563628792762756, -0.04620010778307915, -0.006456402596086264, 0.013292325660586357, 0.040719710290431976, -0.08117638528347015, 0.11588317155838013, -0.014947211369872093, 0.010868691839277744, 0.08318474143743515], [0.027254095301032066, -0.04547320306301117, -0.0010354440892115235, -0.014171653427183628, 0.04913763329386711, -0.00691727502271533, -0.014959102496504784, 0.07614433765411377, 0.006144434679299593, -0.02581421099603176, -0.06138243153691292, -0.013468021526932716, 0.02412615902721882, 0.02732979692518711, -0.026794925332069397, 0.03250717744231224, -0.05007774755358696, -0.00811355747282505, -0.1454220414161682, 0.03693822771310806, 0.0190421175211668, -0.05113980546593666, 0.020243743434548378, -0.008950578048825264, 0.08013071119785309, -0.01669195108115673, 0.0166581179946661, -0.09966970235109329, -0.0689176619052887, 0.003941587638109922, 0.0038810172118246555, 0.06217985600233078], [0.011326087638735771, 0.012183131650090218, -0.0731116533279419, -0.06440843641757965, 0.12924589216709137, 0.05364580079913139, 0.016567248851060867, -0.022348342463374138, 0.0029523742850869894, -0.1548323780298233, -0.06463556736707687, 0.0665741115808487, -0.22303028404712677, 0.05173976719379425, -0.025051668286323547, -0.027716869488358498, 0.05087811499834061, -0.0329698845744133, -0.01615733839571476, -0.002868031617254019, -0.01309325359761715, 0.09074605256319046, 0.11718203127384186, 0.03382047265768051, 0.009296858683228493, -0.007904276251792908, 0.002473353175446391, 0.05163897946476936, -0.0074987467378377914, 0.060803309082984924, -0.06566548347473145, -0.09739187359809875], [0.06963327527046204, 0.0011311167618259788, 0.04219486936926842, -0.0023297658190131187, 0.018583273515105247, -0.027430320158600807, -0.0004752493114210665, 0.023026281967759132, -0.041876789182424545, -0.03386395424604416, 0.00040183449164032936, -0.0035375901497900486, 0.035942088812589645, 0.03211912885308266, 0.014919895678758621, -0.021926691755652428, 0.03932991251349449, -0.08471071720123291, -0.03805871307849884, -0.004383443389087915, 0.002208320191130042, -0.08660940825939178, 0.03021947853267193, -0.005061422940343618, 0.03140702098608017, -0.02220791205763817, 0.025254614651203156, -0.04297211766242981, -0.020145010203123093, -0.03571435436606407, -0.10543093830347061, -0.04296864941716194], [0.057536136358976364, 0.06807968020439148, -0.053471099585294724, 0.007872617803514004, 0.022930964827537537, 0.03421628847718239, -0.035850971937179565, 0.054528191685676575, 0.001520640915259719, -0.014544622972607613, -0.08999032527208328, -0.11690989881753922, 0.009175043553113937, 0.09237023442983627, -0.034900370985269547, 0.09520332515239716, 0.006590239703655243, 0.05667897313833237, -0.19484886527061462, -4.1132880141958594e-05, 0.06767062097787857, -0.08399598300457001, 0.010283003561198711, -0.044692300260066986, 0.04363888502120972, 0.04656299576163292, 0.02928895875811577, 0.15941520035266876, -0.00943931844085455, -0.0007211258634924889, -0.08219203352928162, -0.012933094054460526], [-0.011825802735984325, -0.039446622133255005, -0.04625740274786949, 0.09437687695026398, -0.1437242478132248, -0.06829945743083954, 0.08488467335700989, -0.003869409905746579, -0.011398241855204105, -0.13888876140117645, 0.024268925189971924, 0.0619012825191021, -0.038691069930791855, 0.10594287514686584, -0.19680336117744446, -0.01974877528846264, 0.012388143688440323, -0.007937350310385227, -0.012842568568885326, -0.02866920456290245, -0.13580647110939026, 0.05196182057261467, 0.07034631073474884, 0.04226922243833542, 0.042530741542577744, 0.04366257041692734, -0.031367313116788864, 0.03590501844882965, 0.13660989701747894, -0.06624095141887665, 0.025350898504257202, -0.10984746366739273], [0.0007005754159763455, -0.09637138992547989, -0.10069411247968674, -0.008844003081321716, 0.19984853267669678, 0.007226323708891869, -0.04303593933582306, 0.1635664403438568, -0.0664588138461113, 0.024459684267640114, -0.005419411230832338, -0.006654306780546904, -0.19448351860046387, -0.06955229490995407, 0.027442198246717453, -0.05101083219051361, 0.03626473620533943, -0.06941036134958267, 0.03896328806877136, 0.04482512176036835, -0.0046242582611739635, 0.04262173920869827, 0.019840501248836517, -0.10928415507078171, 0.10992347449064255, 0.024341480806469917, 0.0040023741312325, -0.027229687198996544, -0.058377958834171295, -0.024465203285217285, -0.1173185333609581, -0.05711541324853897], [-0.024462247267365456, 0.039856329560279846, -0.036693062633275986, -0.010636079125106335, 0.006171868182718754, -0.04336690530180931, -0.047307468950748444, -0.06465373188257217, -0.0006519152666442096, 0.039544615894556046, -0.017124712467193604, 0.1557098925113678, -0.055623941123485565, -0.03737407177686691, 0.05312889441847801, -0.03135407716035843, -0.2443675547838211, 0.09243717044591904, -0.11519428342580795, -0.08748326450586319, 0.001804154715500772, 0.19601202011108398, -0.03160262480378151, -0.033547814935445786, -0.019487662240862846, 0.0091392882168293, 0.19845528900623322, 0.5321386456489563, 0.09795765578746796, -0.012486268766224384, -0.057218194007873535, -0.037823356688022614], [-0.02277807891368866, 0.03692549839615822, -0.007273815106600523, -0.047428958117961884, -0.3389766812324524, 0.012209230102598667, -0.1367800086736679, 0.011227183975279331, 0.014163559302687645, -0.0022465670481324196, 0.18156670033931732, 0.018200505524873734, 0.021321561187505722, 0.07253193110227585, 0.12487561255693436, 0.06197834014892578, 0.0937933698296547, -0.1409057378768921, 0.013110664673149586, -0.027839701622724533, -0.08606492727994919, 0.11052000522613525, 0.04363962262868881, 0.01960413157939911, 0.0234663188457489, -5.0762151659000665e-05, -0.09619739651679993, -0.0002370878355577588, 0.14258521795272827, 0.3298579156398773, 0.022820012643933296, 0.13199925422668457], [0.040884945541620255, -0.13266338407993317, -0.06578555703163147, 0.04303814843297005, 0.052853550761938095, -0.03694486245512962, -0.009795309975743294, 0.022269021719694138, -0.024182885885238647, -0.031090643256902695, -0.011150657199323177, 0.041094910353422165, -0.020325275138020515, -0.11932322382926941, 0.03609825298190117, -0.0615045465528965, 0.09719374030828476, -0.06990811228752136, 0.010446997359395027, -0.03756226599216461, 0.08463050425052643, 0.07766227424144745, 0.026434531435370445, -0.004071365110576153, 0.08332996070384979, 0.010132295079529285, 0.04567249119281769, -0.008449926041066647, -0.17408712208271027, 0.04011623561382294, -0.04666886478662491, 0.016218530014157295], [0.06348945945501328, 0.018096402287483215, -0.052555300295352936, -0.1404687762260437, -0.024986591190099716, -0.0008797082700766623, -0.100364550948143, 0.0012781207915395498, 0.01628239080309868, -0.032011404633522034, -0.04497459903359413, 0.0028121008072048426, 0.09333518147468567, 0.07107850164175034, 0.12775541841983795, 0.026639558374881744, 0.09340795874595642, -0.011077932082116604, -0.007322445046156645, 0.09034513682126999, -0.04971207678318024, -0.05804076045751572, 0.0018470741342753172, -0.04122207686305046, -0.02040022984147072, -0.01820497401058674, 0.03988456353545189, 0.07377379387617111, -0.02220238372683525, 0.033612754195928574, 0.07012674957513809, -0.0042256242595613], [-0.02429632656276226, 0.002457865048199892, 0.0014597403351217508, -0.0012883596355095506, -0.011196279898285866, -0.007589847780764103, -0.014907298609614372, 0.05018855631351471, -0.08078517019748688, -0.0048822364769876, -0.03816431760787964, 0.06526712328195572, -0.05155372992157936, 0.00021008994372095913, 0.03082849271595478, 0.0638248547911644, 0.2686881124973297, -0.02736544981598854, -0.02998906373977661, -0.03715530037879944, 0.007334029767662287, -0.05712997540831566, -0.09904477000236511, -0.011403096839785576, -0.004636241123080254, 0.014149251393973827, 0.019951630383729935, 0.10716687887907028, -0.041606321930885315, 0.0004469058767426759, -0.038460876792669296, -0.01087015401571989], [-0.02574153244495392, -0.035171762108802795, 0.1629079282283783, -0.00683380663394928, -0.1069280356168747, 0.14349833130836487, 0.04681754112243652, 0.06639665365219116, -0.10822237282991409, 0.039637062698602676, 0.06568599492311478, -0.4876682162284851, -0.16678893566131592, -0.04127950966358185, -0.03852451592683792, 0.007364965509623289, 0.42954021692276, 0.005941812880337238, 0.13111306726932526, 0.05133723095059395, 0.08042252063751221, -0.10455901175737381, 0.025121353566646576, 0.13686497509479523, -0.2534167468547821, 0.024029040709137917, 0.012631818652153015, -0.03001638501882553, -0.10678473114967346, 0.005549878813326359, -0.18203634023666382, -0.02177104726433754], [-0.01047767885029316, -0.04713562875986099, 0.0954897478222847, -0.04288461059331894, -0.01151827722787857, 0.04821629822254181, 0.005385956726968288, -0.0033804604317992926, -0.0703287199139595, -0.04144032672047615, 0.0448443777859211, -0.0012200474739074707, -0.022205935791134834, -0.05994086712598801, -0.12977854907512665, 0.04308563098311424, 0.04095431789755821, 0.03535178303718567, -0.08407492190599442, 0.1894005388021469, -0.009552491828799248, 0.014791393652558327, 0.05505499988794327, -0.005923270247876644, -0.023889491334557533, 0.08270709216594696, 0.040423423051834106, 0.12333175539970398, 0.12687180936336517, 0.046082835644483566, -0.015016380697488785, 0.02931060828268528], [-0.028950277715921402, 0.017981596291065216, -0.016387104988098145, -0.045782193541526794, -0.020063025876879692, 0.04544319584965706, -0.009701044298708439, -0.07323309779167175, 0.019923942163586617, 0.03981509432196617, 0.029116133227944374, -0.10560944676399231, -0.08322681486606598, -0.07805206626653671, 0.062092769891023636, 0.06387102603912354, 0.22682681679725647, 0.01256552804261446, 0.07117916643619537, -0.004563953261822462, 0.004660262260586023, -0.0021043645683676004, -0.052536919713020325, 0.05015005171298981, -0.04686502367258072, -0.029236409813165665, -0.23608452081680298, -0.2266872078180313, -0.016978804022073746, -0.009201009757816792, -0.06371847540140152, -0.020111585035920143], [0.05895345285534859, -0.09074622392654419, 0.06892849504947662, -0.0033849345054477453, -6.921395106473938e-05, -0.01373047661036253, -0.0493866391479969, 0.0012869314523413777, -0.01827068068087101, 0.05354529246687889, 0.05572715401649475, 0.0824589803814888, -0.016090046614408493, -0.040414419025182724, 0.014765226282179356, -0.030950814485549927, -0.02297983504831791, 0.04216492548584938, -0.014571944251656532, -0.05159339681267738, 0.007176677696406841, -0.005855679512023926, 0.016555001959204674, -0.0836048573255539, 0.05324740707874298, 0.023999303579330444, 0.01983571983873844, -0.009948470629751682, -0.06465418636798859, -0.030621210113167763, -0.042061030864715576, 0.10548234730958939], [0.0024515409022569656, -0.004727477673441172, 0.03277762979269028, 0.059789568185806274, 0.027393463999032974, -0.07460141181945801, 0.04242739826440811, 0.04738018661737442, -0.1613173484802246, -0.04022575169801712, 0.05185454711318016, 0.07000664621591568, -0.12255142629146576, -0.09086547791957855, -0.043187327682971954, 0.09266683459281921, 0.20582707226276398, -0.03380478173494339, -0.20292425155639648, -0.042538903653621674, 0.010789324529469013, 0.07571357488632202, 0.10660877078771591, -0.09542994201183319, 0.05140283703804016, -0.04945126920938492, -0.02196788787841797, 0.43573933839797974, -0.010758372955024242, 0.08942043036222458, -0.1688537746667862, 0.06323562562465668], [0.013239623047411442, -0.015693170949816704, -0.016870461404323578, 0.005540927406400442, 0.05798576399683952, -0.026858502998948097, -0.026535501703619957, -0.03665494918823242, 0.016330935060977936, -0.0030590558890253305, 0.002228578319773078, 0.060951169580221176, -0.005762305576354265, -0.024547472596168518, 0.018983889371156693, 0.0029963848646730185, -0.058988604694604874, 0.06534291058778763, 0.02726869471371174, -0.0068257893435657024, 0.017958730459213257, 0.04513358324766159, -0.04150179773569107, -0.030281750485301018, -0.0173234473913908, -0.002825492527335882, 0.03339338302612305, -0.03963865339756012, 0.012941873632371426, -0.020294588059186935, -0.029964499175548553, -0.05126284062862396], [-0.2531394064426422, 0.05621056258678436, 0.02449333481490612, -0.016150902956724167, 0.07024562358856201, -0.139593243598938, 0.0039974297396838665, -0.037109050899744034, -0.10755962878465652, -0.03723977878689766, 0.00669547775760293, -0.06114301085472107, 0.0062432074919342995, 0.007597992662340403, 0.04912537336349487, -0.028328057378530502, 0.2270323485136032, -0.042158082127571106, -0.09044170379638672, 0.03638743609189987, 0.05187072232365608, -0.05816749110817909, -0.011998123489320278, 0.05948787182569504, 0.11972460895776749, 0.09794335812330246, 0.1552932858467102, 0.35953566431999207, 0.03767771273851395, 0.07172579318284988, -0.00040947608067654073, 0.060902345925569534], [-0.0029028188437223434, -0.06363026052713394, 0.0984620749950409, 0.05172579735517502, 0.06605786085128784, 0.008343422785401344, -0.06007404997944832, 0.030189087614417076, 0.07945414632558823, 0.07010530680418015, 0.0017778840847313404, 0.030009539797902107, -0.060038093477487564, -0.07362926751375198, -0.03392171487212181, -0.031249264255166054, 0.016032321378588676, 0.015846023336052895, -0.05654878541827202, -0.03306486830115318, 0.017256321385502815, -0.03725835308432579, 0.005991160869598389, -0.022427575662732124, 0.08676761388778687, 0.028316780924797058, 0.1266830563545227, -0.017992248758673668, -0.02381770871579647, -0.038629014045000076, -0.05669822171330452, -0.009645308367908001], [0.006210204679518938, -0.00212662760168314, 0.14564596116542816, 0.07069500535726547, 0.013528494164347649, -0.030123595148324966, 0.004407287109643221, 0.04054627940058708, 0.07934100925922394, 0.016145609319210052, 0.07336816936731339, 0.058537982404232025, 0.023078981786966324, -0.052087146788835526, -0.08451583981513977, 0.03267841786146164, -0.008352871984243393, 0.010598244145512581, -0.06560280919075012, -0.03140636160969734, -0.01529531180858612, 0.0023852915037423372, 0.05430084466934204, -0.043930914252996445, 0.0419272780418396, 0.011862828396260738, -0.07309161126613617, 0.031051751226186752, 0.005591325927525759, 0.03272991627454758, 0.002407263731583953, 0.015870044007897377], [0.015515387058258057, 0.026023847982287407, 0.03632446378469467, -0.00521160289645195, 0.00826693419367075, -0.015420680865645409, 0.014361529611051083, 0.05770201236009598, 0.005032036453485489, -0.01411652285605669, 0.007692521438002586, 0.0023238074500113726, -0.04381229728460312, -0.050214096903800964, 0.0071864924393594265, -0.030465075746178627, 0.10917938500642776, -0.05995624512434006, -0.03858130797743797, 0.05854276567697525, -0.01628785952925682, -0.02528497762978077, 0.0925581231713295, 0.021089548245072365, 0.00862965453416109, 0.07667741924524307, 0.01719461940228939, 0.014692905358970165, -0.007700536400079727, 0.04473837465047836, -0.013082858175039291, 0.05600174516439438], [-0.050206102430820465, 0.027127113193273544, 0.05273791402578354, -0.002478756010532379, 0.04150032624602318, 0.060912396758794785, -0.03459903970360756, -0.05907705798745155, 0.01645580865442753, 0.006012410391122103, -0.04892338812351227, 0.106439970433712, 0.07222829014062881, -0.09070689231157303, 0.058395516127347946, 0.10135917365550995, 0.08727942407131195, 0.03611426055431366, -0.07633069157600403, 0.11485292762517929, -0.0309152789413929, -0.003173747332766652, -0.005657189525663853, 0.10070628672838211, -0.03856420889496803, 0.007204367313534021, -0.17239119112491608, 0.2942368686199188, 0.009567718021571636, -0.030397310853004456, 0.14453159272670746, -0.07225574553012848], [0.02712695673108101, 0.028160398826003075, -0.036783792078495026, -0.018028754740953445, -0.07241017371416092, -0.09009484201669693, 0.02353133261203766, 0.010520244017243385, 0.037659551948308945, -0.00718208122998476, 0.044446639716625214, 0.1730266958475113, 0.06529737263917923, 0.07198870182037354, -0.01772812008857727, -0.01322780642658472, -0.2640167772769928, 0.009790956974029541, -0.025763845071196556, -0.032944876700639725, -0.041487917304039, 0.12858249247074127, -0.0488620400428772, -0.0622364766895771, 0.0010734879178926349, 0.0184502974152565, -0.006137290503829718, 0.15320785343647003, 0.0426621176302433, -0.012588143348693848, 0.045822206884622574, -0.026037069037556648], [0.028208855539560318, -0.044521696865558624, 0.026100829243659973, 0.05231722444295883, 0.05368543788790703, -0.036816805601119995, 0.041328106075525284, 0.014738732948899269, 0.015360158868134022, -0.023731466382741928, -0.006791381631046534, 0.026644742116332054, -0.04670118913054466, 0.044091928750276566, 0.004703146871179342, -0.028290316462516785, -0.03094351664185524, 0.07642479985952377, 0.08714326471090317, -0.019978128373622894, 0.02204309217631817, 0.01984965242445469, -0.047584470361471176, -0.036436278373003006, -0.04326368495821953, 0.03917311504483223, 0.013163753785192966, -0.07436535507440567, -0.027266735211014748, 0.02607586607336998, -0.01856725662946701, -0.038117118179798126], [0.006915424019098282, -0.06277716159820557, -0.07005450874567032, -0.17308609187602997, -0.0386941134929657, -0.09229765087366104, -0.3298487663269043, -0.08750086277723312, 0.0734705924987793, 0.2935663163661957, 0.017115991562604904, 0.012961195781826973, 0.0019090226851403713, -0.05161498486995697, 0.3715725243091583, 0.03159834444522858, 0.1266750991344452, -0.04137282818555832, -0.04554557800292969, -0.04856294393539429, -0.024507571011781693, -0.0898185446858406, 0.03545739874243736, -0.0023381984792649746, -7.178061787271872e-05, -0.09110618382692337, 0.0672706663608551, 0.06059246510267258, -0.1735372543334961, 0.22215628623962402, -0.15376681089401245, 0.13187597692012787], [0.06413354724645615, -0.1891782283782959, 0.1384860873222351, 0.023593120276927948, 0.10710955411195755, -0.05843498930335045, -0.08685941249132156, -0.05941472575068474, 0.09826769679784775, 0.2195163518190384, -0.061457812786102295, 0.05942240729928017, -0.05988672375679016, -0.0823991671204567, -0.07332400977611542, -0.055740222334861755, 0.06809759140014648, -0.0016559623181819916, -0.05356788635253906, -0.08616266399621964, -0.029989343136548996, -0.204783096909523, 0.10657127946615219, -0.13405384123325348, 0.06937607377767563, 0.025274304673075676, -0.05309777706861496, 0.021572569385170937, 0.11241672188043594, -0.3164175748825073, -0.21915297210216522, 0.009112635627388954], [-0.03972776234149933, -0.07505813241004944, 0.07741998136043549, 0.10137602686882019, 0.07454459369182587, -0.1146526113152504, -0.007593028713017702, 0.028097374364733696, 0.11191685497760773, 0.07377462089061737, 0.03709718957543373, -0.0074577839113771915, -0.06298639625310898, -0.0962747186422348, -0.11036472022533417, 0.06690836697816849, 0.07478759437799454, 0.005246556829661131, -0.0752994641661644, 0.027754144743084908, -0.016702676191926003, -0.07588908821344376, 0.015651807188987732, -0.028030473738908768, 0.048725325614213943, 0.07828592509031296, 0.044171128422021866, 0.10394589602947235, 0.1090407744050026, 0.0535072386264801, -0.02803097479045391, 0.038500264286994934], [0.03919288143515587, 0.05137598514556885, -0.023485291749238968, -0.06377018243074417, 0.0071466704830527306, 0.013954348862171173, 0.013841815292835236, 0.028961801901459694, 0.01876411959528923, 0.056745219975709915, 0.036164265125989914, 0.04095758497714996, -0.04711978882551193, 0.04079486429691315, 0.031905341893434525, -0.02682025171816349, -0.3311987817287445, -0.024811768904328346, 0.07083192467689514, 0.03786536306142807, 0.020524950698018074, 6.163625948829576e-05, -0.06142875552177429, -0.03358455374836922, -0.05530855804681778, 0.06677098572254181, -0.00953621044754982, -0.37061607837677, 0.028326772153377533, -0.08563574403524399, 0.01651408150792122, -0.015361516736447811], [0.08312520384788513, 0.03969680890440941, 0.026927463710308075, 0.08589691668748856, -0.314319908618927, 0.0797731950879097, 0.031368400901556015, -0.03627753257751465, 0.07891660183668137, 0.11801021546125412, -0.036499783396720886, -0.03281940519809723, 0.22967268526554108, 0.16247306764125824, -0.3459715247154236, 0.01914021372795105, -0.10083755105733871, -0.026211557909846306, 0.11459282040596008, -0.011806490831077099, 0.010858135297894478, 0.06475100666284561, -0.06795022636651993, -0.08848249912261963, -0.07730809599161148, -0.03702843189239502, -0.07371845096349716, -0.19844090938568115, -0.13574551045894623, -0.3403704762458801, 0.39993688464164734, 0.12001688778400421], [-0.016718683764338493, 0.06670043617486954, 0.03230191767215729, 0.005985577590763569, 0.01912771724164486, 0.032778915017843246, 0.04367205500602722, -0.038971830159425735, -0.05571947619318962, 0.0005685896030627191, 0.012371992692351341, 0.024109218269586563, -0.04999864473938942, 0.053475722670555115, -0.008697613142430782, -0.049209997057914734, -0.047843433916568756, -0.012084417976439, -0.021045779809355736, -0.02937939018011093, -0.05417374148964882, 0.05924762785434723, 0.015319845639169216, -0.04562940075993538, -0.035786330699920654, -0.014932699501514435, 0.022558903321623802, -0.022461585700511932, 0.028020156547427177, -0.023952903226017952, 0.07272884249687195, -0.13144086301326752], [0.05473022907972336, 0.09235885739326477, 0.032860878854990005, -0.08380071818828583, -0.22380271553993225, -0.023440608754754066, -0.20740187168121338, -0.02634383924305439, 0.05135894939303398, 0.07871373742818832, -0.042037684470415115, 0.014473572373390198, 0.2920316457748413, -0.05529318377375603, -0.13811777532100677, 0.05813566595315933, -0.0760660171508789, -0.02994617447257042, -0.03166930750012398, -0.05009441822767258, 0.045939866453409195, 0.019702158868312836, 0.035892829298973083, 0.011722384952008724, -7.552962051704526e-05, 0.048485640436410904, -0.0038397249300032854, -0.027343016117811203, -0.003072350285947323, -0.38102686405181885, 0.2548236846923828, -0.11730450391769409], [0.027892667800188065, 0.04645814001560211, 0.043116599321365356, -0.05137112736701965, -0.2896655201911926, 0.004157187417149544, 0.058846235275268555, 0.006367244757711887, -0.10218415409326553, 0.07743347436189651, -0.022185225039720535, -0.05907020717859268, -0.1297922283411026, -0.20538181066513062, -0.21312056481838226, 0.008532071486115456, -0.032920174300670624, -0.047330092638731, -0.00017559027764946222, -0.007494141347706318, -0.1312970668077469, 0.11080428957939148, -0.01994851417839527, 0.07410013675689697, 0.039154380559921265, 0.04486667737364769, 0.013146120123565197, 0.026818685233592987, 0.06755176931619644, -0.12348344177007675, 0.19133034348487854, 0.07510428875684738], [0.014071699231863022, 0.024992816150188446, -0.06260725110769272, -0.038700297474861145, 0.03392636030912399, -0.05700637400150299, -0.011185113340616226, 0.013425806537270546, 0.019021840766072273, 0.0036905589513480663, -0.04064365103840828, 0.02225145697593689, 0.0055963327176868916, 0.029119029641151428, -0.036952435970306396, 0.031649891287088394, -0.22381967306137085, -0.014766044914722443, -0.04673540219664574, 0.007337726652622223, -0.056100036948919296, 0.03749467805027962, -0.020962435752153397, 0.011457273736596107, 0.027257248759269714, -0.0018620796035975218, 0.014774995855987072, -0.01402759738266468, -0.07626932114362717, -0.049947187304496765, 0.03552130609750748, -0.004194627981632948], [0.025107726454734802, -0.034891169518232346, -0.040929365903139114, -0.0719958022236824, 0.036323703825473785, 0.08906099945306778, -0.03362014889717102, -0.000908867921680212, 0.023330923169851303, -0.10416078567504883, -0.045839447528123856, 0.042514652013778687, 0.01650300621986389, 0.05065881460905075, 0.0876249223947525, -0.007888052612543106, -0.09719923883676529, -0.05654716119170189, 0.0069589088670909405, -0.06669845432043076, -0.0529959537088871, -0.028066186234354973, 0.0634603500366211, 0.01257264893501997, 0.03741231560707092, 0.01575561612844467, 0.008709198795258999, -0.05522264540195465, 0.0528598353266716, 0.14298070967197418, 0.17130224406719208, 0.0346946194767952], [0.04303547367453575, 0.07474733144044876, -0.09843377023935318, -0.006411978509277105, -0.021715229377150536, -0.029333937913179398, -0.027318807318806648, 0.012089051306247711, 0.09230227768421173, -0.05716065689921379, -0.04570673778653145, 0.023937812075018883, 0.04663345217704773, 0.04652251675724983, -0.04886145889759064, -0.04905880615115166, -0.0820716843008995, 0.0007942381198517978, -0.002302961889654398, -0.008670823648571968, -0.07615074515342712, 0.04141645133495331, -0.013211940415203571, 0.0655512660741806, 0.013619918376207352, 0.04417722299695015, 0.023438002914190292, -0.05619862675666809, -0.01631562039256096, 0.02699524350464344, -0.018396025523543358, -0.01610572822391987], [0.05197184160351753, 0.02389281429350376, -0.05506867170333862, -0.03520822897553444, -0.050468917936086655, 0.0018405728042125702, -0.0011964964214712381, 0.023321032524108887, -0.03677007928490639, -0.0026578109245747328, -0.027540884912014008, 0.20942848920822144, -0.0036352984607219696, 0.03343475982546806, 0.02368542179465294, -0.06543741375207901, 0.07179582118988037, -0.07532908767461777, 0.15948058664798737, 0.02319422923028469, 0.004904523957520723, 0.04121604934334755, -0.09671599417924881, 0.006128653883934021, -0.007594445254653692, 0.03791889175772667, 0.032966651022434235, -0.18619270622730255, 0.030539026483893394, 0.03693222254514694, 0.01796596311032772, -0.014310743659734726], [-0.002752755070105195, -0.05510507524013519, 0.016368892043828964, 0.1162690669298172, -0.08223110437393188, 0.062146805226802826, -0.030241291970014572, 0.0020315584260970354, -0.0006539396708831191, 0.041916973888874054, 0.007444766815751791, -0.017498577013611794, 0.10004086792469025, 0.06818283349275589, -0.23487523198127747, -0.0001243291044374928, -0.12830385565757751, 0.14088129997253418, 0.03246401622891426, -0.07891469448804855, -0.08073901385068893, -0.07733987271785736, 0.02877461537718773, -0.04142582416534424, -0.037745729088783264, 0.07657257467508316, 0.034244976937770844, -0.08636122941970825, 0.20921345055103302, -0.1455574780702591, 0.11335483193397522, -0.10968378186225891], [-0.03761715069413185, -0.16835033893585205, -0.028248736634850502, 0.1792161464691162, -0.00454756012186408, -0.1694185882806778, -0.005238914396613836, -0.0575898252427578, 0.02589283511042595, 0.07011187076568604, -0.07486627995967865, -0.0094642648473382, -0.14474989473819733, -0.06559701263904572, 0.05942374840378761, 0.014909972436726093, -0.04197755455970764, 0.004600551910698414, -0.03347138315439224, -0.05462322756648064, 0.009546047076582909, -0.0784008577466011, 0.05321728438138962, -0.015680119395256042, -0.05342305824160576, -0.05911960080265999, 0.006706568878144026, 0.02670377679169178, -0.0035388318356126547, -5.8100813475903124e-05, -0.06354979425668716, -0.054814841598272324], [-0.12006781995296478, 0.058918435126543045, 0.06843487173318863, 0.033590056002140045, -0.036895863711833954, 0.06191828101873398, -0.07989049702882767, 0.029342567548155785, 0.09304539859294891, 0.08760206401348114, -0.02739553526043892, 0.5878333449363708, 0.0376792773604393, -0.024427104741334915, 0.02488621510565281, -0.0997764840722084, -0.03328373283147812, 0.10629557818174362, -0.06017525494098663, 0.013255893252789974, -0.057564329355955124, -0.10040207207202911, -0.03367018327116966, -0.06279724091291428, 0.07318009436130524, 0.0974927693605423, 0.3879016935825348, -0.04329150542616844, -0.011428114026784897, -0.06901128590106964, 0.04440240189433098, 0.002497368725016713], [0.05584992840886116, 0.14173001050949097, 0.02604883722960949, 0.08855035156011581, -0.44435223937034607, 0.0896143987774849, -0.12985219061374664, -0.00020487452275119722, 0.024410052224993706, -0.04500870034098625, -0.04254020377993584, -0.016715453937649727, 0.020690517500042915, 0.17675235867500305, 0.03360500559210777, 0.10612368583679199, 0.019321748986840248, 0.004095359705388546, 0.09888505190610886, 0.10606125742197037, -0.11001838743686676, 0.027952490374445915, -0.07268309593200684, -0.07052900642156601, -0.029559293761849403, -0.004942606203258038, -0.048666812479496, -0.15025006234645844, 0.17921499907970428, 0.14266720414161682, 0.2268800139427185, -0.18689416348934174], [0.03749425336718559, -0.035842299461364746, -0.058553118258714676, 0.07982441037893295, 0.003820230718702078, -0.02282901108264923, -0.032271094620227814, 0.020478319376707077, 0.01942325569689274, 0.12379411607980728, -0.0630752220749855, -0.06010166183114052, -0.12989595532417297, -0.15570209920406342, -0.036979008466005325, -0.0032068155705928802, 0.025202082470059395, 0.022512510418891907, 0.05471352860331535, -0.014861108735203743, 0.051327332854270935, 0.0040572392754256725, -0.06785203516483307, -0.04367469251155853, 0.021937785670161247, 0.008355779573321342, -0.00255899247713387, -0.04247976094484329, -0.07963939756155014, -0.04219811037182808, -0.13408926129341125, -0.03385357931256294], [0.05023493990302086, -0.03904200345277786, -0.05137297511100769, -0.20095080137252808, -0.24252618849277496, -0.064982570707798, -0.23667114973068237, -0.06453339010477066, 0.02950131706893444, 0.11801357567310333, -0.0951853021979332, -0.035063937306404114, 0.21809057891368866, 0.1383463740348816, 0.08114729076623917, 0.033936887979507446, 0.006053181365132332, -0.017489979043602943, 0.07933071255683899, 0.04053433611989021, -0.01836181804537773, -0.14717228710651398, -0.05582312121987343, 0.04611589014530182, 0.018682491034269333, -0.02021806500852108, -0.023943433538079262, -0.04285719618201256, -0.006735881324857473, 0.02898859791457653, 0.31061509251594543, 0.10684026032686234], [-0.013102269731462002, 0.030169520527124405, 0.040624137967824936, -0.0003494072298053652, 0.00970100611448288, 0.003490092232823372, 0.008559144102036953, 0.017271827906370163, 0.04700244218111038, 0.009843331761658192, 0.02816486358642578, -0.012391814962029457, 0.04471348598599434, 0.09675280749797821, 0.027477337047457695, 0.1054001897573471, -0.17660006880760193, 0.03884901851415634, -0.012497374787926674, 0.07052884995937347, 0.03276221081614494, -0.027689224109053612, -0.13816018402576447, 0.006781594827771187, -0.04712093994021416, -0.02168465405702591, 0.012690509669482708, -0.2313273400068283, 0.04993458464741707, -0.022485116496682167, 0.0044320123270154, -0.015895184129476547], [0.14221404492855072, 0.047216951847076416, -0.022590750828385353, -0.05682568997144699, 0.09567956626415253, 0.018511110916733742, 0.00469029787927866, 0.06594246625900269, -0.011466143652796745, -0.023419611155986786, 0.011944493278861046, -0.4680164158344269, 0.03005102463066578, 0.0803181454539299, -0.055104125291109085, -0.13082687556743622, -0.3315090239048004, -0.12485145777463913, 0.49825626611709595, 0.07409688085317612, -0.0036478270776569843, -0.04264811798930168, 0.021891314536333084, 0.09558337181806564, 0.03238648548722267, 0.09639114141464233, -0.014704681932926178, 0.10451838374137878, 0.014525871723890305, 0.043505024164915085, 0.06932567059993744, 0.16354523599147797], [0.019384674727916718, 0.03518436849117279, -0.006415268871933222, -0.02422439493238926, 0.007790277246385813, 0.06636804342269897, 0.03298085182905197, -0.08655774593353271, -0.10740765929222107, 0.09293916076421738, -0.047110337764024734, 0.052570197731256485, -0.14043991267681122, 0.07443691045045853, -0.016893908381462097, -0.06382796168327332, 0.03213164955377579, 0.07072366029024124, -0.013680845499038696, 0.11943348497152328, 0.035998377948999405, 0.04748578369617462, 0.04054788872599602, 0.008527563884854317, -0.06854648888111115, 0.07585267722606659, 0.024639582261443138, 0.02288077399134636, 0.0047755734995007515, -0.04680771753191948, -0.03574177622795105, -0.03033209778368473], [0.050716791301965714, 0.026961810886859894, 0.00808898638933897, -0.03790295124053955, -0.05022463575005531, 0.1547682136297226, 0.007487101946026087, -0.11524533480405807, 0.0243634432554245, -0.05080346018075943, 0.10507231205701828, -0.04805736616253853, 0.03860853239893913, -0.11091688275337219, 0.14736638963222504, 0.019082991406321526, -0.6054291129112244, 0.004113220609724522, 0.5475214719772339, -0.07104215770959854, -0.03749322146177292, 0.14038898050785065, -0.010467009618878365, -0.005577774252742529, -0.010001732967793941, -0.027376757934689522, 0.16237756609916687, -0.1634061634540558, 0.1614234745502472, -0.019240910187363625, 0.008964769542217255, 0.014164420776069164], [-0.024727534502744675, 0.015281883999705315, 0.033065181225538254, 0.03991483896970749, 0.05310316011309624, -0.0645504966378212, 0.058530185371637344, 0.05232492461800575, -0.041351161897182465, 0.014061055146157742, -0.02283557504415512, -0.09631576389074326, -0.07887747883796692, -0.011015104129910469, -0.004251996520906687, -0.04982121288776398, -0.08474460989236832, 0.058508794754743576, -0.08918778598308563, 0.01688356138765812, 0.060885950922966, -0.016950758174061775, -0.010410086251795292, 0.00013230658078100532, -0.025391818955540657, 0.018767395988106728, -0.019626205787062645, 0.0049428995698690414, -0.04547709971666336, -0.01558434497565031, -0.08093716949224472, -0.024799708276987076], [0.017588617280125618, 0.08531826734542847, -0.0056342738680541515, -0.033997081220149994, -0.07458183169364929, 0.07177471369504929, 0.010156897827982903, 0.07863234728574753, 0.03053208626806736, 0.0071580964140594006, -0.032926592975854874, 0.021782569587230682, 0.09771450608968735, 0.11125499755144119, 0.005869091954082251, -0.014952161349356174, -0.13090021908283234, 0.04870081692934036, 0.22181369364261627, 0.01781272515654564, 0.0316077284514904, -0.0457690954208374, -0.0725478082895279, 0.051749397069215775, -0.1164625808596611, 0.04685923829674721, -0.0445677675306797, -0.37951338291168213, 0.04199754819273949, 0.0326046347618103, 0.06066715717315674, -0.10922863334417343], [-0.0013068394036963582, 0.04663031920790672, -0.010077768936753273, -0.025752868503332138, -0.05143449828028679, -0.09322277456521988, -0.027289174497127533, -0.030644617974758148, -0.05774541199207306, -0.025519337505102158, -0.01795884780585766, 0.07612822204828262, -0.006457450333982706, -0.0366874560713768, 0.021238258108496666, -0.0161773469299078, -0.04600907862186432, 0.01902289316058159, -0.022536899894475937, 0.0027778276707977057, 0.11285104602575302, -0.05676068365573883, -0.001075252890586853, 0.008627626113593578, -0.02933361567556858, 0.0058043464086949825, -0.043127886950969696, 0.07002931088209152, 0.0843895897269249, 0.04311101883649826, 0.053853604942560196, -0.02233901061117649], [-0.23765596747398376, 0.024538954719901085, -0.026147596538066864, -0.05236556753516197, 0.10664428025484085, -0.10053607821464539, 0.005948374979197979, -0.06341266632080078, 0.018144775182008743, 0.07875631004571915, 0.05529128760099411, -0.18082837760448456, -0.014924849383533001, 0.031219426542520523, 0.0555998720228672, -0.09775689244270325, -0.4952150285243988, 0.05016396567225456, 0.33427703380584717, 0.012923059053719044, -0.012619801796972752, 0.016261985525488853, -0.13398419320583344, 0.028073230758309364, -0.06542076170444489, 0.08855155855417252, 0.026349781081080437, -0.4994671046733856, 0.01768268272280693, -0.03482884541153908, 0.02966921404004097, 0.02684752829372883], [0.0013724009040743113, -0.09085219353437424, -0.005363722797483206, 0.07914835214614868, -0.023163389414548874, -0.038960184901952744, -0.04933953285217285, 0.07848411053419113, 0.09935075789690018, 0.1309608668088913, -0.02198617160320282, 0.04123089835047722, -0.12333425879478455, -0.031656663864851, -0.08380042016506195, 0.0009262131061404943, -0.0235688965767622, 0.12494915723800659, 0.04354177787899971, -0.030338691547513008, 0.07358711957931519, -0.011052558198571205, -0.0556262731552124, -0.059908974915742874, 0.041222311556339264, 0.04781677946448326, -0.049065351486206055, -0.04201682657003403, 0.010525666177272797, 0.003464372595772147, -0.04081215709447861, 0.008541700430214405], [-0.048293910920619965, -0.03416391834616661, 0.0291819516569376, -0.003528998466208577, -0.029999880120158195, 0.02522762306034565, -0.017827827483415604, 0.06979724764823914, -0.05860636383295059, 0.023143220692873, -0.015871770679950714, -0.06013839691877365, -0.03976799547672272, -0.06705717742443085, -0.0031170188449323177, -0.028434844687581062, 0.017947528511285782, 0.035829320549964905, 0.002703304635360837, 0.051058702170848846, -0.08965039253234863, -0.020140117034316063, -0.03144676983356476, 0.014095922000706196, -0.013035467825829983, 0.05562109127640724, 0.0668567344546318, -0.08276373147964478, -0.040591996163129807, -0.006928181741386652, -0.08150406926870346, -0.1861201822757721], [0.0519879013299942, 0.026716109365224838, 0.020058365538716316, 0.005813049152493477, 0.03504883125424385, 0.02625706046819687, 0.0020507671870291233, 0.0677572563290596, -0.03238457441329956, 0.006203028839081526, -0.013530598022043705, -0.09506717324256897, 0.05685006082057953, -0.02524513006210327, -0.0009430745267309248, -0.050699084997177124, -0.12172148376703262, -0.10719716548919678, 0.016103116795420647, 0.018697256222367287, -0.08131834864616394, -0.025610197335481644, 0.016621185466647148, 0.05869393050670624, -0.012028164230287075, 0.09177476912736893, -0.00656112190335989, -0.1232786551117897, -0.016731958836317062, -0.025091812014579773, 0.0463721826672554, 0.06073128432035446], [-0.08074569702148438, -0.060563188046216965, 0.018518798053264618, -0.006479178089648485, 0.006389755290001631, -0.01129588857293129, -0.044926539063453674, -0.15123651921749115, 0.16880613565444946, -0.041768454015254974, -0.0163730438798666, 0.3571023643016815, -0.056229688227176666, -0.0024134786799550056, 0.05544460937380791, -0.0012004802701994777, -0.0348527617752552, 0.09742762893438339, 0.2500557601451874, -0.06274404376745224, 0.0249170009046793, 0.09178289771080017, -0.03566728159785271, 0.05871645733714104, 0.093388631939888, 0.014357425272464752, -0.17138329148292542, -0.6507989764213562, 0.02089540846645832, -0.017573602497577667, -0.04804610460996628, 0.04398632422089577], [-0.12291589379310608, -0.012346084229648113, 0.014824011363089085, 0.034301646053791046, 0.014509884640574455, -0.11154820024967194, 0.09894362837076187, -0.007992027327418327, -0.2746228277683258, 0.11341939121484756, 0.017974378541111946, 0.6127611994743347, 0.0981614962220192, 0.12295970320701599, -0.037132151424884796, 0.09608089178800583, 0.34542781114578247, -0.14836573600769043, 0.0365353561937809, 0.10286778956651688, -0.07493868470191956, -0.1690727174282074, 0.1555688977241516, -0.07033215463161469, -0.08478797227144241, -0.07422216236591339, 0.2541041374206543, -0.823146641254425, -0.2896591126918793, -0.04128516837954521, 0.15346990525722504, 0.07876431196928024], [0.010941454209387302, -0.06778399646282196, 0.011402717791497707, 0.051134124398231506, 0.04088248312473297, -0.07066553831100464, -0.0022896132431924343, -0.005825667642056942, 0.042613983154296875, 0.026948722079396248, -0.012163843028247356, -0.03976759687066078, 0.09067103266716003, 0.023833733052015305, 0.08008377254009247, -0.010639721527695656, 0.03805354982614517, 0.015774374827742577, 0.025845913216471672, -0.014990443363785744, -0.0178882647305727, -0.03455803543329239, -0.04426628723740578, 0.01788339950144291, -0.037379879504442215, 0.027677461504936218, -0.014910855330526829, 0.004566493444144726, -0.014878859743475914, 0.11436759680509567, 0.1548243910074234, 0.015582273714244366], [0.03016451746225357, 0.2120899260044098, -0.08302943408489227, -0.19655917584896088, -0.0176597461104393, -0.03908538445830345, -0.269594669342041, -0.022294292226433754, 0.034527845680713654, 0.2076004296541214, 0.08080419152975082, -0.08248430490493774, 0.10426634550094604, -0.009074212983250618, 0.28399157524108887, 0.03526163846254349, -0.01584434136748314, -0.029209604486823082, 0.04841257631778717, 0.010650034062564373, -0.06517621129751205, -0.08979825675487518, 0.026437444612383842, -0.012376840226352215, -0.054596878588199615, -0.052931588143110275, 0.06298821419477463, 0.02149517461657524, -0.06823825091123581, 0.09151187539100647, -0.1540660709142685, -0.00363951176404953], [-0.05770738422870636, -0.037197843194007874, 0.07061012834310532, 0.02263639122247696, 0.13633620738983154, -0.10270550847053528, -0.004430175758898258, -0.09057367593050003, -0.08960503339767456, 0.06773660331964493, -0.017165999859571457, 0.0037843857426196337, -0.23435765504837036, -0.13194170594215393, -0.047396279871463776, -0.022722706198692322, -0.12181861698627472, 0.0499991700053215, -0.0028913975693285465, -0.21242962777614594, -0.01368807815015316, -0.058051697909832, -0.006022581830620766, -0.018099719658493996, -0.09623993933200836, 0.017253603786230087, 0.05116132274270058, -0.07957550138235092, -0.12124743312597275, -0.04424034059047699, -0.27540355920791626, 0.08552468568086624], [0.03032785840332508, -0.13781243562698364, 0.02683337777853012, 0.09906618297100067, -0.004464584868401289, 0.0023208672646433115, -0.007009771186858416, 0.08375956863164902, 0.001142969005741179, 0.03974185883998871, -0.02807115763425827, 0.07205720245838165, -0.021429337561130524, -0.0036871987394988537, 0.026481809094548225, 0.014049955643713474, -0.11987733840942383, -0.041896332055330276, 0.10840467363595963, -0.07840622216463089, -0.009694312699139118, 0.04889874905347824, 0.005526343826204538, -0.06328683346509933, -0.008975005708634853, 0.02577805332839489, -0.03612041100859642, -0.2350190132856369, -0.04095261171460152, 0.15436750650405884, 0.06674517691135406, -0.17200395464897156], [0.7793654799461365, -0.09254884719848633, 0.14381325244903564, -0.13512848317623138, 0.03581849858164787, -0.045652978122234344, 0.05392174422740936, 0.200004443526268, 0.00978041160851717, -0.0027243562508374453, 0.13442789018154144, 0.07924231141805649, -0.12314397096633911, 0.243234783411026, -0.11542385816574097, -0.055534932762384415, -0.03820217400789261, 0.03608424589037895, -0.08312185853719711, 0.09245473891496658, -0.14667977392673492, 0.10941357910633087, -0.13987544178962708, -0.16200433671474457, -0.030439646914601326, 0.1275351643562317, -0.10216251015663147, 0.07229972630739212, -0.004354950040578842, -0.007054180838167667, 0.11623255163431168, -0.02350381575524807], [0.05806148797273636, 0.40054911375045776, 0.041377000510692596, -0.20329852402210236, -0.06617288291454315, 0.02942153997719288, -0.3818228542804718, -0.19760841131210327, 0.04527534171938896, 0.37720397114753723, 0.22994619607925415, -0.003514057258144021, -0.15357020497322083, -0.16411612927913666, 0.36895889043807983, -0.022260822355747223, 0.010090813972055912, 0.041817180812358856, -0.016088133677840233, -0.17695008218288422, 0.10977617651224136, -0.4392350912094116, 0.04232102259993553, -0.037607356905937195, 0.013123637065291405, -0.01638331636786461, 0.02151297591626644, 0.0040034581907093525, 0.4577346444129944, 0.3728069067001343, 0.14778262376785278, -0.1241353452205658], [-0.03559616953134537, -0.0608055554330349, 0.47744324803352356, 0.11916472762823105, 0.03271690011024475, 0.07565896213054657, 0.0638672411441803, -0.15272781252861023, 0.302921861410141, 0.15488994121551514, 0.33040115237236023, -0.04546505585312843, -0.16583333909511566, 0.0650966465473175, 0.03431165963411331, -0.02998587302863598, -0.09739533811807632, -0.5476037859916687, 0.09158694744110107, 0.3210780918598175, 0.11337152123451233, 0.011756391264498234, 0.06727719306945801, -0.0909750685095787, -0.4950907528400421, -0.18843775987625122, -0.06220521405339241, -0.002149907872080803, 0.09226800501346588, 0.013512592762708664, 0.0927884578704834, -0.3806787431240082], [0.008290650323033333, 0.2799670994281769, -0.06470520794391632, 0.673093318939209, -0.013171935454010963, 0.04820505529642105, 0.00362983625382185, -0.023740580305457115, 0.02303788810968399, -0.02572764828801155, -0.01077097188681364, 0.019080504775047302, -0.07532326877117157, 0.057171110063791275, -0.012152435258030891, 0.044483304023742676, -0.006146012339740992, 0.03793352469801903, -0.016569199040532112, -0.06514285504817963, -0.17754122614860535, -0.1335994005203247, 0.12629719078540802, 0.06385190784931183, 0.02143406681716442, -0.03911568596959114, -0.006861319299787283, -0.017643895000219345, 0.15815523266792297, -0.18061265349388123, -0.03799443319439888, -0.1704869419336319], [-0.159782275557518, 0.24093173444271088, -0.03486019745469093, 0.036122556775808334, 1.51821768283844, -0.113728366792202, 0.9220712780952454, 0.48516762256622314, -0.0832652822136879, -0.7249502539634705, -0.5375322699546814, -0.05516578629612923, 0.2848755419254303, 0.41912519931793213, -0.8253284096717834, 0.04435695707798004, 0.09328781068325043, -0.003813051851466298, -0.021826116368174553, 0.4936256408691406, 0.23325897753238678, 1.06812584400177, -0.12611286342144012, -0.07999131083488464, -0.037933871150016785, 0.03667973354458809, 0.01012385729700327, 0.10595095157623291, -1.32379150390625, -0.5901749730110168, -0.1176232248544693, -0.06018930673599243], [0.2523476779460907, 0.08015920221805573, -0.06856222450733185, -0.091071717441082, 0.10548518598079681, 0.369922935962677, -0.2714609205722809, 0.12914077937602997, -0.16760970652103424, 0.1061597391963005, 0.39791229367256165, -0.1874486356973648, -0.04961211606860161, 0.1149086207151413, -0.3676920533180237, 0.25428590178489685, 0.05033981427550316, 0.008007929660379887, 0.17801444232463837, -0.4381742477416992, 0.02586730569601059, 0.5812878012657166, 0.14015188813209534, 0.6656570434570312, -0.038560859858989716, -0.15923236310482025, -0.04367748647928238, -0.0250693429261446, 0.12447226047515869, 0.062288835644721985, -0.02825910598039627, -0.013048955239355564], [0.10901032388210297, 0.6905352473258972, 0.13313066959381104, 0.8171883225440979, 0.09362617880105972, -0.0269930399954319, 0.03878859803080559, -0.29164019227027893, 0.053766313940286636, -0.3659108579158783, -0.012234657071530819, -0.10018905997276306, -0.21394287049770355, -0.22923476994037628, 0.309120774269104, 0.0845482349395752, 0.06279950588941574, -0.1252506673336029, 0.03896735981106758, -0.15809325873851776, -0.10562445223331451, -0.3101160526275635, 0.07196585834026337, -0.08037228137254715, -0.11942130327224731, -0.102666936814785, 0.05175486579537392, 0.011593040078878403, 0.5891307592391968, 0.0887809544801712, 0.08066914975643158, 0.06539659202098846], [0.3825936019420624, 0.04135328158736229, -0.299690842628479, 0.023893674835562706, 0.03148924186825752, 0.06615752726793289, 0.20886747539043427, 0.2740258574485779, 0.00041415708255954087, -0.10540027171373367, -0.3787318766117096, -0.1642492711544037, 0.1808561086654663, -0.28950315713882446, -0.06445308029651642, 0.0405774787068367, -0.0007780851447023451, -0.09750771522521973, 0.1860993504524231, -0.29125550389289856, 0.18453656136989594, -0.4494781494140625, 0.009455949068069458, -0.22036902606487274, 0.19756831228733063, 0.07818099111318588, 0.14606522023677826, 0.07764934003353119, -0.0448741614818573, 0.21390576660633087, -0.15697775781154633, -0.16690748929977417], [0.10204333811998367, -0.02577114850282669, -0.31513506174087524, 0.02974964678287506, -0.0046915640123188496, 0.16774240136146545, -0.01864010840654373, 0.024031011387705803, 0.8262471556663513, -0.004632074385881424, 0.03535715490579605, -0.1085289940237999, 0.0028386851772665977, -0.05111685395240784, -0.021639302372932434, 0.18928271532058716, 0.005751840770244598, 0.3935033679008484, 0.048734210431575775, 0.0142198596149683, 0.2044384926557541, 0.02350558340549469, 0.061258889734745026, 0.14087630808353424, -0.3995870351791382, 0.1374521553516388, 0.5395755767822266, -0.047007571905851364, 0.09429773688316345, -0.011913641355931759, -0.021504122763872147, 0.02466294914484024], [-0.0055091059766709805, -0.8347399830818176, 0.032028064131736755, -0.7016077041625977, 0.113437719643116, -0.07139449566602707, -0.09206389635801315, -0.020246658474206924, -0.07481109350919724, 0.2753145694732666, -0.06646998971700668, -0.07770439982414246, -0.08497194945812225, 0.03159350901842117, 0.16156113147735596, -0.02775990217924118, 0.09182847291231155, 0.03719441592693329, 0.019287873059511185, 0.19081133604049683, 0.26779359579086304, 0.11354674398899078, 0.01573072001338005, -0.1557001918554306, -0.07179444283246994, -0.11321798712015152, 0.00039829310844652355, 0.1340976059436798, -0.3882710933685303, -0.00864360574632883, -0.010753678157925606, -0.04821784049272537], [-0.2107074111700058, 0.047393716871738434, -0.07887428253889084, -0.2507750391960144, -0.004228843841701746, -0.3451085090637207, 0.10877178609371185, 0.31695556640625, 0.07386930286884308, 0.013330087065696716, 0.34167400002479553, 0.032437875866889954, 0.6513468027114868, -0.26020869612693787, 0.06892897933721542, 0.008718473836779594, -0.04577120766043663, -0.21139612793922424, -0.038755033165216446, -0.3516921103000641, 0.0923391729593277, -0.08128432184457779, -0.1235797330737114, 0.10608531534671783, -0.25022369623184204, 0.08520514518022537, -0.036906298249959946, -0.08058428764343262, -0.02352430857717991, 0.018275249749422073, -0.5193025469779968, -0.15482652187347412], [0.15654808282852173, 0.025942524895071983, -0.07200118899345398, 0.009249648079276085, 0.12005008012056351, -0.3784506022930145, -0.1255071610212326, 0.219223290681839, -0.0011976698879152536, 0.09947120398283005, -0.053348641842603683, 0.4072369337081909, -0.17180660367012024, 0.3611147105693817, -0.17201219499111176, 0.1808667629957199, -0.07823282480239868, -0.17891013622283936, 0.4926219880580902, 0.34672313928604126, -0.059271667152643204, -0.24810543656349182, 0.08104480803012848, -0.14927996695041656, 0.31697094440460205, -0.09161711484193802, 0.9684368968009949, -1.2669589519500732, -0.291551798582077, 0.13463528454303741, 0.08431699126958847, 0.0031344343442469835], [-0.017775388434529305, 0.11969117820262909, -0.028444109484553337, 0.34324803948402405, 0.4642769396305084, 0.14361602067947388, 0.03645109757781029, -0.10261830687522888, -0.07261902093887329, 0.12933188676834106, -0.5009772181510925, 0.0340418741106987, 0.6329067945480347, -0.16757474839687347, -0.019535964354872704, 0.006169317290186882, -0.0006275567575357854, -0.06537629663944244, -0.027629077434539795, -0.05901794135570526, -0.13356459140777588, 0.014169503003358841, -0.06668874621391296, 0.053018707782030106, -0.03150703012943268, 0.08220203220844269, -0.0479230172932148, 0.001318237162195146, -0.036287885159254074, -0.2535463273525238, 0.4580157697200775, -0.21962007880210876], [-0.01294740941375494, 0.02532695047557354, 0.11481519788503647, -0.0646754801273346, -0.22877882421016693, -0.13872115314006805, 0.20214834809303284, 0.0570092611014843, -0.054523710161447525, -0.20793652534484863, 0.5792781710624695, -0.1509711891412735, 0.371320903301239, 0.5171526074409485, 0.1043233796954155, -0.08545365184545517, 0.15003424882888794, 0.05692426115274429, 0.10395771265029907, 0.14155402779579163, -0.01537314709275961, -0.05693763867020607, 0.11677910387516022, -0.12846261262893677, 0.11078135669231415, -0.14559082686901093, 0.07735499739646912, 0.08042578399181366, 0.12197662889957428, -0.17318564653396606, -0.2007843554019928, -0.2924463152885437], [-0.057225123047828674, -0.42194023728370667, -0.00030114289256744087, -0.5520503520965576, 0.30023106932640076, 0.2798914909362793, -0.2362230122089386, -0.11208857595920563, -0.025116348639130592, 0.06851812452077866, -0.19368214905261993, 0.06668616831302643, -0.1918535828590393, 0.07508128881454468, 0.2542669475078583, 0.1063392385840416, 0.004130390007048845, -0.21045497059822083, -0.03895885497331619, 0.37430599331855774, 0.09998780488967896, 0.32865220308303833, -0.02769157849252224, -0.030645018443465233, -0.11144784837961197, 0.09078183025121689, -0.012404507957398891, -0.019903993234038353, -0.3337600827217102, 0.06538096815347672, 0.20491641759872437, -0.1477530300617218], [0.2597925364971161, -0.07061774283647537, -0.3370475769042969, -0.14308731257915497, -0.03318590298295021, -0.03212409093976021, 0.14723943173885345, -0.23723439872264862, -0.13909980654716492, 0.05737248435616493, 0.018960412591695786, -0.01705343648791313, 0.10921669006347656, -0.12166208773851395, -0.059858422726392746, 0.4826244115829468, -0.12359563261270523, 0.2890583872795105, 0.06234748661518097, -0.1861482411623001, -0.1677527129650116, -0.011973519809544086, -0.0807209238409996, -0.1538850963115692, 0.17315228283405304, -0.5568217039108276, -0.17817692458629608, 0.018649976700544357, -0.020930945873260498, -0.04873742163181305, -0.0871831476688385, -0.10910560190677643], [0.1263308972120285, -0.012347373180091381, -0.0035148144233971834, 0.021674135699868202, 0.008211490698158741, 0.1838321089744568, -0.009470253251492977, -0.22570452094078064, -0.2283274382352829, -0.07560941576957703, 0.10821948200464249, -0.3109634518623352, 0.0449473075568676, -0.2501057982444763, 0.09369783848524094, 0.006804775446653366, 0.34316086769104004, 0.1226167380809784, 0.549365758895874, -0.12061667442321777, 0.1066296398639679, 0.1339954286813736, -0.06427501887083054, 0.3646242618560791, -0.08590546250343323, 0.200038880109787, -0.7423854470252991, -0.7295165061950684, 0.21695609390735626, -0.01607542112469673, -0.0810507982969284, -0.09657382220029831], [-0.1738504022359848, 0.03585805743932724, 0.4933789074420929, -0.0752905085682869, 0.015771007165312767, -0.010616227984428406, -0.01785694994032383, -0.12131369858980179, -0.2179509550333023, 0.04834747314453125, 0.02387956529855728, -0.014724661596119404, -0.042955510318279266, 0.4454181492328644, -0.062132131308317184, 0.012976379133760929, -0.07020307332277298, 1.0122478008270264, -0.03814246878027916, -0.21284925937652588, -0.22206518054008484, 0.1400354653596878, 0.06938663125038147, -0.2745223343372345, -0.05290016531944275, 0.0927005335688591, -0.042336124926805496, -0.03740714490413666, 0.00874850433319807, 0.09484144300222397, -0.08174190670251846, -0.4588771164417267], [-0.15622083842754364, 0.004665401764214039, 0.028946075588464737, 0.05642969533801079, -0.00817530881613493, -0.005430692341178656, -0.08126657456159592, -0.005588280502706766, -0.34074199199676514, 0.02355879731476307, -0.02137700654566288, -0.257158488035202, 0.0010307406773790717, -0.11091770976781845, 0.16394254565238953, 0.04991524666547775, -1.2980105876922607, 0.16305889189243317, 0.5686526298522949, -0.16893264651298523, 0.09859531372785568, 0.39323464035987854, 0.05402079597115517, 0.06162310019135475, -0.014584136195480824, -0.05301111564040184, 0.5825629830360413, 0.3142484724521637, 0.291328102350235, -0.03804218769073486, 0.0022866090293973684, 0.023595184087753296], [-0.25283053517341614, -0.10267200320959091, -0.467166930437088, -0.24964332580566406, -0.012160563841462135, 0.20208029448986053, -0.0022656447254121304, 0.3585417568683624, 0.03355223312973976, -0.24054455757141113, 0.09312798827886581, -0.27815744280815125, 0.015293399803340435, 0.06656856834888458, -0.31817978620529175, 0.3810847997665405, 0.12649214267730713, -0.2680729925632477, 0.04397294670343399, 0.28626877069473267, 0.20040133595466614, 0.3078869879245758, -0.001423927373252809, -0.2669519782066345, 0.2930210828781128, 0.13667212426662445, 0.2105417102575302, -0.11726260185241699, 0.46954843401908875, -0.0652708187699318, -0.20237703621387482, 0.08211954683065414], [-0.02207648567855358, 0.04596361145377159, -0.060447514057159424, -0.05682138726115227, 0.04026187211275101, -0.08741360902786255, 0.11735571920871735, 0.1311640739440918, 0.004339262843132019, 0.01929599791765213, -0.005316380877047777, 0.09746076166629791, -0.026748914271593094, 0.014153102412819862, 0.07037083059549332, -0.06272456794977188, -0.0897650271654129, 0.250351220369339, -0.15189866721630096, -0.07331548631191254, 0.861965000629425, -0.06451793015003204, -0.008122697472572327, -0.1442900449037552, -0.14369907975196838, -0.01722140610218048, -0.12427471578121185, 0.02943573147058487, 0.08943410962820053, 0.1490427702665329, 0.18740037083625793, -0.03326554596424103], [-0.37029939889907837, -0.3923826813697815, -0.11153464764356613, -0.14803864061832428, 0.15109418332576752, 0.13649311661720276, 0.416946142911911, -0.028460688889026642, -0.0217287540435791, -0.3919435441493988, 0.2371072769165039, 0.44080549478530884, -0.07648077607154846, 0.09356746822595596, -0.6863701939582825, -0.26484155654907227, -0.16016672551631927, 0.04210458695888519, -0.22590228915214539, 0.029035121202468872, 0.16851453483104706, -0.10241547226905823, -0.15834516286849976, 0.26530277729034424, 0.011713491752743721, 0.1420295089483261, -0.12806980311870575, 0.04942493885755539, 0.22328722476959229, 0.052284739911556244, -0.010060541331768036, -0.15539154410362244], [0.1268218606710434, -0.06021520495414734, 0.22771015763282776, -0.022812364622950554, -0.051122307777404785, 0.2686882019042969, 0.07420442253351212, 0.21247908473014832, -0.06586593389511108, -0.05804747715592384, -0.15291094779968262, 0.44568362832069397, 0.05048012733459473, -0.020955897867679596, -0.0534006766974926, 0.1778346598148346, -0.10794499516487122, -0.019157497212290764, -0.385588139295578, 0.01993478089570999, -0.01990531198680401, -0.1840214878320694, 0.9182685017585754, 0.08459162712097168, -0.07741570472717285, -0.12030503898859024, -0.12336098402738571, -0.011302025988698006, 0.004844214301556349, -0.016224388033151627, -0.04823889210820198, 0.0058937082067132], [-0.09163415431976318, -0.05101580172777176, 0.01665450446307659, -0.22860543429851532, -0.12785346806049347, -0.45660653710365295, 0.029723206534981728, 0.057592350989580154, 0.1139119565486908, -0.12676391005516052, -0.4103231430053711, 0.08763562142848969, 0.0720210000872612, 0.20716598629951477, -0.07781530171632767, 0.07495957612991333, -0.18213947117328644, -0.14732757210731506, -0.04387131705880165, -0.11156557500362396, -0.04145381599664688, -0.06545302271842957, 0.006997730582952499, 0.5514123439788818, -0.7241639494895935, 0.11072712391614914, -0.3760559856891632, 0.07386456429958344, -0.027030501514673233, -0.0018304672557860613, -0.14646528661251068, 0.40533149242401123], [-0.03541582077741623, 0.05791593715548515, 0.5241570472717285, -0.047096896916627884, -0.034900881350040436, 0.188771590590477, -0.009698811918497086, -0.16665247082710266, 0.6682220697402954, -0.038792237639427185, 0.08181286603212357, -0.08526627719402313, 0.03390982002019882, 0.09581407159566879, 0.004811074119061232, -0.3059774339199066, 0.04737633466720581, -0.3104718029499054, -0.059371888637542725, -0.4383191466331482, 0.06366097927093506, 0.013141498900949955, -0.03610760346055031, 0.33380478620529175, 0.6443405151367188, -0.2497698962688446, 0.4047969877719879, -0.05836183577775955, -0.09312914311885834, 0.03719830513000488, -0.07445348054170609, -0.06094806268811226], [-0.20556508004665375, 0.05936174839735031, 0.003090122016146779, -0.0032708318904042244, 0.09597621113061905, 0.06730812042951584, -0.16969282925128937, 0.21271081268787384, -0.12172447890043259, -0.036789458245038986, -0.15540041029453278, 0.044568728655576706, -0.11120586097240448, 0.144418865442276, -0.17010366916656494, -0.5415765047073364, -0.09585035592317581, 0.2217693030834198, -0.03410816192626953, -0.10141739994287491, -0.21318058669567108, -0.16748639941215515, 0.029834887012839317, -0.13181571662425995, 0.09101705253124237, 0.5050235986709595, -0.1280076652765274, 0.010840315371751785, 0.027313215658068657, 0.026395853608846664, 0.04713935777544975, 0.04302949458360672], [-0.015344311483204365, 0.033255405724048615, 0.002942244289442897, 0.06691601872444153, -0.010057126171886921, 0.3142284154891968, 0.01515208464115858, -0.1227666437625885, -0.5265589952468872, 0.008554665371775627, 0.031022842973470688, -0.2617180347442627, -0.010522180236876011, -0.04609677195549011, 0.08523152023553848, 0.05332980677485466, 0.31722837686538696, 0.015929531306028366, -0.014176242053508759, -0.19341008365154266, 0.0502188503742218, -0.0020252245012670755, 0.02391080930829048, 0.3430860936641693, -0.5374471545219421, 0.06481732428073883, 0.9091664552688599, -0.2857532203197479, -0.0009352280176244676, 0.005011729896068573, -0.02836429886519909, -0.05198036879301071], [-0.08500884473323822, 0.0465681254863739, -0.09410784393548965, 0.07867953181266785, -0.023349827155470848, 0.2214074283838272, 0.0497848279774189, -0.23493215441703796, -0.19679653644561768, -0.027235671877861023, -0.0017280178144574165, 0.9939490556716919, 0.07207588106393814, -0.01262299157679081, 0.09705757349729538, -0.22825360298156738, -0.6959069967269897, 0.02581068128347397, 0.670353353023529, 0.11351395398378372, 0.03246770426630974, -0.1225813552737236, 0.01795811392366886, -0.06003603711724281, 0.06547167897224426, -0.06470859050750732, 0.7377681136131287, 0.21567490696907043, 0.029420156031847, 0.016871856525540352, 0.012359076179564, -0.08095285296440125], [-0.027030915021896362, 0.5261983275413513, -0.3452966809272766, 0.6730681657791138, -0.07995718717575073, 0.20327624678611755, -0.8193196654319763, 0.04054313153028488, -0.06307588517665863, 0.23166801035404205, 0.6118569374084473, 0.29523736238479614, 0.009121804498136044, 0.03470178321003914, 0.32012391090393066, 0.034398697316646576, -0.1207239106297493, -0.08160170912742615, -0.14772674441337585, 0.29516589641571045, -0.11980872601270676, -0.2521646022796631, -0.03466539829969406, 0.12154466658830643, 0.06924156099557877, 0.01477109082043171, -0.19626709818840027, 0.19372448325157166, -0.1292852759361267, 0.19858066737651825, -0.005159506108611822, -0.1622893214225769], [0.2493046224117279, -0.4022468626499176, 0.057488854974508286, -0.2285834550857544, 0.014999745413661003, -0.0028770039789378643, -0.4186064898967743, -0.03938072547316551, -0.05034725368022919, 0.3777042329311371, 0.08148786425590515, -0.07585267722606659, -0.013193393126130104, 0.04530404880642891, 0.4116295576095581, -0.02956695482134819, 0.0011230908567085862, 0.04323051497340202, -0.014331898652017117, -0.1093137115240097, 0.25084608793258667, -0.11925948411226273, 0.04270113259553909, 0.03266768902540207, 0.03404517099261284, -0.020750124007463455, -0.005949884653091431, 0.09418728202581406, -0.15957462787628174, 0.33248382806777954, 0.03792227804660797, -0.10266624391078949], [0.11559975892305374, -0.026344511657953262, 0.08818216621875763, -0.061078235507011414, -0.22323760390281677, 0.05702340230345726, -0.3054986596107483, -0.18102729320526123, 0.12415090948343277, 0.271907240152359, 0.26033976674079895, -0.029270384460687637, 0.22988273203372955, 0.23985226452350616, -0.19344884157180786, 0.07534850388765335, 0.054676324129104614, -0.12172113358974457, 0.04619515687227249, -0.08682147413492203, 0.24505627155303955, -0.1568528413772583, 0.04235226660966873, -0.022735219448804855, 0.040472496300935745, 0.01661456562578678, 0.13095766305923462, -0.07467871904373169, 0.38600635528564453, -0.15208786725997925, 0.8074160218238831, 0.20684705674648285], [0.115985207259655, 0.05595995858311653, 0.22824522852897644, 0.10908018797636032, 0.14624373614788055, 0.145619198679924, -0.09590698778629303, -0.30927014350891113, -0.07717045396566391, 0.03400310501456261, 0.361050546169281, -0.050056274980306625, -0.014393623918294907, 0.36544176936149597, -0.013729041442275047, -0.002718388568609953, 0.020695507526397705, 0.28336188197135925, 0.03152318671345711, -0.006228672340512276, -0.05141284689307213, -0.015761852264404297, 0.0987129881978035, -0.2701452374458313, 0.03964759409427643, -0.0058494387194514275, -0.016651589423418045, -0.0101222675293684, -0.001265987171791494, 0.08997397869825363, -0.0663289874792099, 0.7712315917015076], [-0.003946375101804733, -0.06886439770460129, 0.011605311185121536, 0.019661158323287964, -5.3027382818982005e-05, 0.009122972376644611, -0.01454694103449583, -0.0016372723039239645, 4.799211455974728e-05, 0.036306604743003845, -0.016796283423900604, -0.05868152156472206, 0.003343559568747878, 0.009681761264801025, 0.03130993992090225, -0.020399540662765503, -0.030405225232243538, -0.04431646317243576, 0.04141385108232498, -0.01920165680348873, -0.0006485927733592689, -0.03598194196820259, -0.1304156482219696, 0.01158365048468113, -0.052045539021492004, 0.021564915776252747, 0.006437512114644051, 0.016277985647320747, 0.0659475028514862, -0.010342562571167946, 0.05829857289791107, -0.030076708644628525], [-0.005797645077109337, -0.2181960642337799, -0.1132194995880127, 0.032682694494724274, 0.028763705864548683, 0.10002639144659042, -0.1409299224615097, -0.10928663611412048, -0.10295957326889038, 0.07908060401678085, -0.09474156051874161, -0.03295686095952988, -0.09792331606149673, 0.2150525599718094, 0.047181617468595505, -0.020765863358974457, -0.08968468755483627, -0.0857182964682579, 0.07956472784280777, 0.15497097373008728, -0.04571229964494705, 0.13536080718040466, -0.11056958138942719, 0.1189478188753128, 0.03083403781056404, -0.039829473942518234, -0.035584691911935806, 0.03506319597363472, 0.04883348196744919, 0.11673039942979813, -0.08987294137477875, 0.021477341651916504], [-0.011463438160717487, -0.005436010658740997, 0.09605154395103455, -0.05861616134643555, -0.02542191557586193, -0.01070604007691145, -0.03016992099583149, -0.009557596407830715, -0.019130459055304527, 0.03622755780816078, 0.02915838547050953, -0.006225604098290205, -0.11023970693349838, -0.05652623623609543, 0.048576924949884415, 0.015988878905773163, -0.1927841752767563, 0.03263140469789505, 0.12967826426029205, 0.006334279663860798, -0.011670581065118313, -0.023639243096113205, -0.021506013348698616, -0.08344399929046631, -0.020654700696468353, -0.004803180228918791, -0.012034996412694454, -0.07256971299648285, 0.01463816687464714, 0.05213716998696327, -0.027217620983719826, -0.012899386696517467], [0.009009653702378273, 0.1374731957912445, -0.0552607998251915, -0.17523783445358276, 0.2317112237215042, -0.00875153485685587, -0.2327224314212799, -0.02862556092441082, 0.031846608966588974, 0.03817079961299896, -0.0073644863441586494, -0.07149281352758408, 0.5581970810890198, 0.1828712821006775, 0.08037245273590088, 0.02222967892885208, -0.0016511944122612476, -0.07929834723472595, 0.1095874160528183, 0.003769555129110813, 0.023081358522176743, 0.02983018383383751, -0.01150220911949873, -0.04826345667243004, -0.04094383493065834, 0.03902970626950264, -0.02429206483066082, 0.018995169550180435, -0.09857675433158875, -0.23059645295143127, 0.4650636613368988, -0.04500282183289528], [-0.03033478371798992, 0.10553574562072754, 0.06294892728328705, 0.18552182614803314, 0.09796719998121262, -0.06087949126958847, 0.2667372226715088, 0.0624861940741539, 0.043316084891557693, -0.05240216478705406, 0.04394419118762016, 0.019184472039341927, 0.1267576515674591, 0.06341277062892914, -0.2330084592103958, -0.03294052556157112, 0.05764792487025261, 0.12594188749790192, -0.0022237072698771954, -0.01641392521560192, 0.1305876076221466, 0.045721385627985, -0.10543643683195114, -0.10320505499839783, 0.04936518520116806, 0.06051371991634369, 0.021983008831739426, -0.015509216114878654, 0.059754811227321625, -0.13858485221862793, -0.0073623014613986015, 0.044541437178850174], [0.026755424216389656, -0.048707276582717896, -0.013988292776048183, -0.020391292870044708, 0.012839392758905888, -0.005007103085517883, -0.0472627691924572, 0.06025261804461479, -0.0002680042525753379, -0.0013125116238370538, -0.04810992255806923, -0.08003609627485275, 0.0005538198747672141, 0.0038112616166472435, 0.012055664323270321, 0.02650916390120983, -0.11698606610298157, -0.01205216534435749, -0.10418767482042313, 0.019239915534853935, 0.015354144386947155, -0.022025104612112045, 0.001318202237598598, 0.0010499167256057262, 0.05115429311990738, -0.013085843995213509, -0.026184450834989548, -0.10081067681312561, -0.004105712752789259, 0.015391703695058823, 0.0006008694763295352, 0.05249214917421341], [0.004810168873518705, 0.055152565240859985, -0.0213899128139019, -0.013809366151690483, 0.08851368725299835, 0.03400819003582001, 0.1133933961391449, 0.004572009667754173, 0.0017321082996204495, -0.1863880753517151, -0.059078145772218704, -0.01562635973095894, -0.2011588215827942, -0.011850561946630478, 0.015080495737493038, -0.021983260288834572, -0.02596752531826496, -0.011164337396621704, -0.04747861251235008, 0.0014705677749589086, 0.00556202931329608, -0.029580464586615562, 0.04287729039788246, 0.021360885351896286, 0.008234224282205105, 0.00033650139812380075, -0.0006521043833345175, -0.06987856328487396, 0.05916041135787964, 0.049195125699043274, -0.12557661533355713, -0.07614341378211975], [0.04426180198788643, -0.004533443134278059, 0.032422732561826706, -0.042066678404808044, 0.02433711104094982, 0.012352901510894299, 0.024803096428513527, 0.02186793088912964, -0.018700307235121727, -0.05112788453698158, 0.02199331298470497, -0.0030321176163852215, -0.0014682041946798563, -0.0010204027639701962, 0.05011295527219772, -0.009175317361950874, -0.1199251338839531, -0.05176964029669762, 0.04772455617785454, 0.012556982226669788, 0.004541969858109951, 0.0033277086913585663, -0.005687201861292124, -0.0013253664365038276, 0.036170948296785355, -0.015578778460621834, 0.0006627151160500944, 0.049653731286525726, 0.03989377245306969, 0.05300353094935417, -0.08274421840906143, -0.03901154175400734], [0.04113318398594856, -0.04259368032217026, -0.06692104041576385, 0.00251221121288836, 0.02529028058052063, 0.07408412545919418, -0.032411884516477585, 0.0007821396575309336, -0.002554141916334629, 0.000778061046730727, -0.06781729310750961, -0.06856977939605713, -0.04731140658259392, 0.0820833295583725, -0.009438889101147652, 0.05779604613780975, 0.09895890951156616, 0.10999089479446411, -0.024265235289931297, 0.06350770592689514, 0.02461385354399681, -0.003672684310004115, -0.05811949446797371, -0.05422794446349144, -0.05704205110669136, 0.005193601828068495, 0.11548145860433578, -0.017568856477737427, 0.054773736745119095, 0.02735370583832264, -0.0932590514421463, -0.03790006786584854], [-0.007838377729058266, 0.04958046227693558, -0.03286011144518852, 0.18054944276809692, -0.034251175820827484, 0.022219613194465637, 0.24891752004623413, 0.03061312437057495, 0.016818558797240257, -0.3829616606235504, -0.024296049028635025, 0.02339586243033409, -0.05327973514795303, 0.09832238405942917, -0.22361914813518524, -0.022208264097571373, -0.0038251488003879786, 0.022746022790670395, -0.04530510678887367, 0.024163225665688515, -0.09462886303663254, 0.012178071774542332, 0.050002217292785645, 0.03822685033082962, 0.043834127485752106, 0.06147697567939758, -0.04512418061494827, -0.04140901193022728, 0.14314217865467072, -0.09573126584291458, -0.0008265753276646137, -0.12411843240261078], [-0.002971485024318099, -0.0004938254132866859, -0.02610017918050289, 0.01874367706477642, 0.04356864094734192, -0.02570239081978798, 0.02653360553085804, 0.11083292961120605, -0.019939037039875984, -0.009791863150894642, 0.06053764373064041, -0.004261219408363104, -0.09322155267000198, -0.025019299238920212, 0.03507469967007637, -0.0231601744890213, -0.13320299983024597, 0.003705675480887294, 0.06739167869091034, -0.06639249622821808, 0.006411105860024691, -0.03651641309261322, -0.013273784890770912, -0.05201857164502144, 0.03762582689523697, 0.02699998766183853, -0.041095539927482605, -0.07418207079172134, 0.013237916864454746, 0.0531630739569664, -0.049858201295137405, -0.05256865546107292], [-0.08371810615062714, 0.04190579429268837, -0.2040354609489441, 0.06936673074960709, -0.06853222101926804, -0.35869264602661133, -0.08821948617696762, -0.3148992359638214, 0.07411603629589081, -0.11540697515010834, -0.014621694572269917, 1.8971017599105835, 0.06250902265310287, -0.1612856090068817, 0.19199404120445251, -0.10015003383159637, 0.3151260018348694, 0.08997571468353271, -0.6048208475112915, -0.19463872909545898, -0.009150829166173935, 0.4990904927253723, 0.10667183995246887, -0.1290610134601593, 0.15562331676483154, 0.008620417676866055, 0.26238659024238586, 1.5170565843582153, 0.31235188245773315, -0.13286776840686798, -0.04229254275560379, 0.049765244126319885], [-0.01197452936321497, 0.21283771097660065, 0.027301030233502388, 0.06770101934671402, 0.11665160953998566, -0.13978692889213562, 0.14337226748466492, -0.010845554992556572, 0.004032819531857967, -0.04780735448002815, 0.03777236118912697, -0.10696208477020264, -0.2779165208339691, 0.04887350648641586, 0.027608994394540787, 0.014761111699044704, -0.09808719158172607, 0.020529503002762794, 0.10490206629037857, -0.012885668314993382, -0.05475778505206108, -0.054923612624406815, -0.0322415716946125, -0.04165751859545708, -0.07310975342988968, 0.007505243644118309, 0.015901925042271614, -0.08677636086940765, 0.1073230504989624, 0.21852390468120575, -0.12689507007598877, 0.04856424406170845], [0.029065575450658798, -0.11337973177433014, -0.0687040463089943, 0.011137843132019043, 0.002517944434657693, -0.01831781677901745, -0.028437653556466103, 0.0664336234331131, -0.008260147646069527, 0.02243027091026306, -0.024283168837428093, -0.006550715770572424, -0.019278647378087044, -0.12572942674160004, 0.04480532184243202, -0.016595423221588135, -0.14991086721420288, -0.04283323138952255, 0.16030913591384888, -0.009900378994643688, 0.06106434017419815, -0.010729552246630192, -0.0060188546776771545, -0.027350276708602905, 0.017474818974733353, 0.0016260186675935984, 0.05635234713554382, -0.1320190280675888, -0.023898009210824966, 0.09622054547071457, -0.015699440613389015, 0.00016586076526436955], [0.04050404578447342, 0.012023739516735077, -0.0545709952712059, -0.1312558948993683, -0.042292460799217224, -0.05868508294224739, -0.07636640965938568, 0.017277434468269348, 0.007879948243498802, -0.051023054867982864, -0.029762808233499527, -0.019854078069329262, 0.012947470881044865, 0.010942726396024227, 0.14763683080673218, 0.019297322258353233, -0.03427359089255333, -0.019084416329860687, 0.07369530946016312, 0.021763663738965988, -0.026220960542559624, -0.06192263960838318, -0.02949821762740612, -0.000127971128677018, -0.017336523160338402, -0.015696201473474503, 0.02383909933269024, 0.01820801943540573, -0.014949444681406021, 0.13782905042171478, 0.06306655704975128, -0.005561629310250282], [-0.004951498005539179, 0.009070558473467827, 0.025838976725935936, -0.013291984796524048, -0.026266440749168396, -0.012058667838573456, -0.002292084274813533, -0.02893693558871746, -0.048589982092380524, -0.012336145155131817, -0.00722018675878644, -0.030355224385857582, -0.05418645590543747, -0.0032753958366811275, 0.022391581907868385, 0.03742358088493347, 0.012489466927945614, -0.007451806217432022, 0.08285190165042877, 0.016716482117772102, 0.003288224572315812, -0.002892598044127226, -0.10669848322868347, 0.00037900253664702177, 0.012599116191267967, 0.008340648375451565, -0.009983593598008156, -0.04014148935675621, 0.019101742655038834, 0.0046664695255458355, -0.00183793471660465, 0.012579772621393204], [0.00023393973242491484, -0.003051668405532837, 0.11028288304805756, 0.020059194415807724, 0.04711068794131279, 0.08574090152978897, 0.03490214794874191, 0.06436339020729065, -0.025784580036997795, -0.011039778590202332, 0.015048460103571415, -0.43266335129737854, -0.027016466483473778, -0.002946678316220641, -0.05005132406949997, 0.0012246699770912528, 0.10730031877756119, 0.033648546785116196, 0.4447704553604126, 0.03204166889190674, 0.03786500170826912, -0.012150253169238567, -0.011160561814904213, 0.05546887591481209, -0.10473021119832993, 0.031000744551420212, -0.04614733159542084, -0.07072340697050095, -0.07221686094999313, -0.04874413460493088, -0.06047869846224785, -0.016202105209231377], [0.017001191154122353, -0.07034018635749817, 0.03804009035229683, -0.006761237513273954, 0.0833413377404213, -0.05791151896119118, -0.015867061913013458, -0.0055125863291323185, -0.03339795768260956, 0.07402877509593964, -0.034884966909885406, 0.039327237755060196, -0.05756671354174614, -0.17553335428237915, -0.015826595947146416, 0.022716980427503586, -0.022856570780277252, 0.037936098873615265, 0.08063289523124695, 0.03764612227678299, 0.004888392519205809, -0.012404034845530987, -0.016074592247605324, -0.0038713349495083094, -0.055401816964149475, 0.029915669932961464, 0.023729652166366577, -0.11840777099132538, -0.009217196144163609, 0.005619112402200699, -0.008298991248011589, 0.06823956966400146], [-0.035796232521533966, 0.012433202937245369, -0.2664979100227356, 0.003375340485945344, 0.002082183724269271, -0.13967524468898773, 0.06579923629760742, -0.2931070625782013, 0.14532214403152466, -0.005559112410992384, 0.17371763288974762, -0.012174134142696857, 0.07348156720399857, 0.012407450005412102, -0.005974192637950182, -0.08655592054128647, 1.4696812629699707, -0.12254289537668228, 0.8583182692527771, 0.031216977164149284, -0.10672644525766373, -0.11980771273374557, 0.06654319167137146, -0.021657399833202362, 0.06580240279436111, 0.01145239733159542, -0.272683322429657, -0.5310927629470825, -0.19387511909008026, -0.1033700481057167, 0.0887722447514534, -0.04068266227841377], [0.047922760248184204, -0.04529035463929176, 0.0329672172665596, -0.04496651142835617, -0.04215589165687561, -0.03306767717003822, -0.0612015575170517, -0.016371985897421837, -0.013043449260294437, 0.06436566263437271, 0.04726993292570114, 0.0920238122344017, -0.045860134065151215, -0.025954464450478554, 0.010525659658014774, -0.027886105701327324, -0.07306347787380219, 0.03870921581983566, 0.07987748831510544, -0.06324666738510132, 0.018625911325216293, -0.0019497928442433476, -0.005603961180895567, -0.05235222727060318, 0.025760861113667488, 0.012983419932425022, 0.022312743589282036, 0.006390516646206379, -0.030801860615611076, -0.020637372508645058, -0.01422822568565607, 0.0763794556260109], [-0.045914825052022934, -0.04477454721927643, 0.040427666157484055, 0.001405675313435495, -0.08234371989965439, 0.029253263026475906, -0.024437619373202324, -0.0578785166144371, -0.09195119142532349, -0.002561209024861455, 0.05653099715709686, 0.005495275836437941, 0.10990064591169357, 0.004782297182828188, -0.004104196559637785, 0.0018555365968495607, 0.052628833800554276, 0.0004885499947704375, 0.04115486890077591, -0.002940042642876506, 0.1389385461807251, 0.033775776624679565, -0.06439600139856339, -0.011921967379748821, 0.04706023633480072, -0.012217529118061066, 0.023323697969317436, 0.039478033781051636, -0.010893923230469227, -0.07044772803783417, -0.031064610928297043, -0.05551960691809654], [0.012211449444293976, -0.009388583712279797, -0.014950414188206196, 0.010612176731228828, 0.09053045511245728, -0.03932138904929161, 0.003484544577077031, -0.025926005095243454, 0.014302045106887817, -0.032398246228694916, 0.0071908095851540565, 0.09632451087236404, -0.016121162101626396, -0.017877094447612762, 0.013140041381120682, 0.0018308487487956882, -0.03652961552143097, 0.059275951236486435, 0.03238401934504509, -0.01981227844953537, 0.019230572506785393, 0.07411377876996994, -0.04559708014130592, -0.023118222132325172, -0.028160206973552704, -0.004023444838821888, 0.02862013876438141, 0.028047025203704834, 0.009511801414191723, 9.975194552680477e-05, -0.02886563539505005, -0.05450364947319031], [-0.07019783556461334, -0.009729939512908459, 0.03093940205872059, -0.0013470036210492253, 0.027281370013952255, -0.05857183784246445, 0.019547488540410995, -0.005441495217382908, -0.10697183012962341, 0.006203389726579189, 0.029064107686281204, -0.07803050428628922, -0.05994792282581329, -0.024164637550711632, 0.03952594846487045, -0.0449768528342247, 0.07584410160779953, -0.05879315361380577, 0.03994098678231239, -0.0067777857184410095, -0.013206439092755318, -0.006456519477069378, -0.24633997678756714, 0.0024126481730490923, -0.030336085706949234, 0.04186033084988594, 0.03540610522031784, 0.10225346684455872, 0.03372684493660927, 0.019283108413219452, -0.060873907059431076, 0.008695269003510475], [0.005642367992550135, -0.008140424266457558, 0.0327189676463604, 0.026996666565537453, 0.0568283274769783, 0.002749235602095723, -0.05115845054388046, -0.0014457807410508394, 0.05693846568465233, 0.05719597637653351, -0.008331994526088238, -0.030835291370749474, -0.0520038940012455, -0.05066320300102234, -0.0406109057366848, -0.028609253466129303, -0.10758265107870102, 0.00592882139608264, 0.060789287090301514, -0.02542445808649063, 0.021312344819307327, 0.042466938495635986, -0.00569126196205616, -0.019169604405760765, 0.03588373214006424, 0.02383572794497013, 0.04771251231431961, 0.01689300686120987, -0.009326864033937454, -0.041741032153367996, 0.0019172668689861894, -0.015595418401062489], [0.004923033528029919, -0.015698734670877457, 0.08817625790834427, -0.04147282987833023, 0.01716860942542553, -0.06726007908582687, -0.025808777660131454, 0.012889579869806767, 0.04300478845834732, 0.018416378647089005, 0.08982369303703308, 0.10679924488067627, 0.022519005462527275, 0.0015637485776096582, -0.011269367299973965, 0.007910139858722687, -0.10651402920484543, 0.04008108004927635, 0.006283461581915617, -0.023064270615577698, -0.011657854542136192, 0.024211963638663292, 6.76694035064429e-05, -0.0640680193901062, 0.00348937907256186, 0.008679365739226341, 0.022066228091716766, 0.09997525066137314, 0.03830765560269356, 0.03551548346877098, -0.009921308606863022, 0.014749888330698013], [0.022129040211439133, 0.001144882058724761, 0.012024233117699623, 0.019953323528170586, -0.04278135299682617, 0.008232846856117249, 0.01679738610982895, 0.028298264369368553, -0.0029168548062443733, -0.018713081255555153, 0.029237285256385803, 0.015765737742185593, 0.016570447012782097, -0.04614093154668808, 0.01169529277831316, -0.019366120919585228, 0.025909068062901497, -0.04415181651711464, 0.04574844613671303, 0.029194412752985954, -0.02717222459614277, -0.021009141579270363, 0.0480065755546093, 0.01794099248945713, -0.015139719471335411, 0.048108603805303574, 0.053703781217336655, 0.03422241285443306, -0.010702223517000675, 0.02842378057539463, -0.020135704427957535, 0.031496111303567886], [-0.039189938455820084, 0.017788095399737358, 0.00848462339490652, 0.009402438998222351, -0.009565926156938076, 0.13819140195846558, -0.03492743521928787, -0.03630220144987106, -0.04596496745944023, -0.016758941113948822, -0.04101419448852539, 0.14009299874305725, -0.05924403667449951, -0.12146343290805817, 0.05058973282575607, 0.06762292981147766, 0.40541598200798035, 0.030450232326984406, -0.1279882788658142, 0.009573651477694511, -0.002634968375787139, -0.0035596159286797047, -0.05574825778603554, 0.0419204980134964, -0.023795878514647484, 0.0028343673329800367, -0.20060932636260986, -0.18917596340179443, 0.027520718052983284, -0.06792552024126053, 0.010751137509942055, -0.05394088476896286], [-0.03470410406589508, 0.007963987067341805, -0.007570730056613684, 0.058397382497787476, -0.05162917822599411, -0.03786185011267662, 0.03684427589178085, 0.13190673291683197, -0.04179855063557625, 0.08749967068433762, 0.06207280978560448, 0.406250536441803, 0.014386676251888275, 0.12963607907295227, -0.10896564275026321, 0.05882418900728226, -0.8310022354125977, 0.09047893434762955, 1.0858091115951538, -0.13715600967407227, -0.03967205435037613, 0.11073435097932816, 0.041590265929698944, -0.0021780829411000013, -0.2237633466720581, 0.0161025021225214, 0.3439972698688507, 0.8598642349243164, 0.0012687896378338337, 0.019095972180366516, -0.01436701975762844, 0.007412624545395374], [0.025869246572256088, -0.017991796135902405, 0.019277168437838554, 0.04054802283644676, 0.04966049641370773, -0.046354372054338455, 0.055514246225357056, 0.019649159163236618, 0.019439131021499634, -0.020993797108530998, -0.0031808384228497744, 0.04731977358460426, -0.06965431571006775, 0.032965052872896194, -0.004245232790708542, -0.027508677914738655, -0.03109537810087204, 0.0679912194609642, 0.08921133726835251, -0.022934172302484512, 0.029749924317002296, 0.030088486149907112, -0.04853695631027222, -0.02609248459339142, -0.03404557332396507, 0.033276841044425964, 0.009037905372679234, -0.05889979377388954, -0.04207223281264305, 0.027370339259505272, -0.03204185515642166, -0.034573640674352646], [-0.007429151795804501, 0.011478077620267868, -0.03541005030274391, -0.19188502430915833, -0.1616382598876953, -0.12082526087760925, -0.27041277289390564, -0.030369961634278297, 0.04537232592701912, 0.26432958245277405, 0.0798773318529129, -0.026271741837263107, -0.16754646599292755, -0.03735199570655823, 0.35160788893699646, 0.03740999102592468, -0.010169398970901966, -0.010323964059352875, 0.0037845319602638483, -0.06255312263965607, -0.028515003621578217, -0.14934222400188446, -0.006455729715526104, -0.009818630293011665, 0.012738605961203575, -0.08846769481897354, 0.05989331007003784, 0.005571542773395777, 0.04989131540060043, 0.4703716039657593, -0.1180807501077652, 0.08537664264440536], [0.018199555575847626, -0.13657741248607635, 0.010177580639719963, -0.1330915093421936, -0.09739796817302704, 0.08734560757875443, 0.0012937863357365131, 0.03736186400055885, 0.0026460911612957716, -0.04977945238351822, 0.01694820448756218, 0.0432196743786335, -0.0779910609126091, -0.11651445180177689, 0.03604625165462494, 0.018205733969807625, -0.07731376588344574, -0.03173923119902611, 0.0015515824779868126, -0.10322528332471848, -0.055460281670093536, -0.028455836698412895, 0.05374962463974953, 0.07535982877016068, 0.042745769023895264, 0.006521304603666067, -0.0029788040556013584, 0.024210814386606216, -0.11176344007253647, -0.054946184158325195, -0.27677327394485474, -0.026770630851387978], [-0.018375007435679436, -0.013321943581104279, 0.08330553025007248, -0.07958713173866272, -0.010605214163661003, -0.03043472021818161, -0.005646961275488138, -0.06682674586772919, 0.009635679423809052, 0.04489835724234581, 0.0470435656607151, 0.010326392017304897, -0.06510864198207855, 0.04124750196933746, -0.07037128508090973, 0.020851675420999527, -0.04804791882634163, 0.012322596274316311, 0.09849511831998825, 0.058854684233665466, 0.04422467574477196, 0.005437338259071112, -0.03440975397825241, -0.019817108288407326, 0.013803746551275253, 0.04212072119116783, -0.028201183304190636, -0.013132057152688503, 0.01619630865752697, -0.10646818578243256, -0.17857979238033295, 0.03924746811389923]], "rec.bias_ih_l0": [-1.1272599697113037, -1.277535080909729, -0.4389653205871582, -0.08311881870031357, 0.7167513966560364, 0.08403906226158142, -0.23100051283836365, -0.3618503212928772, -0.8877710103988647, -0.1619262397289276, -0.5703927874565125, 0.6803313493728638, -0.6372190117835999, -0.32236364483833313, -0.10573004931211472, -0.6806330680847168, 0.004131002351641655, -0.49957072734832764, 0.647312343120575, -0.0026188730262219906, -1.220203161239624, 0.5188530087471008, -1.5900466442108154, -0.32154229283332825, -0.3786514103412628, -0.5854507088661194, -0.4003981947898865, 0.47578948736190796, 0.4558599293231964, -0.3895663619041443, -0.5493857264518738, -0.9706351161003113, 1.5751534700393677, 1.6494146585464478, 0.8541156053543091, 0.32916614413261414, 0.25842154026031494, 0.47283247113227844, 0.6075488328933716, 0.6238869428634644, 1.3947083950042725, 0.4787083864212036, 0.8573900461196899, 0.3214688301086426, 0.8425152897834778, 0.7339803576469421, 0.5652379393577576, 1.1303253173828125, 0.5062756538391113, 0.9159430861473083, 0.5051255822181702, 0.4997977912425995, 1.686195731163025, 0.15996518731117249, 2.0903515815734863, 0.6933613419532776, 0.7729058265686035, 0.9783469438552856, 0.8635492920875549, 0.32156866788864136, 0.2379595935344696, 0.46345213055610657, 0.8090530037879944, 1.3805346488952637, -0.004075769335031509, 0.06085029989480972, -0.028887620195746422, 0.00655035674571991, 0.0033398030791431665, -0.011623572558164597, -0.004522290080785751, 0.038095470517873764, 0.00019274171791039407, -0.046229299157857895, 0.0011930838227272034, -0.1517268866300583, -0.03942465782165527, 0.04422500357031822, -0.016027480363845825, 0.004166109953075647, -0.09601748734712601, -0.05753163993358612, 0.03792347386479378, -0.0061757247895002365, 0.014296152628958225, -0.0954059511423111, 0.014599605463445187, -0.011255014687776566, -0.03322935104370117, 0.02379760704934597, 0.010419851168990135, -0.18240009248256683, 0.019094597548246384, -0.02539263479411602, 0.025642339140176773, 0.04033137857913971, -0.11164040863513947, 0.12091737985610962, 0.1656065434217453, -0.08770270645618439, -0.28530755639076233, 0.2751597464084625, 0.3007965087890625, 0.06266017258167267, -0.1358667016029358, 0.022668547928333282, 0.15433575212955475, -0.0478842668235302, 0.13456256687641144, 0.04797385260462761, 0.35517987608909607, -0.18158575892448425, 0.5002840161323547, -0.15432776510715485, -0.3794052004814148, 0.29001110792160034, -0.22039556503295898, 0.5682191252708435, -0.2989357113838196, 0.0806250050663948, 0.256756067276001, -0.23592020571231842, 0.2070126235485077, 0.027707954868674278, 0.6028586626052856, 0.07239663600921631, -0.014733497984707355, -0.036638595163822174], "rec.bias_hh_l0": [-1.1272599697113037, -1.2983776330947876, -0.4389653503894806, -0.08311881870031357, 0.7167513370513916, 0.08403906226158142, -0.23101621866226196, -0.3618503212928772, -0.8877710103988647, -0.1619245707988739, -0.5703927874565125, 0.6803313493728638, -0.637219250202179, -0.3223639130592346, -0.10573004931211472, -0.6806328296661377, 0.004131135065108538, -0.49957072734832764, 0.647312343120575, -0.0026188776828348637, -1.220203161239624, 0.518877387046814, -1.5900466442108154, -0.32154229283332825, -0.3786514401435852, -0.5854807496070862, -0.4003981649875641, 0.47578948736190796, 0.4558599293231964, -0.3895663619041443, -0.5493857264518738, -0.9706359505653381, 1.5751534700393677, 1.658389687538147, 0.8541155457496643, 0.3291662037372589, 0.25842151045799255, 0.47283247113227844, 0.6075434684753418, 0.6238869428634644, 1.3947083950042725, 0.478699266910553, 0.8573900461196899, 0.3214688301086426, 0.8425152897834778, 0.7339802384376526, 0.5652379393577576, 1.130326271057129, 0.5062761306762695, 0.9159430265426636, 0.5051255822181702, 0.4997977912425995, 1.686195731163025, 0.16095080971717834, 2.0903518199920654, 0.6933613419532776, 0.7729058265686035, 0.978253960609436, 0.8635492920875549, 0.3215685188770294, 0.2379595935344696, 0.46345213055610657, 0.8090527653694153, 1.380534052848816, 0.004099288955330849, -0.04675671085715294, 0.0096196960657835, -0.01703609898686409, 0.015587348490953445, 0.007575885858386755, 0.021846063435077667, -0.021009262651205063, -0.008333087898790836, 0.11162753403186798, -0.01331828348338604, -0.13420988619327545, 0.04665292799472809, -0.007713006343692541, 0.01011875830590725, -0.02884230948984623, -0.12889762222766876, 0.043152906000614166, 0.025894131511449814, 0.0075699384324252605, -0.01199586596339941, 0.1164354532957077, -0.0115522351115942, 0.004018781241029501, 0.03144446387887001, -0.025322355329990387, -0.02886722981929779, -0.1610836535692215, 0.006603141315281391, -0.011523690074682236, -0.028073376044631004, -0.03454715386033058, -0.11164040863513947, 0.08320803940296173, 0.1656065136194229, -0.08770264685153961, -0.28530752658843994, 0.2751597464084625, 0.3007851243019104, 0.06266018003225327, -0.1358667016029358, 0.022664742544293404, 0.15433575212955475, -0.0478842668235302, 0.13456256687641144, 0.04797374829649925, 0.35517987608909607, -0.18158575892448425, 0.5002840161323547, -0.15432776510715485, -0.3794052004814148, 0.29001110792160034, -0.22039556503295898, 0.5683094263076782, -0.2989357113838196, 0.0806250050663948, 0.256756067276001, -0.23632444441318512, 0.2070126235485077, 0.027707936242222786, 0.6028586626052856, 0.0723966434597969, -0.014733497984707355, -0.036638062447309494], "lin.weight": [[-0.4224989414215088, 0.2312028706073761, -0.7952603697776794, 0.019420327618718147, 0.010325700975954533, -0.9034743309020996, -0.22702571749687195, -0.8368690609931946, 0.10766199976205826, 0.31927552819252014, 0.37350693345069885, -1.55027174949646, -0.1639978140592575, 0.004238324239850044, 0.18347600102424622, -0.6749359369277954, 0.19868551194667816, -0.1383039653301239, 1.3695337772369385, -0.10006920248270035, 0.04508708044886589, 0.7720047235488892, 0.5633725523948669, -0.2176744043827057, 0.333381325006485, 0.4747953712940216, 0.5603397488594055, -0.043279245495796204, -0.07361631095409393, 0.014384225010871887, 0.08834963291883469, -0.07252679020166397]], "lin.bias": [-0.04164472594857216]}}