{"model_data": {"model": "SimpleRNN", "input_size": 1, "skip": 1, "output_size": 1, "unit_type": "LSTM", "num_layers": 1, "hidden_size": 32, "bias_fl": true}, "state_dict": {"rec.weight_ih_l0": [[0.019366029649972916], [-0.07218402624130249], [0.0007743588066659868], [-0.05695057660341263], [0.0019259199034422636], [-0.010736051946878433], [0.04561050981283188], [0.20006218552589417], [-0.15499909222126007], [0.07268166542053223], [-0.020465712994337082], [0.017814788967370987], [-0.2371530383825302], [-0.020692702382802963], [0.21068075299263], [-0.020077098160982132], [-0.0941118448972702], [0.02010832168161869], [-0.08387017995119095], [-0.06862059235572815], [-0.08392436802387238], [-0.031978294253349304], [0.041581545025110245], [0.07306204736232758], [-0.00357869197614491], [0.004560253582894802], [0.04497278109192848], [-0.1865023672580719], [0.031234076246619225], [-0.29228347539901733], [0.10657447576522827], [-0.013498591259121895], [-0.1127307340502739], [-0.04784674569964409], [-0.10471586883068085], [-0.010982672683894634], [0.1641988754272461], [-0.042994871735572815], [0.06230086833238602], [0.20674282312393188], [-0.02992105856537819], [0.03650728613138199], [-0.031249338760972023], [0.011479237116873264], [-0.019211042672395706], [-0.04263150319457054], [-0.07055733352899551], [-0.047141771763563156], [0.016407309100031853], [-0.024111120030283928], [0.09797099232673645], [0.005326087586581707], [-0.06588871031999588], [0.009957589209079742], [0.061653442680835724], [0.0428888313472271], [0.10437104851007462], [-0.00651269406080246], [0.005428689997643232], [0.09328749775886536], [-0.022969597950577736], [-0.25292128324508667], [-0.0786014124751091], [-0.017992185428738594], [-0.08543773740530014], [-0.4286229908466339], [0.20940911769866943], [2.5132832527160645], [-1.120723009109497], [0.27407217025756836], [0.5510450601577759], [-0.4354490637779236], [-0.15889301896095276], [-1.0458049774169922], [-0.05017722770571709], [0.0927974283695221], [-0.008200084790587425], [-0.2637416422367096], [-0.5087481737136841], [-0.09349749982357025], [0.024038519710302353], [0.26165515184402466], [0.06215517222881317], [-0.4947109818458557], [0.07719020545482635], [-1.3947142362594604], [-0.15728172659873962], [0.08892261981964111], [0.12427594512701035], [-0.02873111143708229], [0.06871289014816284], [-0.059605833142995834], [0.9115480184555054], [-0.2994072735309601], [-0.17694267630577087], [0.21548642218112946], [-0.010861586779356003], [0.0028768517076969147], [0.03551151603460312], [-0.1444503217935562], [-0.19800567626953125], [-0.01040206104516983], [0.07778216153383255], [0.36712348461151123], [-0.014047328382730484], [0.13353398442268372], [0.10510434955358505], [-0.08400294184684753], [0.0487402081489563], [-0.03789036348462105], [0.3094910681247711], [-0.0013186866417527199], [-0.06818918883800507], [0.12339603155851364], [-0.09618638455867767], [-0.06238425895571709], [-0.17023524641990662], [-0.024145763367414474], [0.05871552973985672], [0.15983368456363678], [-0.035958681255578995], [0.00916951522231102], [0.008456552401185036], [-0.014609589241445065], [0.02887018956243992], [-0.2865909934043884], [-0.025667335838079453], [0.08444929867982864]], "rec.weight_hh_l0": [[0.02926686406135559, -0.2076413631439209, 0.09151536226272583, 0.0029801232740283012, 0.1892261952161789, 0.08198986947536469, -0.0365445651113987, 0.1934744119644165, -0.08473505079746246, 0.07722106575965881, 0.17124387621879578, -0.06696785241365433, -0.10135992616415024, -0.16131828725337982, -0.029491489753127098, 0.17503906786441803, 0.11360954493284225, 0.0502292700111866, -0.024628641083836555, 0.012202354148030281, 0.07469631731510162, -0.010099569335579872, -0.018737757578492165, -0.09090358763933182, 0.04114755988121033, 0.008221999742090702, -0.06987684965133667, 0.007762660272419453, 0.0592833086848259, 0.014674213714897633, 0.02447047270834446, 0.08850102126598358], [-0.08745494484901428, 0.24535797536373138, 0.06061501055955887, 0.1792980432510376, 0.38726308941841125, 0.391732782125473, -0.18765075504779816, 0.09072993695735931, -0.018455585464835167, -0.284702867269516, -0.07871073484420776, 0.07202186435461044, -0.7672411203384399, -0.3773094713687897, -0.22702226042747498, 0.19984303414821625, -0.02544759213924408, -0.06218184903264046, -0.08544613420963287, -0.10838770121335983, 0.08527404814958572, 0.03519472852349281, 0.008025150746107101, -0.3676699995994568, 0.15950942039489746, 0.2255839854478836, 0.05594918504357338, 0.03293946012854576, 0.35044699907302856, 0.45182570815086365, -0.37522509694099426, -0.07232741266489029], [-0.28963813185691833, -0.03553273156285286, 0.16063740849494934, 0.06516586244106293, -0.06837107241153717, 0.06097014993429184, -0.0770973190665245, -0.05669509619474411, -0.08747255057096481, 0.05802176892757416, 0.096317820250988, 0.013870220631361008, 0.0554736889898777, -0.23261886835098267, -0.04185193032026291, 0.03706183657050133, -0.0031396718695759773, 0.014853019267320633, 0.01456239353865385, -0.042168989777565, 0.01805579848587513, -0.20127332210540771, -0.022887106984853745, -0.20883825421333313, -0.05581921711564064, -0.011535093188285828, -0.0841836929321289, -0.12939704954624176, 0.12854093313217163, 0.08228273689746857, 0.04566379636526108, -0.015205930918455124], [-0.3002133071422577, 0.2269214540719986, 0.03512120991945267, -0.14797808229923248, 0.2495528757572174, -0.10326292365789413, 0.24264387786388397, -0.42683830857276917, 0.06275097280740738, -0.08919388800859451, -0.20071205496788025, 0.05418488010764122, 0.34200432896614075, 0.23474298417568207, 0.24229095876216888, -0.002574135083705187, -0.059028834104537964, 0.09901662915945053, 0.09244269877672195, 0.32794272899627686, -0.05494864657521248, 0.05373839661478996, 0.06578824669122696, 0.00038697163108736277, -0.05843654274940491, -0.07999441027641296, 0.009655935689806938, -0.0822705402970314, 0.12152645736932755, -0.23712989687919617, 0.3311757445335388, 0.3090934157371521], [0.014447210356593132, -0.036212656646966934, 0.054373741149902344, 0.02545836940407753, -0.11511369794607162, -0.03827201575040817, -0.094317227602005, 0.08879753202199936, 0.05177677050232887, 0.03363395482301712, 0.04532419890165329, 0.027447378262877464, 0.05336768552660942, -0.08128529042005539, 0.07251311093568802, -0.07627902925014496, -0.022487247362732887, 0.004089055582880974, 0.04511824995279312, -0.19763104617595673, -0.02534574270248413, -0.11304984986782074, 0.014543543569743633, -0.002163164084777236, -0.07509225606918335, -0.0774679034948349, -0.007770153693854809, -0.11588416993618011, 0.03698582202196121, 0.04340222105383873, 0.006378381047397852, -0.04069112613797188], [0.05222738906741142, 0.057235971093177795, -0.05491315945982933, 0.02881534956395626, 0.02169802226126194, 0.02818548120558262, -0.07937616854906082, 0.05278002470731735, 0.033632244914770126, 0.009633731096982956, -0.06429682672023773, 0.09689322859048843, -0.10451870411634445, -0.1283671259880066, -0.07613793760538101, 0.08367173373699188, 0.18028542399406433, 0.01964876428246498, -0.02270735614001751, -0.04021215811371803, 0.15258270502090454, -0.05863272398710251, 0.09343352168798447, -0.0839591920375824, 0.1078873872756958, 0.001677591586485505, -0.05960724130272865, -0.06417931616306305, -0.16034606099128723, 0.12636080384254456, 0.010509226471185684, -0.05167342722415924], [-0.02926310896873474, 0.09091376513242722, 0.03439238294959068, -0.13201288878917694, 0.0804724395275116, 0.02610165625810623, -0.12905728816986084, 0.018827050924301147, -0.010832084342837334, 0.03255477920174599, -0.002784028649330139, 0.011277703568339348, -0.3654922544956207, -0.14113010466098785, 0.0022356160916388035, 0.007458946667611599, -0.053876541554927826, -0.030043188482522964, 0.06401515007019043, 0.06747514009475708, -0.08204056322574615, -0.046778298914432526, 0.02528773993253708, -0.08879514783620834, 0.034583680331707, 0.040015675127506256, 0.048819106072187424, -0.038554660975933075, 0.021558033302426338, 0.16856169700622559, -0.11510097980499268, -0.03556761145591736], [-0.03649241104722023, 0.08940628916025162, -0.056271109730005264, -0.1318638175725937, -0.1129683405160904, -0.05013248696923256, 0.17522607743740082, 0.07532138377428055, 0.0391278937458992, -0.08288361877202988, -0.17426170408725739, 0.006717538461089134, 0.18097048997879028, 0.11806020885705948, 0.09730492532253265, 0.04201895371079445, -0.04853135347366333, -0.023221978917717934, 0.013694238848984241, 0.04244096204638481, 0.004848886746913195, -0.060422468930482864, 0.0891619473695755, 0.09487129747867584, 0.13845333456993103, 0.05223924294114113, 0.007123343646526337, 0.11818859726190567, 0.09896170347929001, 0.03746797516942024, 0.15224018692970276, 0.016441162675619125], [-0.09348798543214798, 0.055965520441532135, 0.29180797934532166, 0.0925152599811554, -0.05036240816116333, 0.06822585314512253, 0.06209171935915947, 0.006955993827432394, 0.053130000829696655, -0.035512302070856094, 0.05215900018811226, 0.02750180847942829, -0.04456811398267746, 0.1863469034433365, 0.004073178395628929, 0.2025420069694519, 0.03392219915986061, -0.09622102975845337, -0.14073100686073303, -0.10938114672899246, 0.13149164617061615, -0.06580305099487305, 0.014293821528553963, -0.09074115008115768, 0.1141885295510292, -0.08796510100364685, 0.20150649547576904, 0.055514462292194366, 0.013292417861521244, 0.038311272859573364, 0.06147674843668938, 0.13201065361499786], [-0.03289152681827545, -0.0036653580609709024, 0.07447920739650726, 0.020003650337457657, 0.024345576763153076, -0.006510450970381498, -0.03628439083695412, -0.21018922328948975, -0.11185134947299957, 0.018554935231804848, -0.13402795791625977, 0.04857143387198448, -0.041558608412742615, 0.030874233692884445, 0.12017634510993958, 0.06910713016986847, 0.053831446915864944, -0.08650681376457214, 0.0003606567915994674, 0.05602176487445831, -0.08466217666864395, -0.03924458101391792, -0.05544806271791458, 0.1387791633605957, 0.03195340931415558, 0.08362723141908646, -0.0026224199682474136, 0.05002030357718468, 0.027279578149318695, -0.020704567432403564, 0.06540704518556595, 0.01791776344180107], [-0.02547561563551426, -0.07203497737646103, 0.0403156615793705, -0.13617801666259766, 0.15788209438323975, 0.04497815668582916, -0.016342945396900177, -0.2091376632452011, 0.010105491615831852, -0.09312466531991959, 0.014227859675884247, -0.07147174328565598, -0.2575652599334717, -0.1920648217201233, -0.028622619807720184, 0.1781739741563797, 0.05289057269692421, -0.006669007241725922, 0.03484015166759491, 0.14718924462795258, -0.0025032267440110445, -0.012450801208615303, 0.06347423791885376, -0.13095371425151825, 0.07145224511623383, -0.003763460321351886, 0.12004819512367249, -0.021613534539937973, 0.09650575369596481, 0.07040251791477203, -0.2559935748577118, 0.1040346771478653], [0.0950523093342781, 0.0020306063815951347, -0.12799818813800812, -0.003678896464407444, -0.018778910860419273, -0.14179004728794098, -0.02640853449702263, 0.04820831120014191, -0.05122373625636101, -0.051402073353528976, 0.009607506915926933, 0.1818685680627823, 0.015381867066025734, 0.004802059847861528, 0.06315822899341583, -0.0716581866145134, 0.3570167124271393, 0.04517166689038277, 0.012603453360497952, -0.208408385515213, 0.09204507619142532, 0.15696367621421814, -0.01667509786784649, -0.18306979537010193, -0.12563611567020416, -0.06599096208810806, -0.365785151720047, 0.9786067605018616, 0.082428477704525, 0.021676355972886086, -0.09748142212629318, -0.2612493634223938], [-0.09282567352056503, 0.14533157646656036, 0.03615603223443031, -0.050866588950157166, 0.025109590962529182, 0.14558887481689453, -0.39127981662750244, -0.017801692709326744, -0.021451085805892944, 0.21400538086891174, 0.21799561381340027, 0.04998414218425751, -0.15771092474460602, 0.003117433050647378, 0.21650035679340363, 0.062043484300374985, -0.007249174173921347, -0.1118762269616127, 0.042105525732040405, 0.02836603857576847, -0.08296266198158264, -0.00017693919653538615, 0.12914615869522095, 0.011262809857726097, 0.1690424531698227, 0.06629306823015213, -0.07181892544031143, -0.04392573982477188, 0.5095790028572083, 0.28542360663414, 0.003411681856960058, 0.1879490166902542], [0.27499887347221375, -0.22971154749393463, -0.16901029646396637, 0.05497414246201515, 0.10554584115743637, 0.009361425414681435, -0.02228762023150921, -0.17693519592285156, 0.1390436440706253, 0.15012240409851074, 0.03592613711953163, 0.004989208187907934, -0.0061452919617295265, -0.2911472022533417, -0.00959168840199709, 0.06065799668431282, 0.07542557269334793, -0.11224144697189331, 0.03168642520904541, -0.06798873096704483, 0.10638344287872314, -0.17893128097057343, -0.06745804101228714, 0.12132828682661057, 0.04940081760287285, -0.14038626849651337, 0.014789359644055367, -0.013395597226917744, -0.07980842888355255, 0.03867889568209648, 0.20706067979335785, 0.4032193720340729], [-0.07788209617137909, -0.013962236233055592, 0.08098485320806503, -0.17558662593364716, 0.009398560971021652, 0.014835214242339134, -0.10298459976911545, -0.09749369323253632, -0.0009431626531295478, -0.004318476654589176, -0.09802968055009842, 0.06605416536331177, -0.32480311393737793, -0.0422305166721344, 0.09447654336690903, 0.031915634870529175, 0.047552015632390976, -0.0830930545926094, -0.05496500805020332, 0.04235078766942024, 0.04769255220890045, -0.11032744497060776, -0.03002203442156315, -0.11235680431127548, 0.047229476273059845, 0.06108415126800537, -0.015479691326618195, 0.08484362065792084, 0.2324029952287674, 0.04861408472061157, 0.01046741008758545, 0.13822104036808014], [-0.09637098759412766, -0.0782090574502945, 0.06851227581501007, 0.16802319884300232, 0.08792736381292343, -0.024196861311793327, -0.09043783694505692, 0.027322297915816307, 0.213136225938797, 0.09112334996461868, 0.05418536439538002, 0.28809380531311035, -0.017355265095829964, -0.25184011459350586, 0.06666827946901321, 0.2792799770832062, 0.18826746940612793, -0.1376056969165802, 0.03144772723317146, -0.05808724835515022, 0.018965067341923714, -0.037431612610816956, 0.00767870806157589, -0.09138482809066772, 0.050262950360774994, 0.004406358115375042, -0.01011584885418415, 0.2193877100944519, 0.008400947786867619, -0.04476570710539818, 0.0031691771000623703, 0.06880568712949753], [-0.02759610302746296, -0.07460064440965652, 0.04927776753902435, -0.09912475943565369, 0.0791749581694603, 0.2633878290653229, 0.00798239279538393, 0.08362835645675659, -0.20104201138019562, 0.058280378580093384, -0.10847006738185883, -0.46916449069976807, -0.09900210797786713, 0.0992293432354927, 0.10843193531036377, 0.2070433348417282, 0.5951063632965088, 0.12792161107063293, 0.6308920979499817, -0.03960389271378517, -0.25300881266593933, -0.1236538365483284, -0.05313612148165703, 0.06783989071846008, -0.7463024854660034, 0.011725031770765781, 0.24939090013504028, 0.02420770563185215, -0.06753362715244293, -0.008719881996512413, -0.07562793046236038, -0.16231627762317657], [0.13282212615013123, -0.17180855572223663, 0.1448197066783905, -0.027350077405571938, 0.09264198690652847, 0.13611644506454468, 0.06790798902511597, -0.1769528090953827, 0.012760726734995842, 0.0013039971236139536, 0.039231084287166595, -0.06255084276199341, 0.07582897692918777, -0.09130960702896118, 0.04298291355371475, 0.15594756603240967, 0.07408788055181503, -0.05791822820901871, -0.050267934799194336, 0.3656120300292969, -0.14518700540065765, 0.1998806744813919, -0.06551339477300644, 0.05066552758216858, 0.05667129531502724, -0.04429076984524727, -0.031075727194547653, -0.12069208920001984, 0.1550242006778717, -0.1876646727323532, 0.023476580157876015, -0.20542120933532715], [-0.06186537817120552, 0.17075665295124054, -0.1336982697248459, -0.04516060650348663, 0.03512687608599663, 0.3293698728084564, -0.0984903946518898, 0.16234277188777924, -0.10920276492834091, -0.019659578800201416, 0.258396714925766, 0.4697384834289551, -0.11969540268182755, -0.1370111107826233, -0.2722475230693817, 0.07948890328407288, 1.2680115699768066, 0.06158975139260292, 0.6794306635856628, 0.28818279504776, 0.1284630000591278, -0.18660883605480194, 0.031059470027685165, -0.15059657394886017, 0.4657971262931824, -0.2685176730155945, -0.6602476835250854, -0.23536737263202667, -0.10451062023639679, 0.08627139031887054, -0.02993340604007244, -0.1128016859292984], [0.011098397895693779, 0.08880748599767685, -0.010039896704256535, 0.014955094084143639, 0.13967640697956085, -0.10281382501125336, 0.012468609027564526, 0.003681904636323452, -0.0045943306758999825, -0.00500617828220129, 0.09745453298091888, -0.02528311312198639, 0.02975417487323284, -0.005269351415336132, 0.0849415734410286, 0.016953496262431145, 0.07311400771141052, -0.06584693491458893, -0.10538840293884277, -0.01468045637011528, -0.028555531054735184, 0.11469462513923645, 0.006781171541661024, -0.16473497450351715, 0.09152469784021378, 0.004783686250448227, -0.03362502157688141, 0.07447859644889832, 0.041591305285692215, 0.0019981535151600838, 0.06807407736778259, -0.07059495896100998], [-0.1088239997625351, 0.0308383721858263, 0.02448589913547039, -0.02096077986061573, 0.1114913821220398, 0.053001537919044495, -0.1543702632188797, 0.07606159895658493, 0.08928049355745316, -0.0877503827214241, 0.030877823010087013, -0.021242376416921616, -0.022020606324076653, -0.007084736134856939, -0.08284765481948853, 0.2774933874607086, 0.007744406349956989, 0.19664807617664337, 0.0689501091837883, -0.332210510969162, -0.10664287954568863, -0.10751013457775116, 0.10502596944570541, -0.33369526267051697, 0.0030440245755016804, 0.005016468930989504, -0.03344712033867836, 0.03912598639726639, -0.016338299959897995, 0.018446585163474083, -0.11088383197784424, 0.02375859022140503], [-0.024304158985614777, 0.040173403918743134, 0.12310343980789185, -0.0014205812476575375, 0.013669773936271667, 0.0466417595744133, -0.0030745184049010277, 0.037419240921735764, 0.0388840027153492, -0.03721950948238373, 0.030627628788352013, -0.04045072942972183, -0.002535018138587475, -0.056403327733278275, 0.08202262222766876, -0.0390293151140213, 0.1783771961927414, -0.11187973618507385, 0.19827800989151, 0.15453870594501495, 0.019737083464860916, 0.004761201795190573, -0.06017853319644928, -0.06379853934049606, 0.12534703314304352, -0.06427445262670517, -0.021147511899471283, -0.12919974327087402, 0.08285551518201828, -9.140296606346965e-05, 0.006076632998883724, -0.023066889494657516], [-0.08075296133756638, -0.05877149850130081, 0.008010005578398705, 0.09563452750444412, -0.01763717643916607, 0.10943562537431717, 0.048435259610414505, -0.15789438784122467, 0.002923126332461834, -0.15816892683506012, 0.19509826600551605, 0.03692452982068062, -0.30891987681388855, -0.19993585348129272, 0.003229703987017274, 0.6678771376609802, 0.09375811368227005, -0.07555828988552094, -0.13650506734848022, 0.07448972016572952, 0.21953162550926208, 0.09838486462831497, -0.015378961339592934, 0.004803752526640892, 0.20184475183486938, 0.6729259490966797, 0.06473813205957413, 0.018611446022987366, -0.12575119733810425, -0.10301555693149567, 0.006584553979337215, -0.03545072302222252], [-0.19972574710845947, -0.11531703174114227, 0.17554660141468048, -0.07284010946750641, -0.05678297206759453, -0.02151481993496418, -0.03739897534251213, 0.0505545511841774, 0.029945693910121918, -0.005752996075898409, -0.003188007976859808, 0.12306979298591614, -0.06083521991968155, -0.03470666706562042, 0.1976742446422577, 0.06491932272911072, -0.05923233926296234, 0.23798392713069916, 0.06077354773879051, 0.05029022693634033, -0.10844029486179352, 0.05620695650577545, 0.021336421370506287, -0.3264945447444916, 0.07428442686796188, 0.027292726561427116, 0.01756027527153492, -0.024621276184916496, 0.07015572488307953, -0.0623084232211113, -0.04958473891019821, -0.32577580213546753], [-0.05323784425854683, 0.0019721894059330225, 0.15365318953990936, 0.01505263987928629, 0.1354370415210724, 0.2938685715198517, -0.03582704812288284, 0.07912945747375488, 0.09297233819961548, 0.09110789000988007, 0.19414269924163818, 0.12436927109956741, 0.002853118348866701, -0.0787060335278511, -0.004767594859004021, 0.13929542899131775, 0.21336865425109863, -0.03900942578911781, 0.29993146657943726, 0.12876036763191223, 0.337563693523407, -0.002806811360642314, -0.062332525849342346, -0.09112304449081421, -0.10146542638540268, -0.08541881293058395, -0.22383740544319153, -0.08344662189483643, -0.13986212015151978, 0.12679967284202576, 0.19309167563915253, -0.12731535732746124], [-0.06799434125423431, 0.002576878760010004, 0.18967321515083313, 0.016141915693879128, 0.00716220261529088, 0.0582103505730629, 0.031942784786224365, -0.037981633096933365, 0.3407715857028961, -0.18803291022777557, 0.1982022225856781, 0.01843918114900589, -0.07979755848646164, -0.09817532449960709, 0.13797657191753387, 0.3242165446281433, 0.3859226703643799, -0.06450609862804413, 0.042272113263607025, -0.04671269655227661, 0.07497245073318481, -0.13581901788711548, 0.04977455735206604, -0.07427995651960373, 0.12486398220062256, 0.30002957582473755, -0.059609007090330124, -0.20300211012363434, -0.038038093596696854, 0.09380578994750977, 0.10866471379995346, -0.013396180234849453], [0.023074181750416756, 0.11483648419380188, -0.10993713140487671, -0.0023812390863895416, 0.046006154268980026, -0.014778480865061283, 0.08960077166557312, -0.1534222662448883, 0.007014188449829817, 0.006593569181859493, 0.08431081473827362, -0.24356530606746674, -0.054705943912267685, 0.007725439500063658, 0.16315481066703796, 0.07250555604696274, 0.23100116848945618, 0.03485884889960289, 0.04646020382642746, 0.025146327912807465, 0.28534677624702454, 0.015151589177548885, -0.011441104114055634, 0.12028147280216217, -0.2922831177711487, 0.07836127281188965, 0.533606767654419, 0.652804970741272, -0.06735773384571075, 0.02520206943154335, -0.06482096016407013, -0.2868983745574951], [0.07603225111961365, 0.02061661332845688, -0.07461518794298172, 0.08618641644716263, 0.10391328483819962, -0.11674237996339798, -0.14981718361377716, 0.19511666893959045, 0.3664033114910126, 0.13617052137851715, -0.012388716451823711, 0.235526442527771, 0.10029738396406174, 0.014504734426736832, -0.008645637892186642, -0.08792334794998169, -0.229135662317276, -0.024794459342956543, 0.02213270030915737, -0.12911400198936462, -0.11694115400314331, 0.32996588945388794, 0.009670051746070385, -0.07518289983272552, 0.09002476930618286, 0.02124529704451561, 0.566378116607666, 0.8067473769187927, -0.13838793337345123, 0.04060979187488556, -0.04389254003763199, -0.07514096796512604], [-0.14199572801589966, -0.055767886340618134, 0.08117219805717468, 0.10324904322624207, 0.017150020226836205, 0.030315328389406204, -0.02576957829296589, 0.12554828822612762, -0.06632278114557266, -0.02444818988442421, 0.014714931137859821, -0.053184874355793, -0.13101214170455933, -0.11712416261434555, 0.03523881360888481, -0.03812313824892044, 0.05559888109564781, -0.0006960950559005141, 0.039016783237457275, 0.06122059375047684, 0.032712746411561966, 0.0019638307858258486, -0.01163211278617382, -0.11830013245344162, 0.07967769354581833, -0.11687173694372177, -0.04090051352977753, -0.09595184773206711, 0.02814272791147232, 0.13847634196281433, -0.10401368886232376, -0.10534531623125076], [-0.1414329707622528, -0.2106103003025055, -0.058059293776750565, 0.22551442682743073, 0.051672689616680145, -0.01634279638528824, -0.29555878043174744, 0.03978043794631958, 0.0794777199625969, 0.23038144409656525, -0.028842126950621605, 0.03244389221072197, 0.0422532856464386, -0.19346342980861664, 0.13570572435855865, 0.07037021219730377, 0.12227437645196915, 0.014139323495328426, 0.17303363978862762, -0.1213814988732338, 0.010074525140225887, 0.05244468152523041, 0.04797236993908882, 0.15764166414737701, 0.03247790411114693, 0.014196658506989479, -0.02150469832122326, 0.037906743586063385, -0.07222556322813034, 0.07514803111553192, -0.07942240685224533, -0.029618101194500923], [-0.026143422350287437, -0.06014522165060043, -0.0500984713435173, 0.13344989717006683, -0.03503498062491417, -0.07451460510492325, 0.2858947217464447, -0.13206321001052856, -0.055825766175985336, -0.06416647136211395, -0.2651140093803406, 0.07476292550563812, -0.061266131699085236, -0.058523911982774734, -0.12915915250778198, -0.03083702176809311, -0.03325270488858223, 0.07041347771883011, 0.018759915605187416, 0.025123611092567444, 0.27773258090019226, -0.03857029229402542, -0.029859013855457306, 0.1431133896112442, -0.005498822778463364, -0.023749489337205887, -0.05440298840403557, 0.12957890331745148, -0.2662716805934906, -0.12734533846378326, -0.25329744815826416, 0.0794825479388237], [-0.16284045577049255, 0.17074662446975708, -0.0459255650639534, -0.11809766292572021, 0.017505543306469917, 0.025592228397727013, 0.1413717418909073, 0.208993062376976, -0.05756291747093201, -0.04145176708698273, 0.13945679366588593, -0.04624611511826515, -0.04894518479704857, -0.4236639440059662, -0.14521220326423645, 0.2100614607334137, 0.12210935354232788, 0.041948188096284866, 0.027651842683553696, 0.07751461118459702, 0.11936670541763306, 0.10019776225090027, 0.0328332744538784, -0.25139403343200684, -0.09682891517877579, 0.10497276484966278, -0.09561490267515182, 0.1738009750843048, 0.06326106190681458, 0.21164807677268982, 0.13372142612934113, -0.014936584047973156], [-0.035860493779182434, 0.07675019651651382, 0.051179856061935425, -0.004263138398528099, -0.20295502245426178, -0.24389632046222687, -0.16001947224140167, 0.1367066353559494, -0.08801907300949097, 0.03319038078188896, -0.19189707934856415, -0.1108473688364029, 0.09153001010417938, 0.5275008082389832, 0.1856696754693985, -0.22975461184978485, -0.04664647951722145, 0.1144968792796135, -0.012367294169962406, 0.14427624642848969, -0.13247951865196228, 0.058718062937259674, 0.1003299281001091, 0.09265820682048798, -0.15764811635017395, 0.0003404959279578179, -0.016045834869146347, -0.14411844313144684, 0.1559867113828659, -0.15307897329330444, -0.014081132598221302, -0.12467946112155914], [0.14919713139533997, -0.414050817489624, -0.0730624869465828, 0.07131107896566391, -0.03988546133041382, -0.08310490846633911, 0.02756572514772415, -0.23924267292022705, 0.007899949327111244, 0.18582822382450104, -0.5709072947502136, 0.03359386324882507, -0.12630756199359894, 0.4921274185180664, 0.546929657459259, -0.0753752812743187, -0.09127205610275269, -0.17942214012145996, -0.005776182282716036, 0.23137988150119781, -0.027943529188632965, -0.21691547334194183, 0.09971287101507187, 0.19856537878513336, -0.09184586256742477, -0.21466529369354248, 0.1116671934723854, 0.019750937819480896, -0.16963304579257965, -0.012028221972286701, 0.11978621035814285, 0.32744845747947693], [0.002942093415185809, -0.0010845974320545793, -0.04416139796376228, 0.09789049625396729, -0.043926507234573364, -0.1443973034620285, -0.05524149909615517, 0.08717204630374908, -0.019459400326013565, 0.01749701425433159, -0.01483498327434063, -0.0570867583155632, 0.008893446065485477, 0.09206732362508774, -0.05408033728599548, -0.04629730433225632, -0.15174047648906708, -0.17599327862262726, -0.037159133702516556, 0.1780855506658554, -0.10758832097053528, 0.046309228986501694, -0.017599955201148987, 0.09384802728891373, -0.43392887711524963, 0.03580114245414734, -0.049044325947761536, -0.05923810228705406, 0.21011269092559814, -0.14198729395866394, -0.06287330389022827, 0.10885998606681824], [-0.01731894724071026, 0.19821903109550476, -0.0613224171102047, -0.10376235842704773, -0.4878091812133789, 0.03488397225737572, 0.0769975408911705, -0.07389210909605026, 0.049573469907045364, 0.09154166281223297, -0.23808716237545013, 0.0482938326895237, 0.2536878287792206, 0.0037550239358097315, 0.041436247527599335, -0.021746106445789337, -0.06943224370479584, -0.07716571539640427, 0.07343105971813202, -0.08177868276834488, -0.08185405284166336, -0.0804896429181099, -0.10580236464738846, -0.006070422474294901, -0.05180860683321953, -0.156708762049675, -0.0034983379300683737, -0.14140968024730682, -0.023970242589712143, -0.13032495975494385, 0.5689629912376404, 0.05533125624060631], [0.043802279978990555, 0.19012753665447235, 0.21418237686157227, 0.19725580513477325, -0.15506306290626526, 0.21823416650295258, -0.10271554440259933, -0.046585310250520706, 0.03060104139149189, -0.1671133041381836, -0.021428808569908142, -0.04714019224047661, 0.07060626894235611, -0.04677875339984894, 0.1732947826385498, 0.06288766860961914, 0.0644272118806839, -0.05303559452295303, -0.006779305636882782, -0.046448081731796265, -0.0007063238299451768, -0.13137146830558777, 0.039713870733976364, -0.15023162961006165, 0.00968988798558712, 0.10167937725782394, 0.13830330967903137, 0.0908837541937828, 0.23511464893817902, 0.052491284906864166, 0.6340773701667786, -0.1504342257976532], [-0.002454109024256468, 0.0220170971006155, -0.08271598070859909, -0.006729168817400932, 0.0665121078491211, -0.06057706102728844, 0.02732604183256626, 0.05591818317770958, 0.024265650659799576, -0.004948528483510017, -0.05872112140059471, 0.17894698679447174, 0.011285873129963875, -0.050478991121053696, 0.005593967158347368, 0.02461736649274826, -0.18998835980892181, 0.03828008472919464, 0.17394216358661652, 0.030787194147706032, 0.07512447983026505, 0.04085743799805641, 0.083321712911129, 0.014139451086521149, -0.16469033062458038, 0.08809387683868408, 0.3382757008075714, -0.02769145369529724, 0.010755020193755627, 0.02597232535481453, -0.06589332967996597, -0.0005228504305705428], [0.019135616719722748, -0.06648184359073639, -0.12677302956581116, -0.03775573521852493, 0.01478295773267746, -0.07864364981651306, 0.046037983149290085, -0.17007631063461304, 0.0693390965461731, 0.03584441542625427, -0.1073220819234848, 0.016256757080554962, 0.01625523902475834, -0.04585951939225197, -0.017639217898249626, 0.09180910140275955, -0.07840602099895477, 0.015339087694883347, -0.12282756716012955, 0.1980789452791214, -0.0026737586595118046, -0.06631650030612946, -0.0140452329069376, 0.07902739942073822, -0.06767992675304413, -0.005453822202980518, -0.01801159605383873, -0.027746524661779404, -0.006044772453606129, -0.062645323574543, 0.05809734761714935, 0.13783955574035645], [0.06521866470575333, -0.22539708018302917, -0.19321006536483765, -0.03877205774188042, -0.050721608102321625, -0.19888080656528473, 0.0012174681760370731, 0.33324456214904785, 0.04506892338395119, 0.010082612745463848, -0.2934863865375519, -0.06707458943128586, 0.3338572680950165, 0.2826322913169861, 0.07553564012050629, -0.09003256261348724, -0.025830911472439766, 0.09997306764125824, 0.04650157317519188, -0.12341607362031937, -0.009875521995127201, -0.18973498046398163, 0.0010179426753893495, 0.23651279509067535, -0.05264062434434891, 0.03031526878476143, -0.01377178356051445, -0.09820742905139923, -0.035606302320957184, -0.026018496602773666, -0.03304457664489746, 0.03699536621570587], [0.0138280363753438, -0.05961029231548309, 0.10263430327177048, -0.0721888467669487, 0.036527764052152634, -0.08506526798009872, -0.12843072414398193, 0.18328486382961273, -0.24911461770534515, 0.00385881750844419, -0.013553272001445293, -0.1991124451160431, 0.18427106738090515, -0.007288483902812004, 0.07037674635648727, -0.19415076076984406, 0.13982552289962769, -0.039976343512535095, -0.10621757805347443, 0.0440535843372345, -0.08884983509778976, -0.12138395011425018, 0.15972456336021423, -0.008632100187242031, -0.47260192036628723, 0.13402347266674042, -0.05244702100753784, -0.003374089952558279, 0.09125181287527084, -0.01941598765552044, -0.04791589453816414, 0.04033614322543144], [-0.02120376192033291, 0.07330482453107834, 0.017876962199807167, -0.06122548505663872, -0.04081784188747406, -0.09545592218637466, 0.016766678541898727, -0.3583926558494568, 0.026340730488300323, 0.052622441202402115, -0.22735147178173065, 0.020606812089681625, 0.13743296265602112, 0.04350648820400238, 0.09815029799938202, 0.046596746891736984, -0.12492331117391586, -0.08202894032001495, 0.030452897772192955, 0.057215362787246704, -0.06185661256313324, -0.1335272639989853, -0.06579697132110596, 0.28027763962745667, -0.07617431879043579, 0.0785774290561676, 0.0754036083817482, -0.02791607193648815, 0.06194395571947098, -0.11974651366472244, 0.26274386048316956, 0.20118217170238495], [0.08296067267656326, -0.11194216459989548, -2.0534525901894085e-05, 0.02123578079044819, -0.19920438528060913, -0.08690330386161804, -0.1171465516090393, 0.0975390300154686, 0.09506595134735107, 0.014024211093783379, -0.11707525700330734, -0.02854931354522705, -0.3084019124507904, -0.12634515762329102, 0.056161656975746155, -0.0412745326757431, -0.019590673968195915, 0.030497180297970772, -0.002603810979053378, 0.09959904104471207, -0.04318901523947716, 0.06240250915288925, -0.007848633453249931, -0.21612419188022614, -0.11129513382911682, -0.07642383128404617, 0.09542642533779144, 0.06147327646613121, -0.1026611253619194, 0.1266036331653595, -0.14576546847820282, 0.06544371694326401], [-0.019725540652871132, 0.060549117624759674, -0.15617895126342773, -0.05337783694267273, -0.10870473086833954, -0.21258370578289032, 0.14133545756340027, -0.1644195318222046, 0.2143169790506363, -0.15625587105751038, 0.11202386766672134, 0.835105836391449, 0.12264057248830795, -0.03226475790143013, 0.13657213747501373, -0.21813124418258667, 0.15179112553596497, -0.08471006155014038, 0.14910638332366943, -0.194603830575943, 0.06935335695743561, -0.08460484445095062, -0.04678207263350487, 0.0710766613483429, 0.03797667473554611, -0.03819475695490837, 0.17291571199893951, -0.12912893295288086, -0.022554712370038033, -0.08044405281543732, -0.03611868619918823, -0.02767149731516838], [0.11712829023599625, 0.1858251541852951, 0.13780592381954193, 0.02266133949160576, -0.053968396037817, 0.03878644481301308, -0.1430797576904297, -0.07224524021148682, -0.014304784126579762, 0.056419432163238525, -0.05055011436343193, 0.06652248650789261, -0.26860758662223816, 0.20872437953948975, 0.2587142586708069, -0.0005420829402282834, 0.008564210496842861, -0.002661044942215085, 0.03850236535072327, -0.05184256657958031, -0.14633208513259888, -0.051965389400720596, -0.05136715993285179, -0.01943758688867092, -0.05214783176779747, -0.061009809374809265, 0.04810609668493271, -0.04356033354997635, 0.32672950625419617, 0.08751925826072693, 0.061710331588983536, 0.0616799034178257], [0.028134236112236977, -0.009067576378583908, -0.16052737832069397, 0.19415520131587982, -0.042307741940021515, -0.024216191843152046, -0.0786329060792923, 0.2606917917728424, 0.15905937552452087, 0.0431971549987793, 0.03532000631093979, -0.2271755188703537, -0.02770770713686943, -0.5013858079910278, -0.0698939710855484, -0.16294239461421967, -0.062149375677108765, -0.17351074516773224, -0.019506560638546944, -0.16456757485866547, 0.044904809445142746, -0.11847873032093048, 0.03425368666648865, 0.043102797120809555, -0.13305798172950745, -0.03415289148688316, 0.10663711279630661, -0.0017868968425318599, -0.06687226891517639, 0.17324350774288177, 0.06714309006929398, -0.030701613053679466], [0.13660281896591187, -0.13609206676483154, -0.055744197219610214, -0.14715512096881866, 0.18389025330543518, 0.0039594536647200584, -0.2616863548755646, -0.10550732165575027, 0.08247359097003937, 0.20874714851379395, -0.10146857798099518, -0.06434876471757889, -0.1850600242614746, -0.021650083363056183, 0.0430770218372345, -0.0018671868601813912, -0.020974397659301758, -0.24663405120372772, 0.014822358265519142, 0.014217530377209187, -0.00012932176468893886, -0.1299397498369217, -0.01120945904403925, 0.05733567103743553, -0.05171655863523483, 0.02408711612224579, 0.022937841713428497, 0.02008233219385147, 0.09287860989570618, 0.06629128754138947, 0.2353150099515915, 0.3393964469432831], [0.051189638674259186, 0.04709712043404579, 0.0746801346540451, -0.026362299919128418, -0.016125965863466263, -0.1985887736082077, 0.12148290872573853, 0.09545962512493134, 0.2513333261013031, 0.08256985992193222, -0.03556922450661659, 0.027118587866425514, -0.11776280403137207, -0.05088741332292557, 0.14040625095367432, 0.3049308955669403, 0.2469431608915329, 0.046490468084812164, -0.3525530993938446, 0.16829317808151245, 0.21001356840133667, -0.050338298082351685, 0.16875818371772766, -0.1131552904844284, -0.25556811690330505, -0.31337687373161316, -0.12397507578134537, -0.21283695101737976, 0.06735972315073013, -0.04103456065058708, -0.02225159853696823, -0.018461573868989944], [0.14569123089313507, -0.03659114986658096, -0.15685084462165833, 0.015067187137901783, -0.06858986616134644, -0.15222686529159546, 0.05119889974594116, 0.003450094722211361, 0.15891754627227783, -0.0764986127614975, -0.1066775992512703, -0.38652342557907104, 0.0538380928337574, -0.0938444510102272, -0.026972269639372826, 0.06879793107509613, -0.3994799852371216, 0.02546929009258747, 0.5595108270645142, -0.19555121660232544, -0.2655678987503052, 0.12414295971393585, -0.05654134601354599, 0.12118805199861526, 0.0942048653960228, -0.1225542351603508, 0.02121579274535179, -0.030398182570934296, 0.28407302498817444, -0.027448154985904694, -0.011855978518724442, 0.03421316668391228], [0.22878040373325348, 0.05830972641706467, -0.16760393977165222, 0.03492768853902817, -0.07256055623292923, 0.0679955706000328, 0.09911184757947922, -0.13489501178264618, 0.045196402817964554, 0.06883562356233597, 0.12292728573083878, 0.010263510048389435, -0.04506303742527962, -0.17249992489814758, -0.08526656776666641, -0.1858035922050476, 0.042128439992666245, 0.08693815022706985, 0.10832718759775162, 0.18868426978588104, -0.4367852210998535, 0.11421405524015427, -0.09824593365192413, 0.13194839656352997, -0.04875447228550911, -0.15631036460399628, -0.011190807446837425, 0.08270585536956787, -0.029538532719016075, 0.04039335995912552, 0.026518162339925766, -0.14536763727664948], [0.09333398938179016, 0.03790553659200668, 0.09483645111322403, 0.11167248338460922, -0.14674921333789825, 0.04866015166044235, 0.04992179945111275, 0.06750132888555527, 0.13310478627681732, -0.08643847703933716, -0.03923952579498291, -0.2966008186340332, 0.06838646531105042, -0.04861069470643997, 0.052404895424842834, -0.10021767020225525, -0.9706670641899109, 0.06181369349360466, 1.2755929231643677, -0.14026759564876556, -0.11294054239988327, 0.013102484866976738, 0.001772346324287355, 0.012911651283502579, -0.05937107652425766, 0.07992914319038391, 0.5423964858055115, -0.0013314097886905074, 0.20843005180358887, -0.0862806960940361, 0.009667235426604748, 0.006581603083759546], [0.17448534071445465, 0.07882928848266602, 0.01252857968211174, 0.07800566405057907, 0.02679729089140892, -0.027632320299744606, -0.051198702305555344, 0.16898193955421448, 0.07688017934560776, 0.009585114195942879, 0.033315856009721756, -0.03130160644650459, -0.08694367110729218, 0.15748874843120575, -0.07243113964796066, 0.07590265572071075, 0.12351831048727036, -0.013159946538507938, 0.01614200696349144, -0.14685840904712677, -0.07698732614517212, -0.050337933003902435, 0.010198654606938362, -0.02873818948864937, -0.01275029219686985, -0.005651249550282955, 0.05910597741603851, 0.01174742728471756, 0.117676742374897, -0.06053465977311134, -0.04074269160628319, -0.06680756062269211], [0.0585443452000618, -0.13475483655929565, -0.05236931890249252, 0.1590072214603424, -0.1647462546825409, 0.043218400329351425, 0.09041226655244827, 0.009865797124803066, -0.1617920696735382, -0.007877424359321594, 0.050447046756744385, -0.11564680933952332, 0.15605223178863525, -0.005545611493289471, 0.08427272737026215, -0.1829531490802765, -0.019916897639632225, -0.14859554171562195, -0.1265113204717636, 0.05897927284240723, -0.050234708935022354, -0.0008297385647892952, 0.04591144248843193, 0.01783454790711403, -0.23339448869228363, -0.19535063207149506, 0.14472591876983643, -0.16974174976348877, 0.0928143784403801, -0.022511474788188934, 0.008572770282626152, -0.035989467054605484], [0.0590885728597641, 0.024129197001457214, 0.05310732126235962, 0.026646440848708153, 0.0561046376824379, -0.020576640963554382, 0.12371386587619781, -0.0776030570268631, 0.01946345716714859, -0.05537442862987518, -0.06128348037600517, -0.04892862215638161, 0.0025964397937059402, 0.056639060378074646, 0.08437024056911469, -0.006949545815587044, -0.028571950271725655, 0.0045362371020019054, 0.24318352341651917, 0.08398552238941193, -0.07657995074987411, 0.046331677585840225, -0.058040961623191833, -0.05240938812494278, -0.14183677732944489, -0.025569641962647438, 0.29151782393455505, -0.08055941015481949, 0.11871586740016937, -0.09843079000711441, 0.025306155905127525, 0.14639496803283691], [0.31497833132743835, -0.1873815357685089, 0.17758606374263763, -0.2458665668964386, -0.00793421734124422, -0.10314293205738068, 0.09505950659513474, 0.15584926307201385, 0.11027106642723083, 0.11005488783121109, 0.12409549951553345, 0.038457393646240234, 0.06627055257558823, 0.18366795778274536, 0.44109049439430237, -0.031148361042141914, -0.4180459976196289, -0.01335108745843172, 0.14109592139720917, 0.29527953267097473, 0.0047797150909900665, -0.2279784083366394, 0.019575906917452812, 0.12747474014759064, -0.21839633584022522, 0.1368459165096283, 0.0074151973240077496, -0.43353015184402466, -0.0840032696723938, -0.15278422832489014, -0.01123711746186018, -0.06327962130308151], [-0.054416291415691376, 0.013464361429214478, 0.28028345108032227, -0.1636122614145279, 0.23845653235912323, -0.07429379969835281, 0.11090584844350815, -0.2581588327884674, 0.09005026519298553, 0.0521257221698761, 0.012691960670053959, -0.04824564605951309, 0.08792305737733841, 0.08200616389513016, 0.2206331491470337, 0.12950526177883148, 0.13856211304664612, 0.5343005061149597, -0.12543722987174988, -0.10761263966560364, -0.08198891580104828, 0.0006590274861082435, 0.06714428216218948, -0.45639076828956604, 0.06722953170537949, -0.21561405062675476, -0.10366718471050262, -0.10244043171405792, -0.19238118827342987, -0.11490771174430847, 0.017941821366548538, -0.1864737570285797], [0.055453695356845856, 0.006972130853682756, -0.1291210651397705, 0.01922764629125595, -0.13565148413181305, -0.09965420514345169, -0.015418095514178276, 0.004459160380065441, -0.06430942565202713, -0.018498696386814117, -0.10858003050088882, 0.08461350947618484, 0.02671719342470169, -0.028903456404805183, 0.014211230911314487, -0.28144940733909607, -0.3048224449157715, 0.13879989087581635, -0.4206726849079132, -0.04522348940372467, -0.10526879131793976, -0.03968558833003044, 0.03320091962814331, -0.1755409836769104, -0.33039751648902893, 0.2295786589384079, 0.41201940178871155, -0.062100667506456375, -0.00944838859140873, -0.09892676025629044, -0.06805300712585449, -0.11804094910621643], [0.06481833010911942, -0.08438491076231003, 0.286834180355072, -0.022402064874768257, -0.0012563203927129507, -0.13847313821315765, 0.009695705026388168, 0.1303328275680542, 0.1295970380306244, -0.27204757928848267, -0.047459106892347336, -0.03638456389307976, 0.071683369576931, 0.011600174941122532, 0.3637288808822632, 0.024153245612978935, -0.12548331916332245, -0.15784434974193573, -0.26552557945251465, 0.13982588052749634, -0.24888072907924652, -0.24187462031841278, 0.08572966605424881, -0.06811001896858215, -0.019519710913300514, 0.41102614998817444, -0.014131858944892883, -0.3171113133430481, -0.0898200049996376, 0.0944003239274025, -0.0644424706697464, -0.12414288520812988], [0.04080267623066902, -0.018002375960350037, -0.06309885531663895, 0.021902555599808693, -0.11175829917192459, -0.0842246562242508, -0.07301749289035797, -0.15185709297657013, -0.45101967453956604, -0.15317001938819885, 0.253325492143631, 0.61211097240448, 0.024174196645617485, -0.07573673874139786, -0.037390049546957016, 0.08141692727804184, 1.3468979597091675, -0.061386238783597946, 0.3677627742290497, 0.2604321837425232, 0.30622631311416626, -0.44743502140045166, -0.1104278489947319, -0.044132474809885025, 0.4815638065338135, -0.46111780405044556, -0.3826853334903717, -1.331073522567749, -0.20281574130058289, -0.06314743310213089, -0.057728685438632965, -0.014592545107007027], [-0.02796919271349907, -0.015669479966163635, -0.13954798877239227, 0.08600366115570068, 0.030410824343562126, -0.061879437416791916, -0.05154673382639885, -0.06828610599040985, 0.06133661046624184, -0.03096441552042961, 0.10156992822885513, 1.1121747493743896, 0.09190391004085541, -0.025990433990955353, 0.08767607063055038, -0.2524060010910034, 0.5876572728157043, -0.14170752465724945, -0.47650429606437683, 0.18066273629665375, -0.17312414944171906, -0.15647222101688385, 0.008042745292186737, -0.15404227375984192, -0.04960561543703079, 0.06314367055892944, 0.9253821969032288, -0.9109760522842407, -0.29315364360809326, -0.014755661599338055, 0.07397325336933136, 0.07007165998220444], [-0.023965992033481598, 0.15924488008022308, 0.008878247812390327, 0.11999575048685074, -0.08455205708742142, -0.0234073419123888, 0.0927952378988266, -0.06268371641635895, -0.05256621539592743, -0.1760914921760559, -0.018565528094768524, -0.019666681066155434, -0.1847495138645172, 0.15102161467075348, 0.055578041821718216, -0.0725095123052597, 0.008801132440567017, -0.16744233667850494, 0.10797153413295746, 0.15151135623455048, -0.17949073016643524, 0.04647010564804077, -0.0199965238571167, -0.10911650955677032, 0.07909785956144333, -0.010945802554488182, 0.06654423475265503, -0.0494188629090786, 0.0500643365085125, -0.003859051736071706, 0.008278395049273968, 0.14984580874443054], [-0.037097617983818054, -0.09572121500968933, -0.07551069557666779, 0.2328491508960724, 0.015178237110376358, 0.017783014103770256, -0.231559157371521, -0.06260170042514801, 0.16064748167991638, 0.23048017919063568, 0.007662864867597818, 0.08842550963163376, 0.030645927414298058, -0.05406617000699043, 0.20847366750240326, -0.026779768988490105, 0.08992423862218857, 0.12191532552242279, 0.1320319026708603, -0.0545022077858448, 0.05262590944766998, 0.038443420082330704, 0.05891040712594986, 0.19468806684017181, 0.011213230900466442, -0.10291901975870132, 0.008786194026470184, 0.036100611090660095, 0.09207690507173538, 0.13547499477863312, 0.011647169478237629, 0.04984170198440552], [-0.02986900880932808, -0.21422791481018066, -0.07108760625123978, 0.2625688910484314, 0.30214768648147583, -0.18282200396060944, 0.1860913783311844, -0.052135005593299866, -0.1605001986026764, 0.03417590260505676, -0.11900148540735245, -0.06483778357505798, 0.07159611582756042, -0.0938263088464737, -0.07180416584014893, -0.20302803814411163, -0.02553512156009674, -0.05777947977185249, -0.03185058385133743, 0.10833360254764557, 0.10001740604639053, 0.06444637477397919, -0.02242799662053585, 0.10521696507930756, -0.06483107805252075, -0.056809425354003906, -0.07113752514123917, 0.026117250323295593, -0.3288499414920807, -0.056350599974393845, -0.4881416857242584, 0.11679667979478836], [-0.0005304031656123698, -0.2073114663362503, -0.02781064622104168, -0.09020791202783585, -0.13785099983215332, -0.11667031049728394, -0.15405094623565674, 0.1243315115571022, -0.12630817294120789, 0.18304193019866943, -0.0625404343008995, 0.16091220080852509, 0.17864319682121277, 0.35534799098968506, 0.15500837564468384, -0.06377390027046204, -0.017163002863526344, -0.1542813628911972, 0.12576104700565338, 0.10326161235570908, -0.1864263117313385, -0.054636429995298386, -0.1429951936006546, 0.29377928376197815, 0.08957831561565399, -0.04701194539666176, 0.07199399918317795, -0.017936106771230698, 0.13568651676177979, -0.0010298907291144133, -0.0517851784825325, -0.1333266794681549], [0.5778473019599915, -0.31766968965530396, 0.15559378266334534, -0.13122408092021942, 0.012590164318680763, 0.14082525670528412, 0.12245739996433258, 0.19825083017349243, 0.14887504279613495, -0.001096641761250794, 0.3060857653617859, 0.11156812310218811, -0.3180900812149048, 0.3949943780899048, -0.18460576236248016, 0.002359576988965273, 0.03406341001391411, -0.0487629696726799, -0.23609541356563568, -0.024537604302167892, -0.0030355548951774836, 0.17552579939365387, 0.07991018891334534, -0.032440751791000366, 0.08442308753728867, 0.13178306818008423, -0.1307043433189392, 0.04362395033240318, 0.32197311520576477, 0.039207182824611664, 0.0742417499423027, 0.25855475664138794], [0.10179365426301956, 0.4349726140499115, -0.06752648204565048, -0.23083463311195374, -0.06203189864754677, 0.15787340700626373, -0.19285236299037933, -0.05460129305720329, -0.003227081149816513, 0.15222153067588806, 0.05352625623345375, 0.0715487003326416, -0.0360388457775116, -0.11643175780773163, 0.23863551020622253, -0.06029411777853966, -0.0653323084115982, 0.03134096786379814, -0.02770090661942959, -0.060711685568094254, 0.01852397993206978, -0.25938642024993896, 0.0876670628786087, 0.1076156497001648, 0.010223183780908585, 0.00023681494349148124, 0.008041144348680973, 0.02791316621005535, 0.07673544436693192, 0.23192790150642395, 0.13196812570095062, -0.12871019542217255], [0.03257884457707405, 0.1263577789068222, 0.47953811287879944, -0.035136304795742035, 0.024523437023162842, 0.19600576162338257, 0.19130495190620422, -0.06565079092979431, 0.301087886095047, 0.14750273525714874, 0.21558402478694916, 0.06563302129507065, -0.00080188421998173, -0.10518532991409302, 0.10374424606561661, -0.07187909632921219, -0.20164766907691956, -0.35471537709236145, 0.11884202808141708, 0.33922499418258667, -0.05717149004340172, 0.2243632674217224, -0.1947420984506607, -0.09019945561885834, -0.3592204451560974, -0.23376992344856262, -0.11011595278978348, -0.024339985102415085, 0.11472010612487793, 0.11070448905229568, -0.00464112451300025, -0.3691950738430023], [0.005254129879176617, 0.04001203924417496, 0.03557717055082321, 0.7038068175315857, -0.05950002744793892, -0.006083990912884474, 0.12275271117687225, -0.12330393493175507, -0.08998565375804901, -0.16927163302898407, -0.20261484384536743, 0.04044000804424286, -0.06683120131492615, -0.004138370510190725, -0.1279982179403305, 0.026156453415751457, 0.00037218324723653495, -0.025382578372955322, -0.02379661798477173, -0.06654194742441177, 0.2808404564857483, -0.2664027810096741, -0.0012558368034660816, -0.031308192759752274, 0.0026409560814499855, -0.020238591358065605, 0.030559364706277847, 0.07334747910499573, 0.1794687658548355, -0.1729346662759781, -0.15945959091186523, -0.13041259348392487], [-0.16336940228939056, 0.13763481378555298, -0.18558014929294586, 0.34771299362182617, 1.3408256769180298, -0.1814444214105606, 0.9682233333587646, 0.5502916574478149, -0.17630283534526825, -0.725018322467804, -0.7474296689033508, 0.020784681662917137, 0.27224260568618774, 0.4258860647678375, -0.9243178367614746, 0.01857598125934601, 0.05322253704071045, -0.005338846705853939, -0.00010704123269533738, 0.38976195454597473, 0.20027367770671844, 0.6747421622276306, -0.21799075603485107, -0.17939287424087524, -0.08319023251533508, 0.04381769523024559, -0.0891931802034378, 0.032027069479227066, -0.891570508480072, -0.5625330209732056, 0.05623789504170418, 0.05096561461687088], [0.12471456825733185, 0.01138670276850462, 0.15223078429698944, -0.09650969505310059, -0.13115224242210388, 0.23761789500713348, -0.0002107180916937068, 0.026352006942033768, -0.21926984190940857, 0.16157463192939758, 0.21210148930549622, -0.6241474151611328, 0.1404929757118225, -0.044933199882507324, 0.1073785126209259, 0.18895383179187775, 0.24909044802188873, -0.08987525850534439, 0.6785457730293274, -0.1354197859764099, 0.18114106357097626, 0.058163952082395554, -0.146820530295372, -0.06471624970436096, 0.07374874502420425, -0.09321082383394241, 0.12908922135829926, -0.026125645264983177, 0.306939035654068, 0.2366075962781906, -0.19789619743824005, -0.17698562145233154], [-0.04553443193435669, 0.6303725242614746, 0.07482335716485977, 0.38830626010894775, 0.11388123035430908, -0.05157001316547394, 0.20450931787490845, -0.18222886323928833, 0.09919541329145432, -0.3988986611366272, 0.1751987487077713, -0.08422087132930756, -0.19998888671398163, -0.20528852939605713, 0.12078312784433365, 0.13875648379325867, 0.0246425811201334, -0.09200304746627808, 0.0025972637813538313, -0.09804629534482956, -0.05330103263258934, -0.1089298278093338, 0.0662723034620285, 0.023544877767562866, -0.20257024466991425, -0.17779436707496643, 0.05624563992023468, -0.08805068582296371, 0.3609113097190857, -0.05335749685764313, 0.15785962343215942, 0.09043972194194794], [-0.21281838417053223, 0.12648756802082062, -0.059089936316013336, 0.19895854592323303, 0.07456593215465546, 0.08815561980009079, -0.0719151645898819, 0.548888087272644, 0.16758306324481964, -0.25876593589782715, -0.31633004546165466, -0.04951353371143341, -0.008824859745800495, -0.1969432681798935, -0.6935916543006897, 0.10960707813501358, -0.037207815796136856, -0.2039949744939804, -0.005429806187748909, -0.47736847400665283, 0.05428927391767502, -0.2807830572128296, -0.18662427365779877, -0.14333072304725647, -0.008470657281577587, 0.08970529586076736, 0.02148742973804474, -0.04276171326637268, 0.3215351402759552, 0.2469649463891983, -0.03667465224862099, -0.08353552967309952], [0.04841804504394531, 0.03127637878060341, -0.28667330741882324, 0.04634888097643852, -0.014437864534556866, 0.2512727975845337, -0.044105201959609985, 0.03942794352769852, 0.5596534609794617, -0.02882610261440277, 0.18083555996418, -0.00879736803472042, 0.007179945707321167, 0.044954389333724976, -0.060653965920209885, 0.03843195363879204, 0.05964375659823418, 0.18228593468666077, -0.024289347231388092, 0.05931592360138893, 0.5353014469146729, -0.056007687002420425, 0.09617369621992111, 0.047517985105514526, -0.20631155371665955, 0.12622344493865967, 0.567510187625885, -0.13758587837219238, -0.04666765779256821, -0.06677015125751495, -0.02945876121520996, 0.046622395515441895], [0.10157369822263718, -0.8801665306091309, -0.0424511581659317, -0.32119059562683105, -0.008851522579789162, -0.09939973056316376, -0.12402662634849548, 0.14789529144763947, -0.0621529184281826, 0.2605321407318115, -0.15950925648212433, -0.01112902257591486, 0.10621903836727142, 0.19651827216148376, -0.05607513338327408, 0.15176261961460114, -0.018225234001874924, 0.09856990724802017, 0.008502455428242683, 0.028256358578801155, 0.06438197940587997, 0.05712876468896866, 0.14776203036308289, -0.015648502856492996, -0.14181295037269592, -0.2166721522808075, -0.07381167262792587, 0.11286630481481552, -0.27437692880630493, -0.09385715425014496, 0.03243419900536537, -0.02814522385597229], [-0.1350967437028885, -0.04171698912978172, -0.1606510728597641, -0.4403708279132843, 0.19363850355148315, -0.16028282046318054, -0.004935600329190493, 0.15571890771389008, 0.07548221945762634, 0.1257479041814804, 0.313791960477829, -0.08117437362670898, 0.4860413372516632, -0.15740399062633514, 0.10792568325996399, 0.09680978208780289, 0.10120461881160736, -0.16606806218624115, 0.15654167532920837, -0.15111948549747467, 0.24323411285877228, 0.09311125427484512, -0.014094490557909012, -0.04657644033432007, -0.1340806633234024, 0.045482534915208817, -0.04753890261054039, -0.1761869341135025, -0.011367153376340866, 0.10312793403863907, -0.48919934034347534, 0.06769728660583496], [-0.11740142107009888, 0.0002853680634871125, -0.2695535719394684, -0.05992639437317848, 0.11622099578380585, 0.164481520652771, -0.2550445795059204, 0.2563449442386627, 0.13328434526920319, 0.1722058206796646, -0.14819012582302094, 0.4496569037437439, 0.0008221027674153447, 0.17260636389255524, 0.0060852388851344585, 0.4019579291343689, 0.12953515350818634, -0.14720866084098816, 0.09438855946063995, 0.25364747643470764, -0.08679937571287155, -0.011567383073270321, 0.04132838919758797, -0.4168238937854767, 0.7957902550697327, 0.018111832439899445, 1.1693077087402344, -0.9670390486717224, 0.0014153248630464077, -0.011296956799924374, 0.028799578547477722, 0.22070510685443878], [-0.32641011476516724, -0.047426432371139526, 0.11526669561862946, 0.21898289024829865, 0.5212398171424866, -0.04906774312257767, 0.12562213838100433, -0.07771560549736023, -0.1283755600452423, -0.023503562435507774, -0.30126047134399414, -0.04537181928753853, 0.4185088574886322, 0.033035799860954285, -0.32087990641593933, -0.0939088836312294, -0.04500427469611168, 0.008298376575112343, -0.05542322248220444, -0.3438718914985657, 0.016670718789100647, -0.035895831882953644, -0.05994907766580582, 0.3161265254020691, 0.13594022393226624, 0.17848463356494904, -0.018062064424157143, 0.030756566673517227, -0.02825353480875492, -0.12074382603168488, 0.33492812514305115, -0.07174408435821533], [-0.2546020448207855, 0.36416128277778625, 0.265828013420105, 0.1797453612089157, -0.07549035549163818, 0.18691305816173553, 0.2322167605161667, 0.1785852313041687, -0.0719921812415123, -0.3791135251522064, 0.3254908323287964, -0.13288310170173645, 0.26171278953552246, 0.5510557293891907, 0.0679108053445816, 0.004281680099666119, 0.1417403221130371, 0.3026635944843292, -0.003231963375583291, 0.0419372133910656, -0.3190627098083496, 0.36063510179519653, -0.010289661586284637, 0.03804468736052513, 0.21223770081996918, 0.05114353448152542, 0.12598949670791626, -0.04933854565024376, 0.4594957232475281, -0.19787028431892395, -0.017905276268720627, -0.3205408751964569], [-0.12373688817024231, -0.40765559673309326, -0.012394650839269161, -0.5937017202377319, 0.13549500703811646, 0.007232360076159239, -0.21634511649608612, -0.12326911091804504, -0.1538061648607254, 0.23915937542915344, 0.07214010506868362, 0.09555385261774063, 0.2828137278556824, -0.018619483336806297, 0.1867855042219162, 0.03173395246267319, 0.013500181026756763, -0.2277940958738327, 0.02779797464609146, 0.3339295983314514, 0.21293312311172485, 0.5154781341552734, -0.14896124601364136, 0.04296503961086273, -0.24724820256233215, 0.06562165915966034, 0.019569214433431625, -0.06942951679229736, -0.365878701210022, -0.21853965520858765, -0.0067572640255093575, -0.29301461577415466], [-0.030681228265166283, -0.04230637475848198, -0.21695590019226074, -0.043376605957746506, -0.05763857811689377, -0.16608603298664093, 0.2098589986562729, 0.003558936296030879, -0.3195108473300934, 0.19411887228488922, 0.07136043906211853, 0.021342862397432327, 0.028784876689314842, -0.041937559843063354, -0.18431997299194336, 0.5315697193145752, -0.10836849361658096, 0.22523319721221924, 0.001739762257784605, -0.12567129731178284, 0.11940736323595047, 0.06398645788431168, -0.16441334784030914, 0.06674788892269135, -0.008062709122896194, -0.6241722106933594, -0.09367452561855316, 0.19537252187728882, 0.0912819653749466, -0.04942581057548523, 0.0047380561009049416, -0.06663098186254501], [0.09902242571115494, 0.004939309321343899, -0.03951559588313103, 0.1328171342611313, -0.09240256249904633, 0.0592474602162838, 0.047429416328668594, -0.19906991720199585, -0.36993667483329773, -0.1865081638097763, 0.36868155002593994, -0.10065776854753494, -0.03461741283535957, -0.027809014543890953, 0.018029408529400826, -0.09239465743303299, 0.42292410135269165, 0.14131328463554382, 0.7680626511573792, 0.06043897196650505, 0.08231768757104874, -0.19994542002677917, -0.035444311797618866, 0.2672216594219208, -0.07543908059597015, -0.1229454055428505, -0.3431035876274109, -0.5558667182922363, -0.1314678192138672, 0.03868672251701355, 0.0834045261144638, -0.21824747323989868], [-0.12745065987110138, 0.12524375319480896, 0.3990851938724518, -0.1347671002149582, 0.03789353370666504, 0.038292791694402695, -0.07582612335681915, -0.21726804971694946, -0.22699424624443054, 0.06295125931501389, -0.2139049768447876, -0.033126384019851685, 0.06415654718875885, 0.3947339653968811, 0.05824778974056244, 0.05174572020769119, 0.09240492433309555, 0.9900621175765991, 0.0005701964837498963, -0.275479793548584, -0.18255364894866943, 0.2157166600227356, 0.04637329280376434, -0.08274545520544052, 0.040755677968263626, 0.15590500831604004, -0.02440076321363449, -0.03463750332593918, -0.04046953469514847, 0.055964045226573944, -0.1517660766839981, -0.2728138566017151], [0.2925386130809784, 0.05410204827785492, -0.07129006832838058, -0.039305463433265686, 0.1340373456478119, -0.721268355846405, -0.33660298585891724, 0.17385171353816986, -0.030619753524661064, 0.06131486967206001, -0.21757446229457855, 0.10752157121896744, -0.017779260873794556, 0.047673460096120834, -0.01800435036420822, 0.009617244824767113, -0.9056494235992432, -0.14122040569782257, 0.6878714561462402, 0.08125648647546768, 0.2176985740661621, 0.2205362468957901, 0.07638020813465118, -0.28406959772109985, 0.5568429827690125, 0.1853967010974884, -0.2334328442811966, 0.16149459779262543, 0.3087630569934845, -0.045015618205070496, 0.08344216644763947, 0.06628377735614777], [-0.621330738067627, 0.046616461127996445, -0.1541980504989624, 0.004541540518403053, -0.08568408340215683, 0.19761887192726135, 0.13631346821784973, 0.13802814483642578, 0.10900073498487473, -0.22466100752353668, -0.19293498992919922, -0.17499428987503052, 0.23009386658668518, -0.15095452964305878, -0.35296568274497986, 0.3137792646884918, 0.14757755398750305, -0.19734828174114227, -0.0005389583529904485, 0.26394957304000854, 0.31955045461654663, 0.08515024185180664, 0.13304680585861206, -0.20057231187820435, 0.23827724158763885, 0.27415144443511963, 0.04774300381541252, 0.037707433104515076, 0.41831886768341064, -0.41109323501586914, -0.20449283719062805, 0.3461664617061615], [-0.18497617542743683, -0.15163585543632507, -0.03588276356458664, 0.02361169643700123, 0.02626691944897175, -0.0477394163608551, -0.02784004993736744, 0.06292226165533066, 0.08433450758457184, 0.13475626707077026, -0.18921805918216705, 0.0570499487221241, -0.09536795318126678, 0.006370344199240208, -0.2049546092748642, 0.014412383548915386, -0.03295931592583656, 0.5082547664642334, -0.03029768355190754, 0.05515427887439728, 0.6261547207832336, -0.017192980274558067, 0.010930802673101425, -0.39318928122520447, -0.30204910039901733, -0.030995454639196396, -0.21746596693992615, -0.02678854763507843, 0.12400177866220474, 0.1612730771303177, 0.1593329757452011, 0.2687165141105652], [-0.11089707165956497, -0.3603932559490204, -0.11387260258197784, 0.23148903250694275, -0.009225641377270222, -0.0866783931851387, 0.43986693024635315, 0.16692622005939484, 0.15653491020202637, -0.5535333156585693, -0.11418613791465759, 0.22327649593353271, 0.10228072851896286, -0.08600465953350067, -0.2227100282907486, -0.2696261703968048, -0.1254197359085083, 0.13495342433452606, -0.2721901834011078, 0.21562336385250092, -0.037416163831949234, -0.27652519941329956, -0.0849417895078659, -0.0693730041384697, 0.054482292383909225, -0.12659703195095062, 0.190586656332016, 0.21637886762619019, 0.39129871129989624, -0.22655129432678223, 0.07224316895008087, -0.3993944823741913], [-0.01541372761130333, -0.06945686787366867, 0.1579016149044037, -0.04309413209557533, -0.04446369782090187, -0.08824296295642853, 0.12864229083061218, 0.0732777863740921, -0.04753663018345833, 0.048624809831380844, -0.05314011499285698, 0.13418641686439514, 0.06462789326906204, -0.019660061225295067, 0.014881793409585953, 0.02997473254799843, 0.0006043853354640305, 0.05372519791126251, -0.16009989380836487, 0.04059949517250061, -0.07540111988782883, -0.10941115766763687, 0.8482329845428467, 0.05790740251541138, -0.0789436399936676, -0.10925859957933426, -0.10895898193120956, 0.011130434460937977, 0.052748747169971466, 0.06939849257469177, -0.06407010555267334, 0.025011179968714714], [0.044461123645305634, -0.13921724259853363, -0.19711104035377502, -0.09426797926425934, 0.12318353354930878, -0.1778542548418045, -0.12430726736783981, 0.09042590856552124, 0.09046542644500732, 0.049281321465969086, -0.4098897874355316, 0.045986734330654144, 0.07638077437877655, 0.15261171758174896, 0.14253157377243042, -0.032134003937244415, -0.059028882533311844, -0.40356379747390747, -0.05094249173998833, -0.13875484466552734, 0.5420008897781372, -0.355091392993927, 0.08940863609313965, 0.7249130010604858, -0.33007147908210754, -0.19339093565940857, -0.1027570590376854, 0.06415826827287674, -0.22706453502178192, -0.23500898480415344, 0.18093140423297882, 0.24061426520347595], [-0.06556635349988937, 0.041361480951309204, 0.5280596017837524, 0.032051343470811844, -0.09462739527225494, 0.06770860403776169, 0.03921748697757721, -0.17980636656284332, 0.7593764662742615, -0.1294540911912918, 0.1276467740535736, -0.19995255768299103, 0.03712848201394081, 0.043190937489271164, 0.11470487713813782, -0.17053748667240143, -0.0011282070772722363, -0.043424688279628754, -0.24580581486225128, -0.1359209418296814, 0.08205399662256241, -0.15824514627456665, -0.012393515557050705, 0.2955869436264038, 0.7618504166603088, -0.40397801995277405, 0.3297732472419739, 0.08991894125938416, -0.21669414639472961, 0.15115277469158173, -0.04374590516090393, -0.06622229516506195], [-0.016890710219740868, -0.04096388816833496, 0.11454855650663376, -0.0018317175563424826, -0.03425835072994232, 0.04149199277162552, -0.23057125508785248, -0.008007681928575039, -0.01842578873038292, -0.2157505601644516, -0.1112079992890358, -0.022927170619368553, 0.20811595022678375, 0.08007606118917465, -0.03028646484017372, -0.6129895448684692, 0.008750437758862972, 0.05309845507144928, 0.008245738223195076, -0.023727666586637497, -0.5160247683525085, -0.3051447570323944, 0.1689712256193161, -0.09694275259971619, -0.0388871505856514, 0.6358203887939453, -0.05158710852265358, 0.09083535522222519, -0.01107831485569477, 0.17379136383533478, -0.07244796305894852, 0.06687629222869873], [0.022439977154135704, -0.007467793766409159, -0.0064581288024783134, 0.013850484043359756, -0.025817694142460823, -0.11961978673934937, 0.07644432038068771, -0.027196107432246208, -0.48343339562416077, -0.04911497235298157, 0.003101971233263612, -0.5664369463920593, -0.059354618191719055, 0.009354482404887676, 0.05968397855758667, 0.06270808726549149, 0.11543607711791992, 0.020885176956653595, 0.053755663335323334, -0.11793608218431473, 0.09666819870471954, 0.046124182641506195, 0.025230588391423225, 0.11027935892343521, -0.4697881042957306, 0.1465429663658142, 0.9232209324836731, -0.6651525497436523, 0.04794125631451607, -0.04856647923588753, 0.015711011365056038, 0.023064330220222473], [-0.15106888115406036, -0.02116827294230461, -0.11249261349439621, 0.06458710879087448, -0.12754817306995392, 0.24832089245319366, 0.29320383071899414, -0.33354315161705017, 0.08980799466371536, -0.18011470139026642, -0.07343477010726929, 1.025392770767212, 0.18232783675193787, -0.022556718438863754, 0.02510782703757286, -0.20902825891971588, -0.42934760451316833, -0.06053870916366577, 0.19349096715450287, -0.2594704031944275, -0.042502954602241516, -0.10422007739543915, -0.07385983318090439, 0.013871015049517155, 0.04377506300806999, -0.0715525895357132, 0.7637133002281189, 0.3697779178619385, -0.03357928618788719, 0.15477345883846283, -0.10501421988010406, -0.01550225354731083], [-0.30058592557907104, 0.38884031772613525, -0.4156810939311981, 0.12637291848659515, -0.23776808381080627, 0.016139181330800056, -0.6226698756217957, -0.05585717037320137, -0.16966098546981812, 0.08557724952697754, 0.8583353161811829, 0.23370243608951569, 0.28746894001960754, 0.1206497773528099, 0.3712582290172577, 0.07976530492305756, -0.32480284571647644, -0.08777505904436111, -0.1961650848388672, 0.3467724621295929, -0.1601114124059677, -0.20193730294704437, 0.07507480680942535, 0.02011752314865589, -0.10187177360057831, -0.18655116856098175, -0.15632838010787964, 0.2362857311964035, 0.026159636676311493, 0.3874092698097229, -0.29012811183929443, 0.2779202163219452], [0.2653602659702301, -0.1060444787144661, 0.0038300291635096073, -0.1463872343301773, 0.05843125283718109, 0.15711645781993866, -0.26372742652893066, 0.19945915043354034, 0.005468603223562241, 0.314236044883728, 0.17912143468856812, -0.1697196215391159, -0.12311279028654099, -0.07830169796943665, 0.2687045633792877, -0.025144631043076515, 0.025784647092223167, 0.16653254628181458, -0.032522037625312805, -0.23284108936786652, 0.10562705248594284, 0.03756358474493027, 0.44649040699005127, -0.0683966875076294, 0.05783575028181076, -0.04326744005084038, 0.013001479208469391, -0.02668115124106407, -0.4496067762374878, 0.29321208596229553, -0.20940269529819489, -0.32544034719467163], [0.14948153495788574, -0.21542738378047943, 0.019195953384041786, -0.1302722990512848, -0.30521872639656067, 0.10411988198757172, -0.15123802423477173, -0.29815539717674255, 0.13559594750404358, 0.07890885323286057, -0.010064939968287945, 0.0833151787519455, -0.1508166342973709, 0.2078135758638382, 0.10180238634347916, 0.08205298334360123, -0.013171863742172718, -0.16449370980262756, -0.016921233385801315, -0.07244434207677841, 0.2149699181318283, -0.17043443024158478, 0.03897995874285698, -0.14827534556388855, -0.09205123037099838, 0.007394588086754084, 0.0009257076890207827, -0.05608099699020386, 0.31426331400871277, -0.09746033698320389, 0.562597930431366, 0.17600645124912262], [0.4467180669307709, -0.054299890995025635, 0.10098907351493835, 0.0032834806479513645, 0.10423167794942856, 0.18808777630329132, -0.15268126130104065, -0.4916249215602875, -0.11337757110595703, 0.17805540561676025, 0.13767531514167786, -0.010030589066445827, 0.14042401313781738, 0.24797359108924866, 0.006195713300257921, 0.00781625509262085, -0.1094585731625557, 0.16566519439220428, 0.005769744049757719, -0.09522376209497452, -0.2452014982700348, -0.16918866336345673, 0.023064618930220604, -0.23946262896060944, 0.10659891366958618, -0.038935061544179916, 0.0755489245057106, 0.043258074671030045, -0.3215945065021515, 0.14943838119506836, 0.17398656904697418, 0.6333525776863098], [0.14003299176692963, -0.09062114357948303, 0.11977896839380264, 0.030820980668067932, 0.00514796981588006, 0.06045699492096901, -0.08896918594837189, 0.050486911088228226, -0.0656110867857933, 0.08436468988656998, 0.12820889055728912, -0.04817941039800644, -0.0955076813697815, 0.18490080535411835, -0.05250182002782822, 0.05271631479263306, 0.14412838220596313, -0.09027308225631714, 0.07953957468271255, -0.14666765928268433, 0.01819668337702751, -0.1608172208070755, -0.02914356254041195, 0.17016081511974335, 0.03954891860485077, -0.08084013313055038, 0.046339817345142365, 0.08075568825006485, 0.04727636277675629, 0.06347126513719559, -0.012937732972204685, 0.0978253036737442], [-0.00874195247888565, 0.05071425065398216, -0.04627544432878494, -0.2710244953632355, 0.06615045666694641, -0.11003008484840393, 0.07676835358142853, 0.3061055839061737, -0.11269436031579971, -0.07495337724685669, -0.22696803510189056, -0.04947764426469803, -0.47885656356811523, 0.2389347404241562, 0.22347259521484375, 7.92172213550657e-05, -0.017826009541749954, -0.09181871265172958, 0.05017732083797455, 0.12402211129665375, 0.08248117566108704, -0.031494952738285065, -0.26240259408950806, 0.12387312203645706, -0.008773187175393105, -0.09464699774980545, -0.028575202450156212, -0.03426816314458847, -0.2140093892812729, 0.17489339411258698, -0.1457310914993286, -0.05039273574948311], [-0.16938872635364532, -0.03122769668698311, 0.28124600648880005, 0.05947050824761391, 0.08738063275814056, 0.038311026990413666, 0.027542348951101303, 0.014423505403101444, -0.06640903651714325, -0.022315727546811104, 0.0370476059615612, -0.056957002729177475, 0.03721453249454498, -0.0034643784165382385, 0.029290538281202316, -0.039561644196510315, -0.04823432117700577, -0.06379859149456024, 0.13985975086688995, 0.0414925217628479, -0.026058275252580643, -0.0052865901961922646, -0.027062566950917244, -0.15838998556137085, -0.21977314352989197, -0.03785296902060509, -0.08012655377388, -0.08353156596422195, 0.21084602177143097, -0.00952964648604393, 0.1177862212061882, -0.12098605930805206], [-0.3206116855144501, -0.08299518376588821, 0.10795524716377258, -0.0319119431078434, 0.44163912534713745, -0.09273922443389893, -0.1663571000099182, -0.4025014340877533, -0.07101579755544662, 0.17227451503276825, -0.2021019458770752, -0.10401865839958191, 0.4222654402256012, 0.16032858192920685, 0.46200066804885864, -0.05926278606057167, 0.08125729858875275, -0.07578498870134354, -0.09080822765827179, 0.10356835275888443, -0.2264673411846161, -0.07818242907524109, -0.012520646676421165, 0.2470400631427765, 0.0750296339392662, -0.06008327379822731, 0.06813760846853256, -0.03086455538868904, 0.19905652105808258, -0.13578926026821136, 0.35421615839004517, 0.3916618227958679], [0.1449381709098816, 0.3077148497104645, -0.04767946898937225, 0.24648505449295044, 0.008245246484875679, 0.11907349526882172, -0.15604721009731293, -0.011665934696793556, -0.021817848086357117, -0.058505505323410034, 0.028301570564508438, -0.046694282442331314, -0.11635244637727737, -0.1429044008255005, 0.0010181571124121547, -0.030818231403827667, 0.010946173220872879, -0.04460616409778595, -0.03538447618484497, -0.07902782410383224, 0.09150507301092148, -0.07134187966585159, -0.012460214085876942, -0.08854978531599045, 0.062464579939842224, 0.023722486570477486, -0.02470068633556366, -0.012817186303436756, 0.07360856980085373, 0.23500706255435944, 0.08906300365924835, -0.04747077077627182], [0.04783165454864502, 0.08007954806089401, -0.01675036922097206, -0.05745510756969452, 0.039547115564346313, 0.09352868795394897, -0.06789294630289078, 0.07001776993274689, 0.05963953956961632, 0.012819101102650166, -0.019366195425391197, 0.15536010265350342, -0.10106832534074783, -0.11260262131690979, -0.009267869405448437, 0.07111506909132004, 0.21480338275432587, -0.03348870202898979, 0.07603079080581665, -0.07139281928539276, 0.12300942093133926, -0.08574741333723068, 0.08259086310863495, -0.06007842347025871, 0.10748355835676193, -0.035290785133838654, -0.02199731580913067, 0.021410632878541946, -0.15088500082492828, 0.13938964903354645, -0.016281522810459137, -0.059673428535461426], [0.0018426832975819707, -0.016146071255207062, 0.07581096142530441, -0.1377401053905487, 0.017179811373353004, -0.02405344322323799, -0.07968517392873764, 0.09008262306451797, 0.015581022948026657, 0.03809920698404312, -0.08525445312261581, -0.11347351223230362, -0.28996580839157104, -0.13958606123924255, 0.0597737580537796, -0.05278661474585533, -0.07087966054677963, 0.010273200459778309, 0.08411850035190582, 0.036467183381319046, -0.017466412857174873, -0.015316803008317947, 0.0054224771447479725, -0.0855470523238182, 0.007199252024292946, -0.05658108741044998, -0.07092632353305817, 0.0022567787673324347, 0.08769069612026215, 0.17010782659053802, -0.15542399883270264, -0.062069620937108994], [-0.028998319059610367, -0.16686493158340454, -0.12553341686725616, -0.04706459119915962, -0.01897302269935608, -0.0017354171723127365, 0.1664932519197464, 0.4211809039115906, 0.09072200208902359, -0.14474384486675262, -0.10282957553863525, -0.043121933937072754, 0.2189124971628189, 0.03208940848708153, -0.07960473001003265, 0.027816010639071465, -0.03761037439107895, 0.11249376833438873, -0.0026525806169956923, 0.008341191336512566, 0.0538945272564888, -0.23570841550827026, 0.05886349081993103, 0.15765798091888428, 0.07365327328443527, 0.0008981626597233117, 0.03565216064453125, -0.10071557760238647, 0.1461516171693802, 0.04035954177379608, -0.12053684145212173, -0.044156696647405624], [-0.10141988098621368, 0.019896939396858215, -0.04401135444641113, 0.05229515954852104, 0.06843242794275284, -0.03919379413127899, 0.014189669862389565, -0.11131202429533005, -0.055607929825782776, -0.052078645676374435, -0.0047792717814445496, -0.03440064191818237, 0.021010305732488632, 0.04388360306620598, 0.08032914251089096, 0.015130572952330112, 0.19355028867721558, 0.07005254924297333, 0.09358695894479752, 0.03717201203107834, 0.13725994527339935, 0.07203639298677444, -0.054434116929769516, -0.016514837741851807, -0.2209053337574005, -0.0021452028304338455, 0.3376784026622772, -0.061509594321250916, 0.02758314646780491, -0.03556181490421295, 0.214188352227211, 0.02090262807905674], [-0.032358359545469284, 0.003727163653820753, 0.09634552896022797, 0.053593967109918594, 0.06273495405912399, -0.03145285323262215, -0.022270478308200836, -0.033353041857481, -0.02635369636118412, -0.028630683198571205, -0.18225550651550293, -0.004544868133962154, -0.058760933578014374, -0.0061553348787128925, 0.04872864484786987, 0.04394975304603577, -0.0009581646881997585, 0.00022640883980784565, -0.03163789212703705, 0.0019197487272322178, -0.03321942314505577, -0.10519611835479736, -0.04330780357122421, 0.11413440108299255, 0.04588526487350464, 0.05520007759332657, -0.07589636743068695, -0.019759053364396095, 0.005368126556277275, 0.05022689700126648, 0.001786968088708818, -0.053410690277814865], [0.005369899794459343, -0.12483920156955719, 0.06450603157281876, 0.04749806225299835, -0.05407559871673584, 0.06616970151662827, 0.08108983933925629, 0.21990136802196503, -0.0035599663387984037, -0.21059748530387878, 0.09420397132635117, -0.19217337667942047, -0.3543127477169037, -0.3254680931568146, -0.14266322553157806, -0.07279152423143387, -0.050163835287094116, -0.04122013971209526, -0.13156023621559143, 0.015666889026761055, -0.06351152807474136, 0.01589982397854328, 0.03996690362691879, -0.21212254464626312, -0.012896792031824589, 0.060650818049907684, 0.11044270545244217, 0.0971921905875206, 0.21687184274196625, 0.10999926179647446, -0.4307076036930084, -0.02070077881217003], [0.05779389292001724, 0.0022638163063675165, -0.12463471293449402, -0.016882088035345078, 0.05203615501523018, -0.016343826428055763, 0.04314173385500908, 0.008025886490941048, -0.1340145617723465, -0.06905234605073929, 0.10676344484090805, 0.9685549139976501, -0.05248868092894554, -0.07786302268505096, 0.043045524507761, -0.04598967358469963, 0.9161120653152466, -0.12370655685663223, -0.00962439551949501, -0.11484329402446747, 0.1436995565891266, 0.07868868857622147, -0.03748339042067528, -0.17749027907848358, -0.23657171428203583, -0.16160966455936432, -0.47827258706092834, 1.974616527557373, -0.037985216826200485, -0.036655209958553314, -0.01651221141219139, -0.16807398200035095], [0.05411434546113014, 0.3135099411010742, 0.10487247258424759, 0.03384793922305107, -0.030434994027018547, 0.07811055332422256, -0.12064962089061737, 0.03645506501197815, -0.030116956681013107, -0.03397313877940178, 0.1285090297460556, -0.043941643089056015, -0.4379405081272125, -0.04689646139740944, 0.006091289222240448, -0.0744084045290947, -0.06481944769620895, -0.08110272884368896, 0.03279435634613037, -0.23511944711208344, -0.10289819538593292, -0.14264565706253052, 0.11016104370355606, -0.19016791880130768, 0.09250275045633316, 0.032199833542108536, 0.10663622617721558, -0.07643190771341324, 0.34115588665008545, 0.3207237422466278, -0.12017425149679184, 0.043307796120643616], [0.18196174502372742, -0.22671109437942505, -0.1493632197380066, 0.18795840442180634, -0.13144105672836304, -0.00920538417994976, 0.023286951705813408, 0.030297312885522842, 0.15537934005260468, 0.04431329667568207, 0.030247922986745834, -0.015426221303641796, 0.012741222977638245, -0.40555083751678467, -0.10774988681077957, 0.0217900313436985, 0.0346081480383873, -0.2869306802749634, 0.0960812121629715, 0.0550929494202137, 0.05951481685042381, -0.08955387771129608, -0.044324200600385666, 0.11985737085342407, 0.06783466041088104, -0.10831388086080551, 0.010025660507380962, -0.05237073451280594, -0.07197306305170059, 0.0093486113473773, 0.14400066435337067, 0.3254341185092926], [-0.002713498892262578, 0.04003654420375824, 0.09256204217672348, -0.2221670299768448, 0.10400698333978653, -0.025676686316728592, -0.05807887390255928, 0.06151341274380684, -0.0011138132540509105, -0.02741583250463009, -0.11224164068698883, 0.011348935775458813, -0.2629217207431793, -0.0648823082447052, 0.10333965718746185, -0.041633740067481995, -0.06448843330144882, -0.11984674632549286, 0.018370455130934715, -0.08797422051429749, 0.028492780402302742, -0.2555253207683563, -0.04457314684987068, -0.06917840242385864, 0.01775544136762619, -0.022645745426416397, 0.004205845762044191, -0.0577944777905941, 0.12020659446716309, 0.06735792756080627, 0.03536970913410187, 0.09138693660497665], [-0.19186268746852875, -0.0208908598870039, 0.2294800579547882, 0.14141586422920227, -0.05847697705030441, -0.1021670401096344, -0.007073754444718361, 0.0944766104221344, 0.19123876094818115, 0.06476033478975296, -0.1745564341545105, -0.16128729283809662, -0.02542973682284355, -0.05822582542896271, 0.23574583232402802, 0.4423721134662628, -0.06082960218191147, -0.047589853405952454, -0.01257371250540018, -0.02114681340754032, -0.00547019625082612, 0.03630450367927551, -0.051849886775016785, 0.018505215644836426, 0.02394438348710537, -0.2194506675004959, -0.05859838053584099, 0.17467984557151794, 0.08332788944244385, -0.13142308592796326, -0.06460041552782059, -0.14468124508857727], [-0.11125081777572632, -0.08819929510354996, 0.09926851093769073, 0.04473567754030228, 0.03995511680841446, 0.27254152297973633, -0.019527820870280266, 0.11977342516183853, -0.1391698718070984, 0.018650302663445473, -0.16970214247703552, -0.283942312002182, -0.023895693942904472, 0.09139862656593323, 0.046492986381053925, 0.13160018622875214, 0.6227242350578308, 0.05769515410065651, 1.2687629461288452, 0.14352136850357056, -0.2611398696899414, -0.17834162712097168, -0.07114407420158386, -0.033733222633600235, -0.3019692301750183, -0.019272489473223686, 0.12319856137037277, -0.24893464148044586, -0.14986029267311096, -0.08355303108692169, -0.03272515907883644, -0.0569419264793396], [0.10591794550418854, 0.041717078536748886, 0.1640445441007614, -0.14750176668167114, 0.12734460830688477, 0.10104559361934662, 0.08123010396957397, -0.25861820578575134, -0.030912496149539948, -0.03060985915362835, -0.0012871338985860348, 0.03852513059973717, 0.0803741067647934, -0.38421469926834106, -0.034726984798908234, 0.06855372339487076, 0.010861166752874851, 0.21053694188594818, -0.018977997824549675, -0.03984343633055687, -0.4859485924243927, 0.0122153852134943, 0.02370641380548477, -0.42878469824790955, -0.09565988928079605, 0.0822545662522316, 0.13512614369392395, -0.13625505566596985, -0.28209760785102844, -0.10436435788869858, 0.05794920772314072, -0.151799276471138], [-0.1297810673713684, -0.0630669966340065, -0.1139361783862114, 0.0033578467555344105, 0.04416787624359131, 0.46593281626701355, -0.0853574126958847, -0.09592713415622711, -0.18963658809661865, 0.08417923748493195, 0.28747251629829407, 0.3393009603023529, 0.07377719134092331, -0.02661576308310032, 0.05462025851011276, 0.0071268230676651, 1.788283109664917, 0.07354295998811722, 0.8648836612701416, 0.22952060401439667, 0.03499061241745949, -0.19919291138648987, -0.034333065152168274, 0.018264291808009148, 0.07310444116592407, -0.2399594932794571, -0.1299627274274826, 0.017377551645040512, -0.24100752174854279, -0.0056514134630560875, -0.004390939604490995, -0.10192287713289261], [0.0628373920917511, 0.14547057449817657, 0.02897365391254425, -0.0332457534968853, 0.09920039027929306, -0.0980387032032013, -0.0035164998844265938, 0.06655187904834747, 0.042338307946920395, -0.015443305484950542, 0.04179321974515915, 0.03708958253264427, -0.036067984998226166, 0.003284776583313942, 0.051805466413497925, -0.017511140555143356, 0.023480022326111794, -0.05917772650718689, 0.03390001505613327, -0.0748472511768341, -0.09158950299024582, 0.05756468325853348, -0.00890800729393959, -0.19956792891025543, 0.08030034601688385, -0.02768118493258953, -0.013001092709600925, -0.018230300396680832, -0.004705099854618311, 0.007953680120408535, 0.06703563779592514, -0.08513770997524261], [-0.09607499837875366, -0.03643203154206276, 0.1230916678905487, 0.008022604510188103, -0.014683536253869534, 0.018165631219744682, -0.06820528209209442, 0.04590649902820587, 0.06272704154253006, -0.13299736380577087, -0.0459606759250164, 0.09941423684358597, -0.0833003893494606, -0.0809057429432869, 0.09613148868083954, -0.05362000688910484, 0.20912142097949982, 0.11287133395671844, -0.022143343463540077, -0.0019869436509907246, -0.0051595126278698444, 0.06072914972901344, 0.05600529909133911, -0.28418150544166565, -0.0531792938709259, 0.07897257059812546, 0.13976125419139862, 0.04015681892633438, 0.02323293499648571, -0.0215913075953722, 0.052952222526073456, -0.034768007695674896], [-0.033061154186725616, 0.03353369981050491, 0.11221393942832947, -0.00039471781929023564, -0.021976709365844727, 0.0706416666507721, 0.009554977528750896, 0.04233161360025406, 0.04150306060910225, -0.03662105277180672, -0.0017506428994238377, 0.014404211193323135, -0.014202876016497612, -0.06566433608531952, 0.07534536719322205, -0.04381266608834267, 0.23098932206630707, -0.07636898010969162, 0.21249234676361084, 0.09131909161806107, -0.00398001354187727, -0.030264580622315407, -0.04566480591893196, -0.08459141105413437, 0.05313970148563385, -0.05903380364179611, -0.005781055893748999, -0.043289247900247574, -0.02923000045120716, -0.000956542557105422, -0.00031091884011402726, -0.038132864981889725], [0.01590731553733349, -0.06798280030488968, 0.11676505953073502, 0.04374580830335617, -0.0017424965044483542, 0.07604554295539856, 0.034026142209768295, 0.09429692476987839, -0.041244421154260635, 0.0033075909595936537, 0.09779202938079834, -0.027834191918373108, -0.16620482504367828, -0.1717384159564972, 0.03779035434126854, 0.34006258845329285, -0.13094691932201385, -0.019336054101586342, 0.007277637720108032, 0.05905624479055405, 0.06531086564064026, -0.030394766479730606, -0.02502375654876232, -0.020270435139536858, 0.02730371616780758, 0.2577788233757019, -0.07273996621370316, -0.056093305349349976, -0.03996497392654419, 0.01400354877114296, -0.08243493735790253, -0.08207564055919647], [-0.15426737070083618, -0.07408995926380157, 0.1673198640346527, -0.051942694932222366, -0.06870577484369278, -0.05014551430940628, -0.009230739437043667, 0.031969666481018066, 0.030954182147979736, -0.04521258920431137, -0.017424676567316055, -0.03417212888598442, 0.016830477863550186, 0.043619588017463684, 0.09423422068357468, 0.0005930985207669437, -0.18625065684318542, 0.4027642607688904, -0.08948764950037003, -0.1086275577545166, -0.08363628387451172, -0.08622463047504425, 0.006467768922448158, -0.4384872019290924, 0.0022163670510053635, 0.0645197257399559, 0.09784913063049316, -0.08928018808364868, 0.05718085914850235, -0.05199943855404854, -0.06352546811103821, -0.15742170810699463], [-0.005511302035301924, 0.056552134454250336, 0.19689461588859558, 0.02501573972404003, 0.07306373119354248, 0.13684770464897156, -0.06608091294765472, 0.041927702724933624, 0.13876760005950928, 0.0628388300538063, 0.15341684222221375, 0.3693104386329651, 0.019497860223054886, -0.016264503821730614, 0.006014736369252205, -0.0037626086268574, 0.13572879135608673, -0.00792000163346529, 0.04305208846926689, -0.008594850078225136, 0.3837222158908844, -0.10601165145635605, -0.06105688586831093, 0.003971048165112734, -0.06583277136087418, -0.20098690688610077, -0.2173473984003067, 0.18197713792324066, -0.04714353755116463, 0.06251151114702225, 0.1678089052438736, -0.015426387079060078], [0.0634383112192154, 0.021910253912210464, 0.1932668685913086, 0.12188946455717087, 0.07943768799304962, -0.06388955563306808, -0.009062741883099079, -0.11873044818639755, 0.39026814699172974, -0.2154008001089096, -0.12862759828567505, 0.07190553098917007, -0.000444551813416183, 0.1503603309392929, 0.19274069368839264, 0.050395093858242035, -0.10123886913061142, -0.13363254070281982, 0.3063843548297882, -0.0516187846660614, -0.10240387171506882, -0.051173292100429535, -0.09144938737154007, -0.03924083709716797, 0.22150291502475739, 0.4839772582054138, 0.3043913245201111, 0.14315804839134216, -0.045379336923360825, -0.09587560594081879, 0.1537255197763443, 0.13733744621276855], [0.09262874722480774, -0.06300049275159836, -0.20006701350212097, -0.010846643708646297, -0.21104878187179565, 0.11158997565507889, 0.06501191109418869, 0.02083566039800644, -0.19838222861289978, -0.10093200206756592, 0.10377597063779831, 0.8909052014350891, 0.13601955771446228, 0.07278265804052353, 0.14651453495025635, -0.19010840356349945, 0.5716399550437927, -0.02245182730257511, 0.1008879542350769, -0.4107164740562439, -0.24151653051376343, -0.08960610628128052, 0.0088520972058177, 0.02954827807843685, -0.6724605560302734, 0.008798833005130291, 1.0451942682266235, 0.8179991841316223, -0.1685267984867096, 0.08948826789855957, -0.16208425164222717, -0.29433175921440125], [0.03176796808838844, 0.08639951795339584, -0.07976678758859634, 0.12461648136377335, -0.08075607568025589, -0.2808655798435211, -0.1032864898443222, 0.006092977710068226, 0.5270060300827026, 0.053511764854192734, -0.05162164941430092, 0.5898975133895874, 0.03942389413714409, 0.019106946885585785, 0.03356589004397392, -0.17903654277324677, -0.7021266222000122, 0.14123006165027618, 0.2078929990530014, -0.2111670970916748, -0.011456627398729324, 0.3645225167274475, 0.029197581112384796, -0.09386979043483734, 0.0701264962553978, 0.09898802638053894, 0.8917515277862549, 1.2281510829925537, 0.1954035609960556, 0.058014363050460815, 0.014954579062759876, 0.002960252808406949], [-0.06626498699188232, -0.04792368412017822, 0.06697700917720795, 0.09047914296388626, 0.04090772941708565, -0.011956943199038506, -0.028499288484454155, 0.14237503707408905, -0.0212824959307909, -0.029566917568445206, -0.01887509971857071, -0.0021336108911782503, -0.12276472896337509, -0.016794512048363686, 0.044425349682569504, -0.06744787096977234, 0.05166062340140343, 0.006428771652281284, 0.045081641525030136, 0.024430319666862488, -0.012522250413894653, -0.015997203066945076, -0.026064252480864525, -0.11554614454507828, 0.007826264947652817, -0.09063348174095154, -0.04505518823862076, -0.11156219244003296, 0.024042202159762383, 0.08247821778059006, -0.13204891979694366, -0.08230215311050415], [-0.06203693151473999, -0.07657671719789505, -0.025414472445845604, 0.1511547714471817, -0.05545108765363693, 0.013772817328572273, -0.23338010907173157, 0.08556746691465378, 0.12856769561767578, 0.17803259193897247, 0.0317879319190979, 0.012047471478581429, -0.10645277798175812, -0.1490405797958374, 0.13775764405727386, 0.010633093304932117, 0.1544838845729828, 0.019737249240279198, 0.018254777416586876, -0.17184339463710785, 0.024727696552872658, 0.04562640190124512, 0.06720840930938721, 0.08689341694116592, 0.03548736125230789, -0.05017522722482681, -0.05409684777259827, 0.05842245742678642, -0.01223818026483059, 0.17060336470603943, -0.04893176630139351, -0.09103406220674515], [-0.04210178181529045, -0.31526193022727966, -0.026737678796052933, -0.11241211742162704, 0.06799110770225525, -0.04578700289130211, 0.13171859085559845, 0.1573745310306549, -0.10986223816871643, 0.06696025282144547, -0.1737489402294159, 0.014674289152026176, 0.031138679012656212, -0.1668126881122589, -0.06134117394685745, -0.09954770654439926, -0.015976591035723686, 0.06469831615686417, -0.020195184275507927, 0.041587136685848236, 0.04043077677488327, 0.019772540777921677, 0.013886481523513794, 0.11301965266466141, -0.07190994918346405, 0.05322512611746788, -0.0021293340250849724, 0.026784373447299004, -0.32879191637039185, -0.09570961445569992, -0.4419429302215576, -0.12551505863666534], [0.04181123524904251, -0.1968739628791809, 0.004597814287990332, 0.05961616709828377, 0.08360835164785385, -0.012055199593305588, -0.008456236682832241, 0.06351993978023529, -0.004195744171738625, 0.030954906716942787, 0.11938783526420593, 0.20368993282318115, 0.034272484481334686, -0.06997387111186981, -0.06936661154031754, 0.021010981872677803, -0.004964683670550585, -0.02059786021709442, -0.061912715435028076, 0.17849038541316986, -0.042145706713199615, 0.1695459485054016, -0.03779163584113121, -0.2349524348974228, -0.20641887187957764, 0.010046509094536304, -0.023891326040029526, -0.14606229960918427, 0.27591800689697266, 0.03793970122933388, -0.039909519255161285, -0.21555186808109283]], "rec.bias_ih_l0": [-0.4643222391605377, -0.9835789203643799, -0.3740054965019226, -0.059676364064216614, 0.9331900477409363, -0.2065621316432953, -0.26460355520248413, -0.265987753868103, -0.7190040349960327, -0.09136476367712021, -0.5552878379821777, 0.3744058907032013, -0.549318253993988, -0.2261742204427719, -0.22783178091049194, -0.37797075510025024, -0.11171407997608185, -0.15703506767749786, -0.11595319956541061, 0.12926755845546722, -0.7278570532798767, 0.15874460339546204, -1.0886685848236084, -0.2768356204032898, -0.28550443053245544, -0.4149940013885498, -0.3051610291004181, 0.00945960357785225, 0.26981860399246216, -0.5075789093971252, -0.37555795907974243, -0.5944259762763977, 0.8337209224700928, 1.3697876930236816, 0.7813295722007751, 0.3704417645931244, 0.31062939763069153, 0.2566976845264435, 0.6123946905136108, 0.5613733530044556, 1.2267307043075562, 0.40148022770881653, 0.8541213870048523, 0.4405611753463745, 0.6902174949645996, 0.5798107981681824, 0.5419682860374451, 0.7970491647720337, 0.7141722440719604, 0.784747302532196, 0.5685805082321167, 0.3855445683002472, 1.0346899032592773, 0.19461190700531006, 1.6511540412902832, 0.5084766745567322, 0.7263025641441345, 0.779373288154602, 0.986145555973053, 0.3320738971233368, 0.27425122261047363, 0.5327050685882568, 0.5341418385505676, 0.974000871181488, 0.0049452465027570724, 0.054087601602077484, -0.03338935226202011, 0.018656684085726738, 0.010199913755059242, -0.06475973129272461, -0.024859964847564697, 0.07167422026395798, 0.039934784173965454, -0.09117783606052399, -0.032976847141981125, -0.0345563180744648, 0.007500780280679464, 0.05757775157690048, 0.013750215992331505, -0.007824155502021313, 0.013264928013086319, -0.06861237436532974, -0.0010602325201034546, 0.032403137534856796, -0.028245694935321808, -0.14318691194057465, -0.0006421805010177195, -0.026729285717010498, -0.06393253803253174, -0.03582807257771492, -0.00030060947756282985, -0.08258093148469925, 0.02457750029861927, -0.04461890086531639, 0.02420678921043873, 0.05525583028793335, -0.09707815200090408, 0.11186381429433823, 0.01650376059114933, -0.15889643132686615, -0.20777036249637604, -0.11107084900140762, 0.22363530099391937, 0.07500327378511429, -0.10127217322587967, 0.04660496488213539, 0.10833774507045746, 0.010135369375348091, -0.17777608335018158, -0.04729799926280975, 0.21770715713500977, -0.23606693744659424, 0.1908901482820511, -0.2340177744626999, -0.16126956045627594, 0.3052753806114197, -0.2175511121749878, 0.36734524369239807, -0.1524338722229004, -0.03212389722466469, 0.13490888476371765, -0.17785395681858063, -0.10192719101905823, -0.0031504910439252853, 0.6052263379096985, -0.2265099287033081, -0.11555927991867065, -0.0020022564567625523], "rec.bias_hh_l0": [-0.4643222391605377, -1.0064808130264282, -0.374005526304245, -0.059676364064216614, 0.9331899285316467, -0.2065621316432953, -0.2646283805370331, -0.265987753868103, -0.7190040349960327, -0.09136158227920532, -0.5552878379821777, 0.3744058907032013, -0.5493186712265015, -0.22617457807064056, -0.22783178091049194, -0.37797030806541443, -0.11171387135982513, -0.15703506767749786, -0.11595319956541061, 0.12926754355430603, -0.7278570532798767, 0.15900789201259613, -1.0886685848236084, -0.2768356204032898, -0.2855044901371002, -0.41504746675491333, -0.3051609694957733, 0.009459588676691055, 0.26981860399246216, -0.5075789093971252, -0.3755580484867096, -0.5944268703460693, 0.833720862865448, 1.3803709745407104, 0.7813295125961304, 0.37044182419776917, 0.31062936782836914, 0.2566976845264435, 0.6123823523521423, 0.5613733530044556, 1.2267307043075562, 0.40146398544311523, 0.8541213274002075, 0.4405611753463745, 0.6902174949645996, 0.579810619354248, 0.5419682860374451, 0.7970501184463501, 0.714172899723053, 0.7847472429275513, 0.5685805082321167, 0.38554447889328003, 1.0346899032592773, 0.19944986701011658, 1.6511541604995728, 0.5084766149520874, 0.7263025641441345, 0.7792177200317383, 0.986145555973053, 0.33207374811172485, 0.27425122261047363, 0.5327050685882568, 0.5341415405273438, 0.974000096321106, 0.013295743614435196, -0.05437356233596802, 0.00845249742269516, -0.005407048389315605, 0.02260742522776127, -0.043068867176771164, 0.002070627873763442, 0.009406735189259052, 0.031268876045942307, 0.07182497531175613, -0.04823702201247215, -0.015268981456756592, 0.09701357036828995, 0.0021390069741755724, 0.041642140597105026, -0.04191859811544418, -0.021277645602822304, 0.03372734412550926, -0.014187359251081944, 0.04713796079158783, -0.0549851693212986, 0.09576945751905441, -0.02702636830508709, -0.010898692533373833, 0.009797372855246067, -0.08759013563394547, -0.04045955091714859, -0.060111694037914276, 0.01075159665197134, -0.02995460294187069, -0.03137585148215294, -0.020859109237790108, -0.09707815200090408, 0.06696151196956635, 0.016503725200891495, -0.1588962972164154, -0.20777034759521484, -0.11107084900140762, 0.22360901534557343, 0.07500329613685608, -0.10127214342355728, 0.04659772291779518, 0.10833774507045746, 0.01013535913079977, -0.17777608335018158, -0.047298163175582886, 0.21770717203617096, -0.23606693744659424, 0.1908901333808899, -0.2340177744626999, -0.16126956045627594, 0.3052753508090973, -0.21755114197731018, 0.36852943897247314, -0.1524338722229004, -0.03212389722466469, 0.13490888476371765, -0.1786794811487198, -0.10192719101905823, -0.0031505196820944548, 0.6052263379096985, -0.22650989890098572, -0.11555927991867065, -0.0020015535410493612], "lin.weight": [[0.08712995052337646, 0.0706077441573143, -0.7577638030052185, -0.1343766748905182, 0.03511994704604149, -0.4263558089733124, -0.3088364601135254, -0.38288283348083496, 0.6224861741065979, 0.053357601165771484, 0.3690832555294037, -1.3120567798614502, -0.19381706416606903, -0.0030593741685152054, 0.1575518548488617, -0.44272246956825256, 0.061092816293239594, -0.11301231384277344, 1.4076801538467407, -0.10179883986711502, -0.07478338479995728, 0.8647109270095825, 0.4044400453567505, -0.173654243350029, 0.4603574573993683, 0.6548855900764465, 0.4287968873977661, -0.0810399129986763, -0.20668594539165497, 0.17425969243049622, 0.1118619441986084, -0.2152910679578781]], "lin.bias": [0.030773771926760674]}}